#ifndef MY_WEIGHTS_H
#define MY_WEIGHTS_H
// ======================================================
// Auto-generated by torchjs browser trainer (v66 format)
// Copy this file to your sketch folder, then:
//   1. Update numClasses and classLabels in the sketch to match training:
//      numClasses = 3
//      classLabels: "0Blank", "1Cup", "2Pen"
//      inputSize=64  conv1Filters=4  conv2Filters=8  channels=3
//   2. Uncomment:  #define USE_BAKED_WEIGHTS  at the top of the sketch
//   3. Recompile and flash
//      version=50
// ======================================================
const float myModel_conv1_w[] = {
  -0.439819f, -0.332953f, -0.367368f, -0.158307f, -0.113771f, -0.133300f, -0.222869f, -0.207176f, 
  0.144123f, -0.310036f, -0.274480f, -0.018216f, -0.026815f, -0.341309f, -0.071596f, -0.035881f, 
  -0.372275f, 0.008480f, -0.426582f, -0.116209f, -0.210694f, 0.058205f, 0.098884f, -0.065267f, 
  0.007949f, -0.318699f, -0.136492f, -0.153123f, -0.034504f, -0.074425f, -0.101364f, -0.021473f, 
  -0.169006f, -0.150013f, -0.077589f, 0.079635f, -0.125964f, -0.378472f, -0.301767f, -0.358732f, 
  -0.183902f, 0.060307f, -0.223824f, -0.308784f, 0.137869f, -0.360652f, -0.104007f, -0.209035f, 
  -0.215537f, -0.264825f, -0.360449f, -0.053315f, -0.052022f, -0.108984f, -0.243240f, -0.178321f, 
  0.101255f, 0.111477f, -0.107837f, -0.198076f, -0.179167f, -0.184338f, 0.117173f, -0.016813f, 
  0.040445f, -0.034006f, 0.022226f, -0.086618f, -0.214879f, -0.057214f, -0.188872f, -0.045440f, 
  -0.192070f, -0.329232f, -0.041220f, -0.305416f, -0.167151f, -0.050603f, -0.367184f, -0.327392f, 
  -0.404670f, -0.047728f, 0.291699f, 0.073829f, 0.131046f, 0.170094f, -0.034087f, -0.083694f, 
  0.073472f, 0.195738f, -0.336640f, 0.084314f, 0.173300f, 0.023698f, -0.204688f, -0.158230f, 
  0.024370f, -0.210989f, 0.292258f, 0.220800f, -0.011416f, 0.068808f, -0.222941f, -0.135559f, 
  0.285205f, -0.365416f, 0.000609f, -0.112761f
};
const float myModel_conv1_b[] = {
  0.033869f, 0.049903f, 0.065211f, 0.029418f
};
const float myModel_conv2_w[] = {
  0.054422f, 0.008040f, -0.112968f, -0.058592f, 0.051076f, -0.256850f, 0.138922f, -0.063473f, 
  -0.031457f, -0.013033f, -0.114720f, -0.268532f, 0.224362f, 0.073349f, -0.135725f, 0.028982f, 
  -0.184567f, -0.080502f, -0.002861f, -0.006445f, -0.313882f, -0.016603f, -0.099963f, -0.020729f, 
  0.157928f, -0.065492f, 0.052048f, -0.323476f, -0.126405f, -0.019861f, 0.012667f, -0.219095f, 
  -0.342256f, -0.247585f, -0.213865f, -0.308177f, 0.026270f, -0.052645f, -0.360153f, -0.135234f, 
  -0.107735f, -0.094998f, -0.023040f, -0.087077f, 0.143038f, -0.154498f, -0.013556f, -0.121965f, 
  -0.272563f, -0.030760f, -0.010737f, 0.138891f, -0.151043f, -0.182166f, -0.121684f, -0.066135f, 
  -0.102145f, -0.162565f, -0.240873f, -0.296472f, 0.108831f, -0.147871f, -0.236238f, -0.084093f, 
  -0.005679f, 0.041285f, -0.317581f, -0.174661f, -0.112045f, -0.143356f, -0.025074f, -0.121177f, 
  -0.199036f, -0.254908f, -0.103449f, 0.113534f, -0.050637f, -0.162650f, -0.126777f, -0.023458f, 
  -0.121501f, -0.137758f, -0.264017f, -0.051024f, -0.012798f, -0.224456f, -0.124536f, -0.055912f, 
  -0.199003f, -0.298968f, -0.186531f, -0.072598f, -0.231380f, 0.080944f, 0.083380f, -0.199307f, 
  0.083786f, 0.042297f, -0.097045f, 0.213522f, 0.110107f, -0.057203f, -0.194165f, -0.177714f, 
  -0.030842f, -0.153577f, -0.116555f, 0.105202f, 0.136008f, 0.108401f, 0.171220f, -0.027333f, 
  0.075413f, -0.076919f, 0.209968f, -0.095589f, -0.142449f, 0.069036f, -0.046120f, -0.070117f, 
  0.133991f, 0.024668f, 0.091661f, -0.210408f, 0.093357f, -0.190882f, -0.031729f, -0.107646f, 
  -0.108079f, 0.049042f, 0.179302f, -0.011497f, -0.220257f, -0.085894f, 0.068629f, 0.087271f, 
  0.209609f, 0.228353f, 0.300084f, -0.109628f, 0.016498f, 0.270876f, 0.126973f, 0.194946f, 
  -0.018994f, 0.162929f, 0.079866f, 0.002935f, 0.287446f, -0.176674f, 0.060067f, 0.101607f, 
  0.059562f, 0.068630f, -0.054299f, 0.018256f, -0.184519f, 0.131623f, 0.020718f, 0.000230f, 
  -0.209203f, -0.030305f, -0.054283f, -0.087893f, 0.185374f, 0.111908f, -0.147691f, -0.066174f, 
  0.032632f, -0.171914f, -0.209168f, 0.435865f, 0.071762f, 0.112030f, 0.189154f, 0.077971f, 
  0.015905f, 0.171371f, 0.266993f, -0.050977f, 0.016588f, -0.176899f, -0.175520f, -0.033893f, 
  -0.103316f, -0.183769f, -0.058340f, 0.041942f, -0.090348f, -0.306345f, 0.017282f, 0.021409f, 
  0.096958f, -0.047108f, -0.284175f, -0.102287f, -0.214618f, 0.055419f, -0.160425f, -0.123367f, 
  0.060684f, -0.171221f, -0.273556f, -0.022287f, -0.329675f, -0.064977f, -0.106014f, -0.138296f, 
  0.144631f, -0.175134f, 0.252876f, 0.281469f, 0.274978f, -0.073492f, 0.141635f, 0.201107f, 
  -0.123926f, 0.222724f, 0.113597f, 0.073648f, 0.176100f, 0.173082f, 0.326757f, 0.216821f, 
  0.196844f, -0.081937f, 0.053430f, 0.191834f, 0.191150f, 0.038899f, 0.104515f, 0.063737f, 
  0.028361f, 0.261204f, 0.136184f, -0.004427f, -0.193827f, 0.250048f, 0.197113f, -0.079042f, 
  -0.056151f, 0.149686f, 0.117455f, -0.106399f, -0.180621f, -0.224961f, 0.027560f, 0.024699f, 
  -0.172935f, -0.206571f, 0.052017f, -0.021720f, 0.098708f, -0.132657f, -0.152784f, 0.109015f, 
  -0.169937f, -0.099662f, -0.139162f, -0.069373f, 0.010158f, -0.179945f, -0.078885f, -0.068278f, 
  -0.054933f, -0.240975f, -0.212639f, 0.149538f, -0.244084f, -0.264100f, -0.230888f, 0.096260f, 
  -0.102145f, -0.221239f, -0.220415f, -0.029694f, -0.103321f, -0.300825f, -0.175762f, 0.014533f, 
  -0.100240f, -0.221628f, -0.157860f, -0.062076f, -0.284286f, -0.076955f, -0.044712f, -0.167783f
};
const float myModel_conv2_b[] = {
  0.057821f, -0.016249f, -0.031660f, 0.010578f, 0.007684f, -0.044937f, 0.020972f, -0.021030f
};
const float myModel_output_w[] = {
  -0.108278f, -0.088462f, -0.061550f, -0.040409f, -0.067281f, -0.064515f, -0.032489f, -0.031489f, 
  -0.049017f, -0.047331f, -0.030754f, -0.035338f, -0.016054f, 0.006354f, -0.032812f, -0.006752f, 
  -0.026901f, -0.009690f, -0.018900f, -0.015869f, 0.047710f, 0.021318f, 0.004211f, 0.011328f, 
  -0.017768f, -0.020309f, -0.014067f, -0.022832f, -0.024845f, -0.106136f, -0.061653f, -0.071920f, 
  -0.027239f, -0.023403f, -0.053075f, -0.033683f, -0.026610f, -0.057860f, -0.029796f, -0.045673f, 
  -0.035225f, -0.031366f, -0.053866f, -0.048331f, 0.001188f, -0.012569f, -0.034434f, 0.018848f, 
  0.031076f, 0.005681f, 0.016188f, -0.003114f, 0.024874f, 0.033538f, 0.023521f, 0.011984f, 
  0.007562f, -0.018926f, -0.086316f, -0.096577f, -0.103659f, -0.052728f, 0.000797f, -0.013573f, 
  -0.010774f, -0.014451f, -0.036175f, -0.013175f, -0.042288f, -0.018960f, -0.017475f, 0.008525f, 
  -0.005807f, -0.026742f, -0.018914f, -0.014903f, 0.025332f, 0.001884f, 0.026065f, 0.073650f, 
  0.011430f, 0.000299f, 0.047934f, 0.057251f, 0.038629f, 0.003597f, 0.057019f, -0.092894f, 
  -0.104097f, -0.096784f, -0.080190f, -0.057006f, 0.010396f, 0.031588f, 0.014518f, -0.049244f, 
  0.025238f, 0.001905f, -0.022484f, -0.001260f, -0.040591f, -0.043325f, -0.032183f, -0.035853f, 
  0.002891f, 0.017892f, 0.004350f, 0.025156f, 0.037834f, 0.030994f, 0.022366f, 0.014638f, 
  0.000840f, 0.044549f, 0.018694f, 0.015774f, -0.078966f, -0.045054f, -0.077075f, -0.045129f, 
  -0.030572f, -0.026209f, -0.003696f, 0.003140f, 0.001178f, -0.030056f, -0.009682f, -0.024539f, 
  -0.037470f, -0.028317f, -0.040960f, -0.032192f, -0.042596f, -0.022834f, -0.015137f, -0.005657f, 
  -0.000921f, 0.018058f, 0.011234f, 0.000213f, 0.033939f, 0.009799f, -0.001563f, 0.010888f, 
  0.005840f, -0.051126f, -0.016313f, -0.017282f, 0.023102f, -0.004641f, 0.021025f, 0.026009f, 
  -0.002539f, -0.001577f, -0.076273f, -0.024239f, -0.058547f, -0.040811f, -0.018886f, -0.030730f, 
  -0.026877f, -0.047364f, -0.017952f, -0.015080f, -0.012618f, 0.039331f, 0.003556f, 0.017065f, 
  -0.002353f, -0.006029f, 0.007535f, -0.003388f, -0.011670f, -0.010058f, -0.016121f, -0.007783f, 
  0.011745f, 0.002128f, -0.001151f, -0.011265f, -0.004038f, -0.008143f, -0.042888f, -0.033743f, 
  -0.077629f, -0.046730f, -0.024948f, -0.006100f, -0.031609f, -0.047568f, -0.037193f, -0.017808f, 
  0.031587f, -0.002053f, 0.036777f, -0.022718f, -0.028337f, 0.008048f, -0.033832f, 0.005834f, 
  -0.040878f, -0.021277f, -0.011018f, 0.005630f, 0.000440f, 0.001578f, 0.006773f, 0.006160f, 
  0.021467f, -0.033950f, -0.033598f, -0.099270f, -0.075525f, -0.063543f, -0.065288f, -0.051883f, 
  -0.040168f, -0.062814f, -0.069509f, -0.081638f, -0.050242f, -0.012762f, -0.021101f, -0.021293f, 
  -0.001463f, -0.032246f, -0.046086f, -0.011867f, 0.000535f, -0.018965f, -0.007831f, 0.014062f, 
  -0.025521f, 0.044912f, 0.019828f, -0.002748f, -0.031545f, -0.023447f, -0.044052f, -0.076864f, 
  -0.119922f, -0.079574f, -0.103176f, -0.071863f, -0.078760f, -0.061989f, -0.063077f, -0.065373f, 
  -0.057819f, -0.037706f, -0.011131f, -0.013628f, -0.005895f, -0.014704f, -0.013522f, -0.023826f, 
  -0.014189f, 0.000254f, -0.004835f, -0.010798f, -0.022082f, -0.055039f, 0.005888f, 0.000459f, 
  -0.021973f, -0.056767f, -0.097812f, -0.101080f, -0.112753f, -0.119767f, -0.126974f, -0.092608f, 
  -0.127244f, -0.120666f, -0.045660f, -0.069959f, -0.087295f, -0.081176f, 0.002529f, 0.019186f, 
  -0.005497f, -0.020358f, -0.028105f, -0.046575f, -0.048565f, -0.073946f, -0.035825f, -0.019552f, 
  0.005880f, -0.027666f, -0.018469f, -0.033613f, -0.029486f, -0.015090f, -0.032654f, -0.086700f, 
  -0.110568f, -0.108492f, -0.083861f, -0.082736f, -0.089444f, -0.112473f, -0.072721f, -0.070152f, 
  -0.041355f, -0.050866f, -0.035249f, 0.002585f, -0.002441f, -0.019368f, -0.011962f, -0.038424f, 
  -0.002149f, -0.023438f, 0.009452f, -0.033725f, -0.025237f, 0.016990f, 0.010810f, -0.014697f, 
  -0.027156f, -0.025868f, -0.036733f, -0.070540f, -0.067710f, -0.099058f, -0.118585f, -0.128365f, 
  -0.084982f, -0.105323f, -0.141250f, -0.117555f, -0.094500f, -0.034924f, -0.040791f, -0.053728f, 
  -0.038893f, -0.005322f, -0.011617f, -0.033743f, -0.009687f, 0.007345f, 0.012970f, -0.021514f, 
  -0.008316f, -0.016109f, 0.013524f, -0.032167f, -0.014002f, -0.031563f, -0.054960f, -0.052572f, 
  -0.038537f, -0.042461f, -0.099518f, -0.086492f, -0.095550f, -0.068185f, -0.108477f, -0.087416f, 
  -0.074580f, -0.070735f, -0.049622f, -0.025618f, -0.050054f, -0.022352f, -0.036273f, -0.038975f, 
  -0.007127f, 0.008434f, 0.025689f, -0.015166f, -0.034213f, -0.003875f, -0.002800f, 0.004309f, 
  0.040810f, -0.038227f, -0.019805f, -0.047856f, -0.070899f, -0.112093f, -0.077783f, -0.059937f, 
  -0.102381f, -0.099890f, -0.064376f, -0.090468f, -0.070340f, -0.106086f, -0.066600f, -0.042322f, 
  -0.010582f, -0.037064f, -0.066816f, -0.058058f, -0.001281f, 0.008707f, 0.034595f, 0.050773f, 
  0.027511f, 0.027872f, 0.021186f, -0.014930f, -0.019187f, 0.015861f, -0.055355f, -0.018197f, 
  -0.058482f, -0.095161f, -0.077570f, -0.098105f, -0.084087f, -0.082925f, -0.095471f, -0.064335f, 
  -0.053496f, -0.046902f, -0.045153f, -0.056881f, -0.020017f, 0.021853f, -0.015597f, -0.020437f, 
  -0.028038f, -0.003976f, 0.005872f, 0.017544f, 0.015672f, 0.027215f, 0.018023f, 0.001511f, 
  0.015043f, -0.008055f, 0.008023f, -0.047203f, -0.057169f, -0.056180f, -0.071330f, -0.069407f, 
  -0.050670f, -0.076213f, -0.092956f, -0.067921f, -0.037469f, -0.058623f, -0.005971f, -0.056152f, 
  -0.026017f, -0.019181f, 0.013219f, -0.022246f, 0.000911f, -0.011956f, -0.021564f, -0.038005f, 
  -0.011948f, -0.005538f, -0.000371f, -0.009479f, 0.018077f, 0.024164f, 0.030076f, 0.018352f, 
  -0.040341f, -0.080154f, -0.074861f, -0.093751f, -0.076876f, -0.013535f, -0.066575f, -0.101119f, 
  -0.134336f, -0.050629f, -0.027540f, -0.008870f, 0.003425f, 0.006218f, 0.038153f, 0.039432f, 
  0.015358f, -0.024292f, 0.010115f, -0.018823f, -0.010413f, -0.020058f, 0.008841f, -0.021063f, 
  0.002825f, -0.012559f, 0.018335f, 0.014699f, 0.017788f, -0.000775f, -0.057711f, -0.045898f, 
  -0.045028f, -0.082800f, -0.027735f, -0.039578f, -0.064373f, -0.039038f, -0.044077f, -0.048997f, 
  -0.036618f, -0.022394f, 0.016143f, 0.048026f, 0.054794f, 0.039147f, -0.013554f, 0.003587f, 
  -0.001545f, -0.001509f, -0.049172f, -0.009956f, -0.011240f, -0.047617f, -0.008176f, 0.015702f, 
  0.031350f, 0.027551f, -0.019161f, -0.070705f, -0.022904f, -0.060772f, -0.082001f, -0.088818f, 
  -0.096753f, -0.056286f, -0.082541f, -0.058306f, -0.059486f, -0.059213f, 0.000755f, 0.028945f, 
  0.028988f, 0.029501f, 0.018457f, -0.000166f, -0.015535f, 0.008334f, -0.004271f, -0.014530f, 
  -0.003232f, 0.015544f, -0.048037f, -0.035108f, 0.022459f, 0.038034f, 0.006609f, -0.043756f, 
  -0.049982f, -0.086731f, -0.074380f, -0.039923f, -0.087253f, -0.041445f, -0.080239f, -0.074437f, 
  -0.044684f, -0.029850f, -0.002002f, 0.003511f, 0.037927f, 0.060549f, 0.068790f, 0.006222f, 
  0.032912f, -0.030810f, 0.003507f, 0.006286f, -0.016530f, 0.012555f, -0.019946f, 0.027172f, 
  -0.027642f, 0.009226f, 0.016299f, -0.004248f, -0.020176f, -0.033242f, -0.069131f, -0.062635f, 
  -0.070924f, -0.071500f, -0.097785f, -0.024751f, -0.000361f, -0.016693f, -0.004124f, 0.026721f, 
  0.002114f, -0.020186f, 0.043837f, 0.038086f, 0.003412f, -0.029615f, 0.015304f, 0.009485f, 
  0.024196f, -0.014191f, -0.017321f, 0.015575f, 0.017421f, 0.022683f, -0.017951f, -0.005666f, 
  -0.042730f, -0.048601f, -0.022288f, -0.040032f, -0.080602f, -0.018125f, -0.042918f, -0.029666f, 
  -0.004386f, 0.007978f, 0.000381f, -0.025808f, -0.037053f, -0.022398f, -0.018062f, 0.008619f, 
  0.002104f, -0.019737f, -0.016672f, 0.018020f, -0.002100f, 0.004153f, 0.001346f, -0.026869f, 
  -0.019206f, 0.000923f, -0.021853f, -0.010939f, -0.011232f, -0.009901f, -0.002061f, -0.017734f, 
  -0.051138f, -0.080854f, -0.017698f, -0.035476f, -0.011245f, -0.023429f, 0.005782f, 0.015602f, 
  -0.018653f, -0.037579f, -0.018580f, -0.035751f, 0.008062f, 0.024509f, -0.007990f, -0.034168f, 
  -0.049188f, -0.055182f, -0.016473f, -0.000617f, 0.005249f, 0.004235f, -0.020799f, 0.023880f, 
  0.036799f, -0.003617f, -0.048137f, -0.015124f, -0.037826f, -0.044989f, -0.059654f, -0.020645f, 
  0.019554f, 0.009375f, -0.032021f, 0.021097f, 0.023683f, -0.011789f, -0.012584f, -0.035151f, 
  -0.036632f, -0.027850f, -0.009640f, -0.033904f, -0.033083f, -0.073477f, -0.053688f, 0.004020f, 
  -0.026507f, -0.006403f, -0.014116f, -0.028059f, 0.000476f, -0.010957f, 0.001666f, 0.008514f, 
  -0.004205f, 0.013451f, -0.063631f, -0.025355f, -0.008993f, 0.028148f, 0.048348f, 0.028980f, 
  0.040107f, 0.038430f, 0.011315f, -0.029847f, -0.016108f, -0.011223f, -0.025749f, -0.030760f, 
  -0.045487f, -0.038772f, -0.053049f, -0.030967f, -0.037392f, -0.042773f, -0.012353f, -0.028894f, 
  -0.041880f, -0.017189f, 0.000579f, -0.012691f, -0.059635f, -0.012692f, -0.004533f, -0.022350f, 
  -0.028910f, -0.019950f, -0.004038f, 0.004355f, 0.003149f, 0.006206f, -0.005408f, 0.007366f, 
  0.011094f, -0.035750f, -0.023734f, -0.036339f, -0.070362f, -0.028489f, -0.048796f, -0.050122f, 
  -0.067665f, -0.045727f, -0.040968f, -0.051284f, -0.012085f, -0.056942f, -0.045297f, -0.036562f, 
  -0.055635f, -0.066969f, -0.022826f, -0.052433f, -0.018996f, -0.041070f, -0.007602f, -0.009583f, 
  -0.029787f, -0.016194f, 0.008324f, -0.002999f, -0.004366f, -0.015656f, -0.012698f, -0.055592f, 
  -0.055881f, -0.026688f, -0.069379f, -0.054085f, -0.052689f, -0.045267f, -0.034636f, -0.078763f, 
  -0.040881f, -0.064929f, -0.056919f, -0.041817f, -0.027575f, -0.033956f, -0.054664f, -0.007963f, 
  -0.069819f, 0.001277f, 0.020899f, -0.001078f, -0.049255f, -0.028369f, 0.008756f, -0.027214f, 
  0.010897f, 0.013856f, 0.001332f, -0.025434f, -0.023216f, -0.017007f, -0.032665f, -0.028012f, 
  -0.009407f, -0.016246f, -0.021379f, -0.055749f, -0.072794f, -0.033494f, -0.030945f, -0.042882f, 
  -0.040101f, -0.076123f, -0.062459f, -0.107522f, -0.001772f, -0.060376f, -0.032171f, -0.004675f, 
  -0.039798f, -0.060425f, 0.013802f, -0.027864f, -0.018166f, 0.018933f, -0.009572f, 0.017076f, 
  -0.027702f, -0.006081f, -0.025711f, -0.041910f, -0.046604f, 0.004033f, -0.008615f, -0.051270f, 
  -0.041789f, -0.051577f, -0.069171f, -0.041710f, -0.041866f, -0.040259f, -0.038431f, -0.065951f, 
  -0.080891f, -0.044179f, -0.030912f, 0.007221f, -0.031643f, 0.004224f, -0.016727f, 0.000811f, 
  -0.016643f, -0.031279f, 0.007084f, 0.014515f, -0.028566f, 0.009217f, -0.033906f, -0.014887f, 
  -0.010920f, -0.009082f, 0.019590f, 0.007541f, -0.019159f, -0.009967f, 0.019287f, 0.018792f, 
  -0.005946f, 0.012550f, 0.017117f, 0.002083f, -0.028168f, 0.009106f, -0.011065f, 0.006560f, 
  -0.030518f, 0.003103f, 0.011464f, 0.001839f, 0.014110f, 0.009664f, -0.014496f, 0.001803f, 
  -0.001766f, -0.022788f, -0.002966f, 0.007063f, -0.018437f, -0.032473f, 0.013839f, -0.003599f, 
  0.011654f, 0.023539f, 0.014783f, 0.007697f, 0.001942f, 0.006526f, 0.004810f, -0.001754f, 
  -0.002980f, 0.010323f, -0.006309f, -0.035934f, -0.005786f, -0.047480f, -0.000779f, 0.003427f, 
  -0.011729f, 0.006910f, -0.011639f, 0.004461f, 0.019566f, 0.006745f, -0.013775f, -0.023237f, 
  -0.028169f, 0.021595f, 0.015003f, -0.027811f, -0.027591f, -0.017580f, 0.025688f, 0.017158f, 
  0.013963f, 0.017118f, 0.018457f, -0.005871f, 0.001692f, -0.004633f, 0.003365f, -0.008538f, 
  -0.020644f, 0.007107f, -0.018854f, -0.029086f, -0.030659f, -0.019029f, 0.003771f, 0.000700f, 
  -0.020006f, -0.010396f, -0.005798f, 0.016275f, -0.001177f, -0.019044f, -0.028858f, -0.008119f, 
  -0.008054f, -0.016820f, 0.008283f, -0.001098f, 0.014714f, -0.002660f, -0.006777f, 0.013853f, 
  -0.011375f, 0.017285f, 0.006703f, 0.040046f, 0.013668f, -0.018397f, -0.009558f, -0.037879f, 
  0.007862f, 0.001463f, -0.013332f, -0.020101f, 0.021980f, 0.020731f, 0.012607f, 0.012516f, 
  0.022485f, -0.004734f, 0.007009f, -0.024521f, 0.011602f, -0.022637f, 0.001081f, 0.000471f, 
  0.009548f, 0.023048f, -0.008509f, -0.005301f, 0.036072f, -0.021792f, -0.003108f, 0.022887f, 
  0.014805f, 0.028644f, -0.045501f, 0.002711f, 0.024698f, -0.005809f, 0.021347f, 0.016278f, 
  0.008741f, 0.009056f, 0.031175f, 0.051559f, 0.011752f, 0.015281f, 0.016319f, 0.007929f, 
  0.002704f, 0.005835f, -0.004021f, -0.018377f, -0.026473f, 0.026461f, 0.020797f, 0.011176f, 
  0.009250f, -0.013295f, -0.010859f, 0.002180f, 0.010318f, -0.003461f, -0.025104f, -0.017410f, 
  0.030660f, 0.004706f, 0.009162f, 0.017977f, 0.040528f, 0.009746f, 0.036731f, 0.056723f, 
  -0.012058f, -0.019465f, 0.024589f, -0.006723f, 0.001087f, 0.007214f, 0.028205f, -0.028919f, 
  0.013538f, 0.000140f, -0.033160f, 0.024905f, 0.029478f, -0.040726f, 0.002820f, -0.011886f, 
  -0.029181f, -0.006425f, -0.014526f, 0.002980f, 0.001614f, 0.012550f, 0.029887f, 0.032540f, 
  0.050988f, 0.021192f, -0.013922f, 0.017407f, 0.019493f, 0.011875f, 0.002481f, 0.027133f, 
  0.047797f, 0.018546f, 0.024212f, -0.024795f, -0.038150f, -0.018521f, -0.015766f, -0.000697f, 
  -0.026939f, -0.000161f, 0.014559f, -0.002141f, -0.037586f, -0.006165f, -0.006200f, -0.006951f, 
  -0.009294f, 0.006139f, -0.011916f, -0.000582f, 0.030716f, 0.063308f, 0.041286f, 0.049696f, 
  0.004474f, 0.014744f, 0.006048f, -0.018359f, 0.004648f, 0.018650f, -0.006784f, 0.015149f, 
  -0.031541f, 0.014225f, -0.007926f, -0.008560f, 0.000017f, 0.005967f, -0.018574f, -0.020403f, 
  0.001939f, -0.053194f, -0.003783f, 0.001519f, -0.015975f, -0.003224f, -0.010209f, -0.003301f, 
  0.027539f, 0.030732f, 0.024453f, 0.041660f, 0.020645f, 0.016554f, 0.013790f, -0.011843f, 
  -0.004353f, 0.017767f, 0.007213f, -0.029137f, -0.030552f, -0.016120f, -0.036291f, -0.036243f, 
  0.006608f, -0.026027f, 0.007529f, -0.021549f, -0.042384f, 0.011877f, 0.019697f, -0.039971f, 
  -0.037502f, 0.001514f, -0.012702f, 0.012401f, 0.002458f, 0.001535f, 0.017191f, 0.027693f, 
  0.014669f, 0.004178f, 0.013899f, 0.023845f, 0.033136f, 0.009662f, -0.002704f, 0.000859f, 
  -0.005595f, 0.010193f, 0.015095f, -0.014331f, -0.038214f, 0.005440f, -0.018052f, 0.006505f, 
  -0.006617f, -0.049758f, -0.035787f, -0.036126f, -0.025444f, -0.030143f, -0.010479f, -0.019732f, 
  -0.002727f, 0.037092f, -0.001357f, -0.011911f, 0.004732f, 0.028331f, 0.019650f, 0.005094f, 
  -0.032291f, 0.016214f, -0.002085f, 0.034804f, 0.005004f, 0.023205f, 0.030325f, -0.016867f, 
  -0.024752f, 0.023053f, -0.024311f, -0.007898f, 0.006226f, -0.009552f, 0.006869f, -0.003375f, 
  -0.020483f, -0.010636f, -0.022376f, -0.035888f, -0.001316f, 0.021197f, 0.047025f, 0.030777f, 
  0.036362f, 0.012854f, 0.003668f, 0.016570f, -0.002921f, -0.023746f, 0.007940f, 0.006114f, 
  -0.036998f, -0.035111f, 0.000977f, 0.021804f, 0.016216f, 0.008293f, 0.012275f, 0.014014f, 
  -0.009798f, -0.004222f, -0.017649f, 0.004138f, -0.004095f, 0.027108f, -0.008329f, -0.019092f, 
  0.005759f, -0.038646f, 0.022618f, -0.002498f, 0.000175f, 0.029383f, 0.008835f, 0.029878f, 
  0.013167f, -0.010782f, -0.018170f, 0.030442f, 0.001270f, 0.027011f, -0.038804f, -0.010349f, 
  0.011825f, -0.010219f, -0.018041f, -0.007060f, -0.007249f, -0.029168f, -0.016949f, -0.007153f, 
  0.020544f, 0.010956f, -0.010783f, -0.014340f, -0.013852f, -0.011504f, -0.038112f, 0.024844f, 
  0.007251f, 0.001866f, 0.024999f, 0.007676f, -0.009852f, 0.032428f, 0.006049f, 0.028456f, 
  -0.008556f, 0.025434f, -0.005998f, -0.017805f, -0.018936f, 0.006820f, 0.010818f, -0.000996f, 
  -0.000926f, -0.001300f, -0.015708f, -0.013959f, -0.005411f, 0.018392f, 0.017547f, -0.003726f, 
  0.004625f, 0.038873f, 0.000906f, -0.020101f, -0.013855f, -0.010075f, -0.023630f, -0.003283f, 
  0.011438f, 0.005629f, 0.010913f, 0.017774f, 0.009868f, 0.004601f, 0.042010f, 0.018661f, 
  0.021329f, 0.042026f, 0.050850f, -0.002630f, -0.008333f, -0.022556f, -0.015035f, 0.041272f, 
  0.037862f, 0.023157f, 0.031833f, 0.012055f, -0.002736f, 0.027298f, -0.007529f, 0.005783f, 
  -0.016946f, -0.001795f, 0.003703f, -0.007806f, 0.018551f, -0.013999f, -0.002019f, 0.019490f, 
  -0.012762f, -0.024029f, -0.001096f, -0.002156f, -0.008142f, 0.037088f, 0.030734f, 0.026315f, 
  0.012289f, 0.015545f, -0.013268f, 0.032579f, 0.017714f, 0.026782f, 0.020267f, -0.006801f, 
  0.016691f, -0.004473f, -0.015052f, 0.011951f, 0.018939f, 0.013965f, 0.024279f, -0.019358f, 
  0.019052f, -0.009122f, -0.024266f, -0.000321f, 0.030592f, 0.009000f, 0.009106f, -0.016252f, 
  -0.010425f, 0.007152f, 0.015644f, -0.015657f, 0.030728f, 0.058976f, 0.039041f, 0.023185f, 
  0.048594f, 0.008025f, 0.020518f, 0.006475f, 0.001784f, -0.012217f, 0.013964f, 0.002689f, 
  0.012433f, 0.017816f, -0.024161f, 0.035333f, 0.005521f, -0.000767f, 0.035197f, -0.011672f, 
  -0.002348f, -0.004207f, 0.041691f, 0.010574f, -0.012296f, 0.000778f, 0.011834f, 0.001286f, 
  0.044840f, 0.013718f, 0.059053f, 0.041897f, 0.020892f, 0.017393f, -0.013281f, 0.053890f, 
  0.013774f, 0.002527f, 0.030632f, 0.008241f, -0.027699f, 0.003336f, 0.005193f, 0.020743f, 
  -0.025399f, 0.023705f, -0.024528f, -0.023172f, -0.050323f, 0.002715f, -0.038103f, -0.010985f, 
  -0.026955f, 0.001315f, -0.009665f, -0.011156f, 0.028688f, -0.011852f, 0.033583f, 0.038812f, 
  0.033809f, 0.026168f, 0.016977f, 0.044922f, 0.028424f, 0.040946f, -0.001944f, 0.008754f, 
  -0.015098f, -0.029243f, 0.020436f, 0.022609f, 0.008657f, 0.003655f, -0.003818f, 0.007662f, 
  -0.001008f, -0.024640f, -0.044495f, -0.020686f, -0.000319f, -0.006293f, -0.000368f, 0.012124f, 
  -0.022124f, 0.018674f, -0.003659f, 0.041198f, 0.033680f, 0.013263f, 0.039742f, 0.016823f, 
  0.037958f, 0.022323f, 0.016763f, 0.033990f, 0.022980f, 0.020277f, 0.001298f, 0.013050f, 
  0.005666f, -0.019529f, -0.013408f, -0.019764f, 0.009672f, 0.011545f, -0.014052f, 0.008211f, 
  -0.038226f, -0.033969f, 0.027176f, 0.037958f, 0.009499f, -0.022442f, -0.005565f, -0.019873f, 
  0.004955f, 0.015498f, 0.015110f, 0.028418f, 0.015839f, 0.019795f, 0.002238f, 0.037818f, 
  0.031534f, 0.007932f, 0.007343f, 0.027753f, -0.007515f, -0.002565f, 0.018106f, -0.002042f, 
  0.013776f, -0.017045f, -0.007472f, -0.011533f, -0.012172f, -0.013852f, -0.011986f, 0.028748f, 
  0.003562f, -0.011097f, -0.005944f, 0.007970f, 0.015893f, 0.005389f, -0.018181f, -0.006148f, 
  0.025451f, 0.012878f, 0.000088f, 0.017638f, 0.011565f, 0.022517f, 0.014316f, 0.019364f, 
  0.042469f, -0.018744f, -0.006099f, 0.011134f, 0.017737f, 0.026788f, -0.016477f, -0.018742f, 
  -0.001287f, 0.002043f, -0.034236f, 0.014441f, -0.021613f, 0.021861f, -0.010458f, 0.019925f, 
  -0.029726f, 0.010701f, 0.009380f, -0.022097f, -0.028074f, 0.027893f, -0.004306f, 0.027997f, 
  0.011128f, 0.036609f, 0.037502f, -0.002192f, 0.033750f, -0.002445f, 0.036468f, 0.015041f, 
  -0.026628f, 0.000802f, 0.020046f, -0.037946f, 0.007879f, -0.033326f, -0.029063f, -0.013588f, 
  0.011881f, -0.007846f, 0.012534f, 0.015191f, -0.011830f, 0.010488f, 0.029894f, -0.022781f, 
  -0.006744f, 0.008946f, -0.024981f, -0.010846f, 0.001785f, 0.012271f, -0.015956f, 0.042439f, 
  -0.013086f, -0.004392f, 0.022847f, 0.031049f, -0.010391f, -0.009588f, -0.017736f, -0.000516f, 
  0.002140f, 0.009619f, -0.030182f, -0.014705f, -0.024275f, -0.017071f, -0.020811f, 0.005371f, 
  -0.021520f, 0.032878f, 0.009207f, -0.018191f, -0.004184f, 0.033469f, -0.010937f, -0.000009f, 
  -0.000333f, 0.003754f, 0.016628f, -0.014698f, 0.027365f, -0.029121f, -0.021653f, -0.019650f, 
  -0.000688f, -0.011433f, -0.026390f, 0.003820f, -0.011978f, -0.045246f, -0.016949f, -0.010680f, 
  -0.011078f, 0.000265f, -0.009940f, -0.045875f, -0.015130f, -0.013082f, -0.017323f, 0.009322f, 
  0.004886f, 0.013054f, 0.006480f, 0.020003f, -0.007698f, 0.013004f, 0.028405f, 0.006824f, 
  -0.000402f, 0.016521f, -0.008823f, -0.035964f, -0.012514f, -0.025425f, -0.011413f, -0.007360f, 
  0.001896f, -0.027048f, -0.029796f, 0.007836f, -0.031123f, -0.016461f, -0.003690f, -0.043033f, 
  -0.003424f, -0.023621f, -0.030438f, -0.007109f, 0.024232f, -0.003068f, -0.019847f, 0.009117f, 
  0.006222f, 0.022080f, 0.017682f, 0.035642f, 0.036641f, 0.022727f, -0.023305f, -0.010790f, 
  -0.031891f, 0.027056f, -0.001478f, -0.015548f, -0.022695f, 0.008051f, -0.037588f, -0.004097f, 
  0.014457f, 0.010796f, 0.004343f, -0.023655f, -0.000174f, -0.012331f, -0.000460f, -0.022765f, 
  0.005485f, -0.013708f, -0.005671f, 0.027797f, -0.005832f, 0.001482f, -0.018126f, 0.004571f, 
  0.006159f, -0.002583f, 0.023325f, -0.009839f, 0.006903f, -0.015295f, -0.022540f, -0.013485f, 
  -0.016648f, -0.042122f, 0.001009f, 0.029825f, -0.005308f, 0.023144f, 0.022880f, -0.016024f, 
  0.007465f, 0.005123f, -0.001947f, -0.008662f, -0.024385f, 0.006274f, -0.003867f, -0.019594f, 
  -0.002148f, 0.007671f, 0.005460f, -0.000157f, 0.001967f, -0.002349f, -0.005864f, 0.005242f, 
  -0.013490f, -0.006302f, 0.028164f, 0.017507f, 0.015525f, -0.004745f, -0.001713f, -0.015712f, 
  -0.002453f, -0.018229f, -0.025785f, -0.003525f, 0.027212f, 0.002174f, 0.007226f, 0.007718f, 
  -0.032542f, -0.002276f, -0.026479f, -0.000065f, 0.001983f, -0.005565f, 0.004102f, -0.021400f, 
  -0.023002f, 0.005682f, 0.015608f, 0.022076f, -0.020451f, -0.019217f, -0.005325f, -0.027513f, 
  -0.022287f, -0.006232f, 0.008327f, 0.007111f, -0.003715f, 0.024264f, -0.029920f, 0.004138f, 
  -0.033325f, -0.005028f, -0.007376f, 0.018194f, -0.026684f, -0.003979f, -0.021534f, -0.023567f, 
  -0.024899f, -0.011911f, -0.014794f, -0.011813f, -0.015050f, -0.009879f, 0.015828f, 0.024945f, 
  0.005232f, -0.000836f, -0.011575f, 0.019236f, 0.017489f, 0.006067f, -0.017655f, 0.008308f, 
  -0.003313f, 0.005782f, -0.009284f, -0.018604f, -0.035238f, -0.030466f, -0.000370f, 0.012368f, 
  0.005238f, -0.013414f, -0.016408f, -0.004927f, 0.036753f, 0.003725f, -0.031032f, -0.025044f, 
  0.013496f, 0.009168f, -0.033842f, -0.038516f, -0.019524f, 0.001800f, 0.001024f, -0.008449f, 
  0.008989f, 0.026125f, 0.009615f, -0.000753f, 0.008523f, -0.000350f, -0.044015f, -0.011931f, 
  -0.007383f, -0.016243f, -0.012756f, -0.018356f, 0.005443f, -0.008570f, -0.006132f, 0.005918f, 
  0.027602f, -0.023571f, 0.007979f, -0.021218f, -0.009414f, -0.009791f, -0.027581f, -0.020100f, 
  -0.012408f, -0.022854f, -0.004199f, -0.036331f, 0.011229f, -0.004308f, 0.013000f, -0.008934f, 
  -0.011322f, 0.003751f, 0.005272f, -0.000984f, -0.011181f, -0.036118f, 0.021196f, -0.001340f, 
  0.012320f, 0.011391f, -0.000520f, -0.003312f, 0.002901f, 0.038213f, 0.000484f, -0.003384f, 
  0.005626f, -0.026598f, 0.007754f, 0.002332f, 0.010346f, -0.003096f, 0.004098f, -0.008239f, 
  0.002415f, 0.005808f, 0.003626f, 0.003075f, -0.010111f, 0.021195f, 0.008859f, -0.003618f, 
  0.010845f, 0.020911f, -0.004436f, 0.014037f, 0.017324f, 0.020723f, -0.001938f, -0.003963f, 
  0.027321f, 0.038041f, 0.002417f, -0.009502f, -0.016086f, -0.011867f, -0.010600f, -0.012990f, 
  -0.005661f, -0.024010f, -0.016300f, 0.019037f, 0.004318f, -0.028266f, 0.009399f, 0.002893f, 
  -0.006063f, -0.001468f, -0.027210f, -0.012436f, -0.015949f, -0.005973f, 0.006561f, -0.006105f, 
  0.011450f, 0.006010f, -0.010812f, 0.005321f, -0.010850f, 0.018776f, 0.030673f, -0.027067f, 
  0.003024f, -0.007948f, 0.020778f, 0.017935f, -0.008212f, -0.026587f, 0.020795f, -0.017728f, 
  -0.011575f, 0.013318f, -0.000576f, -0.015265f, 0.020335f, -0.012176f, -0.033848f, 0.008311f, 
  -0.038312f, 0.009286f, -0.005016f, 0.019206f, 0.010012f, 0.024124f, 0.003872f, 0.036188f, 
  0.022347f, 0.015077f, 0.009562f, 0.004910f, -0.010221f, 0.025961f, 0.018234f, 0.000006f, 
  0.006602f, -0.004203f, -0.022198f, -0.003395f, -0.003900f, -0.002468f, -0.023623f, -0.011380f, 
  0.005660f, -0.008515f, -0.046790f, -0.032879f, -0.027834f, -0.017460f, -0.032432f, -0.005482f, 
  -0.017071f, 0.028707f, 0.002336f, 0.004937f, 0.038294f, 0.005831f, 0.047682f, -0.007182f, 
  0.025582f, 0.022173f, 0.022939f, -0.015088f, -0.002912f, -0.022248f, 0.002770f, -0.022012f, 
  -0.028730f, -0.006711f, -0.017621f, -0.005450f, -0.035362f, -0.024862f, -0.021285f, -0.033782f, 
  -0.008723f, -0.020947f, -0.049341f, -0.027384f, -0.003747f, 0.036176f, 0.020441f, -0.006097f, 
  0.034184f, 0.016713f, 0.018203f, 0.009089f, 0.005204f, 0.016145f, 0.013857f, -0.005840f, 
  0.000306f, 0.009844f, -0.034810f, -0.012341f, -0.047057f, -0.027816f, 0.013360f, -0.034049f, 
  -0.004981f, -0.027272f, -0.002037f, -0.008926f, -0.018833f, -0.029412f, -0.024894f, -0.002286f, 
  -0.050992f, -0.012040f, 0.030862f, 0.003603f, 0.019855f, 0.040530f, 0.004377f, 0.008169f, 
  0.000983f, -0.018102f, -0.005056f, 0.017214f, 0.000643f, 0.019130f, -0.006282f, 0.009351f, 
  0.008826f, 0.004335f, -0.000591f, 0.014123f, 0.000227f, -0.038701f, -0.013575f, -0.007274f, 
  -0.016248f, -0.001022f, -0.012543f, -0.023589f, -0.013278f, -0.031670f, 0.031964f, -0.004113f, 
  0.008743f, 0.033173f, 0.039511f, -0.003883f, 0.026470f, 0.022749f, 0.026805f, 0.010805f, 
  0.013063f, -0.010761f, -0.008849f, -0.008906f, -0.016485f, 0.000011f, 0.006918f, -0.026273f, 
  -0.017086f, -0.005002f, -0.012122f, 0.018934f, -0.015914f, 0.008340f, -0.023403f, -0.008684f, 
  -0.027806f, -0.013778f, -0.030966f, -0.011469f, -0.009403f, 0.020438f, -0.000561f, -0.007736f, 
  -0.006934f, 0.015155f, 0.012422f, 0.035766f, -0.004410f, 0.009012f, 0.014235f, 0.015000f, 
  0.010315f, 0.004058f, 0.006863f, -0.029774f, 0.000947f, 0.006199f, -0.021009f, 0.011387f, 
  0.008993f, 0.003648f, 0.010870f, -0.025129f, -0.003273f, -0.050008f, -0.012577f, 0.015758f, 
  0.001159f, 0.001110f, 0.015306f, -0.020498f, 0.005927f, -0.006857f, 0.031866f, -0.013196f, 
  0.002160f, 0.003929f, 0.010149f, -0.003150f, -0.006441f, 0.011435f, -0.017928f, 0.018587f, 
  -0.010882f, -0.008721f, 0.018319f, 0.013126f, 0.003809f, -0.009230f, 0.016468f, 0.007261f, 
  0.010428f, -0.021917f, -0.019277f, -0.013977f, 0.009480f, -0.010471f, 0.006112f, 0.009277f, 
  0.002202f, -0.008297f, -0.000785f, 0.020252f, 0.023847f, 0.029307f, 0.028752f, 0.001560f, 
  0.005541f, 0.042947f, 0.023345f, 0.017275f, 0.022903f, -0.000950f, 0.009222f, -0.011669f, 
  -0.030483f, 0.018378f, 0.002256f, 0.025037f, -0.006824f, 0.020916f, -0.027360f, 0.003839f, 
  -0.007406f, -0.037444f, 0.003164f, 0.040467f, -0.012205f, 0.026716f, 0.007769f, -0.005286f, 
  0.019086f, 0.037002f, 0.014713f, 0.050668f, 0.021472f, -0.013858f, 0.029107f, -0.009966f, 
  -0.009337f, -0.004742f, -0.000457f, -0.010116f, -0.001898f, 0.004835f, 0.015240f, -0.016445f, 
  -0.014572f, 0.000435f, 0.011559f, -0.008723f, 0.005766f, 0.007880f, 0.003010f, -0.002791f, 
  0.007806f, 0.004137f, 0.027054f, 0.023418f, 0.000041f, 0.007767f, 0.005647f, 0.003401f, 
  0.008933f, 0.007323f, 0.017756f, -0.009039f, 0.035529f, 0.026663f, 0.039476f, 0.024655f, 
  0.020991f, 0.017100f, 0.044379f, -0.008690f, 0.022629f, 0.017449f, 0.003669f, 0.015473f, 
  0.002965f, 0.027884f, 0.011085f, -0.012218f, 0.010435f, -0.000289f, 0.026526f, -0.008192f, 
  -0.005483f, 0.013355f, -0.007439f, 0.022661f, -0.008708f, -0.000489f, 0.008005f, 0.000938f, 
  0.002366f, -0.008739f, 0.027085f, 0.067136f, 0.010273f, 0.041833f, 0.011853f, 0.032235f, 
  0.030038f, -0.014239f, 0.009237f, 0.016620f, 0.013832f, 0.012603f, 0.010052f, -0.026747f, 
  0.019462f, 0.030575f, -0.001415f, -0.003990f, 0.030834f, -0.015021f, -0.024078f, -0.029868f, 
  -0.028246f, -0.026849f, -0.013826f, 0.005830f, -0.008110f, -0.010689f, 0.006402f, 0.018902f, 
  0.014015f, 0.030023f, 0.032692f, 0.029531f, 0.020522f, 0.016304f, -0.010130f, 0.015948f, 
  0.008012f, 0.013858f, 0.020332f, 0.007300f, 0.046838f, -0.003019f, 0.017377f, -0.008399f, 
  0.016428f, -0.016093f, -0.014270f, 0.013018f, -0.005778f, -0.011421f, -0.015376f, 0.006694f, 
  -0.023399f, -0.010687f, 0.013862f, 0.017762f, 0.035369f, -0.018983f, 0.014442f, 0.036833f, 
  0.027515f, 0.026305f, 0.004301f, 0.028146f, -0.000762f, 0.006753f, 0.015680f, 0.003831f, 
  0.000002f, -0.016033f, -0.005685f, -0.004135f, -0.009680f, -0.016856f, 0.017536f, 0.004707f, 
  -0.020258f, -0.032731f, -0.004586f, -0.014452f, 0.014473f, -0.012531f, -0.010301f, -0.013644f, 
  0.006407f, 0.000474f, 0.007074f, 0.025229f, 0.032996f, 0.019125f, 0.028222f, 0.020607f, 
  -0.002903f, 0.004297f, 0.016818f, 0.019872f, 0.039227f, 0.007321f, 0.020441f, 0.018490f, 
  -0.012586f, 0.015173f, 0.006674f, -0.020405f, 0.015002f, -0.018848f, -0.006811f, -0.028284f, 
  0.011385f, -0.002463f, 0.004851f, 0.010330f, 0.012353f, 0.024074f, 0.021306f, 0.011643f, 
  0.036220f, -0.008751f, 0.043993f, 0.004793f, 0.016091f, 0.000232f, 0.005813f, -0.003825f, 
  -0.012668f, -0.018465f, 0.026322f, 0.017704f, -0.004202f, -0.029981f, -0.005655f, 0.006335f, 
  -0.000351f, -0.032177f, -0.039918f, -0.006413f, -0.026279f, -0.037566f, 0.024355f, -0.004006f, 
  -0.004551f, 0.027124f, 0.024239f, 0.003703f, 0.037040f, 0.004785f, 0.035313f, -0.008117f, 
  -0.003490f, 0.004415f, 0.027312f, 0.022572f, 0.051806f, -0.015997f, -0.001084f, 0.014552f, 
  -0.007325f, -0.012651f, -0.004754f, 0.009957f, -0.010140f, -0.014615f, 0.002571f, 0.016011f, 
  -0.022284f, -0.015901f, 0.012942f, 0.038921f, 0.012148f, -0.001329f, -0.020733f, 0.025526f, 
  0.011518f, 0.005676f, -0.023462f, 0.003479f, 0.009773f, 0.003405f, 0.010810f, 0.028657f, 
  0.011349f, 0.029999f, 0.004073f, -0.011776f, 0.005436f, 0.024015f, 0.003324f, 0.011016f, 
  -0.016358f, -0.044415f, 0.016083f, -0.001632f, -0.014805f, 0.011526f, -0.024417f, 0.001231f, 
  0.007026f, -0.015117f, 0.015019f, 0.006161f, 0.020115f, -0.006171f, -0.023072f, 0.018670f, 
  -0.002048f, 0.007782f, 0.021373f, 0.012989f, -0.014051f, 0.009795f, -0.002824f, 0.018762f, 
  0.032872f, 0.022047f, -0.019341f, -0.019418f, 0.010643f, -0.024722f, 0.013819f, -0.000709f, 
  -0.011967f, 0.002914f, -0.002949f, -0.019472f, 0.002991f, 0.016231f, -0.013470f, 0.013507f, 
  -0.006450f, 0.015562f, 0.007559f, 0.012468f, -0.013100f, 0.026721f, -0.020692f, 0.021209f, 
  -0.013638f, 0.027261f, 0.004882f, -0.009998f, 0.015200f, 0.010073f, -0.027497f, 0.001635f, 
  -0.006376f, 0.001241f, -0.008221f, 0.002112f, 0.013060f, 0.013095f, -0.002531f, -0.000478f, 
  0.012282f, 0.018988f, -0.024685f, 0.007276f, 0.003566f, -0.008145f, 0.009038f, 0.029138f, 
  0.011111f, 0.011719f, 0.022469f, 0.026082f, 0.002841f, -0.004520f, 0.004274f, 0.007648f, 
  0.018974f, -0.013489f, 0.001420f, -0.027273f, 0.004529f, -0.002697f, -0.015629f, 0.011919f, 
  -0.007844f, -0.015041f, 0.013042f, 0.016050f, -0.018418f, -0.001082f, -0.033872f, -0.028059f, 
  -0.010513f, 0.013040f, 0.017423f, -0.015124f, 0.025451f, 0.003999f, 0.020690f, 0.019774f, 
  0.031350f, -0.027511f, 0.026426f, 0.018122f, 0.009709f, -0.003715f, -0.019312f, -0.009941f, 
  0.008007f, -0.034555f, 0.009747f, 0.044927f, 0.010685f, 0.002469f, 0.001191f, -0.008300f, 
  -0.010247f, -0.011169f, -0.025356f, 0.011041f, 0.006539f, -0.012565f, -0.025807f, -0.011558f, 
  0.019519f, 0.018131f, 0.002972f, -0.005010f, 0.011694f, -0.036458f, -0.013110f, -0.037387f, 
  -0.001600f, -0.028275f, 0.017005f, -0.045394f, -0.013864f, -0.001090f, -0.019222f, -0.017540f, 
  0.020162f, 0.021219f, 0.032835f, 0.004584f, -0.025767f, 0.014447f, 0.004470f, -0.017597f, 
  -0.012840f, 0.035871f, 0.019884f, -0.013026f, 0.031372f, -0.033313f, -0.010030f, -0.003628f, 
  -0.036547f, -0.011856f, 0.025243f, -0.007960f, -0.012824f, 0.011544f, -0.035866f, -0.039322f, 
  0.007563f, 0.021996f, -0.038288f, 0.004744f, 0.013765f, 0.028472f, 0.016410f, -0.006112f, 
  0.008100f, 0.006843f, -0.012415f, 0.017433f, 0.004485f, -0.000912f, 0.015125f, -0.016386f, 
  0.006810f, -0.010928f, 0.005058f, 0.019398f, 0.020503f, 0.012126f, -0.040670f, -0.037972f, 
  -0.026176f, -0.028423f, -0.054336f, -0.009773f, -0.003522f, -0.026128f, -0.041554f, -0.021617f, 
  -0.030047f, -0.040814f, -0.006288f, 0.015091f, 0.012305f, 0.004913f, -0.019765f, -0.001508f, 
  -0.023526f, -0.002457f, -0.025316f, 0.007394f, 0.005246f, -0.014844f, -0.010662f, 0.002608f, 
  -0.020830f, 0.014560f, -0.041217f, -0.008869f, -0.017963f, -0.010215f, -0.057828f, 0.002245f, 
  -0.056402f, -0.012066f, -0.052400f, -0.029631f, -0.018020f, -0.039530f, -0.034420f, 0.049745f, 
  0.010613f, -0.005665f, -0.003993f, -0.025661f, 0.012547f, -0.002264f, -0.040445f, -0.032457f, 
  -0.051691f, -0.018667f, -0.000544f, -0.009178f, -0.022230f, -0.008716f, 0.000457f, -0.049913f, 
  -0.008996f, -0.025917f, -0.018610f, -0.043608f, -0.028150f, -0.013809f, -0.033808f, -0.022014f, 
  -0.013377f, -0.036637f, 0.010105f, -0.001165f, -0.000626f, 0.023500f, 0.015616f, -0.022317f, 
  0.027044f, -0.009461f, -0.011422f, -0.049985f, 0.005532f, -0.055130f, -0.015810f, -0.025050f, 
  -0.002134f, -0.029171f, -0.005653f, 0.014566f, 0.001076f, -0.031216f, -0.009331f, -0.015331f, 
  -0.030344f, -0.034674f, -0.011517f, -0.040776f, -0.023918f, -0.008941f, -0.027628f, -0.045947f, 
  -0.029671f, -0.024346f, -0.017649f, 0.001443f, 0.001733f, -0.001761f, -0.005964f, -0.024968f, 
  -0.031275f, -0.025927f, -0.019172f, -0.026371f, -0.009589f, -0.031451f, -0.050343f, -0.028397f, 
  -0.046180f, -0.011607f, -0.018784f, -0.031022f, -0.036438f, -0.027778f, -0.034773f, -0.014236f, 
  0.001099f, 0.017608f, -0.000503f, -0.005486f, -0.018295f, -0.000427f, 0.019279f, 0.026153f, 
  -0.016732f, -0.046050f, -0.022449f, -0.004783f, -0.006407f, 0.010557f, -0.005628f, 0.007363f, 
  -0.003845f, 0.016715f, -0.024945f, -0.028833f, -0.023829f, -0.029857f, -0.042066f, -0.024097f, 
  -0.002343f, 0.004264f, -0.029877f, -0.049720f, -0.025945f, -0.029134f, 0.002430f, -0.037006f, 
  0.014409f, 0.026900f, 0.015691f, -0.004513f, -0.021728f, -0.022896f, -0.012383f, -0.025378f, 
  0.018518f, -0.034607f, -0.009277f, 0.008855f, 0.017957f, -0.010064f, -0.011593f, -0.034844f, 
  -0.024678f, -0.027132f, -0.002501f, -0.006822f, -0.042437f, -0.027849f, -0.046259f, -0.044053f, 
  -0.003478f, 0.007214f, -0.037558f, -0.030747f, 0.023070f, 0.018671f, -0.035106f, 0.003305f, 
  0.004406f, 0.006923f, 0.002204f, 0.019499f, 0.001042f, 0.014426f, 0.007629f, 0.038022f, 
  -0.006466f, 0.044648f, 0.011978f, 0.002460f, -0.022672f, -0.005440f, -0.034039f, -0.017443f, 
  -0.076520f, -0.044432f, -0.008261f, -0.024720f, -0.033273f, -0.019276f, 0.006978f, 0.025779f, 
  0.000158f, 0.003509f, 0.008929f, -0.009983f, -0.021498f, 0.006848f, 0.014405f, -0.006774f, 
  0.003003f, 0.016229f, 0.015418f, 0.010351f, 0.035448f, 0.030290f, 0.043518f, -0.021125f, 
  -0.042332f, 0.011642f, -0.002792f, -0.041050f, -0.024008f, -0.054650f, -0.011050f, -0.066337f, 
  -0.004609f, -0.042322f, -0.008581f, -0.028883f, -0.016185f, -0.035204f, 0.007536f, -0.002416f, 
  -0.034220f, -0.034912f, 0.002617f, 0.022127f, -0.001733f, 0.019686f, 0.002930f, 0.017886f, 
  0.036964f, 0.022560f, 0.022970f, 0.008377f, 0.003146f, -0.011864f, -0.001618f, -0.028018f, 
  -0.003805f, -0.041138f, -0.032278f, -0.045874f, -0.050702f, -0.010829f, -0.025063f, -0.003761f, 
  -0.009519f, -0.036277f, -0.004547f, -0.000850f, 0.003727f, 0.001467f, 0.000836f, -0.020590f, 
  -0.005697f, -0.003174f, 0.012769f, 0.004299f, -0.001485f, 0.021532f, 0.005176f, 0.025988f, 
  -0.012255f, 0.004647f, -0.021888f, -0.038946f, -0.057730f, -0.008203f, -0.036968f, -0.050269f, 
  -0.060315f, -0.033523f, -0.057580f, -0.022204f, -0.020938f, 0.002284f, -0.063132f, -0.021220f, 
  -0.034308f, -0.003459f, -0.037033f, -0.045745f, 0.002454f, 0.024822f, 0.010922f, 0.013225f, 
  0.020966f, 0.021534f, 0.053006f, -0.004195f, 0.000329f, -0.037480f, 0.020625f, -0.037525f, 
  -0.058062f, -0.039060f, -0.015730f, -0.038836f, -0.022996f, -0.009548f, -0.016241f, 0.023350f, 
  -0.010944f, 0.011408f, -0.040579f, -0.062562f, -0.011245f, -0.031414f, -0.066094f, -0.020244f, 
  -0.035019f, 0.013219f, -0.019361f, 0.025210f, 0.012704f, 0.032791f, 0.014016f, -0.007712f, 
  -0.009035f, -0.042297f, -0.011574f, -0.041403f, -0.042317f, -0.010151f, -0.049831f, -0.038372f, 
  -0.058721f, -0.054701f, -0.022045f, -0.029033f, -0.024182f, -0.002300f, -0.035193f, -0.056806f, 
  -0.062813f, -0.055047f, -0.028272f, -0.029835f, -0.043889f, -0.030172f, 0.034806f, 0.000804f, 
  0.049236f, 0.045797f, 0.027163f, 0.013465f, 0.022408f, 0.028797f, -0.003741f, -0.001816f, 
  -0.039090f, -0.012546f, -0.006661f, -0.017672f, -0.020105f, -0.048127f, 0.009759f, 0.010806f, 
  0.014723f, 0.010576f, -0.009693f, -0.025318f, -0.050457f, -0.045727f, -0.039602f, -0.038752f, 
  -0.022483f, -0.047504f, -0.033690f, 0.037781f, 0.032781f, 0.013997f, 0.002052f, 0.025397f, 
  0.022085f, -0.011656f, 0.001265f, 0.008216f, 0.013875f, -0.007552f, -0.006509f, -0.017140f, 
  -0.004088f, -0.005950f, -0.050202f, -0.027528f, -0.001603f, -0.019373f, -0.020706f, -0.021220f, 
  -0.010602f, -0.034639f, -0.025493f, -0.006217f, 0.005982f, -0.002174f, -0.021253f, 0.000105f, 
  -0.009692f, 0.006808f, 0.010905f, 0.023800f, -0.008417f, -0.009734f, 0.001521f, 0.007888f, 
  0.020391f, 0.011206f, 0.014669f, 0.020026f, -0.010819f, -0.062023f, -0.047268f, -0.040351f, 
  -0.025164f, -0.018487f, -0.015772f, 0.014068f, -0.026574f, -0.046621f, -0.004528f, -0.008204f, 
  -0.031292f, -0.037807f, -0.031899f, -0.012891f, -0.052911f, 0.006809f, 0.008890f, 0.036344f, 
  0.003024f, 0.025476f, 0.013522f, 0.010815f, 0.015488f, 0.078161f, 0.031512f, 0.022148f, 
  -0.008749f, -0.017841f, -0.042683f, -0.049824f, -0.061458f, -0.017145f, -0.028398f, -0.008469f, 
  -0.045382f, -0.046067f, -0.047770f, -0.044473f, 0.020868f, -0.024260f, -0.002835f, -0.021052f, 
  -0.025318f, -0.038567f, 0.013881f, 0.013786f, 0.019988f, -0.009094f, 0.023587f, -0.008066f, 
  0.033029f, 0.033899f, 0.009697f, -0.000514f, -0.010389f, -0.002743f, -0.022070f, 0.025551f, 
  0.017468f, -0.062163f, -0.083292f, -0.057867f, -0.014643f, -0.036470f, -0.050386f, -0.011432f, 
  0.023080f, -0.011025f, -0.003308f, 0.004767f, -0.028611f, 0.005051f, -0.010313f, 0.020914f, 
  0.011031f, -0.003323f, -0.009921f, 0.038432f, 0.007798f, -0.018287f, 0.041525f, 0.001770f, 
  0.009387f, 0.016986f, 0.007547f, 0.029356f, -0.014414f, -0.055680f, -0.015230f, -0.015723f, 
  -0.024836f, -0.015168f, -0.061565f, -0.029427f, -0.029198f, -0.007710f, 0.011351f, -0.001262f, 
  -0.028382f, -0.059086f, -0.038264f, -0.039812f, 0.017827f, 0.014198f, 0.016238f, 0.014816f, 
  0.022728f, -0.002575f, -0.004035f, 0.023954f, -0.005290f, 0.001995f, -0.015303f, 0.028723f, 
  0.021665f, 0.051738f, 0.009383f, -0.007509f, -0.016492f, -0.020437f, -0.023682f, 0.006884f, 
  0.003677f, -0.002500f, -0.017658f, -0.045426f, -0.016236f, -0.021659f, -0.050128f, -0.007569f, 
  0.038401f, 0.000769f, -0.006227f, 0.033861f, 0.032635f, 0.016665f, 0.006198f, -0.006549f, 
  -0.026605f, -0.020753f, 0.001508f, -0.004631f, -0.001935f, 0.027433f, 0.028113f, -0.027582f, 
  0.003625f, -0.003552f, 0.003294f, -0.020553f, 0.012234f, 0.005113f, 0.026533f, -0.015891f, 
  -0.007246f, -0.057149f, -0.001859f, -0.030580f, 0.015093f, 0.006675f, 0.002964f, -0.024169f, 
  0.026071f, 0.026550f, -0.005707f, 0.019390f, -0.048090f, 0.009907f, 0.018017f, 0.019439f, 
  -0.007902f, -0.006607f, -0.010291f, 0.021563f, 0.070020f, 0.066413f, 0.032642f, 0.029208f, 
  0.039122f, 0.010095f, 0.006991f, -0.029523f, -0.003179f, -0.009586f, -0.055104f, -0.010360f, 
  -0.030687f, -0.013505f, 0.004468f, 0.013591f, -0.021828f, 0.043052f, 0.012281f, 0.020948f, 
  0.030318f, -0.034341f, -0.006518f, -0.055110f, 0.034812f, -0.011028f, -0.016772f, -0.005106f, 
  -0.005285f, 0.018023f, 0.025692f, 0.039402f, 0.043856f, 0.011970f, 0.043467f, 0.041020f, 
  0.022979f, 0.002290f, 0.018583f, 0.001263f, 0.038257f, 0.029324f, 0.020629f, 0.016481f, 
  -0.014039f, -0.004121f, -0.016119f, 0.028541f, -0.013374f, -0.000767f, 0.000747f, 0.043207f, 
  0.001758f, 0.013062f, 0.014808f, -0.026317f, 0.036755f, 0.046700f, 0.052214f, 0.049436f, 
  0.038268f, 0.070581f, 0.064671f, 0.032653f, 0.037978f, -0.019450f, 0.021989f, 0.054135f, 
  0.033643f, 0.039983f, 0.034711f, 0.037696f, 0.019781f, 0.005141f, -0.022395f, -0.028783f, 
  0.029063f, -0.001490f, 0.043493f, -0.007570f, -0.018399f, 0.016460f, 0.004767f, 0.025639f, 
  0.005175f, -0.011723f, 0.011403f, 0.017620f, 0.037682f, 0.062790f, 0.077797f, 0.075256f, 
  0.011519f, 0.054228f, 0.040721f, 0.049619f, 0.057517f, 0.044122f, 0.041798f, 0.009168f, 
  0.035783f, 0.030878f, 0.005223f, 0.037435f, 0.032351f, 0.028538f, -0.000958f, 0.012671f, 
  0.003631f, 0.033537f, -0.008031f, 0.046989f, 0.006095f, 0.048509f, 0.051712f, 0.060996f, 
  0.034314f, 0.034414f, 0.025977f, 0.017512f, 0.035123f, 0.057051f, 0.057235f, 0.046412f, 
  0.042760f, 0.032590f, 0.076691f, 0.065703f, 0.050597f, 0.029129f, 0.000766f, -0.000710f, 
  -0.013075f, 0.058266f, 0.021461f, -0.014119f, -0.004843f, 0.021853f, 0.010768f, 0.017326f, 
  0.020819f, 0.023189f, -0.009539f, 0.039595f, 0.015922f, 0.052548f, 0.047641f, 0.020204f, 
  0.002613f, 0.020222f, 0.026295f, 0.011430f, 0.042483f, 0.063519f, 0.054716f, 0.050194f, 
  0.036752f, 0.039639f, 0.037734f, 0.026406f, 0.013777f, -0.008958f, -0.009267f, 0.008556f, 
  0.023317f, 0.009453f, 0.024802f, -0.004556f, 0.013441f, 0.027189f, -0.001600f, 0.008762f, 
  0.021103f, -0.050663f, -0.018026f, 0.031278f, 0.009011f, 0.021482f, 0.019830f, -0.012709f, 
  -0.024720f, 0.034167f, -0.060720f, -0.015956f, 0.000349f, -0.006477f, -0.027731f, 0.009015f, 
  -0.018060f, 0.041681f, 0.061898f, 0.035436f, 0.011525f, -0.005449f, -0.020784f, 0.048883f, 
  -0.003478f, 0.020959f, 0.032090f, 0.009558f, 0.000939f, 0.009350f, 0.007789f, 0.028383f, 
  0.046541f, 0.007175f, -0.017399f, 0.019605f, 0.016314f, -0.006023f, 0.003305f, -0.020514f, 
  -0.003794f, -0.024773f, -0.029997f, -0.036412f, -0.027778f, -0.020061f, 0.041142f, 0.011728f, 
  0.015715f, 0.011440f, 0.008915f, -0.029579f, 0.002781f, -0.006778f, 0.010628f, 0.012605f, 
  0.033322f, 0.008851f, 0.001050f, -0.005017f, -0.024790f, 0.043988f, -0.012319f, -0.000683f, 
  0.000601f, -0.038912f, 0.005193f, -0.016468f, -0.001283f, 0.002097f, 0.001252f, -0.000615f, 
  -0.015993f, -0.011785f, -0.048943f, 0.025102f, 0.013702f, 0.020015f, -0.000802f, 0.023177f, 
  0.018326f, 0.024692f, -0.022312f, 0.012781f, 0.009863f, 0.016829f, 0.014525f, -0.043340f, 
  -0.028142f, -0.003579f, -0.007325f, 0.004062f, 0.011259f, -0.022787f, -0.006629f, -0.020913f, 
  -0.023312f, -0.036047f, -0.049859f, -0.031856f, -0.054920f, -0.060558f, -0.014395f, -0.042608f, 
  0.009485f, 0.024405f, 0.042949f, 0.017769f, 0.051575f, 0.031490f, -0.001855f, -0.016459f, 
  -0.035930f, -0.013577f, 0.027402f, -0.052626f, -0.053923f, -0.043741f, -0.015073f, 0.013542f, 
  -0.012494f, 0.007870f, -0.034091f, 0.015887f, -0.026544f, -0.036034f, -0.036803f, -0.073396f, 
  -0.015444f, -0.008681f, -0.046774f, -0.026885f, -0.065461f, 0.040358f, 0.013226f, 0.037896f, 
  0.029875f, 0.013371f, -0.006454f, 0.026422f, -0.045967f, -0.003470f, -0.020923f, -0.018409f, 
  0.015133f, -0.019591f, -0.041119f, -0.043543f, -0.024399f, -0.026030f, 0.025357f, 0.031861f, 
  -0.007520f, -0.044368f, -0.020330f, -0.005957f, -0.061992f, -0.030359f, -0.022304f, -0.026903f, 
  -0.025050f, 0.004188f, -0.012387f, 0.016206f, -0.011024f, -0.019632f, -0.015137f, 0.000257f, 
  -0.030279f, -0.023934f, -0.037575f, -0.023280f, -0.005800f, -0.014240f, -0.022176f, -0.011122f, 
  -0.023080f, -0.000854f, 0.008365f, -0.029062f, 0.013342f, -0.028258f, -0.037928f, -0.043526f, 
  -0.017521f, -0.020607f, -0.025442f, 0.008008f, -0.016555f, -0.004087f, 0.012535f, 0.011502f, 
  -0.028563f, 0.001432f, -0.027608f, -0.012744f, -0.031320f, -0.000194f, -0.050268f, -0.008791f, 
  0.020399f, 0.026488f, 0.029216f, 0.009377f, 0.001333f, -0.017270f, -0.005523f, -0.012965f, 
  -0.015162f, 0.003102f, -0.012410f, -0.012640f, -0.029934f, -0.048584f, -0.008179f, -0.015324f, 
  -0.054100f, -0.044321f, -0.004823f, 0.012517f, -0.021590f, -0.001617f, -0.002574f, -0.009223f, 
  -0.020604f, -0.046905f, -0.013441f, -0.051107f, 0.013449f, 0.012764f, 0.029915f, -0.002467f, 
  -0.019720f, -0.019384f, -0.036796f, -0.014146f, -0.015860f, -0.025064f, -0.008550f, -0.063661f, 
  -0.021865f, 0.000676f, -0.020998f, 0.013632f, 0.005800f, -0.008549f, -0.007270f, -0.002444f, 
  0.013258f, -0.015649f, 0.049927f, 0.032134f, -0.005262f, -0.012593f, 0.007874f, 0.004245f, 
  -0.023170f, 0.016341f, 0.009588f, 0.014846f, 0.009214f, -0.000177f, -0.034808f, -0.014979f, 
  -0.011452f, -0.024605f, -0.035039f, -0.046279f, -0.039887f, -0.033176f, -0.011206f, -0.035937f, 
  -0.013554f, 0.009143f, 0.019950f, -0.024189f, -0.010791f, 0.001812f, 0.004978f, -0.015222f, 
  -0.029339f, -0.002966f, -0.052793f, 0.028133f, 0.020882f, 0.033744f, 0.007185f, 0.054318f, 
  0.009749f, 0.010773f, -0.007190f, 0.013405f, -0.004209f, -0.011390f, 0.020882f, 0.009683f, 
  -0.009650f, -0.060811f, -0.018346f, -0.000103f, 0.003405f, -0.055275f, -0.009536f, -0.010954f, 
  0.014572f, -0.010242f, -0.030501f, -0.014091f, 0.011213f, -0.008343f, 0.017130f, -0.022153f, 
  0.015998f, 0.009928f, 0.014144f, -0.000850f, 0.007871f, -0.004118f, 0.003428f, 0.034999f, 
  -0.009047f, -0.014711f, -0.017472f, -0.048705f, -0.035210f, -0.049624f, -0.062914f, 0.003381f, 
  -0.036498f, -0.000927f, -0.008928f, -0.022871f, 0.009241f, 0.029408f, -0.002765f, 0.007124f, 
  -0.014761f, -0.024309f, -0.020385f, -0.019235f, 0.003638f, -0.012857f, -0.027984f, 0.006989f, 
  0.010554f, 0.023603f, -0.035879f, 0.022476f, -0.008902f, -0.025465f, -0.036643f, -0.035146f, 
  -0.058856f, -0.025211f, -0.076670f, -0.044332f, -0.030385f, 0.017961f, -0.063493f, -0.039661f, 
  0.013853f, 0.019197f, -0.000776f, -0.027363f, -0.037417f, 0.002768f, 0.008653f, -0.010739f, 
  0.012935f, 0.062575f, -0.007198f, 0.039475f, 0.031211f, 0.031804f, 0.025629f, 0.016585f, 
  -0.000033f, -0.001661f, -0.010164f, -0.046563f, -0.079016f, -0.052123f, -0.046771f, -0.037972f, 
  -0.025804f, -0.019874f, 0.023685f, -0.036401f, -0.059031f, -0.014069f, -0.070357f, 0.003950f, 
  -0.035422f, -0.022450f, 0.001497f, 0.049804f, -0.014712f, 0.008126f, 0.026006f, -0.010463f, 
  0.005405f, -0.004170f, 0.014775f, -0.037443f, 0.005429f, 0.004673f, -0.042951f, -0.060516f, 
  -0.046918f, -0.086806f, -0.001371f, -0.023160f, -0.012129f, -0.011255f, -0.032532f, -0.006146f, 
  -0.049727f, -0.086762f, -0.047021f, -0.027527f, -0.100973f, -0.024410f, -0.030823f, 0.036644f, 
  0.012667f, -0.022123f, 0.003669f, 0.039504f, 0.020731f, 0.007149f, -0.021374f, 0.007889f, 
  0.018168f, -0.019042f, -0.021236f, 0.001363f, -0.045563f, -0.044885f, -0.013505f, 0.003346f, 
  0.002279f, -0.031361f, 0.021540f, -0.024853f, -0.019662f, -0.014777f, -0.038588f, -0.042751f, 
  -0.001484f, -0.040528f, -0.010443f, -0.059415f, 0.027600f, 0.037065f, -0.005165f, -0.009164f, 
  0.035504f, 0.029275f, -0.033133f, -0.036705f, 0.004128f, 0.003344f, -0.009043f, -0.040372f, 
  -0.021801f, -0.045346f, -0.019697f, -0.028665f, -0.033625f, 0.008120f, -0.011243f, -0.027067f, 
  -0.030642f, -0.034517f, -0.029001f, -0.023701f, -0.010407f, 0.011568f, -0.007813f, -0.052184f, 
  -0.014448f, 0.001888f, 0.020018f, -0.003272f, -0.009906f, 0.009423f, 0.002908f, -0.030738f, 
  -0.017365f, -0.021549f, -0.010114f, 0.006955f, -0.002804f, -0.010716f, 0.008624f, -0.002603f, 
  -0.048368f, -0.021383f, -0.038329f, -0.050285f, -0.029281f, 0.000227f, -0.000559f, -0.031478f, 
  -0.009633f, -0.015730f, -0.004249f, 0.027943f, -0.064171f, -0.052618f, -0.001713f, 0.037677f, 
  -0.025646f, 0.000904f, 0.032529f, 0.026355f, -0.023375f, 0.003540f, 0.002259f, 0.042999f, 
  0.052425f, 0.033280f, -0.012709f, 0.022884f, -0.038528f, -0.076690f, -0.050449f, -0.013745f, 
  -0.020368f, -0.003702f, -0.033004f, -0.031501f, -0.004749f, -0.000450f, 0.004109f, 0.002836f, 
  0.007392f, -0.013135f, -0.073888f, 0.029610f, 0.002993f, -0.009204f, -0.012571f, 0.022659f, 
  0.005106f, 0.040512f, -0.008022f, 0.034158f, 0.025617f, 0.056246f, -0.011071f, 0.002087f, 
  0.008662f, 0.006450f, -0.056446f, -0.069700f, -0.016161f, -0.020034f, -0.023486f, 0.007601f, 
  -0.035892f, 0.006322f, 0.001401f, 0.029693f, -0.045228f, 0.017402f, -0.004970f, -0.036674f, 
  -0.004102f, -0.032005f, 0.040154f, -0.000604f, -0.008476f, 0.007815f, 0.059201f, 0.022686f, 
  -0.011717f, 0.006325f, 0.021048f, 0.020790f, -0.018813f, 0.003377f, -0.007927f, -0.037952f, 
  -0.085489f, 0.004714f, -0.019211f, -0.032772f, -0.057058f, -0.032245f, -0.014376f, -0.032678f, 
  -0.021040f, -0.055152f, -0.038583f, 0.012775f, -0.015300f, 0.042486f, -0.001894f, 0.017879f, 
  0.038683f, 0.070528f, 0.007222f, 0.040839f, 0.004421f, -0.011546f, -0.037334f, 0.009240f, 
  -0.009072f, -0.001562f, -0.005960f, -0.012579f, -0.018223f, 0.002479f, -0.039950f, 0.000508f, 
  -0.070739f, 0.029921f, -0.039130f, 0.013581f, -0.027327f, -0.023326f, -0.015618f, -0.068763f, 
  0.005380f, -0.033460f, 0.021666f, -0.024670f, -0.015162f, 0.044346f, 0.028179f, 0.021552f, 
  0.021667f, 0.010992f, -0.023374f, -0.034142f, 0.000477f, -0.018499f, 0.022705f, 0.019671f, 
  0.014660f, -0.024438f, -0.029174f, 0.005857f, 0.032660f, -0.047487f, 0.013135f, -0.007592f, 
  -0.041620f, -0.041955f, -0.009279f, 0.003399f, -0.019059f, -0.007777f, 0.005020f, 0.039776f, 
  -0.027188f, 0.016747f, 0.043261f, 0.004359f, -0.016322f, -0.024334f, -0.011235f, -0.027109f, 
  -0.014720f, 0.014270f, -0.015747f, -0.008541f, 0.020191f, -0.001621f, 0.009842f, -0.003336f, 
  0.021659f, 0.039094f, -0.003218f, -0.032396f, 0.017995f, 0.034952f, -0.026393f, -0.012280f, 
  -0.001249f, -0.032777f, -0.019331f, 0.004054f, 0.029357f, 0.011472f, -0.002925f, 0.028033f, 
  0.037208f, 0.011099f, -0.036326f, -0.007732f, -0.025917f, 0.008420f, -0.040899f, -0.014092f, 
  -0.012891f, -0.007400f, 0.021151f, -0.010349f, -0.012642f, -0.017312f, 0.048466f, 0.024304f, 
  0.063542f, 0.023820f, 0.034573f, -0.029839f, 0.003430f, 0.014678f, -0.047864f, 0.006101f, 
  0.005189f, 0.029052f, -0.007687f, 0.010442f, -0.001282f, 0.036825f, -0.025041f, -0.020748f, 
  -0.011863f, -0.019309f, 0.009925f, 0.017151f, 0.013353f, 0.015015f, -0.000216f, 0.056983f, 
  0.047409f, 0.063472f, 0.042551f, 0.033263f, 0.033920f, 0.030400f, 0.024649f, -0.005047f, 
  0.004330f, -0.001106f, 0.038373f, 0.027851f, 0.055799f, 0.014787f, 0.001190f, 0.001044f, 
  0.021690f, 0.023880f, 0.024147f, 0.006105f, -0.010393f, 0.012147f, -0.037860f, -0.013923f, 
  -0.029021f, -0.011459f, 0.033772f, 0.000455f, 0.052880f, 0.041229f, 0.053771f, 0.100693f, 
  0.016231f, 0.011177f, 0.045535f, 0.063154f, 0.030831f, 0.064471f, 0.059641f, 0.040511f, 
  0.058226f, 0.035256f, 0.041739f, -0.059231f, 0.034251f, 0.024781f, 0.034228f, -0.019454f, 
  0.002111f, 0.024651f, -0.025062f, -0.007949f, -0.006914f, -0.001099f, -0.007330f, -0.015148f, 
  0.025797f, 0.064603f, 0.048319f, 0.030579f, 0.058883f, 0.052371f, -0.005552f, 0.044526f, 
  0.093590f, 0.068714f, 0.043885f, 0.089976f, 0.085611f, 0.056282f, 0.021612f, 0.015995f, 
  -0.012996f, 0.025360f, 0.064781f, 0.023832f, 0.016994f, 0.012127f, 0.027875f, 0.012366f, 
  -0.009466f, 0.039906f, -0.014711f, 0.016298f, 0.028138f, 0.019089f, 0.016193f, 0.045748f, 
  0.050256f, 0.051326f, -0.020447f, 0.056076f, 0.045312f, 0.057876f, 0.053624f, 0.060617f, 
  0.073311f, 0.025025f, 0.022779f, 0.015034f, -0.008119f, 0.017630f, 0.022729f, -0.003467f, 
  -0.011963f, 0.003687f, 0.003185f, 0.012155f, 0.024382f, -0.007335f, -0.002830f, 0.017806f, 
  -0.008021f, -0.001969f, 0.031292f, 0.011656f, 0.003613f, -0.018030f, -0.027538f, -0.015569f, 
  -0.018565f, -0.025066f, 0.002420f, 0.033374f, -0.005547f, -0.002333f, 0.010467f, 0.007201f, 
  0.029010f, -0.002966f, 0.002681f, 0.002587f, -0.023628f, -0.036596f, -0.004608f, 0.022193f, 
  -0.009104f, -0.011908f, -0.005351f, -0.037496f, -0.002972f, 0.002053f, -0.032186f, -0.011311f, 
  -0.023174f, -0.035039f, -0.006495f, 0.016668f, -0.016096f, -0.016477f, -0.022656f, -0.007689f, 
  0.011100f, -0.002413f, 0.029245f, -0.016902f, -0.021580f, -0.037151f, 0.010419f, 0.029634f, 
  0.002933f, 0.001137f, -0.036084f, -0.000540f, 0.014004f, -0.007045f, 0.002769f, 0.010081f, 
  0.023450f, -0.021857f, -0.013076f, 0.003234f, -0.018525f, -0.002840f, 0.011522f, -0.033901f, 
  -0.015277f, -0.000817f, 0.006163f, -0.011754f, -0.023312f, -0.012942f, -0.005488f, -0.015646f, 
  -0.021567f, -0.020191f, -0.037064f, -0.044264f, -0.022839f, -0.012619f, -0.000107f, -0.001805f, 
  -0.056798f, -0.033036f, -0.025741f, 0.006249f, -0.031775f, -0.001184f, 0.010005f, -0.022575f, 
  -0.043334f, -0.029436f, -0.025119f, -0.025338f, -0.013392f, -0.046851f, -0.023576f, 0.014732f, 
  -0.027323f, -0.000049f, -0.011066f, -0.025095f, 0.001623f, -0.005537f, -0.014493f, 0.018404f, 
  -0.011204f, -0.018506f, 0.004280f, -0.006656f, -0.004923f, -0.010499f, 0.026271f, 0.001137f, 
  -0.014738f, -0.002529f, 0.003871f, -0.003134f, -0.024339f, -0.007433f, -0.016112f, -0.011413f, 
  0.006747f, -0.010069f, 0.002819f, 0.009867f, 0.000149f, 0.004034f, -0.032800f, -0.021267f, 
  0.007121f, 0.012448f, -0.003307f, 0.016785f, -0.001552f, 0.010141f, -0.009423f, -0.017837f, 
  -0.029421f, -0.011819f, -0.032168f, 0.001301f, 0.004945f, -0.008923f, -0.011667f, 0.013677f, 
  0.010338f, 0.022274f, -0.029056f, 0.009591f, -0.006172f, -0.009884f, 0.010592f, -0.028417f, 
  -0.013436f, 0.002704f, -0.005208f, -0.005745f, -0.002854f, -0.011621f, -0.022772f, -0.009171f, 
  -0.002349f, 0.015354f, 0.011790f, -0.038493f, -0.028504f, -0.009145f, 0.004088f, -0.014506f, 
  0.016066f, 0.002571f, 0.013389f, 0.025982f, 0.009716f, 0.022980f, -0.020674f, -0.009258f, 
  0.025008f, -0.017511f, 0.014820f, 0.004649f, -0.031733f, -0.018585f, 0.018533f, -0.014510f, 
  -0.029860f, -0.034094f, -0.041489f, -0.026512f, -0.033379f, -0.006992f, -0.008976f, 0.008333f, 
  -0.036000f, -0.010413f, -0.001508f, -0.000764f, 0.020578f, 0.008305f, 0.018645f, 0.026728f, 
  0.018706f, 0.013885f, 0.013138f, -0.004020f, -0.006527f, -0.019221f, -0.020506f, -0.032878f, 
  -0.005504f, 0.010320f, -0.005924f, -0.034849f, -0.002624f, -0.030778f, -0.001117f, 0.003912f, 
  -0.009732f, 0.003513f, -0.027758f, -0.015969f, -0.039257f, -0.029133f, 0.028123f, 0.006010f, 
  0.042148f, 0.012438f, 0.031209f, 0.028656f, 0.035754f, 0.037363f, 0.028293f, -0.015436f, 
  0.035748f, 0.013214f, -0.021429f, 0.002639f, -0.005395f, -0.035192f, -0.010008f, -0.027843f, 
  -0.023118f, 0.014843f, -0.012053f, -0.039217f, 0.002999f, 0.003983f, -0.028071f, -0.061826f, 
  -0.011387f, -0.046521f, 0.023849f, 0.011600f, 0.018029f, 0.024542f, -0.004025f, 0.035120f, 
  0.030057f, 0.013759f, -0.009860f, 0.025137f, -0.018750f, 0.023934f, 0.008356f, -0.002246f, 
  -0.010464f, -0.006589f, -0.012740f, -0.032901f, -0.047079f, -0.016978f, -0.056752f, 0.003847f, 
  -0.036127f, -0.017580f, -0.043106f, -0.034961f, -0.048278f, -0.024947f, -0.038736f, -0.001219f, 
  0.011427f, 0.034168f, 0.043560f, 0.046285f, 0.014416f, 0.028802f, 0.025121f, 0.000769f, 
  0.006291f, 0.008553f, 0.006230f, -0.012006f, -0.031846f, -0.042215f, -0.038854f, -0.021839f, 
  -0.036829f, -0.018968f, -0.043346f, -0.013126f, -0.039615f, -0.036403f, 0.011505f, -0.018702f, 
  0.002106f, -0.024577f, 0.016835f, -0.029223f, 0.005219f, 0.027803f, -0.011725f, 0.032135f, 
  0.034684f, 0.020574f, 0.036028f, 0.035054f, -0.006714f, 0.038198f, 0.008100f, -0.014902f, 
  -0.014446f, -0.033809f, -0.027526f, -0.032864f, -0.021250f, -0.036373f, -0.037491f, -0.034703f, 
  -0.033044f, -0.027221f, -0.055462f, 0.002967f, -0.005689f, -0.044844f, -0.021363f, -0.016309f, 
  -0.044724f, -0.021780f, 0.007595f, -0.006068f, 0.016644f, 0.025656f, 0.059541f, 0.041045f, 
  0.023930f, 0.023716f, -0.000050f, 0.034753f, 0.002819f, 0.009315f, 0.000332f, -0.027816f, 
  -0.063644f, -0.016215f, -0.022756f, -0.026318f, -0.015342f, 0.009573f, -0.014384f, -0.051542f, 
  -0.025024f, -0.017495f, -0.043913f, -0.011195f, -0.007998f, -0.051711f, 0.056276f, -0.006981f, 
  0.005391f, 0.033670f, 0.005570f, 0.015217f, -0.003172f, -0.002320f, -0.009604f, 0.001433f, 
  -0.001426f, -0.018549f, -0.008129f, -0.005654f, -0.007285f, -0.001316f, -0.000935f, -0.006357f, 
  -0.007886f, -0.013898f, -0.014611f, -0.016390f, -0.011282f, -0.032976f, 0.003910f, -0.017138f, 
  -0.026748f, -0.036496f, -0.031902f, 0.020286f, 0.013292f, 0.050074f, 0.041986f, 0.035254f, 
  0.013369f, -0.003218f, 0.022910f, -0.010469f, 0.014077f, 0.007001f, 0.012639f, -0.012945f, 
  0.003773f, -0.007215f, 0.032682f, -0.019007f, -0.016838f, -0.001421f, 0.010596f, 0.018208f, 
  0.021917f, 0.007355f, -0.005935f, -0.018160f, -0.003746f, -0.034160f, -0.041244f, -0.022094f, 
  0.007198f, 0.001672f, 0.025254f, 0.013609f, 0.029780f, 0.023604f, 0.004427f, 0.016074f, 
  -0.001337f, -0.023510f, -0.002406f, 0.006289f, -0.026519f, -0.049433f, -0.043207f, 0.029384f, 
  -0.009586f, -0.032148f, 0.011412f, -0.006795f, -0.009082f, -0.013805f, 0.011732f, 0.024289f, 
  0.001164f, -0.010590f, -0.046700f, -0.022085f, -0.025004f, 0.003181f, 0.002955f, 0.037879f, 
  0.021890f, -0.009543f, 0.014528f, -0.002806f, 0.022934f, 0.014368f, 0.003388f, 0.000016f, 
  0.010217f, 0.008244f, -0.023260f, 0.000520f, 0.002182f, 0.008460f, -0.000175f, 0.027416f, 
  -0.030133f, 0.022828f, 0.033276f, 0.023361f, 0.024170f, 0.006011f, -0.014685f, -0.012558f, 
  -0.042727f, -0.014410f, -0.004452f, -0.003943f, -0.017008f, 0.033887f, 0.009925f, 0.026996f, 
  0.051088f, 0.049933f, 0.027611f, 0.055923f, 0.033945f, 0.033594f, -0.004184f, 0.044286f, 
  -0.008863f, -0.001033f, -0.007567f, -0.000669f, 0.023722f, -0.015831f, -0.003868f, -0.012125f, 
  0.003256f, 0.004535f, 0.002630f, 0.022923f, 0.012249f, -0.018656f, 0.005476f, -0.013451f, 
  -0.004893f, 0.015464f, 0.009051f, 0.015798f, 0.022969f, 0.036808f, 0.013459f, 0.002144f, 
  0.005297f, 0.000514f, -0.023050f, -0.012740f, 0.037158f, 0.037878f, 0.011267f, 0.043025f, 
  0.015050f, 0.010920f, 0.010800f, -0.010825f, 0.024414f, -0.007228f, -0.009918f, 0.037923f, 
  0.023290f, -0.021607f, 0.001579f, 0.008955f, 0.003451f, 0.013262f, 0.023727f, 0.020598f, 
  -0.012407f, -0.000230f, -0.008306f, 0.007965f, -0.003436f, 0.009903f, 0.041922f, 0.003594f, 
  0.036208f, 0.009749f, -0.008087f, 0.006725f, 0.023294f, 0.013348f, -0.019396f, -0.019710f, 
  0.024519f, -0.003577f, 0.012821f, 0.002708f, -0.019454f, -0.001469f, -0.003376f, -0.016454f, 
  -0.003797f, 0.007006f, 0.016172f, -0.010189f, 0.023717f, 0.016106f, -0.000809f, -0.021383f, 
  -0.014633f, -0.034520f, -0.006875f, 0.008554f, 0.038239f, 0.009707f, 0.013635f, -0.000223f, 
  0.006436f, 0.014381f, 0.017479f, -0.020534f, 0.004737f, 0.030270f, 0.041803f, 0.045271f, 
  0.024170f, 0.031966f, 0.015904f, 0.038083f, 0.021831f, 0.017108f, 0.014157f, -0.016716f, 
  -0.004670f, 0.004871f, -0.033422f, -0.013265f, 0.001809f, -0.031345f, 0.005386f, -0.029696f, 
  -0.006024f, 0.044996f, 0.021813f, 0.008264f, 0.017475f, -0.007298f, 0.050444f, 0.027154f, 
  0.037039f, 0.032471f, 0.035314f, 0.002602f, 0.025109f, -0.005903f, 0.031666f, -0.018426f, 
  -0.003945f, 0.002582f, 0.001453f, 0.008927f, 0.003442f, 0.041572f, -0.005397f, 0.011244f, 
  -0.032118f, -0.037330f, -0.040620f, -0.027208f, 0.002449f, 0.032089f, -0.014700f, 0.032234f, 
  0.014803f, 0.021978f, 0.004735f, 0.017678f, 0.011308f, -0.020949f, 0.024661f, 0.002006f, 
  0.057991f, 0.018582f, 0.015923f, 0.010672f, 0.004955f, 0.009718f, 0.034142f, 0.006339f, 
  0.010418f, 0.029082f, -0.012363f, -0.016433f, 0.006688f, -0.000938f, -0.003577f, -0.029826f, 
  -0.007010f, -0.012235f, 0.002644f, -0.004945f, 0.019311f, 0.018156f, -0.015380f, 0.020072f, 
  0.023888f, 0.033711f, 0.051228f, 0.012669f, 0.019926f, 0.006344f, 0.010209f, 0.015909f, 
  0.007484f, 0.011174f, 0.003449f, 0.012037f, 0.034342f, 0.020594f, -0.016973f, -0.039535f, 
  0.003727f, -0.014343f, -0.005400f, -0.021153f, -0.013431f, 0.025924f, -0.017221f, 0.029149f, 
  0.009985f, 0.036230f, 0.011119f, 0.058815f, 0.051508f, 0.078413f, 0.025096f, 0.034308f, 
  0.039687f, -0.016605f, 0.051705f, 0.015910f, 0.027966f, 0.022609f, 0.035469f, -0.001601f, 
  -0.009581f, 0.012688f, 0.016537f, 0.004207f, -0.011336f, -0.010550f, -0.043808f, -0.003276f, 
  -0.025711f, -0.016234f, 0.004040f, 0.003510f, 0.016993f, -0.014572f, 0.023946f, 0.037880f, 
  0.011916f, -0.004989f, 0.019091f, 0.031195f, 0.043475f, 0.010451f, 0.001740f, 0.008897f, 
  0.020762f, 0.017662f, 0.024627f, 0.037568f, -0.003289f, 0.008173f, 0.020935f, -0.014499f, 
  -0.002020f, -0.002778f, 0.007000f, -0.014933f, -0.015978f, -0.007982f, -0.001353f, 0.012591f, 
  0.003934f, 0.018463f, 0.010725f, 0.045324f, 0.036219f, 0.012111f, 0.039160f, 0.007197f, 
  0.027150f, 0.017798f, 0.024063f, -0.002828f, 0.041294f, 0.044317f, 0.019993f, 0.020672f, 
  0.019861f, 0.016310f, 0.033854f, 0.000905f, -0.003068f, 0.017902f, -0.000366f, 0.006153f, 
  0.015211f, -0.008194f, -0.002244f, -0.007315f, -0.006397f, -0.012427f, 0.000029f, 0.009206f, 
  0.001989f, 0.022305f, -0.014894f, 0.001734f, 0.026982f, 0.057208f, 0.014608f, 0.019879f, 
  -0.001458f, -0.002390f, 0.025492f, 0.035879f, -0.027653f, -0.001866f, 0.009257f, -0.000532f, 
  0.003933f, -0.011555f, -0.013358f, 0.006114f, -0.011446f, -0.016385f, 0.004128f, 0.021723f, 
  -0.025090f, -0.004620f, -0.008523f, -0.004368f, 0.028769f, 0.008895f, 0.024585f, -0.011143f, 
  0.012341f, -0.000970f, 0.006905f, 0.039150f, 0.044939f, 0.022582f, -0.012915f, 0.007541f, 
  -0.017722f, 0.015693f, -0.014299f, 0.005042f, -0.003347f, -0.002180f, 0.001958f, -0.024342f, 
  0.015296f, 0.031739f, -0.012781f, 0.013189f, -0.003661f, 0.018571f, -0.037548f, 0.011491f, 
  -0.018631f, 0.006375f, 0.016302f, 0.003681f, -0.002796f, -0.009054f, 0.001789f, 0.029527f, 
  -0.020543f, -0.013156f, 0.032059f, 0.033923f, -0.008979f, 0.012949f, 0.024300f, -0.005647f, 
  -0.013997f, -0.005720f, -0.010676f, -0.032188f, 0.015095f, -0.002670f, 0.025930f, 0.015693f, 
  -0.017581f, 0.023534f, -0.015528f, 0.028244f, 0.006351f, -0.015061f, 0.006358f, -0.004236f, 
  0.015219f, 0.003779f, 0.003469f, 0.001898f, -0.004514f, 0.044794f, -0.026499f, -0.003652f, 
  0.001506f, -0.004575f, 0.008208f, 0.005858f, -0.004663f, -0.003944f, 0.013750f, 0.027769f, 
  -0.002990f, 0.004390f, 0.004014f, 0.002983f, 0.015400f, 0.015858f, -0.007445f, -0.022636f, 
  -0.022556f, -0.016531f, -0.008091f, -0.004104f, -0.007420f, -0.029095f, -0.004659f, 0.025977f, 
  0.004651f, -0.003203f, 0.021569f, 0.011274f, -0.002787f, -0.011777f, 0.015561f, 0.032745f, 
  -0.003360f, -0.003461f, 0.014205f, 0.017514f, -0.018056f, -0.000537f, 0.007851f, -0.007101f, 
  -0.031107f, 0.020588f, 0.016844f, 0.006465f, 0.001088f, 0.006077f, 0.011231f, -0.028154f, 
  0.007709f, 0.004348f, 0.004936f, 0.013932f, -0.020684f, -0.002782f, 0.006434f, 0.019355f, 
  0.018061f, 0.009126f, -0.005422f, 0.011177f, 0.031810f, -0.007333f, -0.001913f, 0.004437f, 
  0.014375f, -0.012158f, 0.037763f, -0.012599f, 0.025730f, 0.032281f, -0.014030f, 0.024633f, 
  0.015432f, 0.004857f, -0.031988f, -0.020080f, 0.011974f, -0.010958f, 0.000899f, -0.028870f, 
  -0.010266f, 0.021142f, 0.012844f, 0.019613f, -0.011561f, -0.009159f, 0.017622f, 0.013934f, 
  -0.011821f, -0.022463f, 0.036235f, 0.028961f, -0.027544f, 0.016159f, 0.005311f, 0.010529f, 
  -0.033950f, 0.030554f, -0.003131f, -0.000052f, 0.026421f, 0.009639f, -0.012469f, -0.003910f, 
  -0.014302f, -0.007585f, -0.006352f, -0.017834f, -0.011555f, 0.017241f, -0.014743f, 0.012117f, 
  -0.008891f, 0.015865f, -0.000940f, -0.002487f, 0.021444f, 0.036289f, 0.002651f, 0.006262f, 
  0.031762f, -0.002080f, 0.022415f, 0.019056f, -0.014252f, -0.007588f, 0.028520f, 0.016937f, 
  0.005918f, -0.028041f, 0.003398f, -0.011958f, -0.046473f, 0.012985f, -0.012984f, 0.033065f, 
  -0.000857f, -0.000279f, -0.007652f, 0.037610f, 0.006936f, 0.025151f, 0.022406f, 0.009271f, 
  0.022596f, 0.021183f, -0.007575f, -0.011681f, 0.021610f, 0.016317f, -0.006099f, 0.006838f, 
  0.007669f, 0.020430f, -0.002857f, -0.014043f, 0.006878f, -0.038717f, 0.009196f, -0.011245f, 
  -0.020856f, 0.005885f, -0.017249f, -0.012723f, 0.006899f, -0.023499f, 0.010580f, -0.012124f, 
  0.013041f, 0.001283f, -0.002860f, 0.009209f, 0.008406f, 0.016564f, -0.008309f, 0.009247f, 
  0.030576f, 0.034835f, 0.000080f, 0.035895f, -0.011039f, 0.015161f, 0.010160f, -0.017041f, 
  -0.017170f, -0.001456f, -0.028138f, -0.014374f, -0.035841f, -0.030774f, -0.044310f, -0.012720f, 
  -0.016484f, -0.007055f, -0.021459f, 0.028800f, 0.002690f, 0.018378f, 0.038657f, 0.033630f, 
  0.036564f, 0.035450f, 0.026568f, 0.028484f, 0.005762f, -0.005524f, -0.005726f, 0.032535f, 
  0.032998f, 0.018997f, 0.022116f, 0.014723f, -0.014592f, 0.006021f, 0.018414f, 0.019874f, 
  -0.022519f, -0.013879f, -0.034575f, -0.031143f, -0.018925f, -0.009358f, 0.015827f, -0.023908f, 
  -0.032237f, 0.027371f, 0.024869f, 0.048740f, 0.034375f, 0.026269f, -0.003298f, 0.025288f, 
  0.029292f, 0.006963f, -0.012569f, 0.037532f, 0.015853f, 0.029585f, 0.041569f, 0.018205f, 
  0.000605f, 0.018541f, -0.013692f, -0.032397f, -0.005118f, 0.008580f, -0.040611f, -0.046772f, 
  -0.034285f, -0.013359f, -0.018368f, 0.005703f, -0.008015f, 0.025775f, -0.000258f, -0.010609f, 
  0.003057f, 0.032438f, 0.051123f, 0.031350f, -0.002791f, 0.014874f, 0.012176f, 0.027387f, 
  0.012856f, 0.013704f, 0.005915f, 0.013913f, 0.005390f, 0.005866f, -0.005515f, -0.028629f, 
  -0.010687f, -0.029483f, -0.033355f, -0.039450f, -0.033191f, -0.004590f, -0.008912f, -0.001285f, 
  0.018112f, -0.017099f, 0.011176f, 0.026611f, 0.007051f, -0.009178f, 0.025140f, 0.008891f, 
  0.029265f, 0.039000f, 0.010172f, 0.014295f, -0.007148f, 0.026405f, 0.001785f, 0.035849f, 
  0.033550f, 0.030939f, -0.002948f, -0.019862f, -0.032768f, -0.019503f, -0.008831f, -0.013708f, 
  -0.045945f, -0.024658f, -0.035012f, -0.022799f, -0.008666f, 0.008096f, 0.006403f, 0.024573f, 
  -0.005882f, 0.024046f, 0.010197f, 0.025953f, 0.007285f, 0.021129f, -0.006354f, -0.005316f, 
  0.025036f, 0.010335f, 0.019622f, 0.015183f, 0.030431f, -0.003614f, 0.041066f, -0.014720f, 
  0.005747f, -0.011844f, -0.008170f, -0.034829f, -0.034362f, -0.038145f, -0.035167f, 0.007579f, 
  -0.011314f, -0.036303f, -0.032778f, 0.012475f, 0.026839f, -0.009773f, 0.013054f, 0.029755f, 
  0.018519f, 0.007367f, 0.003519f, 0.024332f, -0.006616f, -0.016423f, 0.005301f, -0.007706f, 
  0.004096f, -0.003797f, 0.013786f, -0.007067f, 0.003974f, -0.011736f, -0.000955f, -0.018713f, 
  -0.008227f, 0.021313f, -0.014683f, -0.008259f, -0.004594f, -0.016232f, -0.021423f, 0.006281f, 
  -0.001909f, 0.007812f, 0.010734f, 0.004240f, 0.014672f, -0.012743f, 0.015140f, 0.016052f, 
  -0.028382f, 0.028885f, -0.015685f, 0.010861f, 0.007193f, -0.008000f, 0.029451f, 0.002891f, 
  0.052400f, -0.026895f, 0.002382f, -0.012700f, -0.008118f, 0.000975f, -0.026129f, -0.041043f, 
  -0.016164f, -0.010475f, -0.029495f, -0.020758f, -0.013030f, -0.005239f, -0.011771f, -0.018217f, 
  -0.002130f, -0.015429f, 0.001146f, 0.024867f, -0.014987f, -0.017013f, -0.017351f, 0.014604f, 
  -0.030210f, 0.023650f, 0.002609f, -0.023998f, 0.019475f, 0.001238f, -0.010001f, 0.002757f, 
  -0.011828f, -0.034048f, 0.013852f, 0.003407f, -0.026481f, -0.029877f, -0.004467f, -0.008074f, 
  -0.007401f, -0.017396f, 0.029891f, 0.019048f, 0.012602f, -0.028516f, -0.049987f, -0.030712f, 
  -0.026942f, -0.020482f, -0.044822f, -0.016816f, 0.005469f, -0.010809f, 0.002938f, 0.024917f, 
  -0.011820f, -0.004442f, 0.014451f, -0.016546f, -0.030140f, -0.005653f, 0.004059f, -0.004075f, 
  -0.008047f, -0.009439f, -0.016344f, -0.006297f, -0.003456f, -0.025437f, 0.004521f, -0.036782f, 
  -0.028967f, 0.012109f, 0.004324f, -0.037773f, -0.007880f, -0.030187f, -0.000128f, -0.014790f, 
  0.000161f, -0.012235f, -0.030023f, -0.024042f, -0.012184f, -0.021314f, -0.014334f, 0.005474f, 
  0.010667f, 0.004905f, -0.024869f, -0.009879f, 0.005502f, -0.013125f, -0.036791f, 0.006833f, 
  -0.007805f, -0.019181f, 0.008482f, 0.002059f, -0.033206f, -0.026826f, 0.011353f, -0.017868f, 
  -0.010626f, -0.017888f, -0.042211f, 0.008708f, -0.016458f, -0.029799f, 0.027037f, -0.005174f, 
  -0.019249f, 0.007929f, -0.000205f, 0.013827f, -0.015500f, 0.001913f, 0.000595f, 0.021297f, 
  0.020614f, -0.026820f, 0.015624f, -0.008448f, 0.008216f, -0.033316f, -0.004281f, -0.017399f, 
  0.000767f, -0.018503f, 0.018935f, -0.013513f, 0.004547f, -0.026366f, -0.019057f, -0.021411f, 
  0.009358f, -0.015113f, -0.027970f, -0.007039f, -0.005896f, 0.002443f, -0.017364f, 0.005124f, 
  0.026769f, 0.024354f, 0.003524f, -0.004841f, 0.014356f, -0.008297f, -0.007466f, -0.025443f, 
  -0.006107f, -0.030353f, 0.017516f, -0.031806f, 0.009469f, -0.016045f, 0.005161f, -0.003389f, 
  -0.010034f, -0.010121f, -0.000941f, -0.009874f, -0.007985f, -0.015421f, -0.009259f, -0.036465f, 
  0.009202f, 0.001602f, -0.025366f, -0.016183f, 0.027555f, -0.006664f, 0.012798f, -0.016152f, 
  0.023341f, 0.012076f, 0.002840f, 0.002067f, -0.001152f, 0.022727f, 0.026815f, -0.017336f, 
  0.018922f, 0.000675f, -0.007730f, -0.004497f, -0.037576f, -0.015619f, -0.003028f, -0.016707f, 
  -0.002754f, -0.012833f, 0.020876f, -0.053419f, -0.012126f, -0.038041f, 0.013095f, -0.017118f, 
  0.000887f, -0.009933f, 0.005369f, -0.015579f, 0.009390f, 0.015588f, -0.022363f, 0.004460f, 
  0.002569f, -0.011683f, 0.033276f, -0.009831f, -0.000753f, 0.016523f, 0.028448f, -0.043836f, 
  0.006449f, -0.016886f, -0.016848f, -0.015887f, -0.021289f, -0.011291f, -0.026415f, -0.017016f, 
  -0.015089f, -0.038960f, -0.021890f, -0.009292f, -0.015139f, -0.011517f, 0.006131f, -0.014456f, 
  -0.034433f, -0.000268f, -0.018378f, 0.010551f, -0.009312f, 0.014851f, 0.001070f, 0.035894f, 
  0.000812f, 0.033712f, -0.010237f, 0.010898f, -0.006227f, -0.003610f, -0.005088f, 0.000872f, 
  -0.023990f, -0.015693f, -0.025196f, 0.000128f, -0.011876f, -0.020821f, 0.009922f, 0.008298f, 
  0.005828f, -0.012156f, -0.013483f, -0.037552f, -0.004238f, -0.009099f, 0.002187f, -0.026662f, 
  0.002014f, 0.026534f, 0.011589f, -0.018860f, -0.006127f, 0.007504f, 0.012925f, 0.029988f, 
  0.020722f, -0.002625f, 0.005077f, -0.019862f, -0.048679f, -0.008627f, 0.009973f, -0.025740f, 
  0.002099f, -0.006616f, 0.004590f, 0.005273f, -0.022374f, -0.034838f, -0.020646f, -0.004368f, 
  -0.012409f, -0.019266f, -0.027913f, 0.005005f, 0.010360f, -0.002624f, -0.011802f, 0.008498f, 
  0.039611f, 0.007878f, 0.027484f, 0.000339f, 0.002656f, -0.002263f, -0.020704f, -0.023253f, 
  -0.024811f, -0.019748f, -0.011487f, -0.033339f, -0.037652f, -0.022686f, -0.026243f, -0.017842f, 
  -0.050434f, 0.013062f, -0.007648f, 0.008201f, 0.011097f, -0.009081f, -0.002555f, 0.006659f, 
  0.006238f, 0.016878f, -0.003147f, 0.014828f, 0.035760f, 0.032338f, 0.037308f, 0.009512f, 
  0.017137f, -0.017614f, 0.004559f, -0.017290f, -0.003563f, -0.005999f, 0.008870f, -0.046223f, 
  -0.013488f, -0.029605f, -0.011816f, -0.020610f, 0.017701f, -0.011767f, 0.003160f, -0.013437f, 
  -0.010325f, -0.014588f, 0.010418f, -0.004323f, -0.001637f, -0.022852f, -0.007016f, 0.030202f, 
  -0.011751f, 0.004678f, -0.028737f, -0.006399f, 0.006847f, -0.007644f, 0.011499f, -0.006553f, 
  0.022161f, 0.030351f, -0.032067f, -0.022496f, 0.003907f, -0.002998f, 0.008032f, -0.044633f, 
  0.008520f, -0.025009f, -0.041465f, -0.021330f, -0.029890f, -0.030540f, 0.022371f, -0.017487f, 
  0.016831f, 0.002867f, -0.017595f, 0.019293f, 0.007655f, -0.002505f, -0.021393f, -0.010364f, 
  -0.026654f, 0.022900f, -0.027572f, 0.016620f, -0.004142f, -0.007657f, -0.016287f, 0.026714f, 
  -0.019575f, 0.000696f, 0.004400f, 0.023486f, 0.010859f, -0.016029f, -0.000108f, -0.020163f, 
  -0.002875f, -0.001435f, -0.003815f, -0.007351f, 0.001509f, 0.011462f, 0.009045f, -0.016028f, 
  -0.035482f, -0.041125f, -0.038508f, 0.012899f, 0.003087f, -0.017611f, 0.014602f, -0.026622f, 
  -0.015939f, 0.002788f, -0.023013f, 0.023153f, -0.003963f, 0.003791f, -0.017235f, -0.008579f, 
  -0.001699f, 0.014563f, 0.007288f, 0.024564f, -0.016042f, -0.000744f, -0.012849f, -0.015508f, 
  -0.014399f, 0.009820f, 0.003501f, -0.011422f, 0.013466f, -0.029200f, -0.027333f, -0.014229f, 
  0.015762f, -0.018249f, -0.003785f, -0.018601f, 0.000629f, -0.030488f, -0.014860f, 0.008249f, 
  -0.022307f, -0.052380f, -0.008380f, -0.003472f, -0.020093f, -0.034092f, -0.008999f, -0.010808f, 
  0.002580f, 0.002785f, -0.012042f, 0.003691f, -0.014768f, -0.012363f, 0.004064f, -0.004455f, 
  -0.032111f, -0.017103f, 0.002242f, -0.045856f, -0.003241f, -0.029444f, 0.002610f, 0.011023f, 
  -0.029360f, -0.002010f, 0.006708f, -0.014862f, -0.034446f, -0.027386f, -0.035532f, -0.025196f, 
  -0.037255f, -0.038905f, -0.009416f, -0.013766f, 0.029595f, 0.004957f, 0.004822f, -0.003887f, 
  0.029337f, 0.027467f, 0.000326f, 0.017033f, -0.011439f, 0.014701f, -0.028762f, -0.029244f, 
  -0.011898f, -0.009078f, -0.025136f, 0.009156f, 0.001908f, 0.001768f, 0.008974f, -0.006340f, 
  0.028939f, 0.007190f, -0.006072f, 0.001861f, -0.020565f, -0.017833f, 0.002301f, -0.019560f, 
  -0.014423f, -0.003476f, -0.012665f, 0.013024f, 0.010110f, 0.017740f, -0.000133f, 0.028079f, 
  0.011111f, 0.010722f, 0.011694f, -0.033699f, -0.041203f, -0.035476f, -0.042564f, 0.024844f, 
  0.022697f, -0.008959f, 0.032858f, 0.015937f, 0.008757f, 0.035693f, 0.012551f, -0.016776f, 
  0.001267f, -0.013713f, 0.021766f, -0.022966f, -0.004512f, -0.006305f, 0.009474f, -0.007224f, 
  0.012724f, 0.024928f, 0.021792f, 0.014161f, 0.009712f, 0.003906f, 0.010766f, 0.006420f, 
  0.000194f, -0.022223f, -0.025815f, 0.010350f, 0.014813f, 0.045470f, 0.013006f, 0.041151f, 
  0.023026f, 0.009230f, 0.011545f, 0.026569f, 0.005239f, -0.007636f, 0.005348f, 0.003208f, 
  0.020914f, 0.028747f, -0.023676f, -0.015044f, 0.005206f, 0.018392f, 0.001201f, -0.004934f, 
  0.005248f, -0.021381f, -0.021534f, -0.000860f, 0.000124f, 0.016264f, 0.002272f, 0.027967f, 
  0.016776f, 0.037600f, 0.026579f, 0.003039f, 0.008672f, 0.041436f, 0.038284f, 0.022731f, 
  -0.007108f, 0.034109f, -0.006244f, -0.010143f, -0.011332f, 0.020508f, -0.034403f, -0.003447f, 
  0.026098f, -0.012287f, -0.031333f, -0.032874f, -0.006331f, -0.024532f, -0.023795f, -0.021083f, 
  -0.017568f, -0.025268f, 0.041607f, 0.026386f, 0.031453f, 0.021717f, 0.040463f, 0.045413f, 
  0.026980f, 0.019304f, 0.008974f, 0.041775f, -0.011611f, 0.023495f, 0.017164f, 0.016195f, 
  -0.020336f, -0.004292f, -0.037986f, -0.024302f, 0.011973f, -0.002072f, -0.009237f, 0.000164f, 
  -0.027106f, -0.017707f, -0.010178f, -0.018217f, -0.030924f, -0.037069f, -0.027759f, 0.024672f, 
  -0.013745f, 0.045610f, 0.024962f, 0.036126f, 0.049480f, 0.039953f, 0.005185f, 0.023137f, 
  0.003581f, 0.027678f, 0.011854f, 0.014924f, 0.009695f, -0.016109f, -0.025335f, -0.027993f, 
  -0.021571f, 0.000611f, -0.019579f, -0.027652f, -0.018770f, -0.031944f, -0.000687f, 0.002332f, 
  -0.044373f, -0.035123f, -0.016988f, -0.013677f, 0.008218f, 0.025142f, 0.035072f, 0.013848f, 
  0.019974f, 0.001525f, -0.000757f, 0.022273f, 0.031599f, 0.019685f, -0.006088f, 0.034157f, 
  0.026274f, -0.009451f, 0.014608f, -0.022577f, -0.000868f, -0.051219f, -0.029862f, 0.015524f, 
  -0.011375f, -0.022624f, 0.005813f, -0.048736f, -0.022135f, 0.000377f, -0.047036f, -0.024415f, 
  -0.016521f, -0.009049f, -0.014561f, 0.005976f, 0.022444f, 0.047557f, 0.035312f, -0.003023f, 
  -0.007963f, 0.003413f, 0.015542f, 0.021429f, -0.003749f, 0.003906f, -0.010372f, 0.024503f, 
  -0.017260f, -0.005528f, -0.025433f, -0.018658f, 0.011266f, -0.008584f, 0.001883f, -0.033607f, 
  -0.032200f, -0.016972f, -0.035457f, -0.026008f, -0.027623f, -0.042846f, 0.008359f, 0.007957f, 
  -0.005999f, 0.003015f, 0.047740f, 0.029696f, 0.012807f, -0.006608f, 0.007800f, -0.005687f, 
  -0.019130f, -0.003869f, -0.006873f, -0.008119f, -0.003784f, -0.003912f, -0.006557f, -0.009838f, 
  -0.010896f, 0.015147f, -0.022387f, 0.014146f, -0.028155f, -0.034318f, -0.033182f, -0.009288f, 
  -0.001116f, -0.044777f, -0.035935f, 0.022871f, -0.004832f, 0.009465f, 0.021658f, 0.012079f, 
  0.015532f, -0.004915f, 0.041877f, 0.002509f, -0.010301f, -0.024966f, -0.003795f, -0.008053f, 
  0.008532f, 0.023546f, 0.035892f, 0.003758f, 0.005561f, -0.024158f, 0.011078f, 0.000531f, 
  0.032236f, 0.012734f, 0.004657f, 0.013017f, 0.016928f, -0.020492f, -0.007285f, -0.031616f, 
  0.004433f, 0.016486f, -0.006167f, -0.003825f, 0.008942f, 0.015401f, 0.029390f, 0.008094f, 
  0.034161f, 0.031662f, 0.012071f, 0.028748f, 0.038757f, 0.032422f, 0.022012f, -0.008402f, 
  -0.006277f, -0.023947f, -0.008162f, -0.015364f, 0.017308f, 0.037282f, -0.001862f, 0.027953f, 
  -0.016289f, 0.005374f, 0.018803f, 0.001442f, -0.010937f, 0.006126f, 0.032886f, 0.027521f, 
  0.010732f, 0.010672f, 0.040839f, 0.025888f, 0.008831f, 0.006733f, 0.015730f, 0.028223f, 
  -0.002511f, 0.023840f, 0.008425f, 0.006588f, -0.008470f, 0.001728f, -0.030605f, 0.008726f, 
  0.039438f, -0.005382f, 0.000061f, 0.042767f, 0.030077f, 0.041972f, 0.005998f, -0.005426f, 
  -0.012319f, -0.033134f, 0.020365f, -0.004197f, -0.026451f, 0.016210f, 0.019394f, 0.005812f, 
  -0.009913f, 0.023353f, -0.010074f, 0.034245f, 0.056807f, 0.013666f, 0.050363f, 0.015814f, 
  0.042250f, 0.033530f, 0.000450f, 0.034735f, 0.016002f, 0.019492f, 0.027161f, 0.016865f, 
  0.020197f, -0.008997f, 0.002776f, -0.010699f, -0.017264f, 0.013767f, 0.012515f, 0.011770f, 
  0.004001f, 0.010729f, 0.006995f, -0.007651f, 0.015460f, 0.032340f, 0.014242f, 0.005027f, 
  0.002688f, 0.034349f, 0.026893f, 0.019931f, 0.028294f, 0.046979f, -0.002348f, 0.051015f, 
  -0.014159f, 0.000776f, 0.017203f, 0.024040f, -0.013160f, 0.026499f, -0.006123f, 0.017642f, 
  0.022787f, 0.017470f, 0.007484f, -0.007379f, 0.000979f, 0.013258f, 0.006184f, -0.006590f, 
  -0.002714f, 0.034688f, -0.009313f, -0.024745f, -0.018946f, -0.016782f, -0.004310f, 0.011259f, 
  0.033603f, 0.023333f, 0.045084f, 0.025405f, 0.065289f, 0.046777f, 0.020842f, 0.016603f, 
  0.015970f, 0.004278f, -0.017253f, -0.017822f, 0.000035f, -0.003384f, 0.023002f, 0.014927f, 
  -0.019861f, 0.004325f, -0.012895f, 0.020445f, 0.024484f, -0.028839f, -0.008874f, -0.037747f, 
  0.009270f, -0.037036f, 0.024447f, 0.000831f, 0.010512f, 0.001686f, 0.046669f, 0.054880f, 
  0.052367f, 0.038145f, 0.043428f, 0.025222f, 0.008637f, -0.002048f, 0.003054f, 0.010315f, 
  0.016686f, 0.006695f, 0.018005f, 0.003026f, -0.010439f, 0.008576f, -0.013632f, -0.015218f, 
  -0.031847f, 0.027427f, -0.017441f, -0.028104f, -0.010136f, -0.025135f, -0.042426f, -0.032528f, 
  -0.039499f, 0.011961f, -0.018019f, -0.021469f, 0.006866f, 0.024812f, 0.028797f, 0.042193f, 
  0.030017f, 0.041051f, 0.020564f, 0.022679f, -0.001673f, 0.011167f, 0.020113f, 0.013143f, 
  -0.002048f, 0.008073f, 0.030383f, 0.013021f, -0.018927f, -0.004080f, -0.006175f, -0.022512f, 
  -0.025443f, -0.021525f, -0.010766f, 0.003498f, -0.005369f, -0.021983f, 0.021097f, 0.002446f, 
  0.023814f, 0.018293f, 0.017699f, 0.024012f, 0.033840f, 0.012078f, 0.053033f, -0.003877f, 
  0.028156f, 0.022353f, 0.017229f, 0.046408f, 0.005494f, -0.015500f, 0.006229f, -0.019010f, 
  -0.001045f, -0.016657f, -0.029360f, 0.001910f, -0.027766f, -0.025407f, -0.015831f, -0.000073f, 
  -0.017852f, 0.011573f, -0.007160f, 0.008082f, -0.026583f, 0.005526f, 0.020432f, 0.032390f, 
  0.038333f, 0.028996f, 0.010670f, 0.012229f, 0.016039f, 0.047028f, 0.023861f, 0.021193f, 
  0.025320f, -0.009182f, 0.035423f, 0.026123f, 0.015398f, -0.026074f, -0.021737f, -0.012861f, 
  -0.021456f, -0.030944f, -0.026703f, -0.032728f, -0.026005f, 0.022912f, 0.000730f, -0.012790f, 
  -0.002187f, 0.027481f, -0.010341f, 0.023782f, 0.002238f, -0.002208f, 0.020053f, 0.002319f, 
  0.028828f, 0.000811f, 0.034926f, -0.011928f, 0.030832f, -0.005922f, 0.024934f, 0.015408f, 
  0.000859f, 0.002690f, -0.017295f, -0.016701f, -0.012354f, -0.009737f, -0.015254f, 0.005730f, 
  -0.019182f, -0.002922f, 0.023203f, 0.021111f, -0.003117f, 0.005945f, 0.016315f, -0.028568f, 
  -0.000625f, 0.023735f, 0.005440f, -0.012925f, 0.008026f, 0.019664f, 0.000914f, 0.002667f, 
  0.007057f, 0.035158f, 0.016865f, 0.039324f, 0.020537f, 0.005795f, 0.006952f, 0.013083f, 
  -0.021573f, -0.020156f, -0.026281f, -0.013219f, 0.008279f, -0.021922f, -0.025131f, -0.009821f, 
  0.032186f, 0.025709f, -0.007580f, 0.008660f, -0.002466f, 0.034414f, -0.008664f, 0.002005f, 
  -0.007262f, 0.001618f, 0.008257f, 0.006585f, -0.005255f, -0.007155f, 0.006470f, 0.020016f, 
  0.023295f, -0.027557f, -0.008968f, -0.007912f, 0.021439f, 0.005317f, -0.018729f, -0.027013f, 
  0.000203f, -0.019464f, 0.014755f, -0.010819f, 0.019779f, 0.008439f, -0.010644f, 0.008677f, 
  -0.013223f, -0.003589f, 0.027685f, 0.012802f, 0.006600f, 0.011324f, 0.018139f, -0.012000f, 
  -0.026711f, -0.008947f, -0.010585f, 0.000339f, -0.001346f, 0.022386f, -0.018754f, 0.015731f, 
  -0.007509f, 0.002470f, -0.019934f, -0.031118f, -0.004234f, -0.012625f, 0.009389f, -0.048575f, 
  -0.015471f, -0.022961f, -0.032669f, 0.006488f, -0.023696f, 0.017044f, -0.017006f, -0.013816f, 
  -0.032052f, 0.000520f, 0.019652f, -0.001595f, 0.026811f, -0.006252f, -0.000004f, -0.007615f, 
  -0.006329f, -0.055611f, -0.013322f, -0.001850f, -0.037889f, -0.004124f, -0.014825f, -0.014526f, 
  -0.029869f, -0.004803f, -0.019070f, -0.017076f, -0.000306f, -0.019361f, -0.016163f, -0.000830f, 
  -0.004628f, 0.002850f, -0.027317f, 0.018996f, 0.026356f, 0.020820f, 0.013426f, -0.007738f, 
  0.032641f, 0.036051f, -0.022599f, -0.004621f, 0.017775f, 0.005701f, -0.014677f, -0.001763f, 
  0.010466f, -0.017574f, -0.041575f, 0.008574f, -0.010054f, -0.045333f, 0.021465f, 0.012629f, 
  -0.020666f, -0.007517f, -0.019381f, -0.029617f, -0.006772f, -0.027331f, -0.003449f, 0.006274f, 
  0.002631f, 0.008776f, 0.011820f, -0.008321f, 0.000117f, -0.004093f, -0.035172f, 0.015639f, 
  0.012853f, -0.001921f, -0.005980f, -0.013850f, 0.017257f, 0.004357f, -0.042748f, -0.045840f, 
  0.066804f, 0.074328f, 0.068108f, 0.053357f, 0.034097f, 0.069132f, 0.033365f, 0.014098f, 
  0.030519f, -0.015748f, -0.018687f, -0.002538f, 0.015523f, 0.004199f, -0.004514f, 0.001938f, 
  -0.043241f, -0.006496f, 0.015121f, -0.010009f, -0.046877f, 0.008366f, -0.003752f, 0.012283f, 
  0.014126f, 0.002955f, -0.020493f, -0.022913f, 0.018832f, 0.075938f, 0.053754f, 0.012692f, 
  0.041706f, 0.043051f, 0.010252f, 0.021775f, 0.009647f, 0.018956f, -0.038081f, 0.005489f, 
  0.030101f, 0.012528f, 0.032411f, -0.008367f, -0.040696f, -0.000901f, -0.029695f, -0.030653f, 
  -0.042410f, -0.030259f, -0.052456f, 0.009424f, 0.025304f, 0.016212f, 0.006992f, -0.015248f, 
  -0.024335f, 0.025867f, 0.050141f, 0.026564f, 0.030335f, 0.026804f, 0.025058f, 0.018641f, 
  0.017502f, 0.025997f, 0.002036f, 0.001165f, 0.022826f, -0.012805f, 0.001398f, 0.018319f, 
  0.012229f, 0.033794f, 0.029176f, -0.016535f, -0.017764f, -0.020025f, -0.040493f, -0.026350f, 
  -0.026057f, -0.018517f, -0.006523f, -0.032872f, -0.000616f, -0.007214f, -0.009912f, 0.063476f, 
  0.080885f, 0.029080f, 0.005334f, 0.018193f, 0.017161f, 0.012960f, 0.009634f, 0.025457f, 
  -0.015244f, -0.039167f, 0.011279f, 0.022461f, 0.027985f, 0.012964f, 0.023751f, -0.000127f, 
  0.015700f, -0.048762f, -0.050617f, -0.059886f, -0.056228f, -0.044448f, 0.000203f, -0.011087f, 
  -0.000221f, -0.006162f, -0.013913f, -0.014920f, 0.039591f, 0.081468f, 0.002615f, 0.019712f, 
  -0.014494f, -0.001738f, 0.033614f, -0.012714f, -0.040494f, -0.040829f, -0.032979f, -0.013776f, 
  -0.022895f, -0.007016f, -0.003541f, -0.013932f, -0.031448f, -0.029235f, -0.039525f, 0.019462f, 
  -0.034551f, -0.066049f, -0.009192f, -0.018002f, -0.032540f, -0.011145f, -0.024554f, -0.010130f, 
  -0.039315f, 0.036788f, 0.057752f, 0.020938f, -0.001765f, -0.037380f, -0.053837f, -0.052250f, 
  -0.050256f, 0.007425f, -0.000553f, -0.012722f, 0.002506f, -0.018680f, -0.020904f, -0.007339f, 
  -0.019146f, -0.037624f, -0.006394f, -0.006568f, -0.006771f, -0.015024f, -0.037910f, -0.056350f, 
  -0.024678f, -0.033666f, -0.013322f, -0.006432f, 0.004758f, -0.034771f, 0.061120f, 0.001007f, 
  0.012853f, -0.043213f, -0.018084f, -0.042063f, -0.018317f, 0.000290f, 0.032805f, -0.004816f, 
  0.051064f, -0.006506f, -0.015230f, -0.001499f, -0.037092f, 0.014977f, -0.006687f, -0.008024f, 
  -0.017789f, 0.029232f, -0.035355f, -0.037105f, -0.054032f, -0.052182f, -0.002169f, -0.009451f, 
  0.009903f, -0.010913f, -0.003314f, 0.016317f, 0.026258f, -0.015824f, 0.047962f, 0.029934f, 
  0.043856f, 0.054843f, 0.036538f, 0.027472f, 0.040308f, 0.028662f, 0.051368f, 0.011716f, 
  0.014541f, 0.025357f, 0.012385f, 0.014573f, -0.003641f, -0.031006f, -0.002412f, 0.033372f, 
  0.000742f, 0.003018f, -0.003621f, -0.014272f, -0.002864f, -0.009456f, -0.033424f, -0.012451f, 
  -0.000904f, 0.016081f, -0.012094f, 0.044823f, 0.032842f, 0.039659f, 0.056858f, 0.053695f, 
  0.053413f, 0.049387f, 0.040556f, 0.035063f, 0.059116f, 0.013056f, 0.008973f, 0.020022f, 
  -0.010841f, -0.004931f, -0.001439f, -0.015203f, 0.028167f, -0.008609f, -0.024681f, -0.042720f, 
  -0.000837f, -0.015661f, -0.015544f, -0.024517f, -0.036439f, -0.017512f, -0.004898f, 0.041739f, 
  0.065209f, 0.073215f, 0.047257f, 0.083950f, 0.082460f, 0.076891f, 0.048628f, 0.052078f, 
  0.065981f, 0.046391f, 0.064872f, 0.059840f, 0.034475f, 0.025030f, 0.012566f, 0.007255f, 
  0.018153f, 0.041219f, 0.018098f, 0.015570f, -0.022865f, 0.027931f, 0.003808f, -0.012733f, 
  -0.027574f, -0.002935f, 0.015054f, 0.004032f, 0.033274f, 0.088139f, 0.078830f, 0.037355f, 
  0.072382f, 0.077944f, 0.040662f, 0.057991f, 0.049787f, 0.090273f, 0.066965f, 0.049692f, 
  0.082655f, 0.048276f, 0.049587f, 0.038526f, 0.026531f, 0.016823f, 0.030279f, 0.036397f, 
  0.013335f, -0.039641f, -0.003607f, 0.021136f, 0.015869f, -0.022738f, -0.019604f, -0.021719f, 
  0.003164f, 0.036247f, 0.055262f, 0.072328f, 0.074580f, 0.071070f, 0.064272f, 0.043640f, 
  0.054471f, 0.096541f, 0.075603f, 0.054004f, 0.052521f, 0.055522f, 0.056465f, 0.062969f, 
  0.040615f, 0.043261f, 0.025120f, 0.046712f, 0.013762f, -0.006694f, -0.016705f, 0.008096f, 
  0.022261f, 0.021421f, -0.015810f, -0.026795f, 0.034928f, 0.040408f, 0.047459f, 0.054035f, 
  0.039070f, 0.084286f, 0.082346f, 0.080039f, 0.096449f, 0.072102f, 0.085305f, 0.076509f, 
  0.090317f, 0.062210f, 0.067392f, 0.041004f, 0.039712f, 0.051999f, 0.029705f, 0.013283f, 
  0.049990f, 0.006029f, 0.004424f, 0.008861f, 0.014755f, 0.032342f, 0.006182f, 0.002783f, 
  0.011684f, 0.059668f, 0.049754f, 0.022440f, 0.047265f, 0.064348f, 0.034505f, 0.065396f, 
  0.098653f, 0.069995f, 0.086048f, 0.114056f, 0.095801f, 0.082736f, 0.098149f, 0.027478f, 
  0.064359f, 0.045877f, 0.025509f, 0.047798f, 0.026854f, 0.012377f, -0.004792f, -0.026844f, 
  0.043649f, 0.060212f, 0.041762f, 0.027464f, 0.014464f, 0.020419f, 0.045507f, 0.020130f, 
  0.035516f, 0.050383f, 0.025147f, 0.030438f, 0.055732f, 0.082137f, 0.080524f, 0.079477f, 
  0.118669f, 0.080821f, 0.098797f, 0.075024f, 0.050307f, 0.026413f, 0.032352f, 0.032728f, 
  0.030712f, 0.027829f, 0.018427f, 0.009768f, 0.035305f, 0.047316f, 0.027457f, 0.013281f, 
  0.033097f, -0.006950f, 0.060227f, 0.026990f, 0.019216f, 0.046316f, 0.028468f, 0.033658f, 
  0.028458f, 0.051037f, 0.053121f, 0.059827f, 0.066958f, 0.091945f, 0.068166f, 0.070140f, 
  0.079107f, 0.087299f, -0.005624f, 0.074142f, 0.030861f, 0.009857f, 0.035989f, 0.046177f, 
  0.018172f, 0.040554f, 0.031703f, 0.026251f, 0.045998f, 0.052464f, 0.019934f, 0.053621f, 
  -0.003879f, 0.017652f, 0.016352f, 0.048191f, 0.058742f, 0.046015f, 0.026780f, 0.050409f, 
  0.056800f, 0.048278f, 0.058320f, 0.091972f, 0.069892f, 0.067567f, 0.037134f, 0.022506f, 
  0.012126f, 0.054047f, -0.007917f, 0.057251f, 0.018224f, 0.053861f, 0.027407f, 0.041242f, 
  -0.002021f, 0.019548f, 0.024945f, 0.020725f, 0.016166f, 0.021302f, 0.047340f, 0.020611f, 
  0.068915f, 0.034882f, -0.008037f, 0.017080f, -0.009411f, 0.012824f, 0.036647f, 0.039851f, 
  0.037044f, 0.099166f, 0.060486f, 0.036515f, 0.004200f, 0.023232f, 0.043419f, 0.021098f, 
  0.019194f, 0.035321f, 0.046568f, 0.053382f, 0.035548f, 0.019433f, -0.001907f, 0.037699f, 
  0.015176f, 0.029992f, -0.000622f, 0.019084f, 0.006484f, 0.023210f, 0.043193f, 0.019897f, 
  0.038079f, -0.039709f, -0.006535f, 0.020434f, 0.044862f, 0.056468f, 0.027418f, 0.034581f, 
  0.044583f, 0.046489f, 0.061196f, 0.002638f, 0.040505f, 0.065703f, 0.031466f, 0.035559f, 
  0.042232f, 0.015626f, -0.005664f, 0.006934f, -0.013436f, 0.026061f, 0.030993f, 0.000769f, 
  0.049973f, 0.056013f, 0.050786f, 0.025140f, -0.001073f, 0.002535f, -0.021857f, -0.034783f, 
  -0.039060f, 0.021182f, 0.015967f, 0.023031f, -0.004658f, 0.019120f, 0.041107f, 0.012831f, 
  0.036373f, 0.026509f, 0.043428f, 0.052149f, 0.052728f, 0.053474f, 0.036813f, 0.006226f, 
  0.022656f, -0.023031f, 0.023149f, 0.040230f, -0.026081f, 0.006416f, 0.012929f, 0.011204f, 
  0.003545f, -0.005074f, -0.015831f, -0.004643f, -0.079075f, -0.023288f, -0.030758f, -0.011991f, 
  -0.019317f, 0.011501f, 0.033299f, 0.012533f, 0.032299f, 0.047998f, 0.064361f, 0.058877f, 
  0.022736f, 0.015995f, 0.029266f, 0.030232f, 0.032722f, 0.005503f, 0.006999f, 0.034366f, 
  0.038384f, -0.000817f, 0.009527f, 0.020303f, 0.036164f, -0.021009f, -0.035967f, -0.037185f, 
  -0.081580f, -0.091641f, -0.072978f, -0.025284f, -0.009828f, -0.029078f, 0.007695f, -0.008961f, 
  0.011387f, 0.007350f, 0.044995f, 0.058433f, 0.037088f, 0.018117f, 0.017585f, -0.008158f, 
  0.012617f, 0.006809f, -0.035328f, -0.028712f, 0.001567f, 0.026184f, -0.007794f, -0.035452f, 
  -0.005717f, 0.039291f, -0.033144f, -0.048628f, -0.069269f, -0.087576f, -0.096000f, -0.059738f, 
  -0.022466f, -0.017792f, -0.035008f, 0.016051f, -0.015206f, -0.012727f, 0.005207f, 0.004125f, 
  0.034708f, 0.029245f, 0.040042f, 0.016581f, 0.010847f, 0.025271f, 0.019100f, -0.024826f, 
  -0.048230f, 0.010269f, 0.024112f, 0.014702f, -0.004958f, -0.025532f, -0.014312f, -0.003361f, 
  -0.074277f, -0.082639f, -0.059702f, -0.088384f, -0.058946f, -0.060931f, -0.061498f, -0.014689f, 
  -0.005958f, -0.004834f, 0.006895f, 0.006921f, 0.037477f, 0.020617f, 0.020495f, 0.021204f, 
  0.014610f, -0.001215f, 0.031366f, -0.037402f, -0.002421f, -0.052099f, -0.019964f, 0.018331f, 
  0.021841f, -0.002240f, -0.022601f, -0.006893f, -0.027531f, -0.068584f, -0.089228f, -0.108625f, 
  -0.089877f, -0.076006f, -0.067034f, -0.066196f, -0.071502f, -0.049762f, 0.009889f, 0.004068f, 
  0.008590f, 0.032741f, 0.020451f, 0.006217f, -0.001485f, 0.005220f, 0.006057f, 0.019244f, 
  0.034288f, -0.014742f, -0.024792f, 0.015929f, -0.011856f, -0.003389f, 0.024546f, -0.023133f, 
  0.015300f, -0.007954f, -0.016648f, -0.077034f, -0.071576f, -0.072202f, -0.120131f, -0.091103f, 
  -0.083342f, -0.055393f, -0.052457f, -0.036766f, 0.024930f, -0.013492f, -0.001376f, -0.024008f, 
  -0.019162f, -0.005561f, 0.017026f, -0.005023f, 0.022630f, 0.002916f, -0.003520f, -0.019816f, 
  -0.006788f, 0.027775f, -0.000659f, 0.003861f, 0.001163f, 0.007278f, -0.007141f, -0.047287f, 
  -0.036291f, -0.048943f, -0.081541f, -0.088164f, -0.065313f, -0.054786f, -0.018255f, -0.053125f, 
  -0.054171f, -0.025493f, -0.020418f, -0.011354f, -0.014553f, -0.028104f, -0.020687f, 0.035587f, 
  0.007779f, -0.004784f, 0.036475f, 0.020714f, -0.009392f, 0.029799f, 0.013453f, -0.004420f, 
  -0.016094f, -0.054000f, -0.005357f, -0.038150f, 0.011125f, -0.041434f, -0.071890f, -0.073480f, 
  -0.082661f, -0.052103f, -0.046003f, -0.026543f, -0.016239f, -0.030393f, -0.004504f, -0.034980f, 
  -0.003735f, -0.013283f, -0.002419f, 0.005953f, 0.032069f, -0.017615f, 0.011722f, -0.001688f, 
  -0.008625f, 0.041581f, 0.007651f, 0.060871f, 0.007044f, 0.024810f, 0.002364f, 0.007800f, 
  -0.026732f, 0.005093f, -0.001488f, -0.055778f, -0.054985f, -0.054052f, -0.044989f, -0.049984f, 
  -0.069515f, -0.063372f, -0.013469f, -0.037169f, -0.019725f, -0.029173f, -0.005671f, 0.001005f, 
  -0.001541f, 0.015879f, -0.010510f, -0.004512f, -0.010753f, -0.019215f, -0.007426f, 0.043991f, 
  0.022990f, -0.040917f, -0.040000f, -0.014031f, -0.037608f, -0.026355f, -0.048695f, -0.029821f, 
  -0.005647f, -0.032371f, 0.004185f, -0.020591f, -0.041271f, -0.024940f, -0.027172f, -0.029567f, 
  -0.024685f, 0.002671f, -0.015829f, -0.020349f, -0.039011f, -0.036561f, -0.015429f, -0.039308f, 
  -0.033171f, -0.005553f, -0.037472f, -0.028864f, 0.003448f, 0.010289f, -0.005820f, -0.023188f, 
  -0.010990f, -0.007498f, 0.007247f, -0.000681f, -0.028658f, 0.001678f, 0.005660f, -0.034430f, 
  -0.023594f, -0.018786f, -0.032677f, -0.018629f, -0.013030f, 0.021839f, -0.005852f, -0.048301f, 
  -0.007529f, -0.052153f, -0.050401f, -0.021944f, -0.003919f, -0.029006f, -0.003107f, -0.017839f, 
  -0.021717f, -0.016779f, -0.024238f, -0.023397f, -0.020041f, 0.021288f, 0.024136f, 0.021450f, 
  -0.005823f, 0.010234f, 0.004475f, 0.009302f, -0.011253f, 0.008841f, -0.033659f, 0.004166f, 
  0.001659f, 0.022926f, -0.006999f, -0.001560f, -0.001659f, 0.016624f, -0.036644f, -0.038583f, 
  -0.029384f, -0.019344f, -0.013913f, 0.003762f, -0.022890f, 0.002117f, -0.006750f, -0.002661f, 
  -0.013858f, 0.024587f, 0.003948f, -0.021098f, 0.004488f, -0.008323f, 0.010535f, -0.008666f, 
  -0.025858f, 0.009379f, -0.035830f, -0.055455f, -0.006041f, 0.003098f, -0.014047f, 0.007239f, 
  0.002943f, 0.035459f, -0.022956f, -0.002002f, -0.002460f, -0.050427f, 0.005903f, -0.031739f, 
  0.008014f, -0.006926f, -0.025644f, -0.019270f, -0.012299f, 0.016663f, 0.027042f, -0.020479f, 
  -0.012772f, -0.002724f, -0.010798f, 0.019585f, -0.011662f, -0.038816f, -0.026083f, -0.009188f, 
  -0.013939f, -0.035874f, -0.030218f, 0.004487f, -0.001127f, 0.016295f, 0.036893f, 0.020027f, 
  0.020804f, -0.021969f, -0.003548f, -0.007075f, -0.020866f, -0.019125f, -0.003443f, -0.015860f, 
  -0.008657f, 0.002875f, 0.020898f, 0.019293f, -0.004031f, -0.019159f, -0.005226f, 0.012029f, 
  -0.021338f, -0.015127f, -0.029102f, -0.045304f, -0.015955f, -0.016760f, -0.022162f, 0.017679f, 
  0.007605f, -0.007148f, -0.014027f, -0.033423f, -0.015177f, -0.002499f, 0.025047f, -0.002307f, 
  -0.005301f, -0.029972f, -0.018614f, -0.014028f, -0.022083f, 0.024198f, 0.015658f, 0.052773f, 
  0.016085f, 0.025779f, 0.003789f, -0.009601f, -0.016761f, 0.003206f, -0.012479f, 0.000655f, 
  0.031746f, -0.006116f, 0.004876f, -0.024857f, -0.025487f, -0.001972f, -0.001953f, -0.018899f, 
  -0.008897f, 0.006383f, 0.001983f, -0.037370f, 0.011873f, 0.017138f, 0.006517f, -0.006682f, 
  -0.021262f, -0.037643f, 0.010173f, -0.015153f, 0.009836f, 0.030433f, -0.010406f, -0.002593f, 
  0.002608f, -0.016003f, -0.020241f, -0.009492f, 0.012873f, -0.017944f, -0.008248f, -0.008213f, 
  -0.037190f, -0.028622f, -0.013121f, 0.015561f, 0.012319f, 0.006938f, 0.001048f, -0.020839f, 
  -0.009025f, -0.006170f, -0.034003f, -0.019205f, 0.002122f, 0.002333f, 0.008948f, -0.002459f, 
  -0.019559f, -0.015301f, -0.014840f, -0.016795f, 0.006441f, 0.031846f, -0.022703f, -0.009505f, 
  0.005339f, -0.020054f, 0.008206f, 0.031917f, 0.023298f, 0.004826f, -0.001152f, -0.028793f, 
  0.018531f, 0.003779f, -0.014879f, -0.021006f, 0.009485f, -0.010420f, 0.010654f, -0.009780f, 
  -0.008836f, -0.013039f, 0.001739f, 0.026569f, -0.032903f, -0.018437f, -0.017335f, 0.010937f, 
  -0.022168f, 0.027516f, 0.017855f, 0.045085f, 0.034056f, 0.040570f, -0.004385f, 0.040519f, 
  0.010310f, 0.008115f, 0.016759f, 0.037221f, 0.020826f, 0.001940f, 0.031275f, 0.041637f, 
  -0.001319f, 0.007409f, 0.027027f, 0.022603f, 0.011700f, -0.002297f, -0.024907f, 0.029429f, 
  0.005664f, 0.007721f, -0.032872f, -0.008979f, -0.001536f, 0.017507f, 0.027762f, 0.001309f, 
  0.057814f, 0.030152f, -0.003172f, -0.003106f, 0.017879f, 0.000666f, 0.034663f, 0.036399f, 
  0.044102f, 0.012632f, 0.023232f, 0.010737f, 0.049404f, 0.037045f, 0.010698f, 0.034017f, 
  0.014768f, 0.007686f, 0.025212f, 0.000426f, 0.033684f, 0.022425f, -0.026187f, 0.001845f, 
  -0.006387f, -0.003518f, 0.001014f, 0.004910f, 0.004238f, 0.019683f, 0.022951f, 0.032692f, 
  0.018532f, 0.001706f, 0.000779f, 0.010162f, 0.041678f, 0.047815f, -0.003676f, 0.012683f, 
  0.054646f, 0.006352f, 0.029830f, 0.038637f, 0.039183f, 0.037564f, -0.010814f, -0.029944f, 
  0.012962f, 0.003434f, 0.031418f, 0.005551f, 0.009148f, 0.008953f, -0.002558f, 0.025340f, 
  0.036566f, 0.021844f, -0.022290f, 0.038041f, 0.003618f, 0.026118f, 0.035346f, 0.041959f, 
