#ifndef MY_WEIGHTS_H
#define MY_WEIGHTS_H
// ======================================================
// Auto-generated by torchjs browser trainer (v66 format)
// Copy this file to your sketch folder, then:
//   1. Update numClasses and classLabels in the sketch to match training:
//      numClasses = 3
//      classLabels: "0Blank", "1Cup", "2Pen"
//      inputSize=64  conv1Filters=4  conv2Filters=8  channels=3
//   2. Uncomment:  #define USE_BAKED_WEIGHTS  at the top of the sketch
//   3. Recompile and flash
//      version=50
// ======================================================
const float myModel_conv1_w[] = {
  0.012992f, -0.164240f, -0.222990f, 0.223731f, 0.116448f, -0.175727f, 0.155429f, -0.000942f, 
  -0.337500f, -0.138407f, 0.028429f, -0.109463f, -0.065408f, -0.105676f, -0.250375f, -0.037045f, 
  -0.274022f, -0.185856f, -0.012317f, -0.280814f, 0.304712f, 0.261928f, -0.089706f, -0.227052f, 
  -0.189578f, -0.068837f, -0.388904f, 0.139259f, 0.137727f, 0.351590f, -0.121180f, 0.032334f, 
  0.082973f, -0.320753f, -0.098242f, -0.020090f, -0.098090f, 0.123199f, -0.066512f, 0.041803f, 
  -0.119110f, -0.068437f, -0.170001f, 0.095663f, 0.071960f, 0.004160f, -0.174208f, -0.135040f, 
  -0.133774f, 0.105103f, -0.109116f, 0.008400f, -0.296632f, 0.064796f, 0.035091f, -0.136757f, 
  0.155460f, 0.094434f, -0.197984f, -0.135148f, -0.169738f, 0.143747f, -0.360288f, 0.346969f, 
  0.162658f, 0.010884f, -0.000704f, -0.014753f, -0.040862f, 0.221643f, -0.201363f, -0.053253f, 
  0.189925f, 0.037960f, -0.029882f, -0.029999f, -0.137298f, -0.178710f, -0.046993f, 0.006386f, 
  -0.000398f, -0.254519f, -0.117992f, -0.237069f, -0.457147f, -0.222561f, -0.145257f, -0.100952f, 
  -0.123387f, -0.232252f, 0.039123f, -0.269397f, -0.164717f, -0.084023f, 0.068704f, -0.136291f, 
  -0.059081f, -0.265558f, -0.322866f, -0.195565f, -0.164995f, 0.072131f, -0.232066f, 0.167291f, 
  0.057344f, -0.116412f, -0.250995f, 0.086592f
};
const float myModel_conv1_b[] = {
  0.083432f, 0.105644f, 0.057041f, 0.029696f
};
const float myModel_conv2_w[] = {
  0.045133f, -0.072743f, 0.088977f, -0.045547f, 0.231839f, 0.163501f, -0.005931f, 0.142026f, 
  0.321577f, 0.299901f, 0.106879f, 0.299682f, 0.273331f, 0.142950f, 0.191113f, 0.400348f, 
  0.316098f, 0.161150f, 0.289081f, 0.170117f, 0.223868f, 0.048577f, 0.129885f, 0.173797f, 
  0.134936f, 0.126970f, 0.213970f, 0.133731f, 0.136858f, 0.067609f, -0.198011f, 0.221494f, 
  0.166326f, 0.004774f, 0.166125f, 0.148761f, -0.074013f, -0.067453f, -0.047656f, -0.142042f, 
  -0.001031f, -0.172268f, -0.108168f, -0.119802f, -0.083344f, 0.159776f, -0.271094f, -0.235378f, 
  0.010057f, -0.000295f, -0.251041f, -0.063572f, 0.034682f, 0.034225f, -0.311756f, 0.022823f, 
  0.012314f, -0.111108f, 0.129644f, -0.121664f, -0.318360f, -0.065834f, -0.217159f, 0.098415f, 
  -0.132860f, -0.046999f, -0.153305f, -0.089161f, -0.111219f, -0.037193f, -0.273215f, -0.109126f, 
  -0.154264f, -0.018750f, -0.006524f, -0.209613f, -0.110293f, -0.018342f, -0.131051f, -0.078173f, 
  -0.126531f, -0.028923f, -0.058259f, -0.232334f, 0.103455f, -0.139000f, 0.043369f, -0.050109f, 
  -0.080530f, -0.110779f, -0.084169f, -0.104418f, 0.143975f, -0.012220f, -0.236951f, -0.178791f, 
  -0.300633f, 0.123159f, -0.169047f, -0.165919f, -0.172568f, -0.161496f, -0.145232f, 0.075773f, 
  -0.197109f, -0.358369f, -0.203984f, -0.198185f, 0.063345f, 0.272197f, 0.019947f, 0.067422f, 
  0.134437f, 0.019261f, 0.276497f, -0.192474f, 0.047973f, 0.045345f, -0.096663f, 0.103185f, 
  0.145474f, 0.082151f, 0.001160f, -0.173069f, 0.014587f, 0.072361f, 0.280294f, 0.222229f, 
  0.133589f, 0.070396f, -0.130074f, 0.293041f, 0.138890f, 0.104713f, 0.104555f, 0.071559f, 
  -0.086070f, -0.050410f, -0.128885f, 0.062927f, -0.161437f, -0.175017f, 0.092053f, 0.030727f, 
  -0.133819f, -0.022444f, -0.030479f, -0.241823f, -0.228791f, -0.220347f, -0.034947f, -0.283895f, 
  -0.259435f, -0.133878f, -0.256718f, -0.194589f, 0.069790f, -0.180419f, -0.280151f, -0.078746f, 
  -0.324780f, 0.115442f, -0.165013f, -0.117746f, -0.087738f, 0.027466f, 0.014140f, -0.208244f, 
  0.041672f, -0.154560f, -0.245154f, -0.115465f, -0.116566f, -0.133070f, -0.217820f, -0.322209f, 
  -0.259606f, -0.098982f, 0.013769f, -0.203138f, 0.071673f, 0.053904f, 0.250304f, 0.168010f, 
  0.003373f, 0.283555f, 0.273915f, -0.014822f, 0.159455f, 0.065462f, 0.116149f, 0.088190f, 
  0.124188f, 0.062125f, 0.189439f, 0.113282f, -0.004496f, 0.146932f, 0.085554f, 0.093171f, 
  0.077561f, 0.087183f, 0.343926f, 0.245282f, 0.309978f, 0.162745f, 0.177272f, 0.143959f, 
  -0.127872f, 0.123120f, 0.011036f, 0.103618f, 0.097169f, 0.093156f, 0.213089f, -0.079559f, 
  0.132534f, -0.027582f, 0.158172f, 0.169764f, -0.019469f, 0.100609f, -0.172541f, 0.129335f, 
  0.266818f, 0.372480f, 0.402241f, 0.183008f, 0.253066f, 0.019018f, 0.418909f, 0.131281f, 
  0.323499f, 0.145907f, 0.083778f, 0.217289f, 0.164084f, 0.006651f, 0.123199f, 0.168922f, 
  0.007904f, 0.182517f, 0.313615f, 0.058615f, -0.090992f, -0.071990f, 0.131414f, 0.092059f, 
  -0.072665f, -0.023738f, -0.052388f, 0.081236f, -0.020805f, 0.017963f, 0.041331f, 0.231684f, 
  0.154849f, 0.126499f, 0.140638f, -0.021223f, 0.030889f, 0.043734f, 0.177921f, 0.021963f, 
  0.027955f, 0.082283f, -0.160397f, -0.198361f, -0.094521f, 0.231824f, 0.315266f, 0.044633f, 
  -0.017384f, 0.266101f, 0.281981f, -0.128116f, 0.330480f, -0.025721f, 0.161877f, 0.115441f, 
  0.170147f, 0.021943f, -0.040670f, -0.257128f, 0.023232f, -0.052931f, 0.199724f, -0.037629f
};
const float myModel_conv2_b[] = {
  0.078814f, 0.022763f, 0.007918f, 0.005025f, 0.034025f, 0.048094f, 0.039963f, 0.027266f
};
const float myModel_output_w[] = {
  0.045828f, 0.041097f, 0.047841f, 0.058798f, 0.051771f, 0.004393f, 0.074862f, 0.024472f, 
  0.038627f, 0.010417f, 0.026283f, 0.035313f, 0.022572f, 0.019832f, 0.043979f, 0.022220f, 
  0.004263f, 0.024096f, 0.018057f, 0.001048f, 0.031222f, 0.031760f, 0.011466f, 0.014228f, 
  0.023638f, 0.025347f, 0.039445f, 0.012100f, 0.026210f, 0.027771f, 0.047420f, 0.025131f, 
  0.030503f, -0.006237f, 0.035195f, 0.024559f, 0.003602f, 0.048553f, 0.034890f, 0.030983f, 
  0.045443f, 0.024230f, 0.041777f, 0.038614f, -0.021163f, 0.015550f, 0.030594f, 0.044015f, 
  0.008159f, 0.046599f, -0.013216f, -0.004261f, 0.019927f, 0.019656f, 0.047270f, 0.021427f, 
  0.008393f, 0.018574f, 0.031567f, 0.039991f, 0.070058f, 0.040247f, 0.021769f, 0.022794f, 
  0.049486f, 0.052164f, 0.063983f, 0.027834f, 0.016293f, 0.017624f, 0.002205f, 0.007693f, 
  0.029370f, 0.015061f, -0.009756f, 0.030850f, 0.020789f, 0.003843f, 0.022629f, 0.033893f, 
  0.005185f, 0.019160f, 0.028819f, 0.008331f, -0.002796f, 0.016576f, 0.019783f, 0.048766f, 
  0.072258f, 0.033204f, 0.027564f, 0.061736f, 0.044553f, 0.028987f, 0.037209f, 0.029528f, 
  -0.002330f, 0.005454f, -0.008934f, 0.028570f, 0.009115f, 0.011043f, 0.015332f, 0.013243f, 
  -0.006301f, 0.020372f, 0.036465f, 0.021030f, 0.022637f, -0.006984f, 0.012109f, 0.033427f, 
  0.018953f, 0.032472f, 0.017918f, 0.028803f, 0.054161f, 0.048705f, 0.043121f, 0.038316f, 
  0.035484f, 0.026954f, 0.041879f, 0.013362f, 0.035483f, 0.030084f, 0.020480f, 0.012733f, 
  0.035503f, -0.009152f, 0.018477f, 0.046301f, 0.009265f, 0.014608f, 0.005451f, 0.027414f, 
  0.004129f, 0.020300f, 0.028087f, 0.024788f, -0.007949f, 0.005467f, 0.005902f, 0.023372f, 
  0.007690f, 0.068229f, 0.024975f, 0.042317f, 0.024723f, 0.028962f, 0.027589f, 0.015684f, 
  0.029893f, 0.043091f, 0.006274f, -0.001986f, 0.008420f, 0.015488f, 0.018084f, 0.015370f, 
  0.051130f, 0.029525f, -0.006277f, -0.029716f, 0.021807f, -0.005859f, 0.014320f, 0.016308f, 
  0.044563f, 0.001828f, 0.001725f, 0.005870f, 0.017247f, -0.001326f, 0.023360f, 0.024188f, 
  0.035346f, 0.026949f, -0.005089f, 0.023769f, 0.004063f, -0.010876f, -0.009177f, -0.000261f, 
  -0.009223f, 0.001768f, 0.003887f, 0.007953f, -0.023834f, 0.000033f, -0.067285f, -0.036963f, 
  -0.026207f, -0.022885f, -0.000529f, -0.005153f, 0.023049f, 0.043506f, 0.017729f, -0.003725f, 
  -0.007212f, 0.009788f, -0.004677f, 0.039269f, 0.032733f, 0.024378f, -0.001481f, -0.004921f, 
  -0.044133f, 0.008478f, -0.049373f, -0.051122f, -0.032029f, -0.078435f, -0.018893f, -0.058165f, 
  -0.069358f, -0.077350f, -0.073480f, -0.067186f, -0.042054f, -0.051595f, -0.048915f, -0.032379f, 
  -0.010618f, -0.031823f, -0.012811f, -0.014088f, -0.003413f, -0.011061f, 0.012122f, -0.021874f, 
  -0.017735f, -0.019850f, -0.045389f, -0.016877f, -0.008699f, -0.078609f, -0.097008f, -0.091307f, 
  -0.095714f, -0.059476f, -0.084924f, -0.037589f, -0.077934f, -0.075354f, -0.064879f, -0.099004f, 
  -0.083536f, -0.070660f, -0.079560f, -0.071455f, -0.054641f, -0.059999f, -0.027844f, -0.028129f, 
  -0.006202f, -0.009713f, -0.010754f, -0.036509f, -0.014382f, -0.004373f, -0.014574f, -0.044027f, 
  -0.022252f, -0.039212f, -0.038252f, -0.094743f, -0.109779f, -0.133655f, -0.148393f, -0.112834f, 
  -0.101967f, -0.120605f, -0.113078f, -0.115205f, -0.133262f, -0.141372f, -0.105118f, -0.072031f, 
  -0.069399f, -0.088156f, -0.076216f, -0.079672f, -0.049611f, -0.012974f, -0.002073f, -0.031123f, 
  0.007179f, 0.014573f, -0.007574f, -0.021439f, -0.032157f, -0.047745f, -0.057232f, -0.080080f, 
  -0.089094f, -0.099068f, -0.155367f, -0.135761f, -0.170479f, -0.128157f, -0.137624f, -0.126513f, 
  -0.154457f, -0.159983f, -0.123010f, -0.130181f, -0.111074f, -0.105788f, -0.085826f, -0.091691f, 
  -0.045967f, -0.044182f, -0.054075f, -0.067790f, -0.043695f, -0.005344f, 0.019455f, -0.009407f, 
  -0.033093f, -0.071276f, -0.051385f, -0.058968f, -0.053297f, -0.082059f, -0.114876f, -0.136134f, 
  -0.143143f, -0.151841f, -0.152716f, -0.142875f, -0.125578f, -0.137346f, -0.142200f, -0.137992f, 
  -0.091659f, -0.103148f, -0.073116f, -0.080187f, -0.091122f, -0.094024f, -0.076113f, -0.028515f, 
  -0.025220f, -0.026331f, -0.026049f, 0.007203f, -0.028906f, -0.023603f, -0.044160f, -0.036526f, 
  -0.038594f, -0.047143f, -0.115589f, -0.100761f, -0.082747f, -0.141222f, -0.158084f, -0.114576f, 
  -0.143685f, -0.152939f, -0.123307f, -0.128906f, -0.106825f, -0.097118f, -0.135202f, -0.089072f, 
  -0.118630f, -0.069305f, -0.047651f, -0.058944f, -0.016447f, -0.015140f, 0.004661f, 0.022774f, 
  -0.002401f, 0.007833f, -0.043413f, -0.018550f, -0.024527f, -0.020141f, -0.042269f, -0.060492f, 
  -0.074545f, -0.083867f, -0.116959f, -0.094121f, -0.104976f, -0.075636f, -0.099964f, -0.121134f, 
  -0.106903f, -0.089473f, -0.075093f, -0.087835f, -0.082177f, -0.098141f, -0.078676f, -0.074979f, 
  -0.043072f, -0.029753f, -0.046494f, 0.005913f, -0.013823f, 0.009631f, 0.029890f, -0.004553f, 
  -0.033751f, 0.003304f, 0.032926f, -0.049306f, -0.019925f, -0.073369f, -0.058864f, -0.086257f, 
  -0.096082f, -0.078830f, -0.057000f, -0.107583f, -0.094636f, -0.108105f, -0.055402f, -0.110290f, 
  -0.108379f, -0.063867f, -0.080082f, -0.073527f, -0.056255f, -0.025697f, -0.012865f, 0.005954f, 
  0.006081f, -0.021558f, 0.010453f, 0.040038f, 0.047838f, 0.007462f, -0.004149f, 0.046583f, 
  -0.018350f, 0.002053f, -0.042899f, -0.093124f, -0.058245f, -0.054895f, -0.059267f, -0.039151f, 
  -0.062377f, -0.042016f, -0.072412f, -0.067452f, -0.053914f, -0.101656f, -0.067456f, -0.062157f, 
  -0.063841f, -0.039748f, -0.030458f, 0.003081f, -0.006104f, 0.019278f, -0.013468f, 0.023686f, 
  0.050161f, 0.028103f, 0.039266f, 0.027470f, 0.018620f, 0.038006f, -0.006870f, -0.003809f, 
  -0.011031f, -0.071374f, -0.050271f, -0.059022f, -0.046831f, -0.054261f, -0.047795f, -0.047998f, 
  -0.044710f, -0.052691f, -0.084056f, -0.081441f, -0.074022f, -0.052876f, -0.027930f, -0.050997f, 
  -0.029833f, -0.009582f, -0.010312f, 0.009936f, 0.030591f, 0.042910f, 0.050217f, 0.052518f, 
  0.067200f, 0.070448f, 0.056611f, 0.024837f, 0.003613f, 0.001795f, -0.035601f, -0.029652f, 
  -0.037973f, -0.029873f, -0.046048f, -0.027162f, -0.060086f, -0.064635f, -0.012080f, -0.024065f, 
  -0.019537f, -0.058466f, -0.044480f, -0.049341f, -0.051151f, -0.004111f, 0.004190f, -0.008887f, 
  0.023758f, 0.018398f, 0.020540f, 0.053161f, 0.068770f, 0.025704f, 0.057917f, 0.037841f, 
  0.050417f, -0.000630f, -0.029734f, 0.000083f, -0.013920f, -0.020346f, -0.046521f, -0.060911f, 
  -0.047650f, -0.040792f, -0.049914f, -0.030886f, -0.016547f, -0.035621f, -0.034715f, -0.021150f, 
  -0.041075f, -0.036221f, 0.003998f, -0.009561f, 0.026582f, 0.021502f, -0.000755f, 0.057135f, 
  0.044224f, 0.051877f, 0.063647f, 0.026050f, 0.016965f, 0.035895f, 0.012453f, 0.005471f, 
  0.003237f, -0.034248f, -0.016323f, -0.030454f, -0.023864f, -0.042169f, -0.044283f, -0.032253f, 
  -0.015329f, -0.005977f, -0.012297f, -0.008413f, 0.000750f, -0.015075f, -0.016439f, -0.028683f, 
  0.001272f, 0.004607f, -0.013935f, 0.016730f, 0.065492f, 0.079976f, 0.036877f, 0.043939f, 
  0.034091f, 0.025573f, 0.009640f, 0.018960f, 0.005148f, 0.000146f, -0.025689f, 0.012662f, 
  -0.011832f, -0.008372f, -0.006287f, -0.036382f, -0.037013f, -0.027147f, -0.024910f, 0.025686f, 
  0.005052f, 0.023155f, -0.023699f, -0.021481f, -0.035615f, 0.018284f, 0.006166f, 0.035651f, 
  0.034402f, 0.067634f, 0.075026f, 0.036818f, 0.056210f, 0.033824f, 0.038400f, 0.029231f, 
  0.024320f, -0.021104f, -0.025262f, -0.016025f, -0.013887f, -0.017501f, -0.018391f, -0.007466f, 
  -0.028058f, -0.063706f, -0.009092f, 0.021126f, -0.018799f, 0.008303f, 0.030739f, 0.042235f, 
  -0.016318f, 0.013891f, -0.007809f, 0.012168f, 0.043399f, 0.014923f, 0.012019f, 0.046823f, 
  0.085884f, 0.068777f, 0.084962f, 0.068408f, 0.025217f, 0.005255f, 0.003710f, -0.042788f, 
  -0.008155f, 0.000520f, -0.052111f, -0.052335f, 0.008259f, -0.010733f, -0.024856f, -0.015445f, 
  0.017410f, 0.008192f, 0.031167f, 0.001474f, 0.011042f, 0.044805f, 0.029640f, -0.003558f, 
  0.041363f, 0.007569f, 0.005165f, 0.039034f, 0.082369f, 0.044596f, 0.045904f, 0.034753f, 
  0.016476f, 0.022600f, 0.039134f, 0.020855f, -0.024281f, -0.043666f, -0.034714f, -0.032372f, 
  -0.028370f, -0.009249f, -0.008014f, -0.030295f, 0.012137f, 0.002543f, -0.017517f, 0.001640f, 
  0.010640f, 0.014515f, 0.033467f, 0.033389f, 0.035830f, 0.055753f, 0.071450f, 0.041452f, 
  0.022274f, 0.025353f, 0.043891f, 0.052628f, 0.031612f, 0.019952f, 0.020839f, 0.049315f, 
  -0.000695f, 0.007373f, 0.002141f, -0.026127f, -0.025145f, -0.032871f, -0.018807f, 0.005525f, 
  0.019416f, -0.006996f, -0.022105f, -0.008804f, 0.032441f, 0.011887f, 0.010287f, 0.016832f, 
  0.033314f, 0.045644f, 0.024121f, 0.034662f, 0.046399f, 0.034238f, 0.035329f, 0.022439f, 
  0.036603f, 0.041119f, 0.019322f, 0.040598f, 0.008782f, 0.019485f, 0.020601f, 0.003546f, 
  -0.011029f, -0.000362f, -0.050177f, -0.001948f, -0.007802f, -0.020681f, 0.001888f, 0.013102f, 
  0.002221f, -0.017777f, 0.032490f, 0.014889f, 0.026632f, 0.037661f, 0.022089f, 0.070118f, 
  0.083142f, 0.071572f, 0.022207f, 0.041358f, 0.057973f, 0.037058f, 0.025107f, 0.045944f, 
  0.056011f, 0.046152f, 0.039845f, 0.050419f, -0.000771f, -0.001627f, -0.010757f, 0.022350f, 
  0.028758f, -0.015719f, 0.010825f, -0.022560f, 0.026523f, -0.005279f, 0.017001f, 0.016649f, 
  0.021530f, 0.029428f, 0.076761f, 0.055164f, 0.056358f, 0.057030f, 0.089358f, 0.045730f, 
  0.047909f, 0.034673f, 0.017230f, 0.048268f, 0.020401f, 0.035859f, 0.021184f, 0.055121f, 
  0.034503f, 0.050607f, 0.024486f, -0.001140f, 0.023501f, 0.027014f, -0.012138f, -0.028292f, 
  0.019253f, 0.003644f, 0.013092f, 0.017303f, 0.044839f, 0.021953f, 0.038232f, 0.037725f, 
  0.061528f, 0.050076f, 0.079329f, 0.090748f, 0.035985f, 0.038272f, 0.009958f, 0.049375f, 
  0.026501f, 0.060212f, -0.010732f, 0.020659f, 0.061404f, 0.034869f, 0.010052f, 0.020432f, 
  0.048821f, 0.008934f, 0.032743f, 0.017314f, -0.035308f, 0.040619f, -0.000588f, 0.008450f, 
  0.007865f, 0.016152f, 0.055535f, 0.020895f, 0.038112f, 0.029561f, 0.077830f, 0.103213f, 
  0.089772f, -0.024692f, -0.021081f, -0.034184f, -0.052013f, -0.056679f, -0.019379f, -0.038689f, 
  -0.010933f, -0.050804f, -0.042861f, 0.001605f, -0.019857f, -0.004599f, 0.005270f, 0.007255f, 
  -0.020904f, 0.001406f, 0.000017f, 0.011106f, -0.000489f, -0.044048f, -0.003075f, -0.021262f, 
  -0.009331f, -0.061158f, -0.023941f, -0.025721f, -0.004468f, 0.015698f, -0.033891f, -0.039395f, 
  -0.039708f, -0.035755f, -0.046137f, -0.023071f, -0.005937f, -0.034982f, -0.023506f, -0.034752f, 
  -0.044214f, 0.005154f, -0.000991f, -0.010747f, 0.004348f, -0.000738f, -0.003989f, -0.012862f, 
  -0.017533f, 0.019218f, -0.021960f, -0.022647f, -0.005884f, -0.014942f, -0.015354f, -0.026314f, 
  0.021687f, 0.000821f, -0.012893f, -0.010599f, -0.000202f, -0.057936f, -0.034503f, -0.015102f, 
  -0.012227f, -0.021771f, -0.026562f, -0.029575f, 0.003814f, -0.038380f, -0.001935f, 0.001947f, 
  0.006643f, -0.026716f, -0.006581f, 0.020944f, 0.002395f, 0.020971f, 0.002979f, -0.018614f, 
  0.007714f, -0.034999f, 0.000958f, -0.009151f, 0.006445f, -0.020603f, -0.005897f, 0.008426f, 
  -0.013131f, -0.034928f, -0.025674f, -0.018579f, -0.016058f, -0.032462f, -0.018088f, -0.013191f, 
  -0.009499f, -0.023649f, -0.001923f, -0.003753f, 0.014028f, -0.004248f, -0.019273f, 0.002245f, 
  -0.007028f, -0.017518f, -0.007510f, -0.002535f, -0.004268f, -0.026874f, -0.021219f, -0.003867f, 
  -0.003423f, -0.006291f, 0.002720f, 0.005331f, -0.021947f, -0.043544f, -0.056657f, -0.021520f, 
  -0.030941f, -0.021568f, -0.011071f, -0.036582f, -0.017931f, 0.002294f, -0.010246f, -0.020838f, 
  -0.016171f, -0.015130f, 0.007283f, -0.046852f, -0.013101f, 0.005234f, -0.007445f, 0.019513f, 
  -0.000229f, -0.012021f, -0.013205f, 0.015069f, -0.004964f, 0.013085f, -0.038233f, -0.002869f, 
  -0.009341f, -0.030669f, -0.058224f, -0.051913f, -0.010955f, -0.030462f, -0.028085f, -0.008579f, 
  0.003455f, -0.016646f, -0.002243f, -0.000990f, -0.004331f, 0.021112f, -0.018091f, 0.017574f, 
  -0.005490f, 0.027252f, -0.012122f, -0.026980f, -0.019327f, -0.004771f, -0.027632f, -0.014258f, 
  0.015269f, -0.011126f, -0.032504f, -0.022509f, -0.016000f, -0.009169f, -0.026818f, -0.052126f, 
  -0.014121f, -0.038660f, -0.018073f, -0.005031f, -0.038834f, 0.017007f, -0.001652f, -0.008519f, 
  -0.039010f, 0.016970f, -0.021652f, -0.022919f, -0.009855f, -0.033451f, -0.001583f, 0.037159f, 
  0.016871f, -0.006552f, 0.020023f, 0.003405f, -0.008993f, -0.010978f, -0.009280f, 0.006894f, 
  -0.009828f, -0.014004f, -0.030976f, -0.012564f, -0.036394f, -0.021254f, -0.021109f, -0.013731f, 
  0.002193f, 0.041559f, -0.029253f, 0.002471f, 0.018463f, 0.016107f, 0.042059f, -0.016020f, 
  0.026452f, 0.030377f, 0.020093f, 0.048019f, 0.032594f, -0.000127f, 0.016400f, 0.027955f, 
  -0.016783f, -0.011249f, 0.007304f, 0.016205f, 0.017970f, 0.007784f, -0.016335f, -0.029540f, 
  0.016467f, -0.014912f, 0.025595f, 0.005858f, 0.007746f, 0.035953f, 0.029105f, 0.034583f, 
  0.024882f, 0.047751f, 0.022944f, 0.034066f, 0.016544f, 0.032475f, 0.024312f, 0.025472f, 
  0.034621f, 0.028668f, 0.007575f, 0.010963f, 0.051762f, 0.048610f, 0.012650f, 0.032054f, 
  0.036076f, -0.005584f, -0.020037f, -0.008072f, 0.012091f, 0.024327f, -0.013934f, -0.012572f, 
  -0.000480f, -0.027663f, 0.007095f, 0.004910f, 0.050193f, 0.029424f, 0.057802f, 0.062061f, 
  0.050601f, 0.010747f, 0.036634f, 0.034644f, 0.029060f, 0.061978f, 0.066443f, 0.038145f, 
  0.025418f, 0.041187f, 0.022947f, 0.025472f, 0.017092f, 0.037500f, 0.031173f, -0.016492f, 
  0.028070f, -0.001351f, 0.034493f, -0.006828f, 0.005976f, -0.007563f, -0.001206f, 0.038753f, 
  0.036264f, 0.044518f, 0.056864f, 0.058143f, 0.085575f, 0.044574f, 0.051621f, 0.077324f, 
  0.028390f, 0.046604f, 0.052153f, 0.071145f, 0.058388f, 0.033007f, 0.027034f, 0.014451f, 
  0.056927f, 0.012439f, 0.004047f, 0.016076f, 0.025099f, 0.026186f, -0.007941f, 0.010952f, 
  -0.018323f, 0.034248f, 0.019315f, -0.028982f, 0.038966f, 0.014637f, 0.026863f, 0.020112f, 
  0.076973f, 0.068588f, 0.062855f, 0.092977f, 0.070767f, 0.072280f, 0.063252f, 0.064213f, 
  0.062882f, 0.056932f, 0.016558f, 0.022406f, 0.049080f, 0.026205f, 0.019520f, 0.014360f, 
  0.018762f, -0.021977f, -0.021333f, -0.015124f, 0.013165f, 0.001494f, 0.002692f, 0.006795f, 
  0.004832f, 0.033820f, 0.031894f, 0.006621f, 0.059861f, 0.082271f, 0.048607f, 0.082081f, 
  0.095449f, 0.073821f, 0.088383f, 0.090450f, 0.045433f, 0.073827f, 0.088779f, 0.072446f, 
  0.021225f, 0.062880f, 0.025910f, 0.053976f, 0.027837f, 0.028454f, -0.015672f, 0.015994f, 
  -0.006539f, -0.024630f, 0.010189f, 0.011527f, 0.023018f, 0.003713f, -0.000208f, 0.024849f, 
  0.019956f, 0.027173f, 0.066402f, 0.056063f, 0.077246f, 0.056155f, 0.083110f, 0.043644f, 
  0.064364f, 0.051285f, 0.065383f, 0.026403f, 0.036014f, 0.051498f, 0.031096f, 0.014067f, 
  0.030349f, 0.011992f, 0.028082f, -0.039554f, 0.002282f, -0.031320f, -0.024218f, -0.010499f, 
  0.003010f, -0.030758f, 0.002055f, -0.004199f, 0.012864f, 0.014139f, 0.011115f, 0.026807f, 
  0.063073f, 0.048748f, 0.019915f, 0.028336f, 0.077383f, 0.054034f, 0.053874f, 0.046141f, 
  0.027646f, 0.042988f, 0.042481f, 0.057004f, 0.032468f, 0.005273f, 0.003558f, -0.004604f, 
  -0.001102f, 0.020276f, -0.015252f, -0.026274f, -0.012057f, -0.001273f, -0.040015f, -0.033033f, 
  -0.021766f, -0.014821f, -0.003212f, 0.024489f, 0.039682f, 0.016125f, 0.028136f, 0.034997f, 
  0.012389f, 0.001743f, 0.036351f, 0.044383f, 0.043165f, 0.024182f, 0.026823f, 0.031376f, 
  0.021144f, -0.013299f, 0.001156f, 0.025029f, -0.002668f, -0.007219f, -0.002467f, -0.024060f, 
  0.021658f, -0.008783f, -0.038596f, -0.015459f, -0.032952f, -0.015519f, 0.023346f, 0.001122f, 
  -0.009765f, 0.001613f, 0.009943f, 0.018760f, 0.031414f, 0.029929f, 0.006671f, 0.041814f, 
  0.018074f, 0.016616f, 0.043795f, -0.002911f, 0.044384f, 0.009474f, 0.003639f, 0.011990f, 
  0.009493f, 0.031991f, 0.004297f, -0.013856f, -0.024321f, 0.000760f, -0.002744f, -0.008642f, 
  -0.023384f, -0.000382f, -0.011884f, -0.026309f, -0.009341f, -0.000207f, 0.013030f, -0.026731f, 
  0.039619f, 0.013458f, 0.019203f, 0.032713f, 0.034885f, 0.048355f, 0.039646f, -0.009590f, 
  0.027834f, 0.014832f, 0.012967f, 0.003709f, 0.044438f, 0.008225f, 0.017708f, -0.038687f, 
  0.024081f, -0.025611f, -0.022269f, -0.022850f, -0.038076f, -0.026238f, -0.061359f, -0.016309f, 
  -0.014248f, -0.013401f, -0.011905f, -0.030565f, -0.000175f, -0.009488f, -0.007184f, 0.000561f, 
  -0.008763f, 0.019319f, 0.002798f, 0.007787f, 0.013465f, 0.029412f, 0.018411f, 0.038655f, 
  -0.017596f, 0.016711f, -0.011993f, 0.007629f, -0.027091f, -0.028304f, -0.016553f, -0.026395f, 
  -0.038574f, -0.036383f, -0.048336f, 0.004983f, -0.040448f, -0.012859f, -0.012013f, -0.030669f, 
  -0.000863f, -0.022085f, 0.013263f, 0.030111f, 0.049789f, -0.002952f, 0.007053f, 0.049769f, 
  0.019874f, 0.005739f, 0.012486f, 0.030533f, 0.017504f, 0.008322f, 0.001969f, 0.014465f, 
  0.024229f, 0.022222f, 0.017011f, -0.004298f, -0.019204f, -0.025516f, -0.029125f, -0.013620f, 
  -0.051570f, -0.036604f, -0.000736f, -0.026847f, 0.002535f, -0.018254f, 0.022673f, -0.002230f, 
  -0.005247f, 0.013376f, 0.023347f, 0.047360f, 0.024828f, 0.014200f, 0.015643f, -0.002965f, 
  -0.048905f, 0.002217f, -0.013496f, 0.009682f, -0.007257f, -0.010218f, 0.011465f, 0.035041f, 
  0.021331f, -0.032164f, -0.016081f, -0.014125f, -0.015963f, -0.033315f, -0.044073f, -0.019661f, 
  -0.012982f, -0.004577f, -0.017381f, 0.011029f, 0.036004f, 0.026752f, 0.013257f, 0.019231f, 
  0.019900f, 0.003033f, 0.028251f, 0.006398f, -0.010289f, 0.021059f, -0.005463f, 0.007153f, 
  0.005809f, -0.033219f, -0.020930f, -0.007192f, 0.012413f, -0.035050f, 0.009298f, -0.038568f, 
  -0.020246f, -0.016235f, -0.030813f, -0.023259f, -0.030146f, 0.004718f, -0.004025f, -0.007172f, 
  0.011051f, 0.011797f, -0.010854f, 0.006746f, 0.023285f, -0.015262f, -0.001985f, -0.006095f, 
  0.042077f, 0.016371f, 0.001936f, 0.005361f, -0.023938f, -0.028581f, -0.049114f, -0.029778f, 
  -0.010241f, -0.043005f, -0.005875f, -0.010773f, -0.011373f, -0.021479f, -0.015100f, -0.046977f, 
  -0.053373f, -0.028399f, -0.044488f, -0.004371f, -0.015947f, -0.006837f, -0.008289f, -0.002872f, 
  -0.010718f, 0.001023f, 0.042687f, 0.000327f, 0.023244f, -0.017710f, -0.014935f, 0.010626f, 
  0.002010f, 0.024714f, -0.032268f, 0.011331f, 0.011951f, -0.018725f, -0.042081f, -0.042884f, 
  -0.059826f, -0.029281f, -0.017841f, -0.039226f, -0.030818f, -0.027109f, -0.044613f, -0.027404f, 
  -0.041939f, -0.037755f, -0.023467f, -0.033046f, 0.002315f, 0.013758f, 0.018958f, 0.004591f, 
  0.013123f, 0.002708f, 0.016495f, -0.015050f, -0.019728f, 0.002906f, -0.019409f, -0.006151f, 
  -0.045571f, 0.008349f, -0.040141f, -0.059824f, -0.027203f, -0.072246f, -0.012799f, -0.055821f, 
  -0.035247f, -0.010637f, -0.042559f, -0.000907f, -0.005723f, -0.043645f, -0.029161f, -0.022141f, 
  0.015109f, -0.045563f, 0.014584f, -0.028027f, 0.032025f, -0.007094f, -0.001295f, -0.021257f, 
  0.014947f, -0.017597f, -0.004993f, 0.008009f, -0.000532f, -0.019135f, 0.017818f, -0.029506f, 
  -0.060279f, -0.048130f, -0.043080f, 0.000142f, -0.031662f, -0.012439f, -0.026666f, -0.046237f, 
  -0.006344f, -0.029484f, 0.011989f, -0.024417f, -0.026726f, -0.025546f, -0.019412f, -0.013703f, 
  -0.020306f, -0.013759f, 0.014699f, 0.022261f, -0.000926f, 0.000061f, 0.020732f, 0.009628f, 
  -0.029601f, -0.027884f, -0.004428f, -0.017548f, -0.015034f, -0.029983f, -0.006698f, -0.035746f, 
  -0.039762f, -0.053264f, -0.028493f, -0.003266f, -0.050754f, -0.029249f, -0.023233f, -0.046228f, 
  -0.015467f, -0.014444f, -0.003438f, -0.042641f, 0.018294f, -0.005610f, 0.011780f, -0.012400f, 
  0.017728f, -0.017432f, -0.033987f, 0.008303f, 0.015878f, 0.007729f, -0.024688f, -0.019835f, 
  -0.025090f, -0.008506f, -0.006245f, -0.044869f, -0.027514f, -0.023604f, -0.036324f, -0.014778f, 
  -0.006407f, -0.036167f, -0.012978f, -0.020268f, -0.046227f, -0.066161f, -0.040317f, -0.031361f, 
  -0.012892f, -0.016660f, -0.015847f, -0.016227f, 0.008907f, -0.014950f, 0.002554f, -0.010716f, 
  0.010422f, -0.021226f, 0.007821f, 0.004398f, -0.037960f, -0.022130f, -0.031453f, -0.046827f, 
  -0.065092f, -0.060639f, -0.034181f, -0.049638f, -0.018363f, -0.006095f, -0.036359f, -0.030789f, 
  0.013149f, -0.005229f, -0.033570f, -0.042524f, -0.004290f, -0.032872f, -0.010954f, -0.021246f, 
  -0.045034f, 0.013380f, 0.002464f, -0.000221f, 0.002030f, -0.007422f, -0.018798f, -0.022562f, 
  -0.012813f, -0.012919f, -0.004107f, -0.006251f, -0.015685f, -0.036961f, -0.035747f, -0.028997f, 
  -0.030082f, -0.064281f, -0.007657f, -0.020488f, -0.038160f, -0.021331f, -0.015261f, -0.029570f, 
  -0.014197f, -0.029800f, -0.036200f, -0.040495f, 0.008260f, 0.001891f, 0.011180f, 0.006737f, 
  0.013327f, 0.012381f, 0.008809f, -0.002696f, -0.021213f, -0.030371f, -0.026393f, 0.018378f, 
  -0.005103f, -0.032851f, -0.034277f, -0.041040f, -0.049770f, -0.060686f, 0.001268f, -0.062732f, 
  -0.054861f, -0.011864f, -0.014613f, -0.044894f, -0.022175f, -0.019224f, 0.011139f, -0.010899f, 
  -0.028137f, 0.006288f, -0.008155f, 0.011043f, -0.002254f, -0.016574f, -0.013086f, -0.032600f, 
  0.019903f, -0.012902f, -0.039957f, -0.018173f, -0.035653f, -0.018194f, 0.009332f, -0.017214f, 
  -0.016803f, -0.029745f, -0.041868f, -0.019187f, -0.005469f, -0.027451f, -0.038356f, -0.031217f, 
  -0.010312f, -0.004834f, 0.007047f, -0.023334f, -0.019275f, 0.000430f, -0.018708f, -0.018070f, 
  0.018444f, -0.002402f, 0.021941f, 0.015990f, -0.016095f, -0.000568f, -0.009498f, -0.018365f, 
  -0.017425f, -0.015077f, -0.014233f, -0.009198f, 0.005147f, -0.041165f, -0.019992f, -0.009937f, 
  -0.047138f, -0.025210f, -0.034542f, 0.000103f, -0.001820f, -0.006266f, -0.022550f, 0.018460f, 
  -0.009606f, -0.000857f, -0.011606f, -0.004193f, -0.020686f, -0.034014f, -0.004165f, -0.018637f, 
  0.021484f, -0.006758f, 0.013410f, 0.000947f, -0.014265f, -0.040126f, -0.008793f, 0.023257f, 
  0.002662f, 0.008792f, -0.000410f, -0.028974f, -0.052950f, -0.023415f, -0.040760f, -0.050350f, 
  -0.050866f, -0.026295f, -0.025851f, -0.042833f, -0.022299f, -0.037735f, -0.000838f, -0.033538f, 
  0.015707f, -0.014127f, -0.019732f, 0.006988f, -0.009272f, -0.006803f, -0.031448f, -0.006281f, 
  -0.025951f, -0.001418f, -0.019247f, -0.038182f, -0.002643f, 0.000080f, -0.042764f, -0.020450f, 
  -0.040464f, -0.049958f, -0.034722f, -0.015128f, 0.003924f, -0.041718f, 0.000768f, -0.041340f, 
  0.006589f, 0.029123f, 0.005318f, -0.022874f, -0.026435f, -0.021205f, -0.001738f, 0.017877f, 
  0.013719f, -0.018909f, 0.010913f, 0.000320f, 0.007700f, -0.029879f, 0.000762f, -0.021058f, 
  -0.018320f, -0.040868f, -0.022487f, -0.018560f, -0.010794f, 0.003820f, -0.036788f, -0.017742f, 
  -0.011533f, -0.012545f, -0.003506f, 0.018193f, 0.007670f, 0.023624f, -0.018315f, 0.030725f, 
  -0.000184f, 0.008568f, 0.010191f, 0.021052f, -0.003085f, -0.002941f, 0.001619f, -0.011511f, 
  -0.000378f, -0.012065f, 0.009734f, -0.002503f, 0.025769f, -0.006672f, -0.017796f, -0.017194f, 
  0.007630f, 0.005259f, -0.015321f, -0.002828f, 0.004835f, 0.016629f, -0.002324f, -0.011374f, 
  0.032189f, 0.014542f, 0.034916f, 0.028255f, 0.029748f, 0.038364f, 0.037358f, 0.054672f, 
  0.036632f, 0.046174f, 0.017698f, 0.030897f, 0.037787f, 0.025254f, 0.018737f, 0.023106f, 
  0.008517f, 0.042194f, 0.019449f, 0.003538f, 0.028112f, 0.025549f, -0.028281f, 0.022169f, 
  0.011111f, 0.008402f, -0.010081f, 0.004036f, -0.001330f, 0.025008f, 0.015674f, 0.042996f, 
  0.040620f, 0.042916f, 0.063470f, 0.022532f, 0.042256f, 0.072580f, 0.075412f, 0.030224f, 
  0.011905f, 0.044001f, 0.079714f, 0.034428f, 0.001418f, 0.045923f, 0.020094f, -0.012952f, 
  0.011872f, 0.033558f, 0.020676f, -0.004017f, 0.029015f, 0.018071f, -0.004138f, 0.013956f, 
  0.023974f, 0.021978f, 0.031398f, 0.040307f, 0.068296f, 0.035038f, 0.056543f, 0.074012f, 
  0.077306f, 0.041544f, 0.073552f, 0.026937f, 0.028890f, 0.054977f, 0.009790f, 0.048154f, 
  0.067457f, 0.033086f, 0.058226f, 0.031342f, 0.028825f, 0.033447f, 0.014677f, -0.017492f, 
  0.011161f, -0.025918f, 0.007894f, -0.000142f, 0.019716f, -0.015781f, 0.006745f, 0.032447f, 
  0.031301f, 0.053288f, 0.051417f, 0.084443f, 0.055231f, 0.056790f, 0.057882f, 0.048409f, 
  0.088920f, 0.062989f, 0.046794f, 0.037997f, 0.045243f, 0.040342f, 0.050713f, 0.018940f, 
  0.015196f, 0.005543f, 0.024688f, 0.033466f, 0.014892f, -0.000300f, -0.025772f, -0.016391f, 
  0.019919f, -0.005390f, 0.026508f, 0.017617f, 0.035012f, 0.000824f, 0.047496f, 0.078172f, 
  0.072340f, 0.056054f, 0.079110f, 0.071744f, 0.101258f, 0.077366f, 0.054215f, 0.045415f, 
  0.045478f, 0.032214f, 0.032854f, 0.021083f, 0.007019f, 0.039740f, 0.018501f, -0.001873f, 
  0.009003f, -0.009605f, 0.027915f, -0.016884f, -0.034277f, -0.020079f, 0.025712f, 0.021360f, 
  0.005952f, 0.024396f, 0.013452f, 0.047936f, 0.048009f, 0.062932f, 0.080337f, 0.047141f, 
  0.031596f, 0.077512f, 0.084406f, 0.079282f, 0.062512f, 0.042525f, 0.068858f, 0.071824f, 
  0.025617f, 0.038851f, 0.042668f, -0.002397f, 0.000471f, -0.004639f, -0.018390f, 0.013292f, 
  -0.029039f, 0.018711f, -0.006018f, 0.014336f, -0.017271f, -0.034910f, 0.015551f, 0.027373f, 
  0.039480f, 0.038197f, 0.044770f, 0.010718f, 0.053538f, 0.028558f, 0.049501f, 0.041611f, 
  0.040152f, 0.045721f, 0.033676f, 0.043424f, 0.034081f, 0.025257f, 0.050461f, 0.041272f, 
  0.040881f, 0.033510f, -0.001100f, 0.017575f, -0.002350f, -0.007908f, -0.024759f, -0.007902f, 
  -0.031389f, 0.008064f, -0.009490f, -0.005440f, -0.000255f, 0.003251f, 0.045356f, -0.001802f, 
  0.038928f, 0.034465f, 0.024272f, 0.012672f, 0.011987f, 0.013769f, 0.008811f, 0.019224f, 
  0.020550f, 0.022604f, 0.034594f, -0.001285f, 0.023559f, 0.017549f, 0.009309f, -0.009641f, 
  -0.021070f, -0.021564f, -0.024184f, -0.005825f, -0.045914f, 0.014457f, -0.027395f, -0.051208f, 
  -0.007335f, -0.020320f, 0.019628f, 0.010650f, 0.004873f, 0.027694f, 0.009047f, 0.010657f, 
  -0.001780f, 0.021454f, 0.008147f, 0.037973f, 0.020838f, 0.051564f, 0.025775f, 0.000128f, 
  0.013846f, 0.024397f, 0.029393f, -0.003591f, 0.006926f, -0.023413f, 0.005903f, -0.047050f, 
  -0.010656f, -0.037976f, -0.024840f, -0.026119f, -0.026034f, 0.016838f, 0.017515f, -0.010825f, 
  -0.004407f, 0.057084f, 0.009210f, 0.041482f, -0.007138f, 0.004581f, 0.033226f, 0.007514f, 
  0.024073f, 0.035508f, 0.038839f, 0.053689f, 0.018694f, 0.025747f, 0.006210f, 0.023991f, 
  -0.019640f, -0.018589f, 0.026393f, 0.009575f, -0.025821f, -0.008392f, -0.037659f, -0.023523f, 
  -0.004347f, -0.031926f, -0.031945f, -0.022832f, -0.017940f, 0.000168f, -0.011320f, 0.038562f, 
  0.004905f, 0.017131f, 0.035061f, 0.028051f, 0.023013f, -0.010587f, -0.004537f, 0.003563f, 
  0.030989f, 0.013189f, 0.006674f, 0.005737f, 0.037997f, 0.031909f, 0.011247f, 0.009268f, 
  -0.008664f, -0.044456f, -0.042676f, -0.027446f, -0.039579f, -0.022246f, -0.028119f, -0.043496f, 
  -0.039504f, -0.003021f, 0.000946f, 0.001753f, 0.007100f, 0.002820f, -0.021407f, 0.009533f, 
  0.011735f, 0.043867f, 0.010581f, 0.017766f, 0.005571f, 0.021581f, -0.009119f, 0.034506f, 
  -0.008980f, 0.014778f, -0.011402f, 0.009716f, -0.007419f, -0.039951f, -0.020874f, -0.025040f, 
  -0.042173f, -0.021111f, -0.039524f, -0.014414f, -0.031332f, -0.011668f, -0.032441f, 0.010442f, 
  -0.012924f, -0.000241f, -0.040989f, 0.020487f, 0.010779f, 0.026369f, 0.025104f, 0.042636f, 
  -0.020811f, -0.003494f, 0.015260f, -0.011308f, -0.015487f, 0.020205f, 0.018544f, -0.004457f, 
  -0.014972f, 0.026703f, 0.027670f, -0.018832f, -0.048361f, -0.046207f, -0.052778f, -0.025391f, 
  -0.030250f, -0.018565f, -0.013091f, 0.005978f, -0.003826f, -0.001212f, 0.029478f, 0.000201f, 
  -0.010028f, 0.006594f, 0.037884f, 0.044082f, 0.009841f, 0.015900f, 0.012259f, 0.001061f, 
  0.013897f, -0.022280f, -0.022044f, -0.000807f, 0.001399f, 0.000486f, -0.040948f, 0.002634f, 
  -0.016638f, -0.028044f, -0.013707f, -0.038540f, -0.004386f, -0.037775f, -0.011092f, -0.026813f, 
  -0.000335f, -0.007599f, 0.009813f, 0.034524f, 0.003172f, 0.011749f, -0.004917f, 0.014248f, 
  -0.010442f, 0.011504f, 0.029886f, -0.019383f, -0.000164f, 0.011743f, 0.023142f, 0.009833f, 
  -0.008616f, 0.008603f, 0.001705f, -0.027558f, -0.022882f, -0.024110f, -0.015997f, -0.035823f, 
  -0.032444f, -0.012680f, -0.042927f, -0.045641f, 0.015401f, -0.027525f, -0.004599f, 0.028185f, 
  -0.006303f, 0.001070f, 0.015097f, 0.006585f, 0.028018f, 0.016998f, 0.030441f, 0.035498f, 
  -0.026752f, -0.007111f, 0.019072f, -0.004205f, -0.010571f, -0.005941f, -0.004852f, -0.000784f, 
  -0.018608f, -0.022133f, -0.051343f, -0.024845f, -0.010168f, -0.032812f, -0.040578f, -0.032936f, 
  0.002794f, -0.005727f, -0.053129f, -0.026009f, 0.003534f, 0.000215f, -0.016913f, -0.012610f, 
  0.009258f, -0.010604f, 0.007900f, 0.017855f, 0.004126f, 0.006260f, 0.016463f, 0.002017f, 
  0.010263f, -0.000184f, 0.008805f, 0.009688f, -0.016235f, -0.059460f, -0.043258f, -0.021333f, 
  -0.031476f, -0.000520f, -0.021362f, -0.033764f, -0.043104f, -0.023971f, -0.029139f, 0.000637f, 
  -0.052677f, -0.016841f, -0.027534f, 0.026169f, 0.008353f, -0.010647f, 0.005843f, 0.038313f, 
  0.043913f, 0.010941f, 0.019309f, -0.013084f, -0.013041f, -0.029547f, -0.009563f, -0.021465f, 
  -0.020306f, -0.031071f, -0.061652f, -0.007110f, -0.030995f, -0.024203f, -0.041542f, -0.025588f, 
  -0.017494f, -0.042315f, -0.022738f, -0.007802f, -0.004337f, -0.035285f, -0.012034f, 0.003014f, 
  -0.034125f, 0.029012f, -0.016806f, -0.004432f, 0.011876f, -0.004233f, 0.003917f, -0.006403f, 
  -0.027999f, -0.012088f, -0.009462f, -0.007267f, -0.008156f, -0.014576f, -0.037478f, -0.055367f, 
  -0.019443f, -0.024968f, -0.024428f, -0.018814f, -0.030268f, -0.008525f, 0.012088f, -0.041880f, 
  -0.013095f, -0.021824f, -0.048313f, -0.048321f, -0.015170f, -0.004297f, -0.013604f, 0.005033f, 
  -0.034393f, -0.033333f, -0.010084f, -0.009393f, 0.002755f, -0.021305f, -0.023194f, 0.012118f, 
  -0.035326f, -0.013403f, -0.029187f, 0.000399f, -0.015238f, -0.067126f, -0.060505f, -0.035724f, 
  -0.015023f, -0.036798f, -0.021833f, -0.049169f, -0.042828f, -0.027039f, 0.001823f, -0.046020f, 
  -0.029713f, -0.025829f, -0.001586f, -0.022556f, -0.021784f, -0.004162f, -0.040430f, -0.034531f, 
  0.011434f, -0.020592f, -0.035015f, -0.031194f, -0.016481f, -0.000820f, -0.028589f, -0.039717f, 
  -0.017084f, -0.025321f, -0.049710f, 0.063172f, 0.065673f, 0.080434f, 0.044301f, 0.032998f, 
  0.049343f, 0.041436f, 0.055445f, 0.064534f, 0.062964f, 0.034316f, 0.034077f, 0.018144f, 
  0.014546f, -0.009057f, 0.012428f, 0.022708f, -0.008553f, 0.014251f, 0.002602f, 0.017134f, 
  -0.017209f, 0.025056f, 0.025921f, 0.036610f, 0.024218f, 0.032777f, 0.039880f, 0.015161f, 
  0.043877f, 0.072798f, 0.033361f, 0.081151f, 0.052935f, 0.033853f, 0.052281f, 0.043726f, 
  0.057832f, 0.041593f, 0.026363f, 0.040572f, 0.000640f, 0.028594f, -0.007584f, -0.012656f, 
  -0.005184f, 0.017286f, 0.010804f, 0.024195f, 0.072238f, 0.011532f, 0.020245f, 0.015746f, 
  0.012483f, 0.014301f, 0.037563f, 0.027881f, 0.017191f, 0.066667f, 0.083985f, 0.083791f, 
  0.037362f, 0.041276f, 0.010859f, 0.001901f, 0.005486f, 0.004412f, 0.004420f, 0.017298f, 
  0.016355f, 0.003775f, -0.027268f, -0.005901f, -0.015593f, -0.014560f, -0.019998f, 0.020074f, 
  0.020780f, 0.023338f, 0.011431f, 0.015585f, 0.017879f, 0.027680f, 0.023435f, 0.028157f, 
  0.019755f, 0.001198f, 0.020312f, 0.065423f, 0.072497f, 0.043387f, 0.050332f, 0.045420f, 
  -0.001990f, -0.025823f, 0.031686f, 0.002875f, 0.001117f, -0.020693f, 0.004763f, 0.000780f, 
  0.003926f, -0.004860f, -0.039886f, -0.013270f, 0.001165f, 0.005939f, -0.015657f, -0.036551f, 
  -0.010033f, -0.011396f, 0.016169f, 0.030370f, -0.009360f, 0.013273f, 0.011304f, 0.038070f, 
  0.078076f, 0.051804f, 0.023723f, 0.017204f, 0.023821f, -0.034112f, -0.020374f, 0.016981f, 
  -0.018043f, -0.025393f, -0.002265f, -0.000264f, -0.026171f, 0.012281f, -0.020628f, -0.019228f, 
  -0.045754f, -0.009174f, -0.039041f, -0.024559f, 0.004625f, 0.004318f, 0.028149f, -0.019230f, 
  0.025570f, 0.022751f, 0.009688f, -0.008697f, 0.039659f, 0.027739f, 0.010053f, 0.047953f, 
  0.033742f, 0.025742f, -0.017664f, -0.022394f, -0.043041f, -0.017352f, -0.015392f, -0.041607f, 
  0.001273f, -0.002170f, -0.017693f, 0.013068f, -0.017263f, -0.017504f, -0.023079f, -0.004610f, 
  0.005307f, -0.000596f, -0.012219f, -0.010969f, 0.033981f, 0.009432f, 0.039245f, 0.030262f, 
  0.056545f, 0.057746f, 0.003171f, 0.061617f, 0.019889f, -0.011260f, -0.003718f, 0.023661f, 
  -0.030506f, -0.006036f, 0.021377f, -0.007699f, 0.037965f, 0.020863f, -0.023817f, 0.013702f, 
  -0.020320f, 0.012753f, -0.021037f, 0.005212f, -0.004044f, -0.032757f, -0.027421f, 0.026966f, 
  0.018781f, 0.023788f, 0.029126f, 0.032423f, 0.003977f, 0.033949f, 0.050961f, 0.100810f, 
  0.013466f, 0.041770f, 0.008507f, -0.008148f, -0.031610f, -0.017321f, -0.021876f, -0.027656f, 
  0.009817f, 0.004856f, -0.011483f, -0.011353f, -0.029820f, -0.019175f, -0.067730f, -0.040116f, 
  -0.002797f, -0.038034f, -0.020970f, -0.008107f, -0.036259f, 0.001889f, 0.013681f, 0.055849f, 
  0.025482f, 0.031921f, 0.029309f, 0.043804f, -0.003251f, 0.058410f, 0.028886f, 0.017895f, 
  -0.000368f, -0.022874f, -0.053163f, -0.031730f, -0.050577f, -0.011348f, -0.015127f, -0.064503f, 
  -0.040281f, -0.067080f, -0.066350f, -0.073776f, -0.051884f, -0.062751f, -0.002444f, -0.018510f, 
  -0.011698f, -0.014864f, -0.003625f, 0.001440f, 0.054439f, 0.038950f, 0.054164f, 0.043447f, 
  0.055015f, 0.018013f, 0.006639f, -0.008017f, -0.027901f, -0.039286f, -0.050776f, -0.039886f, 
  -0.070153f, -0.043852f, -0.055399f, -0.016318f, -0.043130f, -0.066032f, -0.026549f, -0.038670f, 
  -0.027198f, -0.055608f, -0.069537f, -0.064775f, -0.034835f, -0.010293f, -0.005875f, -0.028805f, 
  -0.017936f, 0.017368f, 0.010259f, 0.055775f, 0.012331f, -0.000355f, 0.032616f, 0.024897f, 
  0.016117f, -0.054977f, -0.038621f, -0.061476f, -0.073955f, -0.041730f, -0.037317f, -0.064222f, 
  -0.010543f, -0.072240f, -0.077545f, -0.086250f, -0.048662f, -0.056659f, -0.068064f, -0.030528f, 
  -0.051732f, -0.031526f, -0.032510f, -0.014869f, 0.022719f, 0.019393f, 0.031973f, 0.047384f, 
  0.025513f, 0.037886f, 0.038045f, 0.038134f, 0.012777f, -0.008444f, -0.024698f, -0.041222f, 
  -0.036756f, -0.062961f, -0.112063f, -0.097830f, -0.072469f, -0.085220f, -0.072796f, -0.081586f, 
  -0.033562f, -0.066358f, -0.042225f, -0.045081f, -0.038273f, -0.048461f, -0.052618f, -0.058313f, 
  -0.048054f, -0.010494f, -0.015363f, 0.036494f, -0.003800f, 0.019937f, 0.020480f, 0.041993f, 
  0.037865f, 0.020482f, -0.038537f, -0.028668f, -0.060834f, -0.067356f, -0.029656f, -0.075346f, 
  -0.069399f, -0.091229f, -0.082192f, -0.079309f, -0.056486f, -0.065130f, -0.053396f, -0.036506f, 
  -0.045040f, -0.037769f, -0.055109f, -0.058013f, -0.006351f, -0.041649f, -0.018546f, -0.000178f, 
  -0.002418f, 0.020862f, 0.033301f, 0.042106f, 0.039125f, 0.007242f, 0.031212f, 0.001283f, 
  0.042349f, 0.001352f, -0.027449f, -0.060497f, -0.075059f, -0.069112f, -0.061831f, -0.074119f, 
  -0.092998f, -0.109809f, -0.115917f, -0.080610f, -0.075128f, -0.047540f, -0.053134f, -0.026781f, 
  -0.031067f, -0.012414f, 0.011083f, 0.024377f, 0.013198f, 0.028817f, 0.017819f, 0.057365f, 
  0.056230f, 0.029392f, 0.027589f, 0.014308f, 0.046461f, 0.025894f, -0.016489f, -0.039414f, 
  -0.049799f, -0.061905f, -0.074713f, -0.041126f, -0.083796f, -0.094935f, -0.087771f, -0.088648f, 
  -0.064461f, -0.064369f, -0.092637f, -0.050335f, -0.047634f, -0.081563f, -0.072867f, -0.017751f, 
  0.007759f, 0.019488f, 0.023206f, 0.008004f, 0.032087f, 0.004096f, 0.065622f, 0.046784f, 
  0.004033f, 0.024319f, 0.034579f, -0.018968f, -0.033938f, -0.011790f, -0.072116f, -0.060063f, 
  -0.056142f, -0.057977f, -0.053289f, -0.070171f, -0.065896f, -0.088534f, -0.072423f, -0.024620f, 
  -0.070332f, -0.067501f, -0.036059f, -0.033236f, -0.019954f, -0.023290f, 0.017401f, 0.029937f, 
  0.029070f, 0.032364f, 0.013657f, 0.048092f, 0.041507f, 0.032845f, 0.044515f, 0.013679f, 
  0.008774f, 0.001449f, -0.012002f, -0.082045f, -0.046282f, -0.069490f, -0.045849f, -0.089334f, 
  -0.040287f, -0.088534f, -0.042293f, -0.086728f, -0.100388f, -0.112422f, -0.088567f, -0.069239f, 
  -0.034217f, -0.059902f, -0.002862f, 0.047620f, 0.016075f, 0.029279f, 0.037808f, 0.020792f, 
  0.029217f, 0.042024f, 0.019611f, 0.018625f, 0.049495f, 0.015233f, -0.012232f, -0.033193f, 
  -0.058804f, -0.032640f, -0.067254f, -0.073083f, -0.053701f, -0.074341f, -0.084097f, -0.057098f, 
  -0.055892f, -0.050357f, -0.090078f, -0.038062f, -0.080352f, -0.031318f, -0.017811f, -0.033654f, 
  -0.002612f, 0.010400f, 0.019694f, 0.031561f, 0.002083f, 0.072734f, 0.066426f, 0.050304f, 
  0.069121f, 0.041503f, -0.009617f, -0.003383f, 0.012744f, -0.027930f, -0.028874f, -0.017640f, 
  -0.004298f, -0.051937f, -0.055017f, -0.032767f, -0.065043f, -0.003611f, 0.016478f, -0.011719f, 
  -0.008618f, -0.042720f, -0.049373f, -0.024205f, 0.010402f, 0.025337f, 0.030946f, 0.004133f, 
  0.049474f, 0.024503f, 0.090472f, 0.051542f, 0.020166f, 0.040798f, 0.024825f, 0.011336f, 
  0.012943f, -0.004259f, -0.004333f, -0.014907f, -0.065713f, -0.010177f, -0.045003f, -0.034250f, 
  -0.052949f, -0.036392f, -0.045069f, -0.035185f, -0.067812f, 0.005184f, -0.010397f, 0.000414f, 
  -0.013530f, -0.019887f, -0.012188f, 0.014223f, 0.015080f, 0.033344f, 0.037964f, 0.092871f, 
  0.080421f, 0.075189f, 0.063519f, 0.062219f, 0.025733f, 0.023857f, -0.008205f, 0.038105f, 
  -0.014193f, -0.025031f, -0.003503f, -0.052617f, -0.054315f, -0.030074f, -0.027252f, -0.019937f, 
  -0.004034f, -0.012467f, -0.019598f, 0.002733f, -0.010705f, -0.036180f, -0.040389f, 0.009884f, 
  -0.033217f, 0.010078f, -0.001695f, 0.050351f, 0.077180f, 0.085930f, 0.073545f, 0.082874f, 
  0.060388f, 0.029936f, 0.034042f, 0.018448f, -0.007393f, 0.010579f, -0.013758f, -0.009252f, 
  -0.017818f, -0.017266f, -0.052203f, -0.041956f, -0.026000f, -0.024714f, -0.031200f, 0.035203f, 
  0.009130f, 0.037645f, 0.032756f, 0.027981f, -0.026064f, 0.012199f, 0.038818f, 0.041979f, 
  0.018639f, 0.054329f, 0.115720f, 0.077956f, 0.035662f, 0.081564f, 0.042920f, 0.008582f, 
  -0.007376f, -0.020075f, -0.019040f, -0.021415f, -0.005872f, -0.010000f, -0.021714f, -0.025121f, 
  -0.035412f, -0.002568f, -0.034773f, -0.005858f, -0.009807f, 0.035618f, 0.046455f, 0.041085f, 
  0.049273f, 0.029181f, 0.000081f, 0.019567f, 0.028113f, 0.006988f, 0.059430f, 0.078434f, 
  0.078281f, 0.074953f, 0.060437f, 0.094370f, 0.030541f, -0.003731f, 0.011653f, -0.003494f, 
  0.013737f, 0.017606f, -0.026798f, -0.014076f, 0.011798f, -0.042571f, -0.033140f, -0.015824f, 
  -0.007415f, -0.001758f, -0.013074f, -0.004456f, 0.015254f, 0.030936f, 0.048375f, 0.060423f, 
  0.047297f, 0.045242f, 0.032624f, 0.073603f, 0.038811f, 0.098708f, 0.066366f, 0.034364f, 
  0.036957f, 0.029926f, 0.013879f, 0.021718f, -0.019567f, -0.007233f, -0.038539f, -0.011352f, 
  -0.004746f, -0.018190f, -0.019740f, -0.012310f, -0.020987f, -0.006244f, -0.021973f, 0.015910f, 
  0.004742f, 0.023123f, 0.033260f, 0.040306f, 0.063970f, 0.013848f, 0.034437f, 0.040136f, 
  0.047466f, 0.066109f, 0.045094f, 0.045193f, 0.086515f, 0.042663f, 0.042510f, 0.056444f, 
  0.081136f, 0.004707f, -0.022430f, -0.030249f, -0.039352f, 0.021893f, -0.018989f, 0.014077f, 
  -0.027293f, -0.008096f, 0.041338f, 0.023605f, 0.025195f, 0.011738f, 0.055600f, 0.052099f, 
  0.038077f, 0.051473f, 0.022509f, 0.076921f, 0.040273f, 0.057454f, 0.055500f, 0.044412f, 
  0.041594f, 0.067632f, 0.028077f, 0.054245f, 0.063647f, 0.030987f, 0.054601f, 0.004879f, 
  0.009741f, -0.036878f, 0.006732f, 0.012630f, 0.042149f, -0.041717f, -0.011350f, -0.015898f, 
  0.011194f, 0.007304f, 0.019084f, 0.033302f, 0.006379f, 0.022395f, 0.054616f, 0.053316f, 
  0.039732f, 0.061400f, 0.033514f, 0.059266f, 0.047894f, 0.045083f, 0.075965f, 0.043358f, 
  0.025037f, 0.043959f, 0.047562f, 0.040024f, 0.051738f, 0.044519f, 0.032244f, -0.007850f, 
  -0.007886f, 0.049926f, -0.026158f, 0.032289f, 0.000470f, 0.024916f, 0.040333f, 0.033007f, 
  0.025801f, 0.027612f, 0.000238f, 0.021165f, 0.047977f, 0.073596f, 0.095863f, 0.013810f, 
  0.025796f, 0.064208f, 0.050310f, 0.044766f, 0.040280f, 0.033307f, 0.034152f, 0.062042f, 
  0.021423f, 0.035635f, 0.016564f, 0.018482f, 0.076635f, -0.007027f, 0.007114f, -0.027551f, 
  -0.016929f, 0.022188f, 0.064747f, 0.021345f, 0.026448f, 0.035399f, 0.012163f, 0.046909f, 
  0.023760f, 0.043868f, 0.085839f, 0.072084f, -0.062970f, -0.041172f, -0.024018f, -0.045274f, 
  -0.028426f, -0.011486f, 0.003096f, -0.036784f, -0.034462f, -0.048842f, -0.001841f, -0.025753f, 
  -0.011576f, -0.039953f, 0.006314f, -0.037003f, -0.017647f, -0.000946f, -0.000350f, -0.007185f, 
  -0.031963f, -0.026843f, 0.013981f, -0.047540f, -0.029511f, -0.009498f, 0.001292f, -0.044374f, 
  0.003863f, -0.060625f, -0.046945f, -0.044306f, -0.025603f, -0.006088f, -0.019271f, -0.044266f, 
  -0.029669f, -0.021602f, -0.034103f, -0.027856f, -0.023906f, -0.002868f, -0.024219f, 0.001682f, 
  0.001181f, -0.012045f, -0.008263f, -0.001696f, -0.003317f, -0.034745f, 0.013853f, -0.030515f, 
  -0.008597f, -0.020251f, -0.031589f, -0.000721f, -0.009618f, -0.040597f, -0.033788f, -0.059939f, 
  -0.022755f, -0.064646f, -0.020933f, -0.042159f, -0.046937f, -0.052472f, -0.008772f, -0.045010f, 
  -0.042455f, -0.030048f, -0.014362f, -0.021017f, 0.003728f, -0.059261f, -0.039217f, -0.023299f, 
  -0.007714f, -0.040768f, -0.032677f, -0.022475f, -0.033031f, -0.030608f, -0.044778f, 0.014610f, 
  -0.022884f, -0.034231f, -0.033284f, -0.062637f, -0.032033f, -0.066152f, -0.065167f, -0.026204f, 
  -0.042200f, -0.032765f, -0.017654f, -0.017274f, -0.039270f, -0.041077f, -0.046435f, -0.024321f, 
  -0.057274f, -0.010234f, -0.006227f, -0.038659f, -0.015737f, 0.004845f, -0.030457f, -0.006405f, 
  -0.007363f, -0.000737f, 0.016604f, 0.015615f, -0.022294f, -0.000888f, -0.046634f, -0.037197f, 
  -0.027541f, -0.056848f, -0.043717f, -0.025439f, -0.030302f, -0.020446f, -0.028178f, -0.048343f, 
  -0.016539f, -0.069028f, -0.016289f, -0.027949f, -0.013091f, -0.002950f, -0.029595f, -0.019415f, 
  -0.010149f, -0.040315f, -0.024308f, -0.046705f, -0.029102f, -0.009325f, -0.025241f, -0.036264f, 
  -0.009966f, -0.004449f, -0.017121f, -0.031188f, -0.024062f, -0.068883f, -0.048630f, -0.017460f, 
  -0.021831f, -0.017117f, -0.026536f, -0.021594f, -0.052413f, -0.027703f, -0.006769f, -0.012012f, 
  0.024144f, -0.024906f, -0.010583f, 0.008969f, -0.018383f, -0.003290f, -0.008006f, -0.033208f, 
  -0.007082f, 0.005990f, 0.001968f, -0.016858f, -0.012234f, -0.007506f, -0.016506f, -0.018730f, 
  -0.033259f, -0.019528f, -0.017313f, -0.037635f, -0.012435f, -0.038445f, -0.041606f, -0.023043f, 
  -0.005202f, -0.018164f, -0.027264f, -0.034080f, -0.010542f, -0.007531f, -0.011398f, 0.002904f, 
  0.019339f, -0.002050f, -0.012198f, -0.001939f, -0.009461f, -0.015474f, -0.026589f, -0.006748f, 
  -0.021721f, -0.025506f, -0.036075f, -0.017414f, -0.012160f, -0.007669f, -0.000312f, -0.038844f, 
  -0.011204f, 0.010619f, -0.045497f, -0.037983f, 0.029435f, -0.021183f, 0.020677f, 0.015248f, 
  0.009591f, 0.002082f, 0.006094f, -0.019570f, 0.021497f, 0.020079f, 0.006699f, 0.004191f, 
  0.011406f, 0.007021f, 0.007570f, 0.017730f, 0.020270f, 0.008075f, 0.010444f, -0.008609f, 
  -0.008682f, -0.001386f, 0.010568f, 0.009470f, -0.025220f, 0.022518f, 0.026929f, -0.001577f, 
  0.013557f, 0.035742f, 0.057675f, 0.017561f, 0.021795f, 0.035625f, 0.025403f, 0.002643f, 
  0.020431f, 0.029213f, 0.059737f, 0.003127f, 0.046211f, 0.014919f, 0.012452f, 0.058826f, 
  0.004797f, 0.027219f, 0.001748f, 0.012939f, -0.006967f, -0.019033f, 0.020104f, 0.005100f, 
  0.009251f, 0.014018f, 0.023872f, 0.000102f, -0.003533f, 0.004589f, 0.045796f, 0.043294f, 
  0.045702f, 0.049887f, 0.062220f, 0.035376f, 0.041216f, 0.063377f, 0.050267f, 0.060820f, 
  0.034686f, 0.069836f, 0.050058f, 0.048387f, 0.036171f, 0.078803f, 0.035456f, 0.009160f, 
  0.002992f, 0.021472f, 0.004278f, -0.008344f, 0.029447f, -0.035548f, -0.016202f, 0.059012f, 
  0.062775f, 0.026426f, 0.067521f, 0.034381f, 0.074588f, 0.037762f, 0.057783f, 0.095261f, 
  0.086401f, 0.078078f, 0.072765f, 0.075385f, 0.047277f, 0.041041f, 0.065353f, 0.085989f, 
  0.051585f, 0.033752f, 0.026603f, 0.070243f, 0.033614f, 0.012317f, 0.025963f, 0.028351f, 
  0.013375f, 0.002779f, -0.020201f, -0.018584f, 0.043787f, 0.020350f, -0.001315f, 0.066732f, 
  0.039015f, 0.066652f, 0.069331f, 0.035921f, 0.079068f, 0.088782f, 0.093965f, 0.100351f, 
  0.080287f, 0.111541f, 0.094262f, 0.043714f, 0.039410f, 0.040386f, 0.061165f, 0.026199f, 
  0.016336f, 0.021133f, 0.045868f, 0.049654f, 0.039540f, -0.016512f, 0.002914f, -0.009664f, 
  0.026908f, 0.030700f, -0.017051f, 0.024089f, 0.023585f, 0.032033f, 0.054476f, 0.065305f, 
  0.041168f, 0.089106f, 0.107767f, 0.094361f, 0.105020f, 0.061992f, 0.108391f, 0.087614f, 
  0.054275f, 0.074195f, 0.057340f, 0.040347f, 0.040743f, 0.036632f, 0.046684f, 0.053321f, 
  0.058867f, 0.018876f, 0.016134f, 0.000460f, -0.014528f, -0.012079f, -0.014056f, 0.004174f, 
  0.016895f, 0.009121f, 0.023621f, 0.029543f, 0.033113f, 0.030412f, 0.073830f, 0.067861f, 
  0.034475f, 0.030161f, 0.059954f, 0.075268f, 0.049876f, 0.056954f, 0.028157f, 0.055003f, 
  0.031097f, 0.041736f, 0.043932f, 0.043842f, 0.018502f, 0.015620f, 0.000030f, 0.016398f, 
  0.000771f, 0.001564f, 0.005398f, -0.026036f, -0.007667f, 0.004352f, -0.034900f, 0.029063f, 
  0.038141f, 0.043383f, 0.008402f, 0.056516f, 0.036409f, 0.010233f, 0.054238f, 0.065290f, 
  0.046437f, 0.068804f, 0.042323f, 0.028531f, 0.055285f, 0.013168f, 0.057262f, 0.056463f, 
  0.010855f, -0.024317f, 0.033105f, -0.003708f, -0.017311f, -0.013937f, -0.017900f, -0.015488f, 
  -0.017387f, 0.002686f, -0.025192f, -0.024643f, 0.027059f, 0.019476f, 0.026451f, 0.003722f, 
  0.007891f, 0.043486f, 0.034888f, -0.006915f, 0.055199f, 0.017208f, 0.044034f, 0.027641f, 
  0.043621f, 0.024194f, 0.010991f, 0.036903f, 0.022141f, 0.006697f, 0.030343f, -0.003591f, 
  0.001586f, -0.029811f, 0.005054f, -0.004348f, -0.047028f, -0.044427f, -0.039700f, 0.000744f, 
  0.002116f, -0.020822f, -0.008252f, 0.003304f, -0.003642f, 0.016903f, -0.010599f, -0.001916f, 
  0.018640f, 0.015043f, 0.026326f, 0.023094f, 0.025383f, 0.002721f, 0.033393f, 0.022742f, 
  0.023065f, 0.015997f, -0.002486f, 0.025280f, 0.003045f, 0.021823f, 0.011206f, 0.010400f, 
  -0.007346f, -0.037061f, -0.061107f, -0.012823f, -0.011304f, -0.047040f, -0.021173f, -0.011593f, 
  -0.022583f, 0.021685f, 0.001973f, 0.016728f, 0.014331f, 0.017298f, 0.002647f, 0.014320f, 
  -0.001049f, 0.015478f, 0.017897f, -0.001048f, 0.035267f, 0.025287f, 0.014523f, 0.034050f, 
  0.035507f, -0.007854f, 0.003134f, 0.002979f, 0.015982f, -0.000315f, -0.033514f, -0.054423f, 
  -0.020992f, -0.045590f, -0.023383f, -0.031547f, -0.025936f, -0.032351f, -0.005509f, -0.019992f, 
  -0.018956f, 0.031281f, -0.003123f, 0.009480f, 0.019742f, 0.037335f, 0.006822f, -0.009569f, 
  -0.002183f, -0.006970f, 0.000070f, 0.030424f, 0.008068f, 0.029589f, 0.019780f, -0.005123f, 
  0.000484f, -0.032263f, -0.001295f, -0.060997f, -0.031602f, -0.044032f, -0.025329f, -0.036800f, 
  -0.003899f, -0.001089f, -0.025045f, 0.019363f, -0.015565f, 0.037178f, 0.008657f, -0.015688f, 
  0.014851f, -0.004976f, 0.004204f, 0.003791f, -0.000264f, -0.007425f, 0.026587f, 0.003739f, 
  0.027016f, 0.010117f, 0.011763f, 0.003019f, 0.017507f, -0.015736f, -0.009536f, 0.003649f, 
  -0.053010f, -0.035947f, -0.030737f, -0.043386f, -0.026653f, -0.020103f, 0.020559f, -0.002698f, 
  0.002894f, -0.002287f, 0.031263f, 0.019078f, 0.021248f, 0.013776f, -0.003268f, -0.016112f, 
  0.010095f, 0.008099f, -0.008246f, -0.018269f, -0.006444f, -0.004112f, 0.007073f, -0.012029f, 
  -0.034962f, -0.003245f, 0.013413f, -0.002675f, 0.006349f, -0.039057f, -0.019236f, -0.032608f, 
  -0.025592f, -0.030915f, 0.000054f, -0.027240f, 0.015773f, -0.009060f, 0.017254f, 0.030849f, 
  0.011319f, 0.013223f, 0.016240f, 0.026886f, 0.018048f, 0.006054f, -0.004623f, 0.009730f, 
  0.019315f, -0.004552f, -0.027798f, -0.032423f, -0.012018f, 0.011305f, 0.012544f, -0.014639f, 
  -0.024906f, -0.051093f, -0.019835f, 0.006141f, -0.027956f, -0.003297f, -0.030643f, -0.049860f, 
  -0.026764f, -0.025083f, -0.016368f, 0.036541f, 0.005393f, -0.004532f, 0.002415f, 0.031942f, 
  -0.004729f, 0.019121f, 0.015255f, 0.015170f, 0.015308f, -0.028122f, -0.028435f, -0.005404f, 
  -0.005251f, 0.005393f, -0.010300f, 0.004454f, -0.031218f, -0.024294f, -0.026561f, -0.045127f, 
  -0.053045f, -0.050319f, -0.035578f, -0.051734f, 0.017005f, -0.042129f, -0.053216f, 0.030918f, 
  -0.000768f, -0.018163f, 0.009779f, -0.010566f, 0.018141f, 0.002581f, -0.004842f, -0.002288f, 
  0.005497f, 0.003290f, -0.023397f, 0.023268f, -0.003812f, 0.001285f, 0.024203f, -0.019710f, 
  -0.022704f, -0.032486f, -0.050893f, -0.014703f, -0.023624f, -0.017205f, -0.025674f, -0.035108f, 
  0.000095f, -0.031160f, -0.056286f, -0.011142f, -0.020204f, -0.022072f, -0.026131f, 0.020899f, 
  -0.008465f, 0.020257f, 0.010527f, -0.000540f, 0.046358f, 0.021270f, -0.017327f, -0.006563f, 
  -0.001847f, -0.035124f, 0.002796f, -0.007904f, -0.039536f, -0.039067f, -0.017146f, -0.020704f, 
  -0.049009f, -0.062874f, -0.009291f, -0.025903f, -0.025395f, -0.005619f, -0.022435f, -0.042648f, 
  -0.032478f, -0.006751f, -0.008156f, -0.011041f, -0.009546f, -0.019380f, -0.031245f, -0.010881f, 
  -0.013447f, -0.025765f, -0.003499f, -0.002131f, 0.028562f, -0.016825f, -0.003431f, -0.014001f, 
  -0.047461f, -0.004661f, -0.022059f, -0.060170f, -0.051287f, -0.025016f, -0.005289f, -0.069684f, 
  -0.004877f, 0.003519f, -0.029419f, -0.006542f, 0.000292f, -0.002319f, -0.027817f, 0.004147f, 
  -0.011102f, 0.007153f, 0.012217f, -0.010397f, 0.012727f, -0.003277f, 0.008471f, -0.014842f, 
  -0.027480f, 0.036726f, -0.000997f, -0.015998f, -0.009801f, -0.018290f, -0.030172f, -0.028436f, 
  -0.032720f, -0.045691f, -0.046157f, -0.048982f, -0.031964f, -0.034438f, -0.021817f, -0.043327f, 
  -0.009265f, -0.035259f, -0.056201f, -0.029932f, 0.005920f, 0.001901f, -0.016821f, -0.030250f, 
  0.012372f, -0.032310f, -0.019241f, -0.021165f, -0.010142f, -0.005064f, 0.014015f, -0.012585f, 
  -0.013350f, -0.040481f, -0.040817f, -0.043242f, -0.033731f, -0.013235f, -0.054466f, -0.084511f, 
  -0.030225f, -0.037357f, -0.031853f, -0.034063f, -0.035731f, -0.018290f, -0.020581f, -0.026227f, 
  -0.015565f, -0.032334f, -0.011411f, -0.029338f, 0.012957f, -0.041777f, -0.015915f, 0.009153f, 
  -0.021082f, -0.003466f, -0.034708f, -0.008681f, -0.000152f, -0.003793f, -0.027581f, -0.024626f, 
  -0.002479f, -0.015472f, -0.064612f, -0.087782f, -0.048440f, 0.039528f, 0.043397f, 0.019009f, 
  0.047964f, 0.038464f, 0.033543f, 0.007497f, 0.008158f, 0.027003f, 0.038065f, 0.025155f, 
  0.012278f, 0.001582f, 0.002015f, 0.030258f, 0.036793f, 0.007466f, -0.016600f, 0.039266f, 
  0.001134f, 0.052426f, 0.008406f, 0.006884f, -0.004110f, 0.031815f, 0.012312f, 0.043558f, 
  0.013714f, 0.003837f, 0.036932f, 0.085494f, 0.050767f, 0.053968f, 0.026078f, 0.029863f, 
  0.014474f, 0.024025f, 0.010199f, 0.039314f, 0.016509f, 0.000511f, 0.015137f, -0.019191f, 
  0.032168f, 0.014834f, 0.003366f, -0.001144f, -0.004654f, 0.020596f, 0.040235f, 0.038254f, 
  -0.013113f, -0.005145f, 0.020132f, 0.050724f, 0.006115f, -0.000151f, 0.046194f, 0.080644f, 
  0.063371f, 0.048308f, 0.055073f, 0.061790f, 0.016021f, 0.010309f, 0.035874f, 0.005008f, 
  0.007974f, 0.020683f, 0.008296f, 0.006589f, -0.000038f, -0.004363f, -0.011524f, -0.000204f, 
  0.006093f, -0.016652f, 0.018869f, 0.008727f, 0.004474f, 0.001111f, 0.031389f, 0.010323f, 
  0.019174f, 0.041853f, 0.041701f, 0.034784f, 0.078078f, 0.044152f, 0.023972f, 0.013020f, 
  0.044666f, 0.049746f, 0.005167f, -0.009254f, 0.008395f, 0.043871f, 0.026525f, 0.014263f, 
  -0.013688f, 0.030493f, 0.024096f, 0.025530f, 0.022648f, 0.000576f, 0.014729f, 0.002147f, 
  0.011582f, 0.040676f, -0.007147f, -0.022956f, 0.029592f, 0.001597f, 0.010691f, 0.033123f, 
  -0.001956f, 0.069220f, 0.039046f, 0.066184f, 0.075377f, 0.011822f, 0.026397f, 0.000162f, 
  -0.006650f, -0.003706f, 0.005966f, 0.016599f, 0.045647f, 0.025786f, 0.037335f, 0.015314f, 
  0.014113f, 0.010606f, 0.004131f, 0.014891f, -0.009274f, -0.021881f, -0.000008f, 0.017536f, 
  0.028379f, 0.026838f, 0.021948f, 0.016093f, -0.008946f, 0.027734f, 0.047962f, 0.061053f, 
  0.073444f, 0.053551f, 0.032599f, 0.030610f, -0.018450f, -0.025378f, 0.012667f, 0.023876f, 
  0.016758f, 0.034127f, 0.007216f, 0.026131f, -0.001902f, -0.013070f, -0.008159f, -0.008191f, 
  -0.008848f, -0.025643f, -0.035295f, 0.030483f, 0.030791f, 0.010555f, 0.043320f, -0.010568f, 
  0.062549f, 0.038361f, 0.013029f, 0.089534f, 0.029168f, 0.034685f, 0.061242f, -0.005609f, 
  0.022320f, -0.006613f, 0.027613f, 0.001249f, -0.002302f, 0.004328f, -0.024731f, -0.018057f, 
  -0.021192f, -0.037546f, -0.030641f, -0.065879f, -0.019043f, -0.039816f, -0.012125f, 0.018835f, 
  -0.003216f, -0.006865f, 0.017259f, 0.007933f, 0.042095f, 0.006674f, 0.051053f, 0.018316f, 
  0.031987f, 0.033718f, 0.040101f, 0.023986f, 0.011290f, -0.000117f, -0.025879f, -0.053238f, 
  -0.043877f, -0.063339f, -0.033291f, -0.029558f, -0.032190f, -0.034825f, -0.047513f, -0.047146f, 
  -0.085544f, -0.055402f, -0.080001f, -0.012955f, -0.050683f, -0.047235f, 0.004981f, -0.010187f, 
  -0.006270f, 0.007472f, 0.003825f, -0.033813f, 0.025772f, 0.020344f, 0.040936f, -0.019823f, 
  0.013010f, -0.064447f, -0.051158f, -0.046982f, -0.066566f, -0.079251f, -0.057514f, -0.053093f, 
  -0.024369f, -0.052254f, -0.085403f, -0.064434f, -0.062588f, -0.059517f, -0.066446f, -0.093632f, 
  -0.081441f, -0.029655f, -0.079012f, -0.023442f, 0.009482f, -0.008446f, -0.003167f, 0.015010f, 
  -0.025663f, 0.001721f, -0.006223f, -0.017577f, -0.030363f, -0.052306f, -0.041108f, -0.062594f, 
  -0.094765f, -0.092306f, -0.119923f, -0.092107f, -0.102319f, -0.097304f, -0.066728f, -0.053127f, 
  -0.102974f, -0.076767f, -0.104056f, -0.071516f, -0.062557f, -0.070421f, -0.042594f, -0.050437f, 
  -0.038095f, -0.024980f, -0.021506f, -0.013844f, 0.022956f, -0.032056f, -0.025630f, -0.030137f, 
  0.007893f, -0.025773f, -0.042108f, -0.027245f, -0.040285f, -0.080032f, -0.104462f, -0.148328f, 
  -0.111509f, -0.073611f, -0.097600f, -0.120406f, -0.092355f, -0.095668f, -0.075223f, -0.080715f, 
  -0.111938f, -0.082006f, -0.066313f, -0.081357f, -0.077227f, -0.061975f, -0.052631f, -0.035421f, 
  -0.038476f, -0.022948f, 0.009471f, 0.025295f, 0.006753f, -0.020699f, -0.017814f, -0.012837f, 
  -0.010802f, -0.022966f, -0.036929f, -0.083004f, -0.113399f, -0.087056f, -0.107723f, -0.117905f, 
  -0.134875f, -0.137161f, -0.099760f, -0.095897f, -0.100361f, -0.077321f, -0.103577f, -0.070405f, 
  -0.103708f, -0.059688f, -0.039627f, -0.044868f, -0.058639f, -0.026642f, 0.006547f, 0.007954f, 
  0.028243f, 0.011211f, -0.024727f, -0.010051f, -0.016500f, -0.013281f, -0.032831f, -0.079480f, 
  -0.067749f, -0.095843f, -0.109234f, -0.102285f, -0.105710f, -0.119905f, -0.116185f, -0.112078f, 
  -0.096767f, -0.116048f, -0.083713f, -0.091109f, -0.098090f, -0.090741f, -0.084633f, -0.054814f, 
  -0.021307f, -0.024367f, 0.003354f, 0.003290f, 0.020725f, 0.013838f, 0.034252f, 0.026300f, 
  0.006198f, 0.008950f, -0.003688f, -0.023950f, -0.075967f, -0.051390f, -0.103153f, -0.076152f, 
  -0.101921f, -0.113781f, -0.095008f, -0.121881f, -0.108478f, -0.068580f, -0.101386f, -0.086469f, 
  -0.068630f, -0.096669f, -0.075051f, -0.070605f, -0.007857f, 0.002207f, -0.002429f, 0.010758f, 
  0.003769f, 0.022122f, 0.028180f, 0.032533f, 0.054780f, 0.037923f, 0.020799f, 0.008833f, 
  -0.029034f, -0.028211f, -0.063638f, -0.069257f, -0.087914f, -0.066258f, -0.048907f, -0.090401f, 
  -0.084345f, -0.073325f, -0.060320f, -0.078323f, -0.088358f, -0.083073f, -0.110773f, -0.071322f, 
  -0.049469f, -0.014341f, -0.024568f, 0.031996f, -0.026588f, -0.000424f, 0.003085f, 0.040036f, 
  0.031794f, 0.035421f, 0.028353f, -0.001311f, 0.018265f, 0.006230f, -0.056710f, -0.032039f, 
  -0.042956f, -0.052096f, -0.112949f, -0.080843f, -0.070399f, -0.073113f, -0.099384f, -0.053999f, 
  -0.083802f, -0.065846f, -0.090361f, -0.096364f, -0.067638f, -0.089157f, -0.022670f, -0.011666f, 
  -0.027595f, -0.023661f, 0.033159f, 0.045468f, -0.003849f, 0.081506f, 0.061616f, 0.062316f, 
  0.054343f, 0.046279f, 0.045706f, -0.031174f, -0.010063f, -0.064827f, -0.015759f, -0.063449f, 
  -0.063251f, -0.078551f, -0.046866f, -0.078848f, -0.088063f, -0.047846f, -0.093129f, -0.096089f, 
  -0.048460f, -0.043512f, -0.054466f, -0.054441f, -0.044649f, -0.015542f, 0.036198f, 0.011253f, 
  0.035815f, 0.038600f, 0.080756f, 0.069891f, 0.073766f, 0.073780f, 0.031571f, 0.037868f, 
  0.008877f, 0.021645f, -0.015752f, -0.041631f, -0.044646f, -0.046975f, -0.039611f, -0.053353f, 
  -0.037556f, -0.068650f, -0.078461f, -0.056964f, -0.029466f, -0.076467f, -0.048765f, -0.018568f, 
  -0.059028f, -0.021686f, -0.035788f, 0.014800f, 0.022565f, 0.051320f, 0.028727f, 0.057837f, 
  0.050709f, 0.068093f, 0.067225f, 0.067328f, 0.044807f, 0.013868f, 0.008933f, -0.010227f, 
  -0.014494f, -0.013842f, -0.017152f, -0.039225f, -0.050020f, -0.051577f, -0.066169f, -0.064318f, 
  -0.026508f, -0.004251f, -0.043299f, -0.029620f, -0.037359f, -0.047602f, -0.036659f, -0.026224f, 
  -0.009232f, -0.008683f, 0.006854f, 0.015082f, 0.107330f, 0.096411f, 0.055818f, 0.052707f, 
  0.058904f, 0.051245f, 0.029898f, 0.024316f, -0.032953f, -0.027178f, -0.026649f, -0.032600f, 
  -0.042797f, -0.054878f, -0.060219f, -0.057464f, -0.069765f, -0.004280f, -0.023818f, -0.034475f, 
  0.018947f, -0.020206f, -0.028067f, 0.008597f, -0.021748f, -0.011518f, -0.010408f, 0.011268f, 
  0.055027f, 0.065292f, 0.079699f, 0.082478f, 0.079588f, 0.053388f, 0.064219f, 0.016198f, 
  -0.003095f, -0.004852f, -0.021556f, -0.031992f, -0.000483f, -0.016156f, -0.033252f, -0.081380f, 
  -0.030651f, -0.066426f, -0.035928f, -0.027078f, 0.014522f, 0.010231f, 0.047036f, 0.003859f, 
  -0.010919f, 0.010113f, 0.031537f, -0.000861f, -0.012321f, 0.025532f, 0.040469f, 0.061915f, 
  0.069509f, 0.097595f, 0.034275f, 0.067171f, 0.053496f, -0.001719f, -0.023178f, -0.044690f, 
  -0.042610f, -0.030081f, -0.023262f, -0.026355f, -0.051459f, -0.057568f, -0.033961f, -0.028964f, 
  -0.019124f, 0.014088f, 0.010556f, 0.038232f, 0.035357f, 0.022864f, 0.023695f, -0.001669f, 
  -0.001622f, 0.041553f, 0.021081f, 0.074113f, 0.082193f, 0.032371f, 0.048915f, 0.086604f, 
  0.044799f, 0.019266f, 0.030929f, -0.007744f, -0.007804f, -0.006828f, -0.055951f, -0.026596f, 
  -0.033950f, -0.035710f, -0.046088f, -0.036513f, -0.035424f, -0.026211f, 0.015684f, 0.034835f, 
  -0.006970f, 0.045172f, 0.044560f, 0.010768f, 0.029224f, 0.011647f, 0.048238f, 0.055629f, 
  0.060754f, 0.068878f, 0.091863f, 0.069482f, 0.030854f, 0.067582f, 0.023893f, 0.024547f, 
  0.000477f, -0.027794f, 0.002254f, -0.006745f, -0.037011f, -0.033507f, -0.049614f, -0.014174f, 
  -0.000857f, -0.031849f, -0.020735f, -0.032174f, 0.008614f, 0.005647f, 0.060422f, 0.052601f, 
  0.056442f, 0.057981f, 0.014850f, 0.045381f, 0.079448f, 0.047839f, 0.048916f, 0.052966f, 
  0.065220f, 0.050835f, 0.034949f, 0.069995f, 0.045589f, 0.074778f, 0.041604f, 0.003833f, 
  0.013687f, -0.012735f, 0.014655f, -0.004004f, -0.024939f, -0.043389f, -0.011304f, -0.016937f, 
  -0.013478f, 0.018167f, 0.018080f, 0.019112f, -0.006230f, 0.048814f, 0.017979f, 0.056032f, 
  0.088870f, 0.073322f, 0.032417f, 0.054983f, 0.081788f, 0.071742f, 0.044106f, 0.035218f, 
  0.062534f, 0.066099f, 0.038815f, 0.070349f, -0.018692f, -0.006840f, -0.001022f, -0.002884f, 
  -0.040295f, -0.013376f, 0.006412f, -0.001256f, 0.027996f, -0.010052f, 0.025187f, 0.016460f, 
  0.029497f, 0.040761f, 0.056271f, 0.027936f, 0.038929f, 0.031624f, 0.061163f, 0.053985f, 
  0.022626f, 0.041111f, 0.074425f, 0.032273f, 0.041977f, 0.066147f, 0.074108f, 0.032522f, 
  0.044919f, 0.029471f, 0.013247f, 0.016617f, 0.009336f, 0.015703f, 0.024927f, -0.007461f, 
  0.018628f, 0.005954f, 0.000771f, -0.010709f, 0.004319f, 0.024576f, 0.038845f, 0.021601f, 
  0.063987f, 0.079004f, 0.083180f, 0.072719f, 0.060287f, 0.035840f, 0.019696f, 0.063157f, 
  0.048399f, 0.067799f, 0.062994f, 0.037308f, 0.036867f, 0.060352f, 0.053463f, 0.045200f, 
  0.057902f, 0.029879f, 0.006514f, 0.022252f, 0.000335f, -0.006211f, 0.001754f, -0.004272f, 
  -0.019849f, 0.033125f, 0.050703f, 0.047656f, 0.040091f, 0.035693f, 0.052198f, 0.051789f, 
  0.088578f, 0.055862f, 0.017489f, 0.045949f, 0.024599f, 0.035963f, 0.034249f, 0.012348f, 
  0.048099f, 0.064292f, 0.068171f, 0.055515f, 0.068654f, 0.072145f, 0.049358f, 0.061457f, 
  0.033434f, -0.031120f, 0.033998f, -0.007253f, 0.038287f, 0.000206f, 0.021565f, 0.071614f, 
  0.055565f, 0.050385f, 0.047027f, 0.064899f, 0.096626f, 0.099350f, 0.023064f, 0.041834f, 
  0.018783f, 0.056540f, 0.002563f, 0.016257f, 0.040989f, 0.058693f, 0.048369f, 0.044299f, 
  0.019538f, 0.009514f, 0.030938f, 0.031336f, 0.030782f, 0.013799f, 0.009790f, 0.016166f, 
  0.032105f, 0.039657f, 0.019498f, 0.032560f, 0.031000f, 0.035396f, 0.003404f, 0.050697f, 
  0.025212f, 0.005975f, -0.013047f, 0.035497f, 0.030831f, 0.028464f, 0.080889f, 0.027913f, 
  0.048052f, 0.037424f, 0.016031f, 0.021044f, 0.024399f, 0.028743f, 0.027531f, -0.013756f, 
  0.045632f, -0.002513f, 0.005426f, 0.001450f, 0.024299f, 0.037694f, 0.035901f, 0.022263f, 
  -0.001961f, 0.002296f, 0.006176f, 0.031001f, -0.007626f, 0.021295f, -0.002686f, 0.008811f, 
  0.038661f, 0.036870f, 0.041517f, 0.065353f, 0.037913f, 0.014412f, 0.030316f, 0.043072f, 
  0.037318f, -0.010188f, 0.003422f, 0.026447f, 0.019891f, 0.027228f, 0.004110f, 0.002111f, 
  0.009518f, 0.002013f, 0.006575f, 0.061219f, 0.026793f, 0.041902f, 0.038959f, 0.011528f, 
  0.010249f, -0.011051f, -0.003235f, 0.030442f, 0.049083f, 0.029135f, 0.032400f, 0.054488f, 
  0.050671f, 0.047377f, 0.046780f, 0.040785f, -0.007177f, -0.010611f, 0.011944f, 0.045437f, 
  0.002035f, 0.048623f, 0.032552f, -0.009884f, 0.037796f, 0.005580f, 0.020343f, 0.023092f, 
  0.030099f, 0.019628f, 0.034105f, 0.023167f, -0.010460f, 0.007699f, 0.027091f, 0.035247f, 
  0.015360f, 0.010798f, 0.038446f, 0.061161f, 0.022259f, 0.011938f, 0.033105f, 0.026415f, 
  0.005820f, -0.004373f, 0.032477f, 0.025015f, -0.007841f, -0.003883f, -0.000650f, 0.018917f, 
  -0.018725f, 0.024399f, -0.007232f, 0.019350f, 0.010616f, -0.006046f, 0.048861f, 0.049635f, 
  0.015336f, 0.010934f, -0.003028f, -0.001619f, 0.017382f, -0.000712f, -0.001478f, 0.045929f, 
  0.056811f, 0.054907f, 0.067015f, 0.028207f, 0.028304f, -0.013873f, 0.047233f, 0.014647f, 
  0.014811f, -0.004409f, -0.000508f, 0.023283f, 0.034261f, -0.006893f, 0.014430f, -0.001043f, 
  -0.008078f, -0.000174f, -0.008396f, -0.009643f, 0.005906f, 0.035208f, 0.029273f, 0.040788f, 
  0.010429f, 0.014430f, 0.014333f, 0.029264f, 0.046243f, 0.000434f, 0.013801f, 0.038864f, 
  0.027677f, 0.001497f, 0.001681f, -0.020328f, 0.008162f, 0.020158f, -0.006166f, -0.025868f, 
  -0.001393f, 0.002749f, -0.042598f, 0.011931f, -0.016332f, -0.025488f, -0.044058f, -0.007904f, 
  0.001868f, 0.006916f, 0.032200f, 0.020742f, 0.006267f, 0.004746f, -0.003182f, 0.037456f, 
  -0.003725f, 0.001959f, 0.001157f, -0.006864f, -0.030878f, -0.048577f, -0.043166f, -0.045425f, 
  -0.038804f, -0.055369f, -0.043733f, -0.037091f, -0.037149f, -0.056755f, -0.034143f, -0.066652f, 
  -0.061384f, -0.061004f, -0.040798f, -0.002614f, -0.063839f, -0.019085f, -0.017581f, -0.010020f, 
  0.004952f, -0.002710f, -0.010939f, -0.012062f, 0.000307f, 0.004491f, 0.020105f, -0.015658f, 
  -0.074299f, -0.068229f, -0.043169f, -0.055847f, -0.084991f, -0.101616f, -0.102986f, -0.056818f, 
  -0.070407f, -0.093574f, -0.065949f, -0.106462f, -0.106616f, -0.081016f, -0.096172f, -0.095860f, 
  -0.056526f, -0.071682f, -0.074395f, -0.089521f, -0.028467f, 0.017203f, 0.003757f, -0.035674f, 
  -0.014810f, -0.031480f, -0.006188f, -0.018868f, -0.040434f, -0.042888f, -0.027337f, -0.070297f, 
  -0.091176f, -0.107441f, -0.146232f, -0.104726f, -0.119266f, -0.119929f, -0.096727f, -0.113432f, 
  -0.077471f, -0.106463f, -0.099156f, -0.108706f, -0.076738f, -0.110112f, -0.098197f, -0.083503f, 
  -0.100307f, -0.062971f, -0.017281f, -0.057770f, -0.036575f, -0.033819f, -0.026846f, -0.010519f, 
  -0.016674f, -0.037162f, -0.034560f, -0.051360f, -0.062785f, -0.120120f, -0.128177f, -0.112601f, 
  -0.135722f, -0.110800f, -0.114741f, -0.141797f, -0.146386f, -0.162971f, -0.138156f, -0.130118f, 
  -0.133499f, -0.155200f, -0.145909f, -0.130062f, -0.118656f, -0.102450f, -0.060576f, -0.042987f, 
  -0.028834f, -0.032461f, -0.009900f, 0.003116f, 0.025689f, -0.005359f, -0.048385f, -0.036161f, 
  -0.029930f, -0.085459f, -0.058012f, -0.091905f, -0.132965f, -0.130562f, -0.152086f, -0.154907f, 
  -0.157816f, -0.144358f, -0.137125f, -0.132268f, -0.165904f, -0.146680f, -0.142265f, -0.122501f, 
  -0.099593f, -0.078774f, -0.068695f, -0.061860f, -0.051737f, -0.050588f, -0.031463f, -0.021062f, 
  -0.013642f, 0.045181f, -0.029760f, -0.004560f, 0.002756f, -0.022043f, -0.043876f, -0.044793f, 
  -0.077837f, -0.130706f, -0.119062f, -0.096735f, -0.123950f, -0.148936f, -0.137093f, -0.171774f, 
  -0.132892f, -0.127308f, -0.139753f, -0.113667f, -0.083744f, -0.084895f, -0.091461f, -0.078497f, 
  -0.048867f, -0.058699f, -0.010547f, -0.051095f, -0.032268f, 0.016890f, 0.032999f, -0.013205f, 
  -0.034823f, -0.041237f, -0.031898f, -0.033611f, -0.088821f, -0.064671f, -0.104414f, -0.070889f, 
  -0.091575f, -0.126152f, -0.100799f, -0.120466f, -0.117960f, -0.105314f, -0.096457f, -0.101961f, 
  -0.095042f, -0.119746f, -0.097180f, -0.091729f, -0.082602f, -0.048870f, -0.025874f, -0.043146f, 
  -0.037611f, 0.035928f, -0.018474f, -0.004690f, 0.004458f, -0.005032f, 0.009348f, -0.027000f, 
  0.014002f, -0.014734f, -0.076226f, -0.046565f, -0.091305f, -0.091608f, -0.089167f, -0.103725f, 
  -0.115272f, -0.086880f, -0.075968f, -0.089965f, -0.119565f, -0.101252f, -0.089506f, -0.090840f, 
  -0.087289f, -0.033128f, -0.028017f, 0.014540f, 0.009314f, 0.000865f, 0.005252f, 0.014682f, 
  0.039136f, 0.024909f, 0.005609f, 0.031495f, 0.046308f, 0.001749f, -0.009789f, -0.028139f, 
  -0.053305f, -0.062723f, -0.033850f, -0.057419f, -0.075127f, -0.051163f, -0.077336f, -0.113873f, 
  -0.082811f, -0.103593f, -0.062170f, -0.070615f, -0.094655f, -0.075145f, -0.070009f, -0.027429f, 
  -0.000814f, -0.007101f, -0.028337f, -0.007917f, 0.021587f, 0.034793f, 0.055150f, 0.058335f, 
  0.030499f, 0.026141f, 0.023338f, 0.006531f, -0.007792f, -0.017084f, -0.023913f, -0.075875f, 
  -0.034923f, -0.064134f, -0.041942f, -0.070341f, -0.076028f, -0.031252f, -0.044989f, -0.048620f, 
  -0.040982f, -0.084558f, -0.040148f, -0.021470f, -0.022559f, -0.034319f, -0.018879f, 0.000088f, 
  -0.012815f, 0.028472f, 0.028279f, 0.062284f, 0.063417f, 0.035396f, 0.011600f, 0.053230f, 
  0.026907f, -0.002680f, 0.008392f, -0.049926f, -0.036378f, -0.046806f, -0.019773f, -0.043183f, 
  -0.030797f, -0.035713f, -0.065776f, -0.072817f, -0.071762f, -0.039616f, -0.027648f, -0.031627f, 
  -0.022784f, -0.059995f, -0.033394f, -0.004036f, -0.011384f, -0.021228f, 0.042625f, 0.054542f, 
  0.074720f, 0.082601f, 0.040766f, 0.016226f, 0.061989f, 0.024189f, 0.036426f, 0.025092f, 
  0.013764f, -0.014826f, -0.011427f, -0.030758f, -0.036304f, -0.052072f, -0.051183f, -0.021787f, 
  -0.023473f, -0.010823f, -0.014199f, -0.031801f, -0.035601f, -0.046939f, -0.028414f, -0.043708f, 
  -0.023891f, -0.041150f, 0.034156f, 0.008219f, 0.033136f, 0.058111f, 0.043343f, 0.049162f, 
  0.018300f, 0.016887f, 0.013707f, -0.001752f, -0.008007f, -0.013785f, -0.005989f, 0.008330f, 
  -0.032095f, -0.014693f, -0.034083f, -0.052460f, -0.057519f, -0.054215f, 0.016947f, -0.007868f, 
  -0.004382f, 0.047954f, -0.028815f, -0.005189f, -0.003842f, -0.012053f, 0.003031f, -0.001779f, 
  0.031696f, 0.009468f, 0.068516f, 0.085383f, 0.060840f, 0.070945f, 0.070756f, 0.001153f, 
  0.005729f, -0.020881f, -0.009304f, -0.015195f, -0.015643f, -0.010788f, -0.047217f, -0.029523f, 
  -0.040019f, -0.027034f, -0.049652f, -0.000114f, 0.008988f, 0.000739f, 0.015794f, 0.014502f, 
  -0.004746f, 0.014588f, -0.017614f, -0.005763f, 0.019337f, 0.009346f, 0.048585f, 0.031986f, 
  0.057145f, 0.048419f, 0.055232f, 0.044893f, 0.069571f, 0.017606f, -0.009154f, -0.042133f, 
  -0.024026f, -0.026153f, -0.011847f, 0.006252f, -0.063231f, -0.061699f, -0.026904f, -0.038516f, 
  0.001611f, 0.001154f, 0.017373f, 0.030344f, 0.013494f, 0.006514f, 0.026221f, 0.012701f, 
  0.040873f, -0.011898f, 0.040431f, 0.037810f, 0.061824f, 0.027672f, 0.091452f, 0.059074f, 
  0.034318f, 0.029200f, 0.041128f, -0.011967f, -0.037614f, -0.029155f, -0.019260f, -0.025775f, 
  0.007423f, -0.045619f, -0.049237f, -0.008114f, -0.030039f, -0.034327f, -0.021012f, 0.033140f, 
  0.075624f, 0.022738f, 0.026367f, 0.018533f, 0.036875f, 0.028464f, 0.036032f, 0.053574f, 
  0.071359f, 0.024442f, 0.041593f, 0.047753f, 0.064843f, 0.028920f, 0.022507f, 0.052685f, 
  0.017914f, 0.008462f, -0.029735f, -0.038905f, 0.006097f, -0.002519f, -0.004435f, -0.023373f, 
  -0.023151f, 0.013443f, -0.001645f, 0.012277f, -0.015441f, 0.018763f, 0.010027f, 0.022782f, 
  0.028398f, 0.017159f, 0.035364f, 0.041504f, 0.059489f, 0.042188f, 0.024338f, 0.011128f, 
  0.037249f, 0.057465f, 0.063604f, 0.031190f, 0.065837f, 0.026898f, 0.017385f, -0.005268f, 
  -0.025820f, -0.000271f, 0.005504f, 0.019250f, 0.014554f, -0.040987f, -0.021199f, -0.008234f, 
  0.001597f, 0.022300f, 0.013102f, 0.033680f, 0.019874f, 0.033163f, 0.021935f, 0.056466f, 
  0.043168f, 0.078954f, 0.039771f, 0.041464f, 0.062327f, 0.050360f, 0.053998f, 0.044973f, 
  0.040878f, 0.053698f, 0.068392f, 0.048062f, 0.056416f, -0.005962f, 0.008636f, 0.000450f, 
  0.027606f, -0.007617f, -0.010551f, -0.024295f, -0.019247f, -0.013817f, 0.027817f, -0.025401f, 
  0.034503f, 0.004992f, 0.018539f, -0.005594f, 0.042711f, 0.067450f, 0.060101f, 0.055912f, 
  0.042863f, 0.054743f, 0.032922f, 0.037066f, 0.056831f, 0.051019f, 0.056222f, 0.020291f, 
  0.054305f, 0.018326f, 0.037295f, 0.010527f, 0.056026f, 0.029774f, -0.009179f, -0.007324f, 
  0.016928f, -0.006168f, -0.022171f, -0.013851f, 0.031564f, 0.000138f, 0.043556f, 0.016319f, 
  0.067682f, 0.063111f, 0.053308f, 0.078664f, 0.055451f, 0.050742f, 0.055769f, 0.021788f, 
  0.030742f, 0.012882f, 0.053202f, 0.032711f, 0.044759f, 0.004085f, 0.039251f, 0.031660f, 
  0.011389f, 0.031305f, 0.016780f, 0.020015f, -0.029604f, -0.011728f, 0.027077f, 0.032748f, 
  0.023490f, 0.025389f, 0.024935f, 0.024258f, 0.053097f, 0.050627f, 0.050634f, 0.084412f, 
  0.066613f, 0.056096f, 0.038940f, 0.043208f, 0.047188f, 0.038445f, 0.045949f, 0.017408f, 
  0.011061f, 0.017470f, 0.077731f, 0.059844f, 0.030832f, 0.056265f, 0.060178f, 0.042509f, 
  0.018549f, 0.003225f, 0.019695f, 0.016545f, 0.000069f, 0.030355f, 0.017157f, 0.023891f, 
  0.038047f, 0.035007f, 0.056951f, 0.034313f, 0.080222f, 0.107943f, 0.071897f, 0.075137f, 
  0.046788f, 0.020111f, 0.041167f, 0.035256f, 0.043846f, 0.016141f, 0.018184f, 0.054000f, 
  0.006408f, 0.005950f, 0.021458f, 0.025847f, -0.026212f, -0.010021f, 0.020869f, 0.008949f, 
  0.017168f, -0.001464f, -0.010190f, 0.063386f, 0.028531f, 0.009847f, -0.000728f, 0.022615f, 
  0.005742f, 0.012741f, -0.000453f, 0.004375f, 0.008468f, 0.056728f, 0.073231f, 0.051550f, 
  0.014734f, 0.061857f, 0.016516f, 0.024076f, -0.008311f, 0.006188f, 0.046345f, 0.026287f, 
  -0.009095f, 0.002515f, -0.030363f, 0.016471f, 0.001114f, -0.021844f, 0.005642f, 0.022783f, 
  0.027009f, 0.035942f, 0.015524f, -0.010501f, 0.027907f, 0.017895f, -0.004413f, 0.002849f, 
  0.034170f, 0.043861f, 0.073573f, 0.042928f, 0.042325f, 0.064902f, 0.042165f, 0.047297f, 
  0.027158f, 0.015151f, -0.002917f, -0.009064f, 0.010826f, -0.020322f, 0.007102f, 0.018952f, 
  -0.033727f, -0.010333f, -0.015102f, -0.041648f, 0.004528f, 0.011765f, 0.032402f, 0.024986f, 
  -0.031615f, 0.005828f, 0.015307f, 0.021238f, 0.006003f, 0.025358f, 0.041614f, 0.074658f, 
  0.034518f, -0.006168f, 0.032154f, 0.034030f, 0.009848f, -0.008325f, 0.009171f, 0.010344f, 
  -0.015064f, 0.004750f, -0.005077f, 0.005732f, 0.014825f, -0.009313f, -0.014566f, -0.038060f, 
  -0.011147f, -0.025227f, 0.010397f, -0.016065f, 0.002456f, 0.008335f, 0.025809f, 0.044489f, 
  -0.002958f, -0.030436f, 0.009365f, 0.075090f, 0.048991f, 0.018591f, 0.054315f, 0.030609f, 
  0.003264f, 0.003696f, 0.022933f, -0.011441f, 0.002479f, -0.039040f, 0.007081f, 0.014804f, 
  -0.021488f, 0.025410f, -0.012718f, -0.022812f, 0.005817f, -0.015987f, -0.024216f, -0.009306f, 
  -0.040191f, -0.027119f, -0.003007f, -0.019613f, -0.017841f, 0.012294f, 0.015988f, 0.020132f, 
  0.033091f, 0.030536f, 0.063843f, 0.074515f, 0.055125f, 0.006201f, 0.001327f, 0.021723f, 
  0.000885f, -0.014578f, -0.006489f, -0.011624f, -0.036932f, 0.014271f, -0.030440f, -0.007521f, 
  -0.038497f, 0.005209f, -0.000237f, -0.004388f, -0.018792f, -0.034066f, -0.006018f, 0.000169f, 
  0.017582f, 0.031841f, 0.036156f, 0.032201f, -0.007763f, 0.053273f, 0.058347f, 0.072434f, 
  0.072208f, 0.037624f, 0.024362f, -0.002445f, 0.002370f, -0.016876f, 0.000029f, 0.016713f, 
  0.022793f, -0.022110f, 0.030830f, -0.011572f, -0.015541f, -0.050328f, -0.002673f, -0.058834f, 
  -0.005502f, 0.011801f, -0.001182f, -0.004449f, -0.000345f, 0.011432f, 0.062238f, 0.033358f, 
  0.015749f, 0.014501f, 0.054933f, 0.083329f, 0.076236f, 0.061209f, 0.043329f, 0.009245f, 
  -0.006318f, 0.017850f, -0.011783f, -0.029849f, -0.011838f, 0.000516f, 0.039285f, -0.005547f, 
  -0.039008f, -0.038789f, -0.043528f, -0.017978f, -0.046040f, -0.033876f, -0.001283f, 0.015005f, 
  -0.012635f, -0.031624f, -0.029343f, 0.048990f, 0.062422f, 0.009210f, 0.038198f, 0.024550f, 
  0.039220f, 0.053983f, 0.046937f, 0.015993f, -0.004612f, -0.010542f, -0.015907f, -0.040524f, 
  -0.038548f, -0.049756f, -0.051323f, -0.030850f, -0.028651f, -0.040111f, -0.051134f, -0.065876f, 
  -0.050867f, -0.053714f, -0.084865f, -0.050283f, -0.025678f, -0.020674f, -0.019628f, -0.012471f, 
  0.027915f, 0.038520f, 0.036064f, 0.018779f, 0.004737f, 0.036213f, 0.019756f, 0.007769f, 
  -0.019321f, 0.009704f, -0.063475f, -0.073466f, -0.103655f, -0.078595f, -0.056049f, -0.035448f, 
  -0.088659f, -0.046899f, -0.064835f, -0.060296f, -0.033202f, -0.078119f, -0.093162f, -0.044104f, 
  -0.038905f, -0.019371f, -0.014856f, -0.040390f, -0.015984f, 0.028745f, 0.003560f, 0.014196f, 
  0.007577f, -0.011640f, 0.018981f, 0.029264f, 0.020237f, -0.016083f, -0.049735f, -0.078508f, 
  -0.096791f, -0.093807f, -0.074971f, -0.100872f, -0.060909f, -0.041778f, -0.045579f, -0.085114f, 
  -0.063157f, -0.043445f, -0.057554f, -0.064010f, -0.090907f, -0.080192f, -0.061738f, -0.064191f, 
  -0.019594f, -0.011421f, 0.017380f, -0.003923f, 0.012258f, -0.013013f, 0.022109f, 0.026654f, 
  -0.001889f, -0.032226f, 0.040257f, -0.002921f, -0.016362f, -0.044161f, -0.088812f, -0.076573f, 
  -0.100959f, -0.093685f, -0.059102f, -0.068345f, -0.089600f, -0.075111f, -0.058217f, -0.036267f, 
  -0.071455f, -0.056204f, -0.042291f, -0.044083f, -0.034971f, -0.012616f, 0.011503f, -0.042355f, 
  -0.015568f, 0.036053f, 0.017779f, 0.021572f, 0.033642f, 0.001185f, 0.006801f, -0.010865f, 
  0.015245f, -0.004658f, -0.070358f, -0.044119f, -0.099721f, -0.079694f, -0.121244f, -0.137667f, 
  -0.091224f, -0.105872f, -0.079597f, -0.127850f, -0.078428f, -0.088840f, -0.108775f, -0.055117f, 
  -0.055402f, -0.063705f, -0.017632f, 0.000961f, -0.036931f, -0.007029f, 0.031791f, 0.019083f, 
  0.015486f, 0.014617f, 0.009059f, -0.000080f, 0.040085f, 0.009062f, 0.013439f, -0.051835f, 
  -0.104607f, -0.085469f, -0.109615f, -0.122852f, -0.094283f, -0.120544f, -0.119242f, -0.089377f, 
  -0.102717f, -0.061174f, -0.056562f, -0.085741f, -0.093906f, -0.119372f, -0.061664f, -0.023813f, 
  0.022933f, 0.019243f, -0.007860f, 0.011819f, -0.001373f, 0.063588f, 0.053965f, 0.006909f, 
  -0.012521f, -0.004761f, 0.010489f, 0.011456f, -0.034931f, -0.106901f, -0.086439f, -0.070719f, 
  -0.072286f, -0.068233f, -0.074616f, -0.100323f, -0.084850f, -0.083383f, -0.088982f, -0.085839f, 
  -0.077313f, -0.105915f, -0.077573f, -0.089452f, -0.038422f, 0.026439f, 0.008996f, -0.002113f, 
  0.010854f, -0.045140f, 0.024804f, 0.075104f, 0.052780f, 0.033236f, 0.017711f, 0.031506f, 
  0.040581f, -0.065891f, -0.079647f, -0.091040f, -0.084451f, -0.087025f, -0.048120f, -0.048324f, 
  -0.053896f, -0.068985f, -0.052495f, -0.064157f, -0.125589f, -0.069443f, -0.097541f, -0.059707f, 
  -0.070239f, -0.022108f, 0.012537f, 0.000022f, 0.003244f, 0.015995f, -0.032373f, 0.042708f, 
  0.072568f, 0.051645f, 0.036942f, 0.049237f, 0.029750f, -0.000955f, -0.016238f, -0.030988f, 
  -0.044346f, -0.079718f, -0.095070f, -0.063691f, -0.074282f, -0.056542f, -0.080778f, -0.062845f, 
  -0.073434f, -0.066495f, -0.060191f, -0.099067f, -0.077425f, -0.037025f, 0.017149f, -0.001713f, 
  -0.005040f, 0.023358f, 0.053039f, 0.019668f, 0.015682f, 0.092392f, 0.061339f, 0.019783f, 
  0.044001f, 0.046731f, 0.035758f, 0.005696f, 0.005595f, -0.021173f, -0.050048f, -0.059559f, 
  -0.076465f, -0.046820f, -0.022290f, -0.063844f, -0.041427f, -0.048679f, -0.072892f, -0.070357f, 
  -0.072434f, -0.103090f, -0.051243f, 0.003213f, -0.040559f, -0.024931f, 0.025869f, 0.037129f, 
  0.011184f, 0.035663f, 0.060296f, 0.091826f, 0.070886f, 0.020329f, 0.028518f, 0.036778f, 
  0.008161f, 0.006821f, -0.029240f, -0.035884f, -0.055921f, -0.028331f, -0.027418f, -0.059285f, 
  -0.089278f, -0.053004f, -0.014214f, -0.028609f, -0.000370f, -0.053948f, -0.019823f, -0.048825f, 
  -0.030774f, -0.033470f, -0.015001f, 0.028419f, 0.014433f, 0.024547f, 0.082483f, 0.071706f, 
  0.083937f, 0.072030f, 0.045106f, 0.051205f, 0.042745f, 0.010836f, 0.009938f, -0.039558f, 
  -0.024197f, -0.005569f, -0.031809f, -0.047960f, -0.027996f, -0.062119f, -0.070011f, -0.062175f, 
  -0.022151f, -0.021575f, 0.001742f, -0.032848f, -0.027327f, -0.012562f, -0.052666f, -0.017590f, 
  0.028102f, 0.036532f, 0.029435f, 0.043784f, 0.070823f, 0.094580f, 0.086993f, 0.052276f, 
  0.045193f, 0.074055f, 0.032908f, 0.013764f, -0.030827f, -0.028517f, -0.022187f, -0.004779f, 
  0.016776f, -0.044340f, -0.056459f, -0.036261f, -0.047191f, -0.036996f, -0.026912f, -0.046382f, 
  0.029330f, 0.042587f, 0.013174f, -0.058182f, -0.051773f, -0.014326f, 0.016211f, 0.001246f, 
  0.028537f, 0.059507f, 0.080283f, 0.067435f, 0.064484f, 0.045529f, 0.062230f, 0.037634f, 
  -0.032227f, -0.030340f, -0.019713f, -0.038251f, -0.007515f, -0.026261f, -0.038416f, -0.018630f, 
  -0.015420f, -0.055790f, -0.035350f, -0.036405f, -0.012621f, 0.030352f, 0.045238f, 0.034333f, 
  -0.015161f, 0.018558f, 0.028825f, 0.020986f, -0.011780f, 0.062092f, 0.048102f, 0.085011f, 
  0.092639f, 0.095401f, 0.062938f, 0.049700f, 0.016457f, -0.002883f, -0.020512f, -0.028254f, 
  -0.016959f, -0.033795f, -0.021870f, -0.026363f, -0.001811f, -0.008862f, -0.015773f, -0.073895f, 
  -0.017725f, -0.011384f, 0.008467f, 0.029882f, 0.027818f, 0.055728f, 0.044552f, 0.035715f, 
  0.013716f, 0.032257f, 0.075231f, 0.014011f, 0.060357f, 0.090801f, 0.062788f, 0.060716f, 
  0.049321f, 0.036883f, 0.059436f, 0.013380f, -0.048874f, -0.032007f, -0.035448f, -0.012321f, 
  -0.037874f, -0.005470f, -0.034023f, -0.023697f, -0.034388f, -0.018261f, 0.006683f, -0.013718f, 
  0.021469f, 0.020777f, -0.003031f, 0.042549f, 0.023830f, 0.060042f, 0.048138f, 0.030821f, 
  0.061056f, 0.083520f, 0.075699f, 0.052646f, 0.038335f, 0.052965f, 0.063862f, 0.042064f, 
  0.015052f, -0.004581f, -0.040774f, -0.038596f, -0.052503f, -0.057277f, 0.020826f, -0.027912f, 
  -0.027263f, -0.047401f, -0.014375f, -0.001540f, 0.023192f, 0.034023f, 0.029389f, 0.017781f, 
  0.024282f, 0.036188f, 0.024811f, 0.044792f, 0.059248f, 0.069722f, 0.043466f, 0.037893f, 
  0.056058f, 0.031756f, 0.006718f, 0.049194f, 0.070263f, 0.057539f, 0.046667f, -0.008530f, 
  -0.026514f, -0.030292f, 0.002989f, -0.007274f, -0.037209f, -0.012007f, -0.040963f, -0.043352f, 
  -0.006572f, 0.004883f, 0.027757f, 0.002630f, 0.025653f, 0.029598f, 0.011039f, 0.045716f, 
  0.089483f, 0.052931f, 0.045444f, 0.043008f, 0.048617f, 0.051000f, 0.012087f, 0.058088f, 
  0.044524f, 0.080925f, 0.037480f, 0.050347f, 0.023971f, -0.008099f, -0.028795f, 0.005524f, 
  0.001224f, -0.035609f, 0.037230f, 0.025718f, -0.027073f, -0.036191f, 0.026279f, 0.018957f, 
  0.023907f, 0.047355f, 0.020831f, -0.003628f, 0.049344f, 0.062495f, 0.032772f, 0.040195f, 
  0.027544f, 0.017901f, 0.036993f, 0.026930f, 0.070879f, 0.060243f, 0.053897f, 0.037372f, 
  0.073188f, 0.044159f, -0.020000f, 0.048287f, 0.035158f, -0.001804f, -0.013476f, 0.022813f, 
  -0.018414f, 0.011279f, -0.028550f, -0.023952f, -0.011726f, 0.055079f, 0.053773f, 0.027654f, 
  0.036582f, 0.043652f, 0.075965f, 0.088860f, 0.046019f, 0.012063f, 0.029941f, 0.038130f, 
  0.073690f, 0.065456f, 0.059648f, 0.072682f, 0.060833f, 0.056799f, 0.034913f, 0.053155f, 
  0.019242f, 0.023408f, 0.053480f, 0.008632f, 0.007072f, 0.005118f, 0.025179f, 0.007066f, 
  0.016842f, 0.056221f, 0.026774f, 0.044282f, 0.054362f, 0.039596f, 0.023878f, 0.032891f, 
  -0.056104f, -0.041229f, -0.020494f, -0.039033f, -0.064628f, -0.061815f, -0.054876f, -0.000790f, 
  -0.007446f, -0.028960f, -0.025788f, -0.041172f, 0.004303f, -0.029238f, -0.010730f, -0.007140f, 
  -0.004692f, -0.017696f, -0.042858f, -0.047035f, -0.019716f, -0.039204f, -0.033206f, -0.048329f, 
  -0.052956f, -0.018689f, -0.048121f, -0.031663f, -0.013258f, -0.051357f, -0.041460f, -0.032413f, 
  -0.040854f, -0.016941f, -0.047911f, -0.015460f, 0.007109f, -0.017005f, -0.004974f, 0.005086f, 
  -0.020548f, -0.001251f, 0.003556f, 0.020063f, -0.018887f, 0.013753f, -0.017020f, -0.008309f, 
  -0.050653f, -0.044919f, -0.037201f, -0.049986f, -0.074494f, -0.035131f, -0.009164f, -0.035688f, 
  -0.038603f, -0.050001f, -0.042954f, -0.058239f, -0.060026f, -0.038453f, -0.017835f, -0.050747f, 
  0.008079f, 0.002235f, 0.045940f, 0.012582f, 0.058530f, 0.025851f, 0.007557f, 0.014998f, 
  0.006171f, 0.014171f, 0.027016f, -0.012797f, 0.002922f, -0.009971f, -0.058168f, -0.050405f, 
  -0.024561f, -0.023291f, -0.036304f, -0.020495f, -0.044590f, -0.046613f, -0.021110f, -0.064025f, 
  -0.029879f, -0.058619f, -0.030934f, -0.030027f, -0.010211f, 0.000574f, 0.014225f, -0.000298f, 
  0.027477f, 0.037701f, 0.031167f, 0.018438f, 0.044899f, 0.020984f, 0.040221f, 0.025484f, 
  0.008727f, 0.018375f, -0.021770f, -0.029252f, -0.021714f, -0.005313f, -0.068184f, -0.002423f, 
  -0.053583f, -0.068476f, -0.020879f, -0.056250f, -0.060819f, -0.052737f, -0.040717f, -0.060789f, 
  0.001188f, -0.028358f, 0.019988f, 0.058313f, 0.006849f, -0.003961f, 0.006622f, -0.001513f, 
  0.030889f, 0.061803f, 0.023100f, 0.026204f, 0.039812f, 0.007712f, 0.006741f, 0.022891f, 
  -0.006066f, -0.023296f, -0.030130f, -0.047672f, -0.016148f, -0.053385f, -0.054214f, -0.019171f, 
  -0.058367f, -0.039682f, -0.048444f, -0.036856f, -0.025508f, 0.011046f, -0.011233f, 0.042612f, 
  0.019386f, 0.068171f, 0.023443f, 0.036087f, 0.022228f, 0.037472f, 0.067144f, 0.045946f, 
  0.020748f, 0.062626f, 0.026352f, 0.028751f, -0.011708f, 0.033949f, -0.003421f, 0.003002f, 
  -0.034501f, -0.006879f, -0.049635f, -0.053056f, -0.070735f, -0.079079f, -0.069088f, -0.028669f, 
  -0.051581f, -0.025702f, -0.010995f, -0.016960f, 0.005949f, 0.028554f, 0.052666f, 0.008910f, 
  0.015846f, 0.037026f, 0.049630f, 0.037074f, 0.046117f, 0.026604f, 0.039958f, 0.009462f, 
  -0.006529f, 0.016003f, -0.006764f, -0.010202f, -0.005856f, -0.024939f, -0.043858f, -0.062334f, 
  -0.056736f, -0.038358f, -0.023304f, -0.084430f, -0.079934f, -0.048826f, -0.072539f, -0.023658f, 
  -0.001281f, 0.045811f, 0.034092f, -0.000936f, 0.016011f, 0.006068f, 0.032286f, -0.007352f, 
  0.021597f, 0.049454f, 0.036718f, 0.003653f, 0.010410f, 0.004099f, -0.004908f, -0.005792f, 
  0.021455f, -0.013463f, -0.032510f, -0.056349f, -0.045641f, -0.047118f, -0.045322f, -0.049882f, 
  -0.063701f, -0.071972f, -0.042698f, -0.060826f, -0.039202f, -0.027335f, 0.022464f, 0.035028f, 
  0.008037f, 0.014163f, 0.043495f, 0.004362f, 0.026962f, 0.042840f, -0.003481f, 0.023690f, 
  0.034810f, 0.041325f, -0.005100f, 0.020884f, 0.020641f, 0.004430f, 0.004843f, -0.043491f, 
  -0.043267f, -0.056454f, -0.065682f, -0.053453f, -0.067248f, -0.085890f, -0.060342f, -0.100508f, 
  -0.070260f, -0.060663f, -0.046514f, -0.013458f, 0.021245f, 0.032517f, 0.008493f, -0.014087f, 
  -0.008962f, 0.024167f, 0.005321f, -0.005771f, -0.004507f, 0.016937f, 0.004236f, 0.005005f, 
  -0.008070f, -0.007185f, 0.006816f, -0.012415f, -0.046134f, -0.059484f, -0.063660f, -0.044674f, 
  -0.035427f, -0.065714f, -0.085652f, -0.077815f, -0.059275f, -0.083270f, -0.062352f, -0.020493f, 
  -0.006818f, 0.026807f, 0.010952f, 0.011751f, 0.017065f, -0.015221f, -0.004902f, 0.003114f, 
  -0.010595f, -0.027872f, -0.006840f, -0.012435f, 0.007537f, 0.002419f, 0.029399f, -0.033684f, 
  -0.020094f, -0.048918f, -0.053163f, -0.030165f, -0.067867f, -0.046952f, -0.038347f, -0.070458f, 
  -0.074428f, -0.076896f, -0.066440f, -0.079289f, -0.037784f, -0.028435f, 0.014313f, 0.022501f, 
  0.013984f, 0.017702f, -0.024744f, -0.013701f, -0.022130f, -0.010975f, 0.020585f, -0.022947f, 
  0.007993f, -0.015493f, 0.036792f, 0.018703f, -0.010764f, -0.015998f, -0.046523f, -0.064320f, 
  -0.052905f, -0.031679f, -0.042857f, -0.044469f, -0.076598f, -0.100093f, -0.076591f, -0.060348f, 
  -0.051040f, -0.067223f, 0.005027f, 0.055884f, 0.036097f, 0.031583f, 0.037741f, 0.011547f, 
  -0.004227f, 0.022615f, 0.005191f, 0.011033f, 0.043125f, 0.066583f, 0.004318f, 0.016037f, 
  0.015484f, -0.040315f, -0.040255f, -0.059403f, -0.036439f, -0.062327f, -0.066383f, -0.056800f, 
  -0.039333f, -0.071564f, -0.108683f, -0.074709f, -0.098528f, -0.080336f, -0.042474f, -0.003299f, 
  0.026908f, 0.077048f, 0.043142f, 0.045594f, 0.065172f, 0.064173f, 0.057947f, 0.037188f, 
  0.033694f, 0.061865f, 0.052114f, 0.047383f, 0.031016f, 0.000140f, 0.001816f, -0.038802f, 
  -0.023468f, -0.077605f, -0.046485f, -0.057196f, -0.025066f, -0.042010f, -0.049613f, -0.070067f, 
  -0.095979f, -0.087496f, -0.068887f, -0.045904f, 0.018267f, 0.030502f, 0.073059f, 0.083355f, 
  0.086432f, 0.092982f, 0.097304f, 0.106651f, 0.055993f, 0.047856f, 0.068875f, 0.065606f, 
  0.070816f, 0.013865f, -0.005499f, -0.036711f, -0.033590f, -0.032337f, -0.010695f, -0.053305f, 
  -0.061143f, -0.055894f, -0.049614f, -0.070045f, -0.034595f, -0.064718f, -0.051904f, -0.026927f, 
  -0.017717f, 0.040971f, 0.045169f, 0.061070f, 0.071651f, 0.122892f, 0.104990f, 0.125765f, 
  0.114093f, 0.095486f, 0.094301f, 0.067104f, 0.069453f, 0.041453f, 0.040548f, 0.035810f, 
  -0.003823f, -0.017278f, -0.034544f, -0.052254f, -0.053207f, -0.062344f, -0.047246f, -0.033787f, 
  -0.073300f, -0.070626f, -0.054366f, -0.064705f, -0.031887f, -0.032290f, 0.034739f, 0.059371f, 
  0.111254f, 0.108038f, 0.105489f, 0.106499f, 0.094262f, 0.109358f, 0.083462f, 0.075779f, 
  0.079859f, 0.056080f, 0.072001f, 0.054858f, 0.021425f, -0.002738f, -0.035175f, -0.024796f, 
  -0.008899f, -0.061240f, -0.034423f, -0.044124f, -0.036998f, -0.027347f, -0.089238f, -0.040204f, 
  -0.064917f, -0.062439f, -0.044722f, 0.009022f, 0.034265f, 0.061721f, 0.102006f, 0.132555f, 
  0.109145f, 0.087011f, 0.102228f, 0.105391f, 0.078389f, 0.101934f, 0.081072f, 0.050297f, 
  0.033376f, 0.008919f, -0.019830f, -0.030508f, -0.017795f, -0.030911f, -0.057896f, -0.060451f, 
  -0.046410f, -0.035351f, -0.044196f, -0.066593f, -0.055969f, -0.046847f, -0.053122f, -0.011709f, 
  0.016340f, 0.034884f, 0.096758f, 0.103643f, 0.091520f, 0.085821f, 0.105024f, 0.108119f, 
  0.117164f, 0.085028f, 0.078350f, 0.082524f, 0.054122f, 0.036558f, 0.032710f, -0.015991f, 
  -0.003623f, -0.013373f, -0.034317f, -0.045873f, -0.046852f, -0.027088f, -0.042326f, -0.038955f, 
  -0.036396f, -0.056098f, -0.034871f, -0.052152f, -0.061119f, -0.000499f, 0.074381f, 0.102326f, 
  0.095749f, 0.080625f, 0.097174f, 0.124095f, 0.124588f, 0.094044f, 0.075515f, 0.105328f, 
  0.071391f, 0.081295f, 0.041298f, 0.042933f, -0.007397f, -0.005178f, -0.044951f, -0.058065f, 
  -0.035457f, -0.048571f, -0.020392f, -0.029129f, -0.046351f, -0.070055f, -0.063937f, -0.027131f, 
  -0.063951f, -0.019633f, -0.005307f, 0.022218f, 0.064488f, 0.082155f, 0.088642f, 0.112103f, 
  0.119007f, 0.103717f, 0.092978f, 0.079306f, 0.108987f, 0.097035f, 0.054880f, 0.051971f, 
  0.012856f, 0.019856f, -0.007154f, 0.010103f, -0.027505f, -0.004953f, -0.031728f, -0.032053f, 
  -0.044742f, -0.038447f, -0.027171f, -0.038580f, -0.052931f, -0.047015f, -0.073269f, -0.002441f, 
  0.041647f, 0.081249f, 0.080220f, 0.100381f, 0.090734f, 0.089281f, 0.074633f, 0.090940f, 
  0.120392f, 0.070879f, 0.104909f, 0.071363f, 0.042917f, 0.024052f, -0.025772f, -0.032094f, 
  -0.029919f, -0.005703f, -0.021324f, -0.036608f, -0.059766f, -0.061983f, -0.052593f, -0.059542f, 
  -0.083452f, -0.023498f, -0.059133f, -0.071684f, -0.035244f, -0.005397f, 0.038183f, 0.091257f, 
  0.107350f, 0.093667f, 0.087538f, 0.079641f, 0.065198f, 0.088421f, 0.111603f, 0.085297f, 
  0.063062f, 0.040492f, 0.034103f, 0.004379f, -0.009859f, -0.013935f, -0.022601f, -0.040204f, 
  -0.046712f, -0.043081f, -0.056502f, -0.051871f, -0.074349f, -0.065398f, -0.081578f, -0.045092f, 
  -0.033851f, -0.042044f, -0.040073f, 0.066251f, 0.081552f, 0.085762f, 0.085960f, 0.096555f, 
  0.057991f, 0.071441f, 0.049157f, 0.048660f, 0.050908f, 0.038364f, 0.027736f, 0.026737f, 
  -0.021534f, -0.015119f, -0.016740f, -0.026428f, -0.032203f, -0.026838f, -0.025731f, -0.070687f, 
  -0.063843f, -0.062340f, -0.088750f, -0.044909f, -0.038512f, -0.044902f, -0.039195f, -0.021883f, 
  0.022996f, 0.049139f, 0.046074f, 0.062386f, 0.099275f, 0.068963f, 0.057960f, 0.084415f, 
  0.062615f, 0.049002f, 0.010216f, -0.005500f, 0.001905f, -0.021131f, 0.000815f, -0.026163f, 
  -0.032569f, -0.007427f, -0.012850f, -0.056854f, -0.030190f, -0.050458f, -0.075863f, -0.068631f, 
  -0.047151f, -0.057695f, -0.056569f, -0.025191f, -0.045407f, -0.021028f, -0.017541f, 0.029738f, 
  0.039177f, 0.023827f, 0.036337f, 0.051364f, 0.052602f, 0.033806f, 0.033199f, 0.053376f, 
  0.008985f, 0.009029f, -0.024118f, -0.033852f, -0.027767f, -0.012591f, -0.038511f, -0.019165f, 
  -0.036204f, -0.052928f, -0.045830f, -0.061029f, -0.060832f, -0.051117f, -0.031604f, -0.051080f, 
  -0.037866f, -0.064161f, -0.061693f, 0.003669f, -0.013161f, 0.027258f, 0.053412f, 0.031885f, 
  -0.010283f, 0.006585f, 0.007901f, 0.011261f, 0.001416f, -0.003335f, -0.034893f, -0.030238f, 
  -0.020847f, -0.037999f, -0.028956f, -0.027090f, -0.048233f, -0.043648f, -0.019662f, -0.056136f, 
  -0.071651f, -0.060726f, -0.043117f, -0.071757f, -0.053102f, -0.059544f, -0.072595f, -0.022371f, 
  -0.030284f, 0.007868f, -0.004563f, 0.004897f, -0.015548f, -0.006399f, 0.017406f, -0.012123f, 
  0.001943f, -0.007908f, -0.006976f, -0.024606f, -0.031386f, -0.038678f, 0.007502f, -0.041661f, 
  -0.040609f, -0.032898f, -0.048168f, -0.048300f, -0.031120f, -0.060258f, -0.036006f, -0.058410f, 
  -0.081010f, -0.050605f, -0.059468f, -0.060946f, -0.040395f, -0.036119f, -0.018707f, -0.021665f, 
  -0.032854f, -0.028169f, -0.029780f, 0.007715f, -0.034738f, -0.029256f, 0.010547f, -0.027594f, 
  -0.010500f, -0.002918f, -0.039635f, -0.023688f, -0.053097f, -0.056846f, -0.046759f, -0.041372f, 
  -0.078222f, -0.000957f, -0.000813f, 0.032334f, 0.034347f, 0.030318f, -0.002157f, -0.015858f, 
  -0.007101f, -0.022136f, -0.012161f, -0.022864f, -0.008035f, -0.021071f, -0.038511f, -0.034723f, 
  -0.002727f, -0.006495f, 0.012725f, 0.009150f, 0.006324f, 0.054433f, 0.022491f, 0.036568f, 
  0.025384f, 0.023367f, 0.005320f, 0.029595f, 0.005741f, 0.028653f, 0.045789f, 0.031784f, 
  0.033715f, 0.031899f, 0.004941f, 0.011195f, 0.006627f, -0.003071f, -0.013976f, 0.001980f, 
  -0.034731f, -0.005516f, -0.030023f, -0.020715f, -0.020742f, 0.005700f, -0.014466f, -0.032953f, 
  0.002109f, 0.017209f, -0.002702f, -0.005126f, 0.007152f, 0.005434f, 0.056216f, 0.037522f, 
  0.018356f, 0.031725f, 0.018767f, 0.031992f, 0.020356f, 0.019831f, 0.012383f, -0.014365f, 
  -0.005526f, -0.010512f, 0.013394f, 0.008156f, -0.036289f, -0.000067f, 0.002051f, -0.026227f, 
  -0.027332f, -0.013396f, -0.017002f, -0.050940f, -0.003886f, -0.042048f, -0.011096f, -0.015147f, 
  0.013413f, 0.034156f, 0.006781f, 0.013037f, -0.001219f, -0.006452f, 0.029699f, 0.015347f, 
  0.048248f, 0.007639f, 0.040830f, 0.036580f, 0.020272f, 0.006146f, -0.036306f, -0.003195f, 
  -0.005684f, -0.039066f, -0.036511f, -0.058294f, -0.016927f, -0.022999f, -0.049856f, -0.031588f, 
  -0.055121f, -0.027936f, -0.047799f, 0.016557f, -0.002617f, -0.030544f, 0.003355f, 0.024898f, 
  0.020613f, 0.022845f, -0.001528f, 0.016740f, 0.033892f, 0.015740f, 0.019539f, -0.006425f, 
  0.015984f, -0.018899f, 0.003988f, -0.013313f, -0.041557f, -0.044067f, -0.015965f, -0.062271f, 
  0.000746f, -0.055293f, -0.031765f, -0.052160f, -0.015189f, -0.017534f, -0.027995f, -0.004487f, 
  -0.018169f, 0.012911f, -0.026923f, -0.005784f, 0.026942f, -0.013055f, 0.024119f, 0.023812f, 
  0.042614f, 0.026899f, 0.011958f, 0.013149f, 0.046212f, 0.037407f, -0.008350f, 0.013476f, 
  -0.026445f, -0.037440f, -0.045183f, -0.019271f, -0.030852f, -0.037708f, -0.018516f, -0.072251f, 
  -0.008677f, -0.052571f, -0.047540f, -0.008636f, 0.003392f, -0.037915f, -0.036753f, -0.021593f, 
  0.009610f, 0.020952f, 0.045550f, 0.042970f, -0.000128f, 0.049805f, 0.063204f, 0.017590f, 
  0.018893f, 0.021266f, 0.033533f, -0.001771f, 0.007372f, -0.026095f, -0.031044f, -0.034070f, 
  -0.040189f, -0.056673f, -0.041716f, -0.039912f, -0.050932f, -0.049857f, -0.014902f, -0.043138f, 
  -0.011082f, -0.008419f, -0.011116f, -0.008512f, -0.005731f, 0.016455f, 0.029749f, 0.030027f, 
  -0.013833f, 0.040167f, 0.004473f, 0.026163f, 0.020227f, 0.056916f, 0.022396f, 0.028768f, 
  -0.012309f, -0.009098f, -0.007225f, -0.010136f, -0.021131f, -0.051175f, -0.033780f, -0.024789f, 
  -0.042213f, -0.036888f, -0.008333f, -0.054864f, -0.025151f, -0.021226f, -0.003456f, -0.040893f, 
  0.005856f, -0.003086f, -0.034950f, 0.019378f, 0.016086f, 0.007097f, 0.013888f, 0.019337f, 
  0.001306f, -0.001838f, 0.005785f, 0.017355f, 0.026554f, 0.024262f, -0.005909f, -0.005463f, 
  -0.009888f, -0.066812f, -0.029348f, -0.023083f, -0.018544f, -0.036903f, -0.044191f, -0.019377f, 
  -0.074232f, -0.028112f, -0.041208f, -0.021523f, -0.033583f, -0.044467f, 0.000469f, -0.015606f, 
  -0.006486f, 0.015267f, 0.041948f, 0.052900f, 0.056633f, 0.008880f, 0.020275f, 0.035042f, 
  0.035307f, 0.006957f, 0.012055f, 0.007058f, -0.039154f, -0.031454f, -0.013029f, -0.000057f, 
  -0.011237f, -0.038458f, -0.012169f, -0.004983f, -0.026168f, -0.032299f, -0.049541f, -0.028325f, 
  -0.020047f, -0.009804f, -0.009056f, -0.047966f, 0.023530f, -0.002131f, 0.005639f, 0.058498f, 
  0.022423f, 0.062168f, 0.041475f, 0.006683f, 0.039647f, 0.027493f, 0.023194f, 0.044022f, 
  0.030343f, -0.005682f, -0.016598f, -0.045208f, -0.034512f, -0.029795f, -0.010781f, -0.000481f, 
  -0.013176f, -0.005858f, -0.011539f, -0.002649f, -0.030512f, -0.000732f, -0.000197f, -0.006658f, 
  0.010129f, 0.000229f, -0.015609f, 0.034065f, 0.035139f, 0.008455f, 0.027576f, 0.033423f, 
  0.017577f, 0.058362f, 0.037534f, 0.017313f, 0.050776f, 0.042053f, 0.013837f, 0.005657f, 
  -0.040221f, -0.024424f, -0.015986f, 0.000657f, 0.027580f, 0.012290f, 0.000972f, -0.020453f, 
  -0.013083f, -0.014547f, 0.002650f, 0.007493f, -0.033088f, 0.023159f, 0.012629f, 0.015028f, 
  0.023009f, 0.042975f, 0.014999f, 0.039377f, -0.003565f, 0.023670f, 0.020949f, 0.012783f, 
  0.032595f, 0.030784f, 0.003923f, -0.014152f, -0.031759f, -0.033688f, -0.040428f, 0.002330f, 
  -0.059317f, -0.034938f, -0.038042f, -0.032027f, -0.023138f, -0.019247f, -0.064577f, -0.045794f, 
