#ifndef MY_WEIGHTS_H
#define MY_WEIGHTS_H
// ======================================================
// Auto-generated by torchjs browser trainer (v66 format)
// Copy this file to your sketch folder, then:
//   1. Update numClasses and classLabels in the sketch to match training:
//      numClasses = 3
//      classLabels: "0Blank", "1Cup", "2Pen"
//      inputSize=64  conv1Filters=4  conv2Filters=8  channels=3
//   2. Uncomment:  #define USE_BAKED_WEIGHTS  at the top of the sketch
//   3. Recompile and flash
//      version=50
// ======================================================
const float myModel_conv1_w[] = {
  -0.200733f, -0.012404f, -0.063290f, 0.217362f, 0.114090f, 0.141227f, -0.125195f, -0.215216f, 
  0.219416f, 0.106518f, 0.156330f, 0.147401f, 0.206033f, 0.187090f, 0.073919f, -0.088106f, 
  -0.004202f, 0.089355f, -0.074879f, -0.240289f, 0.132914f, -0.335817f, 0.064979f, -0.022053f, 
  0.179719f, 0.093645f, -0.066432f, -0.232709f, -0.087217f, 0.102681f, 0.164072f, 0.017196f, 
  -0.166527f, 0.205082f, -0.009883f, 0.188461f, -0.151346f, -0.073594f, 0.079369f, -0.251771f, 
  0.206651f, -0.003074f, -0.026755f, -0.302977f, 0.139464f, 0.155552f, 0.115269f, 0.096123f, 
  0.060476f, -0.056551f, 0.213628f, 0.042416f, -0.135682f, 0.172586f, -0.340322f, 0.184156f, 
  0.027707f, 0.050846f, -0.258735f, 0.062921f, 0.034110f, 0.040276f, -0.295729f, 0.140615f, 
  0.079281f, 0.217953f, -0.076522f, 0.191383f, -0.144800f, -0.106247f, -0.004853f, -0.349007f, 
  0.237477f, 0.318303f, 0.099121f, 0.156100f, 0.028618f, -0.244566f, -0.002510f, -0.043249f, 
  -0.026054f, 0.323855f, 0.201714f, -0.080984f, 0.137335f, 0.255452f, 0.203321f, 0.227958f, 
  0.086879f, 0.220361f, 0.240264f, 0.386330f, 0.285986f, 0.210447f, -0.130525f, -0.038767f, 
  0.091762f, -0.217935f, 0.330153f, 0.024744f, -0.237020f, 0.063213f, -0.025834f, -0.213636f, 
  0.192188f, -0.158645f, 0.190754f, 0.122765f
};
const float myModel_conv1_b[] = {
  -0.030101f, -0.064917f, 0.006546f, -0.062866f
};
const float myModel_conv2_w[] = {
  -0.271256f, 0.120236f, 0.091845f, -0.008640f, 0.248238f, 0.010085f, -0.223352f, -0.002387f, 
  -0.244207f, -0.049816f, -0.011554f, -0.030220f, -0.041812f, 0.058251f, 0.057844f, 0.007102f, 
  -0.017807f, -0.147347f, 0.070872f, 0.038619f, 0.203513f, 0.146776f, 0.093287f, 0.210259f, 
  0.218765f, 0.192231f, 0.000396f, 0.026627f, 0.184023f, -0.022978f, -0.014199f, -0.101419f, 
  0.004040f, 0.052205f, 0.080021f, -0.128792f, 0.155037f, -0.032867f, 0.085969f, -0.016844f, 
  -0.155852f, 0.153578f, 0.060602f, 0.165720f, 0.166068f, 0.140156f, 0.138807f, 0.185139f, 
  0.050334f, 0.074574f, -0.026679f, -0.014045f, 0.075667f, -0.182937f, -0.282757f, -0.142407f, 
  -0.068334f, 0.194802f, -0.172422f, 0.050723f, 0.054225f, -0.184338f, -0.133181f, -0.028677f, 
  -0.025559f, 0.026478f, -0.189567f, 0.248334f, 0.072182f, -0.183104f, -0.002038f, 0.243116f, 
  -0.075695f, -0.216837f, -0.184303f, -0.056283f, -0.304415f, -0.156367f, -0.135841f, -0.209682f, 
  -0.066816f, 0.126635f, -0.079269f, -0.052219f, -0.245366f, 0.068772f, 0.018188f, -0.189413f, 
  -0.088752f, 0.097434f, 0.115693f, 0.019293f, -0.024848f, -0.034778f, 0.121572f, 0.053162f, 
  0.088151f, 0.013507f, 0.058400f, -0.212764f, 0.047367f, -0.214017f, -0.135121f, -0.097650f, 
  -0.180471f, 0.013973f, -0.327818f, -0.018947f, -0.060224f, 0.116759f, 0.062005f, -0.017320f, 
  0.048883f, -0.059063f, 0.136550f, -0.091598f, 0.182895f, -0.047286f, 0.261409f, 0.263729f, 
  0.140015f, -0.002777f, 0.063215f, 0.087587f, -0.128752f, -0.215014f, 0.031504f, 0.260704f, 
  0.189904f, -0.023746f, 0.327301f, -0.124445f, 0.116587f, 0.073493f, 0.093761f, -0.180467f, 
  -0.096740f, -0.008649f, 0.289275f, 0.188255f, 0.281578f, -0.110352f, -0.078855f, -0.013191f, 
  -0.151169f, 0.113517f, 0.010788f, -0.041335f, 0.034206f, -0.069813f, -0.105960f, -0.192471f, 
  -0.207211f, 0.064498f, 0.236123f, 0.149941f, 0.042543f, 0.091806f, 0.025677f, 0.044890f, 
  -0.000176f, 0.007246f, 0.035165f, -0.044266f, 0.075658f, 0.194424f, 0.204169f, 0.004611f, 
  0.091346f, -0.173948f, 0.073605f, -0.329956f, -0.053903f, -0.157944f, 0.104944f, -0.262768f, 
  -0.086634f, -0.068462f, -0.193095f, -0.289590f, -0.041393f, -0.161947f, 0.022631f, -0.010558f, 
  -0.046516f, -0.024644f, 0.120839f, 0.030524f, 0.072314f, 0.239488f, 0.007642f, -0.080964f, 
  -0.178486f, -0.100102f, -0.202173f, 0.029709f, 0.205000f, 0.163807f, 0.016408f, -0.165195f, 
  -0.221115f, 0.156543f, 0.158417f, -0.014895f, 0.181731f, 0.000065f, 0.129519f, -0.158931f, 
  -0.189198f, 0.090137f, -0.281512f, -0.190333f, -0.161304f, 0.107106f, -0.128075f, -0.109937f, 
  -0.086783f, 0.095019f, -0.046027f, -0.008214f, 0.228126f, -0.054315f, -0.155980f, 0.071967f, 
  0.186220f, 0.029623f, -0.012442f, 0.088767f, 0.160713f, 0.156981f, 0.255686f, -0.242757f, 
  -0.089346f, -0.035600f, 0.015087f, -0.006642f, -0.011419f, -0.278630f, -0.220693f, 0.085751f, 
  0.101718f, -0.181166f, -0.056292f, 0.128817f, 0.115875f, 0.302260f, 0.172442f, -0.172907f, 
  0.128530f, 0.011045f, 0.136584f, 0.312384f, 0.023423f, -0.069907f, 0.114031f, -0.020917f, 
  0.011392f, -0.081949f, 0.016896f, 0.050766f, 0.157403f, -0.031627f, -0.110048f, 0.012162f, 
  0.057828f, 0.026791f, -0.038340f, 0.057481f, 0.258855f, -0.143162f, -0.187127f, -0.115099f, 
  -0.132018f, -0.329163f, -0.128673f, 0.140788f, 0.143284f, 0.026100f, -0.193210f, 0.212263f, 
  0.082830f, -0.099228f, 0.061266f, 0.211194f, 0.253518f, 0.059078f, 0.136849f, -0.123233f
};
const float myModel_conv2_b[] = {
  0.013545f, 0.015217f, 0.030619f, -0.020798f, 0.027440f, 0.023851f, -0.061593f, -0.021666f
};
const float myModel_output_w[] = {
  -0.030652f, 0.000949f, -0.047628f, -0.040940f, -0.046908f, -0.013462f, -0.011044f, -0.033927f, 
  -0.007286f, 0.013512f, 0.019119f, 0.020224f, -0.020336f, -0.034847f, 0.001000f, -0.004319f, 
  0.023103f, 0.016949f, 0.022783f, 0.049420f, 0.043347f, 0.013699f, 0.051137f, 0.050510f, 
  0.027117f, 0.017801f, 0.066232f, 0.040440f, 0.058794f, -0.027052f, -0.037371f, -0.038376f, 
  -0.029727f, -0.002174f, 0.010373f, -0.004582f, 0.016384f, -0.013618f, 0.008727f, -0.034805f, 
  -0.030705f, -0.057672f, -0.072355f, -0.047348f, -0.035306f, -0.003559f, 0.031309f, 0.012980f, 
  0.021134f, 0.026044f, -0.017184f, -0.009237f, -0.009384f, 0.046254f, 0.020364f, 0.036934f, 
  0.057612f, 0.069301f, -0.050780f, -0.036443f, -0.031045f, -0.016267f, -0.013778f, -0.043866f, 
  -0.010599f, -0.005914f, -0.024645f, -0.000778f, -0.036754f, -0.039341f, -0.051116f, -0.071451f, 
  -0.060827f, -0.013602f, -0.002111f, -0.007170f, -0.023491f, 0.037994f, 0.031025f, -0.002368f, 
  0.012035f, 0.037508f, 0.007396f, 0.025960f, 0.101251f, 0.060922f, 0.084649f, -0.093978f, 
  -0.037403f, -0.021022f, -0.051362f, -0.037795f, -0.032318f, -0.021486f, -0.021686f, -0.049481f, 
  -0.027510f, -0.055574f, -0.068275f, -0.058572f, -0.049780f, -0.050367f, -0.060669f, -0.073029f, 
  -0.045792f, -0.045840f, -0.013418f, 0.001268f, -0.029273f, 0.015742f, 0.042603f, 0.063698f, 
  0.075818f, 0.064789f, 0.070483f, 0.053902f, -0.098806f, -0.055056f, -0.037422f, -0.059647f, 
  -0.062680f, -0.056371f, -0.060392f, -0.075250f, -0.073557f, -0.068933f, -0.055356f, -0.086852f, 
  -0.043819f, -0.012436f, -0.042075f, -0.068428f, -0.050033f, -0.059764f, -0.074328f, 0.025721f, 
  -0.037994f, -0.006276f, 0.003468f, 0.028233f, 0.052774f, 0.004530f, 0.046160f, 0.019381f, 
  0.033180f, -0.026382f, -0.026150f, -0.000004f, -0.040528f, -0.036660f, -0.067119f, -0.029309f, 
  -0.031716f, -0.036319f, -0.056435f, -0.065141f, -0.024563f, -0.053274f, -0.049024f, -0.062111f, 
  -0.055609f, -0.086019f, -0.027488f, -0.045782f, -0.040704f, -0.032113f, -0.008651f, -0.030063f, 
  0.011482f, 0.030174f, 0.039957f, 0.025312f, 0.022304f, 0.022933f, -0.024860f, -0.052305f, 
  -0.042424f, -0.089179f, -0.035077f, -0.048732f, -0.035337f, -0.061781f, -0.054539f, -0.076032f, 
  -0.038962f, -0.061993f, -0.050290f, -0.063254f, -0.062963f, -0.070751f, -0.005232f, -0.014222f, 
  -0.050258f, -0.037085f, -0.041185f, 0.016002f, -0.026434f, 0.012876f, -0.021932f, -0.007179f, 
  -0.047940f, 0.008151f, 0.027587f, -0.003306f, -0.047348f, -0.064010f, -0.078610f, -0.063149f, 
  -0.048458f, -0.092715f, -0.052356f, -0.078575f, -0.077123f, -0.060548f, -0.012369f, -0.052824f, 
  -0.063797f, -0.063416f, -0.036255f, -0.057916f, -0.045045f, -0.020765f, -0.010890f, -0.011067f, 
  -0.025433f, 0.010591f, 0.007467f, -0.014433f, 0.015134f, -0.012433f, -0.021096f, -0.031530f, 
  -0.025166f, -0.066332f, -0.038277f, -0.068365f, -0.046054f, -0.077974f, -0.050837f, -0.068876f, 
  -0.090237f, -0.102545f, -0.106290f, -0.065956f, -0.076457f, -0.055262f, -0.044265f, -0.074944f, 
  -0.053934f, -0.035049f, -0.008447f, -0.050556f, -0.033635f, -0.048791f, -0.019838f, 0.006727f, 
  -0.018944f, -0.045609f, -0.048537f, -0.031979f, -0.033773f, -0.035291f, -0.071687f, -0.065099f, 
  -0.066127f, -0.029093f, -0.042711f, -0.100417f, -0.130446f, -0.096407f, -0.096027f, -0.083418f, 
  -0.051392f, -0.028646f, -0.048845f, -0.057329f, -0.067525f, -0.022025f, -0.033603f, -0.023181f, 
  -0.018495f, -0.041313f, -0.045507f, -0.054610f, -0.047866f, -0.037459f, -0.001171f, -0.011143f, 
  -0.030857f, -0.020853f, -0.079198f, -0.085001f, -0.042669f, -0.032738f, -0.049637f, -0.069008f, 
  -0.131461f, -0.097806f, -0.105342f, -0.097020f, -0.073319f, -0.073700f, -0.049091f, -0.066168f, 
  -0.046456f, -0.068119f, -0.006957f, -0.037213f, -0.022174f, -0.016991f, -0.050915f, -0.075731f, 
  -0.020408f, -0.041860f, -0.066630f, -0.032317f, -0.008368f, 0.001985f, 0.018161f, -0.067435f, 
  -0.059821f, -0.032654f, -0.058062f, -0.107160f, -0.103992f, -0.098800f, -0.091278f, -0.076414f, 
  -0.022763f, -0.071485f, -0.071123f, -0.065308f, -0.025032f, -0.049920f, -0.019234f, -0.000835f, 
  -0.006908f, -0.035568f, -0.043986f, -0.064574f, -0.019509f, -0.023017f, -0.032513f, -0.004882f, 
  -0.025041f, -0.039997f, -0.034531f, -0.028120f, -0.061719f, -0.043486f, -0.042852f, -0.069224f, 
  -0.075910f, -0.065022f, -0.079220f, -0.060103f, -0.044288f, -0.071432f, -0.086489f, -0.057613f, 
  -0.028188f, -0.051028f, -0.038230f, -0.012635f, -0.045405f, -0.043928f, -0.059051f, -0.068777f, 
  -0.043915f, -0.037990f, -0.030237f, -0.013906f, 0.004819f, -0.029271f, -0.028864f, 0.008072f, 
  0.008451f, -0.064419f, -0.075272f, -0.046210f, -0.084081f, -0.072638f, -0.049379f, -0.063312f, 
  -0.051100f, -0.089410f, -0.054235f, -0.086161f, -0.058841f, -0.030187f, -0.012929f, -0.009056f, 
  -0.059051f, -0.051618f, -0.047736f, -0.073559f, -0.039419f, -0.030718f, -0.020999f, -0.021540f, 
  -0.024692f, -0.043081f, -0.023813f, -0.035994f, 0.011869f, -0.019004f, -0.059292f, -0.047709f, 
  -0.040623f, -0.085989f, -0.070980f, -0.053126f, -0.086624f, -0.087036f, -0.086703f, -0.077162f, 
  -0.074104f, -0.034067f, -0.054554f, -0.018109f, -0.061463f, -0.036351f, -0.053288f, -0.080255f, 
  -0.085058f, -0.036818f, -0.024391f, -0.017181f, -0.022122f, -0.005402f, -0.020658f, -0.010721f, 
  -0.051528f, -0.021748f, -0.030514f, -0.035362f, -0.064325f, -0.060163f, -0.054414f, -0.050036f, 
  -0.090724f, -0.070011f, -0.041300f, -0.084258f, -0.043495f, -0.063017f, -0.049232f, -0.074022f, 
  -0.068795f, -0.077410f, -0.084702f, -0.060041f, -0.065263f, -0.055476f, -0.082205f, -0.005900f, 
  -0.047496f, -0.026307f, -0.001288f, 0.002044f, -0.001784f, 0.005263f, 0.017425f, 0.003457f, 
  -0.072219f, -0.028832f, -0.044210f, -0.085360f, -0.056890f, -0.065917f, -0.032464f, -0.097999f, 
  -0.060676f, -0.070417f, -0.037085f, -0.059185f, -0.063245f, -0.072084f, -0.068203f, -0.041401f, 
  -0.050048f, -0.024742f, -0.050780f, -0.028024f, -0.014572f, -0.033441f, -0.005885f, 0.029017f, 
  -0.010400f, -0.001966f, 0.012065f, -0.002778f, -0.024565f, -0.069366f, -0.040527f, -0.060628f, 
  -0.052363f, -0.054678f, -0.073427f, -0.068683f, -0.034638f, -0.056323f, -0.067028f, -0.067976f, 
  -0.056974f, -0.034146f, -0.073872f, -0.047063f, -0.031144f, -0.040599f, -0.070520f, -0.067337f, 
  -0.042879f, 0.007216f, -0.030460f, 0.008832f, 0.006697f, 0.006406f, 0.009387f, -0.025464f, 
  -0.016833f, 0.016010f, -0.036051f, -0.024323f, -0.047986f, -0.044818f, -0.021102f, -0.041561f, 
  -0.063361f, -0.073274f, -0.034621f, -0.026290f, -0.032643f, -0.037303f, -0.053310f, -0.036588f, 
  -0.024608f, -0.076086f, -0.048310f, -0.047380f, -0.055342f, -0.054191f, -0.065283f, -0.025530f, 
  -0.004137f, -0.012113f, 0.010886f, -0.018744f, -0.014116f, 0.002698f, -0.012388f, -0.053049f, 
  -0.015380f, -0.060174f, -0.036822f, -0.039748f, -0.062198f, -0.082152f, -0.031563f, -0.068290f, 
  -0.031759f, -0.045458f, -0.055615f, -0.054643f, -0.045800f, -0.068016f, -0.078960f, -0.055292f, 
  -0.055255f, -0.053847f, -0.067100f, -0.035148f, -0.004610f, 0.024286f, 0.010133f, 0.034506f, 
  0.027792f, 0.029934f, 0.003692f, -0.012607f, -0.031405f, -0.025310f, -0.044179f, -0.030331f, 
  -0.030853f, -0.061904f, -0.055354f, -0.040268f, -0.007876f, -0.038805f, -0.002728f, -0.048236f, 
  -0.047815f, -0.054774f, -0.047143f, -0.050069f, -0.039133f, -0.065462f, -0.048176f, -0.037682f, 
  -0.029856f, -0.005149f, 0.005172f, 0.013073f, 0.033133f, 0.011415f, 0.025118f, 0.019079f, 
  -0.008507f, -0.044238f, -0.041859f, -0.057028f, -0.041103f, -0.058483f, -0.056062f, -0.029900f, 
  -0.014111f, -0.043683f, -0.039874f, -0.046986f, -0.053931f, -0.046140f, -0.058727f, -0.071986f, 
  -0.080080f, -0.058687f, -0.058987f, -0.030770f, -0.021498f, -0.034233f, 0.006711f, 0.015616f, 
  -0.016566f, 0.018392f, -0.017264f, 0.005628f, 0.006116f, 0.010702f, -0.046087f, -0.020153f, 
  -0.054542f, -0.009741f, -0.021925f, -0.017131f, 0.002426f, 0.001798f, -0.006738f, -0.021710f, 
  -0.025607f, -0.026531f, -0.050078f, -0.081109f, -0.066339f, -0.063678f, -0.041698f, -0.062270f, 
  -0.016365f, -0.034161f, -0.003644f, -0.001156f, -0.016045f, -0.007312f, -0.028139f, 0.027832f, 
  0.009440f, 0.012322f, 0.006476f, -0.044583f, -0.080603f, -0.014983f, -0.001698f, 0.003552f, 
  0.005037f, -0.010348f, -0.012313f, -0.037948f, -0.028442f, -0.054716f, -0.073317f, -0.060274f, 
  -0.058213f, -0.049848f, -0.056018f, -0.049759f, -0.057715f, -0.064941f, -0.013417f, -0.020129f, 
  -0.026104f, -0.009793f, -0.012031f, 0.034883f, -0.005118f, -0.016127f, 0.016607f, -0.023992f, 
  -0.023160f, -0.026758f, -0.002437f, 0.041144f, -0.018435f, -0.024585f, 0.009746f, 0.006687f, 
  -0.021177f, -0.015801f, -0.052517f, -0.050773f, -0.023301f, -0.055975f, -0.022993f, -0.081108f, 
  -0.047113f, -0.031392f, -0.016962f, -0.004983f, -0.018556f, -0.010000f, -0.021227f, -0.013247f, 
  0.017584f, -0.031072f, 0.009209f, 0.010132f, -0.007635f, -0.028495f, -0.016399f, 0.015053f, 
  -0.020742f, -0.000772f, 0.007437f, 0.010317f, 0.006982f, -0.006478f, -0.033560f, -0.061468f, 
  -0.066261f, -0.044681f, -0.046520f, -0.072395f, -0.044884f, -0.076595f, -0.034856f, -0.058192f, 
  -0.010046f, -0.039816f, -0.030723f, -0.049334f, -0.023187f, 0.011876f, 0.011915f, 0.013486f, 
  0.002820f, -0.036718f, 0.047424f, 0.005543f, -0.025662f, -0.076238f, -0.043049f, -0.001812f, 
  -0.027018f, -0.029003f, -0.003083f, -0.053033f, -0.058909f, -0.009419f, -0.041704f, -0.034446f, 
  -0.058062f, -0.071041f, -0.067096f, -0.060392f, -0.033879f, -0.046569f, -0.042147f, -0.029446f, 
  -0.040812f, -0.006886f, 0.041684f, -0.018596f, -0.008638f, -0.031005f, -0.070938f, 0.028990f, 
  0.013113f, -0.049469f, -0.012535f, -0.031070f, -0.011795f, 0.007764f, -0.055297f, -0.024838f, 
  -0.075943f, -0.027816f, -0.014625f, -0.021725f, -0.073560f, -0.045036f, -0.070211f, -0.032517f, 
  -0.043968f, -0.082894f, -0.031707f, -0.051853f, -0.055889f, -0.039558f, 0.019364f, 0.056428f, 
  0.006067f, -0.009939f, -0.035922f, -0.047730f, 0.004077f, 0.005717f, -0.012131f, 0.009151f, 
  -0.018762f, 0.038211f, -0.005456f, -0.056036f, -0.039144f, -0.052137f, -0.043843f, -0.067767f, 
  -0.008616f, -0.047925f, -0.050204f, -0.063186f, -0.034957f, -0.023888f, -0.019545f, -0.021442f, 
  -0.017314f, -0.054763f, -0.007677f, 0.018771f, 0.061432f, -0.003951f, -0.037165f, -0.055500f, 
  -0.026847f, 0.003135f, 0.002305f, 0.011845f, 0.034948f, 0.013406f, 0.006662f, 0.010733f, 
  0.009336f, 0.006691f, -0.010912f, -0.006100f, -0.046972f, -0.039359f, -0.014500f, -0.018262f, 
  -0.000296f, -0.001481f, -0.050628f, -0.036327f, -0.025426f, -0.069026f, -0.039484f, -0.047001f, 
  -0.058952f, -0.008175f, -0.025242f, -0.003674f, -0.061779f, -0.052444f, -0.008275f, 0.006766f, 
  0.008049f, 0.014162f, 0.051214f, 0.002086f, 0.035309f, 0.000010f, 0.027081f, -0.018819f, 
  0.003976f, -0.006719f, -0.026870f, -0.000705f, 0.023390f, 0.006389f, -0.035035f, -0.023767f, 
  -0.062772f, -0.022594f, -0.012820f, -0.058483f, -0.020048f, -0.038751f, -0.005133f, 0.021190f, 
  -0.025629f, -0.022620f, -0.064547f, -0.001804f, 0.037275f, 0.055877f, -0.007336f, 0.000497f, 
  -0.008880f, 0.009158f, 0.025948f, 0.001898f, 0.029938f, -0.018454f, -0.013163f, 0.045854f, 
  0.008104f, 0.010049f, -0.006926f, -0.060444f, -0.019105f, -0.049855f, -0.028888f, -0.027796f, 
  -0.018813f, -0.019189f, 0.011486f, -0.041158f, -0.016235f, -0.027374f, -0.024241f, -0.085335f, 
  0.038234f, 0.038194f, 0.026858f, 0.031045f, 0.022993f, 0.025371f, -0.004505f, -0.036348f, 
  -0.039201f, -0.028654f, 0.004471f, 0.007478f, 0.015023f, 0.019940f, 0.005645f, 0.004144f, 
  -0.007541f, -0.002437f, 0.011152f, 0.002563f, -0.020890f, 0.003229f, -0.008435f, -0.029589f, 
  -0.042292f, -0.067470f, -0.022537f, -0.040065f, -0.038810f, 0.018119f, 0.049692f, 0.018595f, 
  0.028193f, 0.035884f, -0.015287f, 0.005279f, 0.000421f, 0.014079f, -0.014143f, 0.016330f, 
  0.018169f, 0.041749f, 0.007968f, 0.005790f, -0.001353f, 0.019819f, -0.004512f, 0.008092f, 
  0.010556f, -0.014516f, 0.011550f, -0.026168f, -0.048568f, -0.072546f, -0.031127f, -0.051917f, 
  -0.056189f, -0.018323f, 0.018832f, 0.007191f, -0.018229f, -0.022472f, -0.010577f, -0.013554f, 
  -0.011485f, 0.019166f, 0.019116f, 0.016550f, 0.010878f, 0.013675f, -0.021304f, -0.004509f, 
  0.007354f, 0.021814f, 0.024114f, 0.042946f, 0.039010f, 0.010905f, 0.011060f, 0.008706f, 
  -0.006741f, -0.038997f, -0.064700f, -0.049060f, -0.039019f, -0.052561f, -0.028771f, 0.043114f, 
  0.012755f, -0.006023f, -0.008130f, 0.002148f, -0.035480f, -0.002288f, 0.003992f, 0.006942f, 
  0.018122f, 0.009837f, 0.008425f, -0.022392f, -0.016845f, 0.012661f, 0.021018f, 0.044997f, 
  0.014446f, -0.014061f, 0.026189f, 0.006033f, -0.005376f, -0.026350f, -0.014013f, -0.042175f, 
  -0.029612f, -0.052319f, -0.036262f, -0.030478f, -0.012513f, 0.001782f, -0.009789f, -0.002171f, 
  0.044729f, -0.006419f, -0.028355f, -0.012174f, -0.016305f, 0.010036f, 0.015978f, 0.034745f, 
  -0.015036f, -0.003709f, 0.039534f, 0.034543f, 0.046589f, 0.041753f, -0.026650f, -0.007957f, 
  -0.012746f, -0.025728f, -0.036021f, -0.028607f, -0.000700f, 0.004759f, -0.008831f, -0.002903f, 
  -0.018794f, 0.013973f, -0.013599f, -0.012709f, 0.007244f, 0.052676f, 0.034453f, -0.031314f, 
  -0.010347f, 0.041629f, -0.007784f, 0.016899f, 0.036493f, 0.018224f, -0.005478f, 0.000726f, 
  0.015946f, 0.029476f, -0.020540f, -0.001293f, 0.005551f, 0.007121f, -0.011018f, -0.040580f, 
  -0.015356f, -0.025679f, 0.038357f, 0.010966f, -0.005517f, -0.012287f, -0.013741f, 0.015612f, 
  0.014997f, 0.014545f, 0.009657f, -0.000972f, 0.025916f, 0.014301f, 0.053710f, 0.011287f, 
  0.016977f, 0.004673f, 0.033362f, 0.002282f, 0.024074f, 0.024499f, 0.027686f, 0.007160f, 
  -0.035202f, -0.047363f, 0.002162f, -0.014335f, 0.007925f, 0.008385f, 0.003393f, 0.007101f, 
  -0.022290f, -0.002813f, -0.028963f, 0.012844f, 0.014219f, 0.014062f, 0.020218f, 0.019271f, 
  0.025590f, 0.043761f, -0.020565f, 0.028463f, 0.046104f, 0.022706f, 0.032508f, 0.015732f, 
  0.014193f, 0.004309f, 0.033568f, 0.021281f, -0.020370f, -0.017951f, -0.020058f, -0.009429f, 
  0.013903f, 0.013427f, -0.033609f, -0.011777f, -0.021508f, 0.002833f, -0.014332f, 0.008843f, 
  0.005382f, 0.022713f, -0.031070f, -0.018280f, 0.035281f, 0.001071f, 0.048393f, 0.047625f, 
  0.033815f, 0.043307f, 0.022007f, -0.015985f, -0.015850f, 0.007789f, 0.016498f, -0.008416f, 
  0.013669f, -0.016850f, -0.036794f, -0.022926f, -0.015485f, 0.033678f, -0.015178f, 0.006762f, 
  0.000203f, -0.005002f, -0.023755f, -0.021578f, -0.009581f, -0.010861f, 0.039360f, -0.018892f, 
  -0.009994f, 0.020767f, 0.021622f, 0.061869f, 0.044962f, 0.001212f, 0.001669f, 0.023822f, 
  -0.006473f, 0.005326f, -0.008575f, 0.009499f, 0.006557f, -0.002970f, -0.048130f, 0.030887f, 
  0.014169f, 0.009565f, 0.034917f, 0.008279f, -0.005452f, 0.009676f, -0.009345f, -0.054400f, 
  -0.006943f, -0.004690f, -0.015904f, 0.018456f, 0.000990f, -0.014254f, -0.013611f, 0.073773f, 
  0.064876f, 0.048639f, 0.018010f, -0.008831f, 0.010356f, 0.027086f, 0.005800f, -0.021581f, 
  -0.010581f, -0.005764f, 0.002283f, 0.012877f, 0.037133f, 0.002080f, 0.008974f, -0.018934f, 
  -0.020246f, -0.051279f, -0.042416f, 0.018393f, -0.001688f, -0.022267f, -0.035393f, 0.035666f, 
  -0.011940f, 0.006731f, 0.019159f, 0.017580f, 0.031984f, 0.042349f, 0.043379f, 0.037013f, 
  0.051408f, 0.010616f, 0.035468f, -0.030889f, -0.011139f, -0.015877f, 0.035168f, 0.022392f, 
  0.029575f, 0.033113f, -0.010438f, -0.014559f, -0.029285f, -0.017123f, -0.037802f, -0.053404f, 
  -0.006900f, -0.004081f, -0.015298f, -0.012526f, 0.015246f, -0.014330f, 0.017889f, 0.026397f, 
  0.004891f, 0.061890f, 0.036911f, 0.035572f, 0.024126f, 0.019660f, 0.008866f, 0.009634f, 
  0.018893f, -0.021762f, -0.008710f, -0.002509f, -0.005438f, 0.013135f, 0.012111f, 0.009799f, 
  -0.020618f, -0.006204f, -0.014923f, 0.011892f, -0.054213f, -0.006683f, 0.000404f, -0.010340f, 
  -0.014437f, 0.022927f, 0.030660f, 0.017115f, 0.049408f, 0.017278f, 0.011700f, 0.048540f, 
  0.012332f, 0.000636f, -0.004581f, 0.018326f, 0.046057f, 0.017188f, -0.040933f, 0.023846f, 
  0.007898f, -0.001563f, -0.006800f, -0.017790f, -0.035072f, -0.002587f, -0.024236f, -0.038493f, 
  -0.007296f, -0.053001f, -0.026576f, -0.009124f, -0.008653f, 0.014108f, 0.004126f, -0.001962f, 
  0.008418f, 0.023156f, 0.018583f, 0.011228f, 0.005716f, 0.034584f, 0.009493f, 0.003372f, 
  0.007943f, 0.007295f, 0.018183f, 0.023884f, 0.009008f, -0.001429f, 0.024082f, 0.018545f, 
  0.000849f, -0.012623f, -0.029477f, -0.041959f, -0.033314f, -0.017155f, -0.028112f, -0.031175f, 
  -0.021238f, -0.056348f, 0.008561f, 0.025346f, -0.026917f, 0.003242f, -0.004280f, -0.033106f, 
  -0.012609f, 0.027461f, 0.037749f, 0.022532f, -0.004075f, 0.033656f, 0.029064f, 0.011761f, 
  0.023254f, -0.004664f, 0.009678f, -0.023141f, -0.018989f, 0.044113f, 0.016664f, -0.020916f, 
  -0.017260f, -0.053694f, -0.042906f, -0.020382f, -0.004280f, -0.045943f, -0.041472f, -0.054997f, 
  -0.001369f, -0.034137f, -0.019413f, -0.028044f, -0.004227f, 0.023252f, 0.020255f, 0.050441f, 
  0.039541f, 0.010050f, 0.014054f, -0.011709f, 0.020892f, -0.002605f, 0.008146f, 0.023316f, 
  0.008534f, 0.009146f, 0.001922f, 0.004749f, -0.000093f, -0.003324f, -0.022239f, -0.037320f, 
  -0.049422f, -0.059756f, -0.061969f, -0.044837f, -0.035877f, 0.024419f, -0.033402f, -0.054466f, 
  0.026843f, -0.000588f, 0.018686f, 0.037400f, 0.017865f, -0.011292f, -0.023394f, -0.007566f, 
  -0.000808f, 0.023853f, 0.009047f, -0.017391f, 0.022479f, 0.006529f, 0.008705f, 0.012999f, 
  -0.005416f, -0.006650f, 0.008714f, -0.045228f, -0.022983f, -0.039286f, -0.037679f, -0.045415f, 
  -0.027193f, -0.052214f, 0.032077f, -0.008586f, 0.015021f, 0.019196f, 0.048723f, -0.015412f, 
  0.009937f, -0.010469f, -0.017964f, -0.013877f, -0.013067f, -0.007663f, 0.034109f, 0.027801f, 
  0.041163f, 0.029684f, 0.025315f, 0.028620f, -0.011995f, 0.016916f, 0.002567f, -0.004036f, 
  -0.031140f, -0.030095f, -0.038816f, -0.038919f, -0.052647f, -0.039018f, -0.038865f, -0.025640f, 
  -0.010355f, -0.011217f, 0.029420f, -0.009348f, -0.040748f, -0.046436f, -0.034930f, -0.011710f, 
  -0.002880f, 0.012621f, 0.013082f, -0.008770f, 0.026309f, 0.025895f, 0.017748f, 0.053340f, 
  -0.003804f, 0.021612f, -0.022851f, -0.010154f, -0.014799f, -0.047677f, -0.023804f, -0.033674f, 
  -0.064296f, -0.016902f, -0.063196f, -0.019537f, 0.030771f, 0.049952f, 0.043087f, 0.002549f, 
  -0.026296f, -0.015624f, -0.035213f, -0.015332f, 0.012316f, -0.031214f, 0.009909f, 0.030138f, 
  -0.011298f, 0.000868f, 0.030960f, 0.010434f, -0.000725f, -0.002639f, 0.010249f, 0.009502f, 
  0.011029f, -0.013534f, -0.025166f, -0.006995f, -0.052029f, -0.029382f, -0.065299f, -0.057115f, 
  -0.019050f, 0.024402f, 0.014527f, -0.004957f, -0.015133f, -0.004489f, 0.020799f, -0.014248f, 
  -0.029900f, -0.001236f, 0.010762f, 0.000995f, 0.003448f, 0.013714f, 0.012917f, 0.029269f, 
  0.012144f, 0.024136f, -0.012267f, 0.024978f, -0.011767f, 0.016403f, -0.015876f, -0.000161f, 
  0.004045f, -0.061721f, -0.041921f, -0.018036f, -0.025306f, -0.033326f, 0.046826f, 0.002909f, 
  -0.019797f, -0.011524f, -0.054577f, 0.025240f, 0.000181f, -0.002943f, 0.003583f, 0.013366f, 
  0.013173f, 0.030282f, 0.041927f, 0.016276f, 0.022571f, 0.011317f, 0.020746f, -0.013498f, 
  0.035801f, 0.017160f, -0.001326f, 0.018786f, 0.003838f, -0.000537f, -0.016209f, -0.051849f, 
  -0.019540f, -0.027715f, -0.013910f, 0.018518f, 0.000765f, -0.014187f, -0.000047f, 0.002554f, 
  -0.023912f, -0.001638f, 0.015112f, 0.020952f, -0.006713f, 0.033340f, 0.033261f, -0.021970f, 
  0.012191f, 0.018639f, 0.036389f, 0.018757f, 0.011908f, 0.022681f, 0.037508f, 0.004668f, 
  -0.005321f, 0.033275f, -0.002756f, 0.006008f, -0.033523f, -0.017314f, -0.031745f, -0.004675f, 
  -0.018727f, 0.019625f, 0.000052f, -0.014773f, -0.000776f, -0.001908f, 0.019689f, 0.003353f, 
  -0.038198f, -0.016798f, -0.028610f, 0.034300f, 0.025588f, 0.042058f, 0.018901f, 0.045031f, 
  0.013225f, 0.032471f, 0.012519f, 0.013949f, 0.007717f, -0.017717f, -0.001362f, -0.012780f, 
  -0.057148f, -0.027103f, -0.032735f, -0.039403f, -0.000259f, -0.048142f, 0.016638f, -0.019486f, 
  0.010679f, 0.014104f, -0.014305f, 0.010895f, 0.016319f, -0.017349f, 0.005274f, 0.002627f, 
  -0.004013f, 0.006520f, 0.000917f, 0.021019f, 0.031005f, 0.018390f, -0.013023f, -0.009683f, 
  0.020899f, 0.010616f, -0.001943f, 0.019947f, -0.001721f, -0.017962f, -0.045843f, -0.014355f, 
  0.005352f, -0.011257f, -0.030370f, -0.018253f, 0.014759f, -0.047485f, -0.001015f, -0.028607f, 
  -0.035692f, -0.041778f, -0.015597f, -0.018195f, 0.011017f, 0.004890f, -0.010547f, 0.009737f, 
  0.006342f, 0.001550f, 0.016993f, -0.025522f, 0.029101f, 0.013016f, 0.013073f, 0.043330f, 
  0.043587f, 0.024358f, 0.039159f, 0.036077f, 0.023736f, -0.004993f, 0.019438f, -0.032266f, 
  -0.024012f, -0.029924f, -0.047225f, -0.023686f, 0.001386f, -0.042828f, -0.018254f, -0.012610f, 
  -0.019514f, -0.013366f, 0.009798f, 0.013461f, -0.035246f, -0.020378f, -0.000882f, 0.002832f, 
  0.041575f, -0.008834f, 0.020574f, 0.015238f, 0.009141f, 0.029718f, 0.028143f, 0.000684f, 
  -0.006246f, 0.020425f, 0.018101f, 0.018203f, -0.005415f, -0.020085f, -0.031692f, -0.031239f, 
  0.001463f, -0.021694f, -0.010986f, -0.034756f, -0.011373f, -0.016131f, 0.008884f, 0.015995f, 
  -0.005819f, 0.005642f, -0.020559f, -0.021177f, -0.014042f, 0.035450f, 0.006470f, 0.025855f, 
  -0.015714f, 0.035250f, 0.025605f, -0.003370f, 0.018568f, -0.026918f, -0.023925f, 0.033816f, 
  0.008213f, -0.021158f, -0.035783f, -0.027235f, -0.028395f, 0.007758f, -0.001931f, -0.031232f, 
  -0.028824f, -0.008813f, 0.026748f, -0.002178f, 0.004752f, -0.007311f, -0.010395f, 0.014286f, 
  -0.036155f, 0.021849f, 0.005408f, -0.029158f, -0.009214f, 0.000909f, -0.001675f, -0.026891f, 
  0.007612f, 0.013687f, 0.002591f, -0.014786f, -0.016661f, 0.004489f, -0.011442f, -0.043839f, 
  -0.030304f, -0.036553f, -0.030511f, -0.019915f, -0.003059f, 0.006205f, -0.012366f, -0.001543f, 
  -0.023156f, 0.004178f, -0.007229f, -0.007725f, 0.014367f, -0.006194f, -0.017935f, -0.000842f, 
  -0.003907f, 0.022594f, -0.000520f, -0.020402f, 0.011986f, 0.029544f, -0.020665f, -0.009974f, 
  0.001907f, 0.000835f, 0.013222f, 0.012637f, -0.039242f, 0.000253f, -0.037867f, -0.021719f, 
  -0.020061f, -0.014114f, -0.005137f, -0.019558f, -0.033992f, 0.001074f, -0.025381f, -0.021533f, 
  -0.035969f, 0.008435f, 0.010698f, 0.012833f, -0.014547f, 0.008854f, -0.029406f, 0.002483f, 
  -0.001348f, 0.018915f, -0.005108f, 0.018678f, -0.003851f, -0.006471f, 0.020525f, 0.020872f, 
  -0.010744f, -0.038466f, -0.017810f, 0.008100f, -0.009638f, -0.033266f, 0.014150f, 0.000595f, 
  -0.023687f, 0.032955f, -0.018762f, -0.009636f, -0.012553f, -0.005639f, -0.026866f, -0.007026f, 
  -0.028244f, -0.002908f, -0.037795f, 0.009608f, 0.009931f, -0.003479f, -0.003908f, -0.020380f, 
  0.002495f, 0.008571f, 0.029417f, 0.007221f, 0.017359f, -0.006913f, -0.002050f, 0.000175f, 
  -0.027617f, 0.010652f, -0.003562f, -0.007272f, -0.027754f, -0.013915f, 0.008233f, 0.000915f, 
  0.008028f, 0.004386f, -0.016087f, -0.023585f, -0.026477f, -0.011377f, -0.024757f, -0.025022f, 
  0.020339f, -0.007595f, -0.008389f, 0.000247f, -0.016298f, 0.023846f, 0.027544f, 0.008179f, 
  0.004917f, 0.030915f, -0.027754f, -0.012167f, -0.016491f, 0.011741f, 0.000938f, 0.014946f, 
  -0.025749f, 0.000726f, 0.039371f, -0.028172f, -0.023935f, 0.015784f, 0.001953f, 0.014069f, 
  -0.014962f, -0.006134f, -0.024988f, -0.016899f, 0.023580f, 0.030192f, 0.023184f, 0.018046f, 
  0.035328f, 0.019018f, -0.001533f, 0.002346f, 0.031832f, 0.010852f, 0.011560f, -0.006583f, 
  0.011044f, 0.001950f, -0.034738f, -0.005381f, 0.009104f, -0.012607f, 0.002343f, -0.007964f, 
  0.018624f, -0.007859f, 0.002866f, -0.016519f, -0.029829f, -0.018521f, -0.022928f, -0.022930f, 
  -0.032061f, -0.010235f, 0.023243f, 0.013133f, -0.025591f, -0.009761f, -0.006313f, -0.005448f, 
  0.020344f, -0.006463f, -0.005885f, 0.022657f, -0.024700f, -0.030973f, -0.009426f, -0.002265f, 
  0.008200f, -0.002474f, 0.010243f, 0.000515f, -0.013180f, -0.019045f, -0.032493f, -0.000241f, 
  -0.028970f, -0.028794f, 0.020636f, 0.001396f, -0.019781f, -0.018030f, 0.013169f, -0.007973f, 
  -0.015686f, -0.017406f, 0.027793f, 0.004630f, 0.006013f, 0.046471f, 0.020749f, 0.010307f, 
  0.037458f, -0.016047f, -0.027754f, -0.013404f, 0.001781f, 0.014086f, 0.010725f, 0.003782f, 
  -0.022139f, 0.012902f, -0.050343f, 0.011906f, -0.005339f, -0.012140f, -0.031560f, -0.050013f, 
  -0.002163f, -0.009230f, -0.004469f, 0.042962f, 0.037226f, -0.010777f, -0.006506f, 0.013147f, 
  -0.003112f, -0.020552f, 0.007043f, -0.002765f, 0.006273f, 0.056197f, -0.027746f, 0.005891f, 
  -0.030719f, 0.004623f, -0.013712f, -0.026728f, -0.018285f, -0.025963f, -0.014075f, -0.003551f, 
  -0.005451f, -0.039942f, -0.006111f, -0.041050f, -0.005415f, 0.008516f, 0.005583f, -0.001246f, 
  0.002101f, 0.001961f, -0.001872f, -0.002180f, -0.013718f, 0.000848f, 0.026471f, 0.007465f, 
  0.015201f, 0.062541f, 0.002405f, -0.009969f, -0.010255f, 0.009917f, 0.023659f, -0.000907f, 
  -0.008943f, -0.011174f, 0.005668f, -0.024773f, -0.011849f, -0.012814f, -0.019693f, 0.002839f, 
  -0.015285f, 0.015897f, -0.021458f, 0.002658f, 0.003221f, -0.002969f, 0.000543f, -0.009263f, 
  0.003910f, 0.023270f, 0.008841f, 0.033231f, 0.032249f, 0.041084f, 0.020914f, 0.034011f, 
  0.022214f, -0.026495f, 0.026569f, 0.004535f, -0.027984f, -0.021410f, 0.003197f, -0.041601f, 
  -0.022234f, -0.018639f, -0.006871f, -0.031393f, -0.023491f, 0.010872f, -0.013319f, 0.012289f, 
  -0.013524f, 0.003908f, -0.005443f, 0.010299f, 0.019340f, 0.021799f, 0.034391f, 0.011692f, 
  0.042355f, 0.040249f, 0.016967f, 0.027469f, 0.002327f, 0.002521f, -0.020793f, 0.002291f, 
  0.000304f, -0.019648f, -0.032294f, 0.005619f, -0.006048f, -0.047811f, -0.008275f, -0.017999f, 
  -0.034592f, -0.024021f, -0.014638f, -0.022927f, -0.001789f, -0.024325f, -0.022005f, 0.003420f, 
  -0.008524f, 0.020641f, 0.028720f, -0.010883f, 0.015747f, -0.001464f, 0.009677f, 0.006286f, 
  0.017792f, 0.021684f, 0.001753f, 0.000686f, -0.037318f, 0.001447f, -0.029991f, -0.005598f, 
  -0.019808f, -0.011628f, -0.040808f, -0.017922f, -0.000880f, 0.004927f, -0.000300f, -0.018741f, 
  -0.007530f, -0.000282f, -0.015445f, 0.020001f, -0.025518f, 0.034815f, 0.001030f, -0.013910f, 
  0.011727f, 0.021932f, 0.031442f, 0.000252f, 0.038406f, 0.040437f, 0.017680f, -0.033708f, 
  -0.025222f, -0.000262f, 0.004248f, -0.019255f, -0.027918f, -0.024098f, -0.050851f, -0.026827f, 
  0.011737f, -0.029264f, -0.033664f, 0.000406f, 0.006701f, -0.000611f, -0.016340f, 0.017254f, 
  0.007910f, -0.002565f, -0.006524f, -0.019928f, -0.008020f, 0.031339f, 0.016332f, 0.032794f, 
  0.033576f, 0.028815f, 0.036652f, 0.038745f, -0.034043f, -0.025335f, -0.011435f, -0.022532f, 
  -0.006686f, -0.016186f, -0.031510f, -0.011166f, -0.023896f, 0.010294f, -0.032586f, 0.010627f, 
  -0.000225f, -0.003522f, 0.022892f, -0.005063f, 0.007693f, 0.022785f, 0.025934f, 0.002531f, 
  0.028836f, 0.041304f, 0.026189f, 0.025677f, 0.063288f, 0.007907f, 0.002717f, 0.045141f, 
  0.027876f, -0.034277f, -0.028397f, -0.029793f, -0.001423f, -0.026431f, -0.016288f, -0.026869f, 
  -0.034410f, -0.001786f, -0.006642f, -0.032148f, -0.020481f, -0.023012f, -0.029586f, 0.006524f, 
  -0.007750f, 0.011102f, 0.010693f, -0.006997f, -0.004838f, -0.003143f, 0.010998f, 0.005951f, 
  0.008587f, 0.033194f, 0.037616f, 0.048076f, 0.022470f, 0.049846f, -0.011688f, -0.042911f, 
  0.017905f, 0.015091f, 0.002969f, -0.005315f, 0.000571f, 0.009294f, -0.024938f, -0.040738f, 
  -0.025490f, -0.000472f, -0.011369f, -0.009786f, 0.000090f, -0.013520f, 0.006389f, 0.006706f, 
  0.002975f, -0.001707f, -0.017889f, -0.007391f, 0.035006f, -0.006104f, 0.046024f, 0.028059f, 
  0.043385f, 0.010231f, 0.017835f, -0.044226f, -0.010073f, -0.031954f, -0.006541f, -0.052006f, 
  -0.013068f, -0.011240f, -0.004070f, -0.011605f, -0.006178f, -0.005280f, -0.000881f, 0.009378f, 
  -0.010106f, 0.027775f, 0.011686f, -0.022044f, -0.018687f, 0.027671f, 0.004155f, 0.007649f, 
  0.007943f, -0.006511f, 0.023577f, 0.011042f, 0.049309f, 0.011991f, 0.051140f, 0.050489f, 
  -0.029022f, -0.002736f, 0.001902f, -0.032081f, -0.001459f, -0.020183f, -0.009196f, -0.003027f, 
  -0.026730f, 0.000664f, 0.024989f, 0.017225f, -0.024384f, 0.002191f, 0.011604f, -0.012828f, 
  -0.024428f, -0.008004f, 0.002160f, 0.004672f, 0.026551f, -0.008849f, 0.004558f, 0.015572f, 
  0.038929f, 0.016490f, 0.044000f, 0.016506f, 0.042289f, -0.020445f, -0.022929f, -0.036360f, 
  -0.001913f, -0.024895f, -0.004375f, 0.011086f, -0.006177f, 0.015237f, 0.003112f, 0.000366f, 
  0.014074f, 0.001458f, 0.009846f, 0.028944f, 0.000640f, -0.004230f, 0.017318f, 0.008901f, 
  -0.017709f, 0.009011f, -0.011903f, 0.042810f, -0.005001f, -0.000843f, 0.007772f, 0.016812f, 
  0.031770f, -0.002104f, -0.045113f, -0.018370f, 0.001163f, -0.043276f, -0.032675f, -0.011110f, 
  -0.012762f, -0.026568f, -0.007736f, 0.032392f, -0.004091f, 0.018146f, 0.011620f, -0.001776f, 
  0.011364f, -0.001103f, -0.000167f, 0.009240f, -0.034210f, -0.011528f, -0.015744f, -0.006187f, 
  0.007883f, 0.003993f, 0.025238f, 0.020286f, 0.032837f, 0.023330f, 0.025826f, -0.011934f, 
  -0.017996f, -0.001656f, 0.001908f, 0.009140f, -0.010932f, -0.013907f, 0.002899f, 0.014421f, 
  -0.003388f, 0.012596f, 0.027891f, 0.001394f, 0.039420f, 0.015616f, 0.010629f, -0.016589f, 
  0.011950f, 0.014829f, -0.024056f, 0.018620f, 0.000736f, 0.018627f, -0.022406f, 0.008613f, 
  0.019855f, 0.000147f, 0.029536f, 0.033045f, -0.036573f, 0.001884f, -0.021539f, -0.020148f, 
  0.006188f, -0.011219f, -0.014107f, 0.007768f, 0.017664f, 0.004426f, -0.021655f, 0.014907f, 
  0.036751f, -0.025179f, 0.026213f, 0.011384f, -0.007299f, -0.009584f, 0.030767f, -0.020282f, 
  0.022563f, -0.019979f, 0.010098f, 0.028717f, 0.005244f, 0.022950f, 0.015841f, 0.007158f, 
  0.014148f, -0.036879f, -0.027561f, -0.013636f, 0.003753f, 0.001184f, 0.009800f, 0.004622f, 
  0.007026f, 0.034334f, -0.018358f, 0.012621f, 0.026584f, -0.009984f, 0.009239f, -0.005484f, 
  0.016564f, 0.024286f, -0.015227f, 0.017302f, -0.029264f, -0.013332f, 0.024417f, 0.005369f, 
  0.022390f, 0.029415f, 0.046759f, 0.021498f, 0.044598f, 0.019619f, -0.010505f, 0.018733f, 
  -0.011273f, 0.004093f, 0.001496f, 0.017114f, 0.023702f, 0.037747f, 0.003350f, 0.007077f, 
  -0.010854f, 0.026541f, 0.017358f, 0.034467f, 0.021274f, -0.017191f, 0.003148f, 0.004498f, 
  0.008925f, 0.004968f, -0.000468f, -0.007432f, 0.024469f, -0.009802f, 0.018832f, 0.022130f, 
  0.022485f, 0.024505f, -0.001571f, 0.012746f, 0.008890f, 0.030716f, 0.026643f, 0.041351f, 
  0.031787f, 0.018214f, 0.023407f, 0.032687f, 0.046151f, 0.018854f, 0.014234f, 0.010136f, 
  -0.045955f, -0.024590f, 0.023971f, 0.018798f, 0.002768f, -0.040037f, -0.020818f, -0.035402f, 
  -0.030233f, -0.027831f, 0.018174f, -0.013900f, 0.028519f, -0.020743f, 0.039004f, -0.004693f, 
  0.025903f, 0.029003f, 0.048612f, 0.016049f, 0.000885f, 0.037482f, 0.040618f, 0.021540f, 
  0.042580f, 0.005108f, -0.002953f, -0.036674f, -0.037787f, 0.007276f, 0.029497f, -0.005903f, 
  -0.020052f, -0.021443f, -0.024859f, -0.021646f, -0.024281f, 0.027843f, -0.013833f, -0.018543f, 
  0.018344f, -0.006556f, 0.005329f, 0.020584f, -0.012597f, 0.006275f, 0.008518f, 0.038478f, 
  0.034299f, 0.040065f, -0.015792f, 0.003359f, 0.011496f, -0.013988f, 0.000848f, 0.036846f, 
  0.001558f, -0.015879f, 0.006741f, 0.008764f, 0.021659f, 0.010343f, 0.024661f, 0.012477f, 
  -0.010230f, 0.019721f, 0.019812f, -0.003729f, 0.006747f, 0.022526f, -0.008716f, 0.021446f, 
  0.020178f, -0.001443f, 0.028774f, 0.005926f, 0.062287f, 0.032438f, 0.034922f, 0.033185f, 
  0.013687f, 0.038367f, -0.023193f, -0.022898f, 0.026573f, 0.001668f, -0.013197f, 0.015712f, 
  0.006225f, -0.005782f, 0.014083f, -0.022332f, 0.007704f, -0.008901f, -0.013554f, 0.000123f, 
  0.040755f, 0.051960f, 0.028933f, 0.050369f, -0.010795f, -0.002436f, -0.030099f, 0.032107f, 
  0.034186f, 0.031577f, 0.010174f, 0.010218f, -0.017597f, 0.005722f, -0.008994f, 0.011403f, 
  -0.014922f, -0.011775f, -0.017870f, 0.000436f, 0.010394f, 0.009248f, -0.022856f, -0.038225f, 
  -0.003923f, 0.042172f, 0.036539f, 0.036164f, 0.000872f, 0.019245f, 0.001079f, 0.000669f, 
  0.019995f, -0.000103f, -0.006471f, -0.043723f, 0.042823f, -0.011132f, -0.001506f, 0.031478f, 
  0.013545f, 0.024344f, -0.019266f, 0.003509f, -0.010002f, -0.006909f, -0.004341f, -0.017426f, 
  -0.014034f, -0.012200f, -0.013711f, -0.017627f, 0.008527f, -0.024219f, 0.002474f, 0.005371f, 
  -0.002022f, 0.018962f, 0.030205f, 0.002592f, 0.010453f, -0.009444f, -0.049307f, -0.035380f, 
  -0.000445f, 0.041103f, 0.028570f, 0.028193f, 0.001102f, -0.024823f, -0.005879f, -0.018691f, 
  0.011860f, -0.006627f, -0.004289f, -0.016054f, 0.023956f, 0.012895f, -0.012632f, -0.027847f, 
  -0.038419f, -0.014704f, -0.001669f, 0.019081f, -0.027123f, 0.001741f, -0.030750f, -0.009321f, 
  0.007622f, -0.028869f, -0.003064f, -0.005166f, -0.043916f, -0.001589f, 0.032896f, 0.021156f, 
  0.007297f, 0.024329f, -0.026328f, 0.012322f, -0.011532f, 0.025083f, -0.011161f, 0.001538f, 
  0.007735f, 0.007644f, -0.037968f, 0.006488f, -0.016250f, -0.020657f, 0.006083f, -0.009788f, 
  -0.003491f, -0.022564f, -0.034222f, -0.032874f, -0.033446f, -0.041109f, -0.018764f, -0.051347f, 
  -0.001863f, -0.048998f, -0.023879f, -0.015089f, 0.000152f, -0.001446f, -0.017794f, 0.026436f, 
  0.029699f, -0.008892f, 0.008006f, -0.005442f, -0.002980f, 0.001857f, 0.009201f, -0.022377f, 
  -0.005109f, -0.007757f, 0.023753f, -0.010316f, -0.012390f, -0.000079f, -0.026991f, -0.007517f, 
  -0.028354f, -0.025156f, -0.026948f, -0.011901f, -0.036100f, -0.029469f, -0.027083f, -0.043311f, 
  0.005666f, -0.025560f, -0.022221f, 0.021355f, 0.012964f, -0.009978f, -0.035897f, 0.002207f, 
  0.012785f, -0.036119f, 0.012755f, 0.017181f, -0.008456f, 0.014360f, -0.004825f, 0.013041f, 
  -0.026850f, 0.003779f, 0.001763f, -0.023550f, -0.008078f, -0.025585f, -0.007266f, -0.012292f, 
  -0.018028f, -0.028201f, -0.021324f, -0.015815f, -0.022853f, -0.018579f, -0.015632f, 0.001548f, 
  -0.019417f, 0.005442f, -0.015414f, 0.005098f, -0.026407f, 0.009753f, 0.022698f, 0.016903f, 
  0.019307f, 0.002533f, -0.000167f, -0.011994f, 0.014153f, -0.002179f, -0.023930f, 0.004714f, 
  -0.014397f, -0.026918f, -0.022808f, -0.033108f, -0.021909f, 0.031563f, -0.038431f, 0.010780f, 
  -0.031557f, 0.007549f, 0.015328f, 0.031431f, -0.015754f, -0.018558f, -0.008155f, -0.038334f, 
  -0.010764f, 0.029382f, -0.004612f, 0.032099f, 0.044027f, 0.038042f, 0.007666f, -0.031670f, 
  0.006472f, 0.005653f, -0.023483f, -0.029630f, -0.003756f, -0.027925f, 0.001324f, -0.011766f, 
  0.023227f, -0.038990f, -0.004113f, -0.039383f, -0.007985f, -0.051679f, -0.023166f, -0.023992f, 
  0.016222f, -0.006891f, -0.032873f, -0.011831f, 0.002049f, 0.034540f, 0.020842f, 0.026978f, 
  0.032633f, 0.010910f, -0.001996f, 0.007517f, -0.015258f, -0.011608f, 0.005109f, -0.017739f, 
  -0.030844f, -0.060363f, -0.039171f, -0.022632f, 0.000842f, 0.003055f, -0.002924f, -0.012670f, 
  -0.016434f, -0.020137f, -0.011648f, -0.013933f, -0.023299f, -0.002639f, 0.009456f, 0.016558f, 
  0.005349f, -0.016817f, 0.023043f, -0.000699f, 0.017839f, 0.001698f, -0.005420f, 0.004787f, 
  -0.000284f, 0.008865f, -0.010819f, -0.029011f, -0.022905f, -0.025399f, -0.020481f, -0.016450f, 
  0.004982f, -0.023817f, -0.000330f, -0.001367f, -0.031302f, 0.000978f, -0.042046f, -0.023717f, 
  -0.029467f, 0.001533f, 0.008360f, 0.001194f, -0.022717f, -0.024285f, 0.005442f, -0.001519f, 
  -0.004411f, -0.022353f, 0.039825f, 0.012199f, 0.031806f, -0.035569f, 0.014560f, 0.015416f, 
  -0.020394f, -0.034350f, 0.011262f, -0.006875f, 0.004515f, 0.033431f, -0.040047f, -0.007186f, 
  -0.038803f, -0.025411f, -0.039696f, -0.010327f, -0.043756f, -0.009808f, 0.006993f, 0.013225f, 
  -0.020007f, -0.024497f, 0.016000f, 0.023804f, -0.039373f, 0.024152f, 0.013435f, 0.015448f, 
  0.028504f, -0.010157f, -0.018583f, -0.020359f, -0.011594f, -0.033063f, -0.024220f, 0.001460f, 
  0.017782f, -0.029388f, 0.007185f, -0.048792f, -0.057954f, -0.034839f, -0.012547f, -0.013756f, 
  -0.023499f, -0.018773f, -0.033869f, 0.028005f, 0.001852f, 0.001372f, -0.002238f, -0.015897f, 
  -0.001996f, -0.001160f, 0.002712f, 0.014067f, 0.019234f, 0.000309f, -0.010369f, -0.012184f, 
  0.004100f, -0.006312f, 0.006571f, -0.030140f, 0.005107f, -0.009344f, -0.007886f, -0.008053f, 
  -0.001192f, -0.017718f, 0.000951f, -0.007372f, -0.049576f, -0.046446f, -0.030416f, -0.052107f, 
  0.027441f, -0.010287f, -0.002462f, 0.001622f, 0.031280f, 0.043710f, 0.000499f, -0.004581f, 
  -0.011587f, 0.021367f, -0.017079f, -0.017262f, 0.014245f, 0.032428f, 0.025108f, -0.022655f, 
  -0.015322f, 0.006215f, -0.006996f, -0.058547f, -0.019007f, -0.020349f, 0.018974f, -0.002369f, 
  -0.002306f, 0.000180f, -0.042609f, -0.044393f, -0.009221f, 0.055038f, 0.014014f, 0.021513f, 
  -0.006164f, -0.010067f, -0.000805f, -0.040919f, -0.002463f, -0.018513f, -0.026146f, -0.001674f, 
  -0.020457f, 0.000449f, 0.033694f, -0.010903f, -0.023762f, -0.004203f, 0.004681f, -0.053668f, 
  -0.013405f, -0.008982f, -0.012505f, -0.044627f, -0.029180f, -0.004615f, -0.028661f, -0.023968f, 
  -0.036297f, -0.033331f, -0.003310f, -0.007464f, 0.027730f, -0.020842f, -0.014731f, -0.015337f, 
  -0.002049f, 0.006494f, 0.010013f, 0.015473f, 0.021430f, -0.013078f, -0.025806f, -0.018148f, 
  0.003662f, -0.062111f, -0.006326f, -0.050058f, -0.023734f, 0.007782f, -0.028940f, -0.029965f, 
  0.017306f, -0.005073f, -0.029969f, -0.032294f, -0.025484f, -0.030322f, -0.008755f, 0.020128f, 
  -0.027885f, -0.015162f, -0.032304f, 0.003916f, -0.027110f, 0.018359f, -0.031185f, -0.007084f, 
  -0.008473f, -0.011164f, -0.031782f, 0.006473f, 0.007302f, -0.028476f, -0.020445f, -0.027774f, 
  0.012703f, -0.014855f, -0.010193f, -0.041531f, -0.012344f, -0.009418f, -0.017325f, -0.008280f, 
  -0.019221f, -0.031232f, -0.030828f, -0.029059f, -0.011062f, -0.001471f, -0.010719f, -0.037808f, 
  0.001521f, 0.045738f, -0.002024f, 0.014721f, -0.022559f, -0.027704f, 0.000001f, -0.053370f, 
  -0.027420f, -0.014353f, -0.035156f, 0.006577f, -0.004198f, 0.002227f, 0.018984f, 0.003963f, 
  -0.013326f, -0.038143f, -0.038868f, -0.002342f, 0.000963f, -0.031612f, -0.041373f, -0.020507f, 
  -0.026660f, 0.020682f, -0.006673f, 0.000692f, 0.029563f, 0.003370f, 0.021799f, 0.002384f, 
  0.001153f, -0.005729f, -0.016191f, 0.007681f, -0.021866f, -0.017030f, 0.000269f, -0.023098f, 
  -0.024419f, 0.001453f, 0.018895f, -0.043742f, -0.013171f, 0.002464f, -0.015107f, -0.017082f, 
  0.016842f, -0.024754f, -0.018292f, -0.037906f, -0.015889f, -0.041338f, -0.008636f, 0.006492f, 
  0.024401f, 0.044918f, 0.004789f, 0.002673f, 0.005136f, -0.018560f, -0.025279f, -0.015601f, 
  -0.025483f, 0.009715f, -0.038389f, -0.002697f, 0.015370f, -0.004711f, -0.043451f, -0.018061f, 
  -0.011591f, -0.004133f, -0.034046f, -0.032759f, 0.006407f, -0.028036f, -0.043430f, -0.002048f, 
  -0.013852f, -0.045556f, -0.039131f, -0.023576f, 0.025616f, 0.026406f, 0.034198f, 0.000955f, 
  0.013988f, -0.021495f, -0.015937f, -0.023221f, -0.016485f, -0.023651f, -0.002835f, -0.050209f, 
  -0.019661f, -0.002674f, -0.007223f, -0.002867f, 0.011799f, -0.018291f, -0.003211f, -0.022523f, 
  0.013718f, -0.010785f, -0.035655f, -0.014851f, 0.015964f, -0.019313f, -0.015020f, -0.013581f, 
  0.019856f, 0.010064f, -0.007666f, 0.023525f, -0.026470f, 0.020546f, -0.002075f, 0.028828f, 
  0.000896f, -0.012357f, -0.028412f, -0.030187f, -0.004980f, 0.003480f, -0.035666f, -0.015194f, 
  -0.001656f, 0.019924f, -0.011918f, -0.021412f, 0.002239f, 0.000503f, 0.000980f, 0.003924f, 
  0.003052f, 0.016797f, 0.006227f, -0.024427f, -0.023942f, 0.010028f, 0.000492f, -0.027904f, 
  -0.021037f, -0.018387f, 0.017194f, 0.015471f, -0.003679f, 0.006004f, -0.017450f, -0.036372f, 
  -0.017927f, -0.020800f, -0.005006f, -0.037099f, 0.000338f, -0.030098f, 0.006246f, -0.034506f, 
  -0.006666f, 0.001158f, -0.037772f, -0.005278f, 0.007218f, -0.003760f, 0.021677f, -0.031239f, 
  -0.031927f, -0.029098f, -0.000374f, -0.014745f, -0.004644f, 0.002315f, 0.014561f, 0.006673f, 
  -0.018845f, -0.005806f, -0.013529f, 0.003678f, 0.002349f, -0.008494f, 0.000889f, 0.014819f, 
  -0.023211f, -0.023265f, -0.010114f, -0.026276f, 0.000139f, -0.003630f, 0.006567f, -0.014811f, 
  -0.012077f, 0.004179f, -0.002024f, -0.013985f, -0.046666f, -0.004382f, -0.007219f, 0.000943f, 
  0.001655f, 0.001133f, 0.005592f, -0.025280f, -0.006566f, -0.003637f, -0.045351f, -0.021878f, 
  -0.043153f, -0.047260f, 0.004325f, -0.011763f, -0.048144f, 0.010575f, -0.033505f, -0.028183f, 
  -0.018699f, 0.023789f, 0.005808f, -0.006531f, -0.003319f, -0.014792f, -0.016800f, 0.006253f, 
  -0.020774f, 0.008345f, -0.004393f, -0.005114f, -0.009365f, -0.034649f, -0.006162f, -0.039659f, 
  -0.016273f, 0.008720f, -0.016722f, -0.026906f, -0.047432f, -0.003905f, -0.032495f, -0.018782f, 
  0.003680f, 0.006982f, -0.024194f, 0.013930f, 0.018529f, 0.021632f, 0.014843f, 0.020401f, 
  0.002732f, 0.032551f, 0.035284f, 0.041714f, 0.011481f, 0.025489f, -0.014650f, 0.002301f, 
  0.033124f, -0.052202f, -0.024086f, -0.008583f, -0.003526f, -0.029943f, -0.011024f, -0.013170f, 
  -0.008354f, -0.028688f, -0.005232f, -0.019046f, -0.011994f, -0.014557f, 0.003362f, -0.013483f, 
  0.010239f, -0.000938f, 0.022041f, 0.018383f, 0.039642f, 0.042938f, 0.042521f, 0.008593f, 
  0.038755f, 0.001075f, -0.023680f, -0.004654f, 0.011182f, -0.023053f, -0.045011f, 0.000880f, 
  -0.027936f, -0.010198f, -0.022875f, 0.008360f, -0.035691f, 0.008483f, 0.027051f, -0.035355f, 
  0.010819f, 0.009661f, -0.000947f, 0.011758f, -0.008110f, -0.008975f, -0.015973f, -0.009307f, 
  -0.009706f, 0.026421f, 0.011816f, 0.004614f, 0.008943f, 0.014768f, -0.017455f, -0.004789f, 
  -0.014566f, 0.014271f, 0.015492f, -0.013163f, -0.037456f, -0.026418f, -0.044939f, -0.016335f, 
  -0.012004f, -0.006922f, -0.000118f, -0.020336f, 0.016029f, -0.036714f, 0.001593f, -0.025012f, 
  0.016115f, -0.011052f, 0.003424f, -0.008259f, 0.014774f, -0.003294f, -0.002179f, -0.014238f, 
  0.022247f, -0.015439f, 0.008800f, 0.004294f, -0.012511f, 0.017225f, 0.034151f, -0.000539f, 
  -0.001209f, -0.005791f, -0.028229f, 0.009997f, -0.007125f, -0.011709f, -0.003118f, -0.029922f, 
  -0.015610f, -0.011149f, 0.016912f, -0.008149f, -0.013663f, -0.028358f, 0.003823f, 0.003577f, 
  -0.023075f, -0.007811f, 0.001775f, -0.010961f, -0.025388f, 0.006629f, -0.015290f, -0.015042f, 
  0.007859f, 0.013143f, 0.010213f, -0.007813f, -0.019723f, -0.029309f, -0.048712f, -0.044556f, 
  -0.019111f, -0.007880f, -0.009702f, 0.022562f, -0.005093f, -0.038978f, -0.013005f, 0.000731f, 
  0.016818f, -0.027412f, 0.010172f, 0.026085f, -0.000473f, -0.035959f, -0.007944f, -0.005749f, 
  -0.035437f, -0.014765f, -0.021494f, -0.007401f, 0.012861f, 0.011308f, 0.024999f, 0.011647f, 
  0.020809f, -0.011974f, 0.006005f, -0.026194f, 0.007297f, -0.005751f, -0.025388f, -0.015253f, 
  -0.043904f, -0.008739f, 0.025621f, -0.005470f, -0.019114f, 0.021278f, -0.025097f, 0.023380f, 
  -0.011153f, -0.002842f, -0.020853f, 0.005173f, 0.003321f, 0.004266f, 0.000542f, -0.027137f, 
  -0.000730f, 0.000612f, -0.001589f, 0.017864f, 0.019719f, -0.005610f, -0.010121f, -0.015951f, 
  -0.009247f, 0.001764f, -0.011529f, -0.015819f, -0.029287f, 0.002707f, 0.019581f, 0.012641f, 
  0.028020f, -0.008705f, 0.024636f, 0.000754f, 0.014801f, -0.006818f, -0.010748f, -0.034477f, 
  0.022657f, -0.011920f, -0.009197f, 0.013147f, -0.028561f, -0.005815f, 0.042931f, 0.030126f, 
  0.021355f, 0.016639f, -0.001012f, -0.004753f, -0.019507f, -0.010588f, -0.010784f, -0.005141f, 
  0.003716f, -0.006512f, -0.008819f, 0.014953f, -0.039839f, -0.032919f, -0.000117f, -0.031231f, 
  -0.022091f, -0.007955f, -0.008791f, -0.028240f, -0.014943f, -0.017414f, -0.029802f, 0.007216f, 
  -0.005448f, -0.002039f, 0.013874f, -0.006890f, -0.000312f, 0.028162f, -0.006857f, 0.017646f, 
  0.032414f, -0.023484f, -0.020259f, -0.033665f, 0.019688f, 0.005713f, 0.014235f, -0.014230f, 
  -0.015518f, -0.001950f, -0.009503f, -0.010988f, -0.018725f, 0.005564f, 0.012412f, -0.022594f, 
  -0.054369f, -0.020228f, -0.015051f, -0.038169f, -0.021496f, 0.026857f, 0.000063f, 0.016936f, 
  0.015719f, 0.023841f, 0.000222f, -0.015200f, 0.005106f, -0.020448f, -0.004178f, -0.009399f, 
  -0.026141f, -0.011906f, -0.004434f, -0.002520f, 0.000390f, -0.026757f, -0.006540f, -0.024298f, 
  -0.014842f, 0.003228f, -0.013348f, -0.010369f, -0.016011f, -0.032073f, -0.028468f, -0.022553f, 
  0.004416f, -0.006014f, 0.003552f, 0.023066f, 0.015099f, 0.018846f, -0.011381f, -0.000233f, 
  -0.006154f, 0.031099f, -0.001294f, -0.009825f, -0.028588f, 0.016057f, 0.018406f, 0.005019f, 
  -0.016089f, 0.011313f, -0.036998f, -0.050641f, -0.024814f, -0.014029f, -0.048288f, -0.015340f, 
  -0.007851f, -0.038472f, -0.018889f, 0.011059f, 0.005740f, -0.017316f, 0.011174f, 0.027173f, 
  0.002194f, 0.009818f, -0.013601f, 0.012409f, 0.039230f, 0.034851f, 0.023181f, 0.026228f, 
  0.001430f, 0.034923f, -0.010057f, -0.017160f, 0.032792f, -0.001009f, 0.003146f, -0.042723f, 
  -0.029463f, -0.019847f, -0.036616f, -0.034756f, -0.034988f, -0.041255f, -0.014927f, 0.019952f, 
  0.003102f, 0.008643f, 0.014692f, 0.001598f, 0.024346f, 0.009386f, -0.008220f, 0.009773f, 
  0.006964f, 0.050066f, 0.008070f, 0.031504f, 0.032501f, 0.015783f, -0.022892f, 0.027069f, 
  0.023052f, 0.016697f, 0.003728f, -0.003282f, -0.002703f, 0.000074f, -0.054881f, -0.052534f, 
  -0.010798f, 0.004204f, -0.021400f, 0.022271f, 0.009697f, -0.021104f, 0.007488f, 0.016182f, 
  0.027496f, 0.015651f, 0.009051f, 0.042638f, 0.024727f, 0.016448f, 0.011872f, 0.010058f, 
  0.033306f, 0.022759f, -0.005376f, -0.006556f, 0.003066f, -0.024217f, 0.005351f, 0.013786f, 
  -0.026206f, -0.030270f, 0.005067f, -0.044317f, -0.031883f, -0.010334f, -0.020279f, -0.020342f, 
  0.003266f, 0.010670f, -0.015437f, 0.000177f, 0.017984f, -0.007879f, -0.005546f, 0.001721f, 
  0.006104f, 0.001692f, 0.008243f, 0.023677f, 0.034512f, 0.028149f, 0.058281f, 0.018620f, 
  0.006095f, -0.028627f, -0.037019f, 0.011479f, -0.042145f, -0.030593f, -0.033760f, -0.026519f, 
  -0.001335f, 0.004553f, -0.028789f, 0.001407f, -0.030559f, -0.010340f, -0.024132f, -0.011308f, 
  0.006113f, -0.011812f, 0.027348f, 0.030256f, -0.000207f, 0.038241f, 0.024628f, 0.031165f, 
  0.011190f, 0.012585f, 0.026603f, 0.016862f, -0.024992f, -0.026043f, -0.029211f, -0.028397f, 
  -0.036514f, -0.031756f, -0.001284f, -0.016967f, -0.014634f, -0.036800f, -0.016221f, -0.032302f, 
  -0.018034f, 0.020404f, -0.011016f, 0.027636f, -0.012823f, 0.034633f, 0.029992f, 0.005197f, 
  0.012568f, 0.014246f, 0.004409f, 0.033230f, 0.010119f, 0.033709f, 0.024971f, 0.033821f, 
  0.010476f, -0.047907f, -0.021596f, -0.006458f, -0.003610f, -0.017819f, -0.036410f, 0.000483f, 
  -0.047823f, -0.012028f, -0.015749f, -0.006737f, -0.003850f, 0.016622f, -0.037554f, -0.013831f, 
  -0.020258f, -0.003681f, 0.016874f, -0.007503f, 0.015337f, 0.038852f, 0.026946f, -0.017695f, 
  0.020597f, 0.032960f, 0.031202f, 0.010937f, 0.028147f, -0.001429f, -0.017196f, -0.045406f, 
  -0.024368f, -0.022445f, -0.022725f, -0.023120f, -0.011418f, -0.032263f, -0.042801f, -0.036014f, 
  -0.014041f, -0.000307f, -0.035488f, -0.027752f, 0.019087f, -0.021154f, 0.024689f, 0.044784f, 
  -0.006467f, 0.037360f, 0.016390f, -0.003602f, 0.025554f, -0.018636f, 0.020157f, 0.024424f, 
  0.045891f, 0.043424f, 0.033566f, -0.023160f, -0.025356f, -0.036081f, -0.025321f, -0.056042f, 
  -0.029813f, -0.008939f, -0.004083f, -0.037325f, -0.022741f, 0.021340f, -0.004203f, 0.038115f, 
  0.004757f, -0.012288f, 0.001858f, 0.026326f, 0.028138f, 0.018390f, 0.017206f, 0.029370f, 
  0.013891f, 0.021457f, 0.041498f, 0.037095f, 0.062660f, 0.032679f, 0.040297f, 0.060136f, 
  -0.005144f, -0.016137f, -0.016567f, -0.044000f, -0.031541f, -0.013503f, 0.000307f, -0.048305f, 
  -0.018960f, 0.005166f, -0.009190f, 0.011400f, 0.023750f, 0.011201f, 0.014990f, 0.003098f, 
  -0.005801f, -0.002378f, -0.014999f, 0.011798f, 0.005951f, 0.002572f, 0.009015f, 0.032296f, 
  0.023648f, 0.023638f, 0.018705f, 0.034431f, 0.032208f, -0.032746f, -0.027669f, -0.015377f, 
  0.006411f, -0.040440f, 0.000122f, 0.010054f, -0.014429f, 0.008489f, -0.017470f, 0.005845f, 
  -0.003585f, -0.024966f, 0.005624f, -0.009226f, -0.016082f, -0.003368f, 0.034874f, -0.004695f, 
  0.021941f, 0.003509f, 0.032654f, 0.008077f, 0.011112f, 0.006995f, -0.003132f, 0.032244f, 
  0.021975f, 0.031031f, -0.032990f, -0.000994f, -0.024884f, -0.031206f, 0.002305f, -0.003536f, 
  0.002877f, -0.015891f, 0.022207f, 0.019385f, 0.006956f, 0.041076f, 0.020360f, -0.010215f, 
  -0.008194f, 0.001132f, -0.014327f, -0.024118f, -0.018899f, 0.020334f, 0.012152f, -0.016473f, 
  -0.004085f, 0.023970f, 0.012846f, 0.051204f, 0.014477f, 0.029229f, 0.070790f, -0.052670f, 
  -0.030892f, -0.007846f, -0.027289f, -0.016857f, 0.023273f, -0.007189f, 0.006188f, -0.014863f, 
  0.028094f, -0.004056f, 0.000167f, 0.036658f, -0.021426f, 0.014389f, 0.001058f, 0.006095f, 
  0.011190f, -0.009257f, 0.016422f, -0.000079f, 0.009115f, 0.003584f, 0.007871f, 0.003043f, 
  0.030883f, 0.039053f, 0.003532f, 0.031759f, -0.021952f, -0.026606f, -0.041839f, -0.036941f, 
  0.028106f, -0.018682f, -0.014302f, 0.021018f, 0.000652f, 0.012348f, 0.004692f, 0.009441f, 
  -0.002035f, -0.014528f, 0.017420f, -0.019467f, 0.010948f, -0.008183f, 0.019174f, 0.005597f, 
  0.000700f, 0.018489f, 0.021907f, 0.023285f, 0.012444f, 0.007958f, 0.008342f, 0.033615f, 
  0.052823f, -0.049355f, -0.003888f, -0.030650f, -0.009677f, -0.005914f, -0.039065f, 0.016318f, 
  -0.009924f, -0.023013f, 0.028990f, -0.013536f, 0.011110f, -0.010946f, 0.016248f, 0.013979f, 
  0.021822f, -0.021989f, -0.023517f, 0.006244f, -0.011273f, 0.008900f, -0.010675f, 0.026886f, 
  0.015405f, 0.004844f, 0.030860f, 0.015369f, 0.034011f, 0.052857f, -0.025341f, 0.009142f, 
  -0.005699f, -0.010746f, -0.030391f, 0.000917f, -0.006896f, -0.012375f, 0.051731f, -0.011663f, 
  0.015830f, 0.005123f, 0.022193f, 0.032728f, -0.027103f, 0.026688f, 0.008470f, -0.001411f, 
  -0.019652f, 0.010682f, -0.016880f, -0.009561f, -0.003476f, 0.008283f, -0.007191f, 0.015842f, 
  -0.015410f, -0.011451f, 0.028154f, -0.016245f, -0.006020f, -0.027373f, -0.005900f, -0.012310f, 
  -0.002813f, -0.001455f, -0.006830f, 0.014757f, 0.000397f, -0.002738f, 0.010108f, -0.008818f, 
  0.008810f, -0.009062f, 0.021873f, -0.009540f, 0.012222f, 0.025902f, -0.034279f, -0.004460f, 
  0.006452f, 0.017813f, 0.010873f, -0.002149f, -0.000670f, 0.015588f, 0.029998f, 0.013968f, 
  -0.002526f, -0.000386f, 0.000290f, -0.003631f, -0.015719f, 0.017413f, 0.010980f, 0.025903f, 
  0.012225f, 0.005752f, 0.011435f, 0.023022f, 0.009347f, 0.033695f, 0.015649f, 0.015855f, 
  0.014004f, -0.010549f, 0.001438f, 0.018992f, 0.013761f, 0.009725f, -0.023487f, -0.002345f, 
  -0.015188f, 0.031923f, 0.002496f, 0.002566f, -0.001938f, -0.025786f, -0.049773f, -0.028983f, 
  -0.007358f, 0.004062f, -0.011471f, -0.012391f, -0.019746f, -0.034816f, -0.014820f, -0.030098f, 
  -0.008884f, 0.022240f, 0.032587f, 0.000712f, 0.017239f, -0.001185f, 0.004540f, 0.021055f, 
  0.013063f, -0.011446f, 0.031963f, 0.016239f, 0.047348f, 0.021449f, 0.020909f, 0.020666f, 
  0.028656f, 0.003327f, -0.020077f, -0.006000f, -0.025645f, -0.028167f, -0.039545f, -0.027148f, 
  -0.022990f, -0.013764f, -0.004380f, -0.020059f, -0.023312f, 0.002739f, 0.028536f, -0.012432f, 
  0.008988f, 0.013656f, 0.012884f, 0.017947f, 0.039475f, 0.042616f, 0.007635f, 0.003057f, 
  0.014122f, 0.034855f, -0.010127f, 0.009717f, -0.025913f, 0.024674f, -0.005038f, -0.016855f, 
  -0.018742f, 0.009946f, -0.042354f, -0.010469f, -0.015457f, -0.039498f, -0.006167f, -0.001574f, 
  -0.003898f, -0.013597f, 0.026573f, 0.002562f, -0.004238f, -0.021079f, -0.015449f, -0.008185f, 
  0.010212f, -0.002644f, 0.000838f, 0.013655f, 0.013863f, -0.021491f, 0.016122f, 0.002172f, 
  0.001005f, -0.023647f, -0.004868f, 0.021797f, -0.030251f, -0.019288f, -0.018803f, 0.000294f, 
  -0.041069f, -0.021210f, 0.001275f, -0.013390f, 0.007726f, -0.023428f, -0.001409f, 0.001176f, 
  0.033188f, -0.005706f, -0.011337f, -0.003481f, 0.023100f, 0.031692f, -0.019947f, 0.001151f, 
  -0.002142f, -0.010250f, 0.018470f, 0.030995f, -0.020726f, -0.012379f, -0.005963f, 0.003705f, 
  -0.000118f, -0.014733f, -0.033549f, -0.036514f, -0.000767f, -0.014924f, -0.022597f, 0.018893f, 
  -0.021446f, -0.017333f, -0.033186f, 0.011639f, -0.027682f, -0.002185f, 0.012368f, -0.004080f, 
  -0.006875f, 0.011072f, -0.021295f, -0.001511f, -0.005120f, -0.037190f, -0.026793f, -0.030412f, 
  -0.001227f, -0.011224f, -0.010045f, -0.000446f, 0.009564f, -0.003638f, -0.007795f, -0.030754f, 
  -0.002601f, -0.022776f, -0.036500f, -0.037886f, -0.007050f, 0.016953f, -0.018558f, -0.007983f, 
  0.009176f, -0.003224f, 0.000476f, -0.010539f, 0.015383f, 0.015732f, -0.008404f, -0.015418f, 
  -0.023966f, -0.004540f, -0.023539f, 0.009506f, -0.043716f, -0.042023f, -0.035010f, -0.006276f, 
  -0.006772f, 0.025390f, 0.020294f, -0.023364f, -0.019266f, 0.002035f, -0.027097f, -0.022436f, 
  -0.027357f, -0.002885f, -0.013876f, 0.001624f, 0.012494f, -0.005441f, 0.008981f, -0.001876f, 
  -0.006145f, 0.002988f, 0.023588f, 0.003640f, -0.038269f, 0.002220f, -0.021717f, -0.025686f, 
  -0.031670f, -0.013251f, -0.027390f, -0.019120f, 0.009483f, 0.008781f, 0.013573f, -0.010314f, 
  -0.014735f, -0.038304f, -0.022012f, 0.011415f, -0.020357f, -0.028823f, 0.016247f, -0.000166f, 
  0.019150f, 0.007161f, 0.000845f, -0.007738f, -0.005423f, 0.024000f, -0.016856f, 0.012569f, 
  0.004403f, -0.005904f, 0.011911f, -0.016436f, -0.006382f, -0.005956f, 0.016958f, -0.012121f, 
  0.002519f, 0.016994f, 0.030403f, -0.025435f, -0.037964f, -0.029904f, 0.015193f, -0.027075f, 
  0.006320f, 0.010345f, -0.006319f, -0.000025f, -0.003402f, -0.016290f, -0.008674f, 0.012153f, 
  -0.019574f, -0.013011f, -0.002408f, -0.016576f, -0.023275f, -0.002316f, -0.014099f, -0.005659f, 
  0.027954f, -0.037137f, 0.022660f, 0.016059f, -0.014817f, 0.047541f, -0.026584f, 0.016195f, 
  0.034906f, -0.013539f, -0.019906f, -0.047727f, -0.019503f, -0.007486f, 0.004189f, -0.020254f, 
  -0.000371f, -0.001148f, -0.021387f, -0.031159f, -0.010414f, -0.039091f, 0.007285f, -0.036545f, 
  0.013039f, 0.007421f, -0.023082f, 0.010347f, -0.034052f, -0.042640f, 0.024650f, 0.005801f, 
  -0.020111f, -0.012970f, 0.024865f, -0.027553f, -0.003980f, 0.010211f, -0.021395f, 0.007726f, 
  -0.033685f, -0.036249f, -0.022967f, 0.012982f, -0.004526f, 0.005062f, -0.008376f, 0.023594f, 
  0.006733f, -0.008214f, -0.002990f, -0.032931f, 0.006555f, 0.002552f, -0.020078f, -0.000928f, 
  0.002120f, 0.006447f, 0.032517f, 0.023879f, 0.016506f, 0.003479f, 0.024474f, 0.031236f, 
  0.002068f, 0.045382f, 0.012754f, 0.020778f, -0.014127f, 0.019109f, -0.016252f, -0.019287f, 
  0.000238f, -0.004801f, -0.011620f, 0.002734f, -0.052922f, -0.010665f, -0.027796f, -0.007538f, 
  -0.038317f, -0.040819f, 0.006786f, -0.022819f, -0.020435f, -0.004900f, 0.010464f, 0.010858f, 
  0.032827f, -0.000628f, -0.008417f, -0.002992f, 0.009923f, 0.014843f, 0.040715f, 0.030415f, 
  0.010156f, -0.012615f, -0.029425f, 0.022665f, -0.016983f, -0.012648f, -0.013042f, -0.013058f, 
  -0.004216f, 0.002071f, 0.009750f, -0.029387f, -0.028310f, -0.022321f, -0.013943f, -0.031881f, 
  -0.007237f, -0.036782f, 0.001994f, -0.012353f, 0.005511f, 0.014518f, 0.005418f, 0.012593f, 
  0.030751f, -0.003123f, 0.014420f, 0.047374f, -0.013759f, -0.005689f, -0.008968f, -0.021075f, 
  -0.007265f, -0.009161f, -0.032514f, 0.012283f, -0.017077f, -0.011626f, -0.025654f, -0.027138f, 
  -0.027566f, -0.025567f, -0.025394f, -0.021835f, -0.011790f, -0.021804f, 0.001604f, -0.005052f, 
  0.011927f, 0.012004f, -0.010385f, -0.002421f, 0.015778f, 0.009838f, 0.012861f, -0.010892f, 
  0.044445f, 0.020360f, 0.023324f, -0.028382f, 0.002814f, 0.002971f, -0.030650f, -0.015697f, 
  -0.036404f, 0.004380f, -0.034945f, -0.043053f, -0.029146f, -0.037362f, -0.009356f, -0.031857f, 
  -0.027970f, -0.013071f, -0.004876f, 0.006188f, 0.027039f, 0.011146f, -0.010459f, 0.000740f, 
  0.046078f, -0.002470f, 0.038573f, -0.002469f, 0.000986f, 0.018935f, 0.011241f, 0.038575f, 
  -0.004969f, -0.016549f, -0.009108f, -0.029000f, 0.010032f, 0.013466f, -0.027449f, -0.029531f, 
  0.006369f, -0.029546f, -0.011757f, -0.014490f, -0.048347f, 0.008623f, 0.008682f, -0.008102f, 
  -0.007849f, 0.018796f, 0.018191f, 0.017207f, 0.003302f, -0.006330f, 0.011096f, 0.002188f, 
  0.015015f, 0.019419f, 0.051729f, 0.011103f, 0.052630f, -0.027555f, -0.011896f, -0.021858f, 
  -0.013996f, -0.014134f, -0.034655f, -0.012379f, -0.039097f, -0.029928f, -0.036013f, -0.037474f, 
  -0.014123f, 0.006842f, -0.033902f, -0.025032f, 0.030108f, -0.000475f, -0.007215f, -0.009967f, 
  -0.027377f, 0.025160f, -0.000125f, 0.002370f, 0.000453f, 0.036886f, 0.019577f, 0.040162f, 
  0.020348f, 0.005520f, -0.012606f, -0.012478f, -0.001463f, -0.041970f, -0.033468f, -0.030771f, 
  -0.018435f, -0.024369f, -0.015328f, -0.014084f, 0.011775f, 0.011995f, -0.021214f, -0.002649f, 
  0.022233f, -0.018922f, 0.011889f, 0.029090f, -0.008384f, -0.011579f, 0.002325f, 0.016549f, 
  -0.001464f, 0.020416f, 0.001278f, -0.004703f, 0.025636f, 0.018268f, 0.047373f, -0.012821f, 
  -0.015514f, -0.025859f, -0.013860f, -0.033616f, -0.012603f, -0.029081f, -0.029228f, -0.025690f, 
  0.016117f, -0.031019f, 0.003357f, -0.028818f, -0.018837f, -0.010869f, 0.006896f, -0.025308f, 
  0.005026f, 0.023273f, -0.002485f, 0.029800f, 0.016435f, 0.008068f, 0.031511f, 0.029084f, 
  -0.006426f, 0.046130f, 0.019554f, 0.018145f, -0.011633f, -0.042856f, -0.007234f, -0.016522f, 
  -0.039120f, -0.007455f, -0.049016f, 0.001074f, -0.059199f, -0.005578f, -0.018742f, -0.013248f, 
  -0.015459f, -0.025327f, -0.011010f, -0.024879f, -0.003673f, -0.017380f, 0.000488f, -0.008286f, 
  -0.005321f, -0.014360f, 0.004902f, 0.019184f, 0.040622f, 0.023149f, 0.005801f, 0.009847f, 
  0.067562f, -0.024216f, -0.032654f, -0.019420f, -0.009373f, -0.013609f, -0.016987f, -0.021940f, 
  -0.001150f, -0.029904f, -0.004089f, -0.028171f, 0.010613f, -0.011523f, -0.010393f, 0.028159f, 
  0.008691f, 0.002749f, -0.009820f, 0.014099f, 0.025393f, 0.014473f, 0.021633f, 0.027430f, 
  0.023758f, 0.014976f, 0.028904f, 0.028403f, 0.061748f, 0.035315f, -0.004517f, -0.014081f, 
  0.008747f, 0.011229f, 0.003693f, 0.003193f, 0.018397f, 0.016837f, -0.009679f, -0.003259f, 
  -0.014249f, 0.008016f, -0.025568f, 0.014772f, -0.023915f, 0.019791f, -0.003938f, 0.030261f, 
  0.008550f, -0.026186f, -0.011667f, -0.022975f, -0.007884f, 0.037719f, 0.014135f, 0.009101f, 
  0.035754f, 0.029369f, 0.008762f, -0.024822f, -0.023735f, 0.003221f, -0.039429f, -0.012927f, 
  -0.024856f, -0.025607f, 0.003229f, 0.002328f, -0.001156f, -0.015306f, 0.002385f, -0.009279f, 
  0.023628f, 0.022450f, -0.028735f, -0.004860f, 0.013349f, 0.002342f, 0.017124f, 0.011313f, 
  0.008870f, 0.009471f, -0.019284f, 0.013541f, 0.029773f, 0.015569f, 0.017137f, 0.053150f, 
  -0.015322f, 0.005248f, -0.014673f, -0.005319f, -0.032884f, 0.005056f, 0.006752f, 0.007236f, 
  -0.001422f, 0.011407f, -0.027314f, 0.024373f, 0.001337f, -0.010051f, 0.007066f, 0.028221f, 
  0.008485f, 0.008026f, -0.013114f, -0.006993f, 0.024010f, -0.019362f, -0.000845f, -0.013186f, 
  0.000935f, 0.035290f, 0.010720f, 0.015310f, 0.029244f, -0.002480f, -0.005402f, -0.035517f, 
  0.003855f, -0.035191f, 0.009472f, -0.016156f, -0.008783f, 0.009245f, -0.011612f, -0.006212f, 
  0.025610f, -0.000744f, -0.009593f, -0.019898f, 0.017965f, -0.019259f, -0.011543f, 0.010287f, 
  0.007429f, 0.011142f, 0.033399f, 0.004806f, 0.048447f, 0.037775f, -0.001735f, 0.017343f, 
  0.009115f, 0.014965f, 0.006807f, -0.003007f, -0.019032f, -0.001502f, 0.034660f, 0.003655f, 
  0.025762f, -0.020752f, -0.003730f, 0.017626f, 0.041626f, 0.003131f, 0.003626f, -0.020902f, 
  -0.004973f, 0.012837f, -0.016108f, 0.006908f, 0.027970f, -0.009339f, -0.026143f, -0.002998f, 
  0.002762f, 0.014699f, 0.007155f, -0.010918f, 0.035763f, 0.018481f, 0.020840f, -0.007463f, 
  0.005181f, 0.012159f, -0.003355f, -0.003976f, -0.022806f, 0.002463f, 0.002348f, 0.008404f, 
  0.016382f, 0.017610f, 0.014118f, -0.005219f, 0.039993f, 0.005181f, -0.008227f, 0.043057f, 
  0.011076f, 0.011794f, 0.012734f, 0.045009f, 0.011106f, -0.017542f, 0.031075f, 0.019026f, 
  -0.007076f, 0.003866f, -0.006943f, 0.037225f, -0.016775f, -0.008711f, -0.038196f, -0.017278f, 
  0.003624f, -0.013504f, 0.023576f, 0.017609f, 0.009143f, 0.017948f, 0.023272f, -0.000674f, 
  0.015214f, -0.016191f, 0.009952f, 0.024091f, 0.027582f, -0.010477f, -0.010813f, 0.028199f, 
  -0.009550f, 0.000129f, -0.026568f, 0.012028f, -0.002725f, -0.011314f, 0.008196f, 0.032702f, 
  0.038266f, -0.039240f, -0.021937f, -0.010976f, 0.003887f, -0.014233f, 0.005734f, 0.004590f, 
  0.009633f, -0.010419f, 0.009917f, 0.030051f, 0.012404f, 0.005583f, 0.035421f, 0.001929f, 
  -0.004550f, 0.007347f, 0.012545f, -0.010015f, 0.036052f, 0.016189f, -0.002042f, -0.001121f, 
  -0.019371f, 0.022710f, 0.027948f, -0.008524f, -0.005837f, 0.015063f, 0.016621f, 0.009973f, 
  0.023393f, -0.010399f, 0.042188f, 0.034620f, 0.030032f, 0.000324f, 0.021458f, -0.011191f, 
  0.018397f, 0.026951f, -0.012773f, 0.016567f, -0.003383f, -0.000125f, -0.017467f, 0.007313f, 
  -0.020918f, 0.021302f, -0.015788f, 0.013567f, -0.020740f, -0.019631f, -0.035015f, -0.033893f, 
  -0.017812f, -0.035713f, -0.038660f, 0.038093f, 0.012194f, 0.000166f, 0.022284f, 0.003826f, 
  0.022256f, -0.016963f, 0.007586f, 0.007835f, 0.005211f, -0.016774f, -0.016252f, -0.024397f, 
  -0.008051f, 0.010669f, 0.026795f, 0.008189f, -0.017406f, -0.016020f, -0.000083f, -0.031086f, 
  -0.044260f, -0.021569f, -0.007505f, 0.006455f, -0.002556f, 0.022697f, -0.033951f, -0.009320f, 
  0.030671f, 0.004392f, 0.022250f, 0.027973f, 0.048385f, 0.004773f, 0.035114f, 0.005304f, 
  -0.017105f, 0.021007f, -0.002668f, 0.015866f, 0.024762f, 0.005199f, -0.004868f, -0.014668f, 
  -0.022341f, -0.011117f, -0.019660f, -0.010956f, 0.000704f, -0.000107f, -0.014641f, -0.018753f, 
  -0.001671f, -0.008374f, -0.022043f, -0.031395f, -0.009354f, 0.029796f, 0.028378f, 0.020330f, 
  0.011130f, 0.005407f, 0.026664f, 0.014729f, 0.027346f, 0.021583f, 0.016024f, -0.015334f, 
  0.000518f, -0.009231f, 0.015311f, 0.005488f, -0.028940f, 0.025285f, -0.005679f, -0.010083f, 
  -0.004949f, -0.000491f, -0.000566f, 0.001369f, 0.020060f, 0.028535f, 0.015437f, -0.004334f, 
  -0.007739f, -0.041479f, 0.034111f, 0.021652f, 0.011646f, 0.003171f, 0.026830f, 0.011385f, 
  0.034039f, 0.016861f, -0.017202f, -0.010691f, 0.013092f, -0.005652f, 0.015497f, -0.020692f, 
  0.007351f, 0.016489f, 0.026001f, -0.012840f, -0.000314f, -0.020358f, -0.007794f, 0.018265f, 
  -0.021592f, 0.011037f, 0.007262f, -0.024899f, -0.020637f, -0.005588f, -0.024676f, 0.031960f, 
  0.021507f, 0.022735f, 0.032249f, 0.024772f, 0.017748f, 0.025881f, 0.011339f, -0.011893f, 
  0.013394f, -0.004746f, -0.021831f, 0.016576f, 0.014942f, -0.010917f, 0.012886f, -0.023589f, 
  0.000871f, 0.000690f, 0.006010f, 0.023087f, -0.003639f, 0.009531f, 0.002048f, 0.031867f, 
  0.006101f, 0.016347f, -0.021453f, 0.002645f, 0.008198f, 0.034363f, -0.008922f, 0.021764f, 
  -0.026360f, 0.005057f, 0.011654f, -0.015533f, 0.009905f, 0.003848f, -0.009861f, 0.011479f, 
  0.020031f, -0.002545f, 0.001633f, -0.013089f, 0.009159f, 0.002509f, 0.010817f, 0.003687f, 
  0.016598f, -0.034075f, 0.016532f, 0.005570f, 0.005279f, -0.003022f, 0.027431f, 0.016307f, 
  -0.012836f, 0.024386f, 0.031442f, 0.028508f, 0.005375f, 0.014054f, 0.015577f, -0.021451f, 
  0.007381f, 0.004288f, -0.025324f, 0.027801f, -0.010992f, 0.030628f, -0.010680f, -0.004108f, 
  -0.007396f, 0.005309f, 0.011244f, -0.014670f, 0.034395f, 0.020819f, -0.002592f, -0.001586f, 
  -0.003224f, -0.020480f, -0.001182f, 0.010971f, -0.014314f, -0.006124f, -0.003402f, -0.018730f, 
  0.021549f, -0.011944f, 0.000612f, 0.005487f, 0.030375f, 0.012841f, 0.014194f, 0.025364f, 
  0.020797f, 0.001315f, -0.005339f, 0.027489f, -0.001247f, 0.022927f, 0.013054f, 0.003097f, 
  -0.023473f, -0.006271f, 0.024963f, -0.021112f, -0.025398f, -0.021222f, -0.007506f, -0.018148f, 
  0.009746f, -0.008176f, 0.007305f, 0.020621f, -0.012895f, 0.020778f, 0.022784f, 0.008545f, 
  0.007911f, 0.042677f, 0.002251f, 0.027499f, -0.001482f, 0.000835f, 0.000673f, -0.005797f, 
  0.023673f, -0.001480f, 0.009642f, 0.029379f, -0.010572f, 0.005674f, 0.023665f, -0.020907f, 
  -0.000851f, 0.000827f, 0.005450f, -0.042724f, 0.006436f, 0.013509f, -0.043433f, -0.025729f, 
  -0.015021f, 0.021326f, 0.028385f, 0.006454f, 0.008153f, -0.018678f, 0.014384f, 0.002343f, 
  0.018045f, 0.006217f, -0.014093f, 0.015232f, 0.009541f, 0.037456f, 0.016160f, 0.017016f, 
  0.018143f, -0.016488f, 0.005615f, -0.029048f, -0.007630f, -0.029984f, -0.022125f, -0.015880f, 
  -0.007044f, -0.029619f, -0.021836f, -0.033410f, 0.002700f, -0.014820f, 0.019581f, -0.008347f, 
  0.008545f, -0.000599f, 0.019287f, 0.018086f, 0.031116f, 0.005950f, 0.014821f, 0.014839f, 
  0.009211f, 0.003436f, 0.020305f, 0.032492f, -0.004833f, -0.013777f, 0.020370f, -0.019217f, 
  -0.004804f, -0.002087f, -0.031194f, -0.004690f, 0.019827f, -0.021780f, -0.000811f, -0.014029f, 
  -0.019522f, -0.029593f, 0.005121f, 0.030200f, 0.010609f, -0.005412f, -0.014662f, 0.016261f, 
  0.040476f, -0.013489f, 0.024266f, -0.006891f, 0.042381f, 0.023504f, 0.011208f, 0.033752f, 
  0.006705f, 0.012069f, 0.013842f, -0.000976f, -0.017920f, -0.003204f, -0.007374f, -0.031630f, 
  -0.030237f, -0.016061f, -0.013653f, 0.001658f, -0.008705f, -0.001078f, -0.023729f, 0.033713f, 
  0.020730f, 0.032161f, -0.002707f, 0.009500f, 0.026871f, 0.018964f, -0.005156f, 0.032646f, 
  0.023383f, 0.009910f, 0.046828f, 0.000910f, 0.019139f, 0.027732f, 0.012182f, -0.002465f, 
  0.002046f, -0.006994f, -0.035102f, 0.023295f, 0.011749f, -0.014043f, -0.006782f, -0.002032f, 
  -0.021846f, -0.008562f, -0.012444f, -0.022349f, 0.009813f, 0.010100f, 0.030402f, -0.005077f, 
  0.010242f, -0.005834f, 0.031206f, 0.022937f, 0.002973f, 0.018193f, 0.016558f, 0.012031f, 
  -0.003454f, -0.002553f, -0.003606f, -0.004459f, -0.002479f, 0.004729f, 0.000980f, -0.013992f, 
  -0.004411f, -0.017190f, 0.012525f, -0.018928f, -0.007013f, 0.008527f, -0.013038f, -0.011350f, 
  -0.002288f, 0.034486f, 0.015213f, -0.018511f, -0.000720f, -0.010770f, 0.015739f, 0.022331f, 
  0.016319f, 0.028829f, 0.026670f, -0.004824f, 0.012285f, 0.001966f, 0.007403f, 0.012228f, 
  -0.012990f, -0.010026f, 0.005443f, 0.005993f, 0.013071f, 0.003465f, -0.030529f, -0.015883f, 
  -0.033685f, 0.001323f, -0.042304f, 0.004192f, -0.031585f, 0.008619f, 0.016909f, 0.026471f, 
  -0.000765f, 0.015038f, 0.004997f, 0.036147f, 0.007673f, 0.030013f, 0.017648f, 0.020547f, 
  -0.009353f, -0.014018f, -0.000254f, 0.002839f, -0.002404f, 0.008499f, -0.025071f, -0.002506f, 
  -0.010195f, -0.011677f, 0.009857f, -0.028781f, 0.007709f, -0.014628f, -0.034448f, -0.028946f, 
  -0.036780f, -0.020524f, -0.031998f, 0.017308f, 0.002547f, -0.015245f, 0.033800f, 0.005012f, 
  0.023337f, 0.016359f, 0.014535f, 0.002000f, 0.013519f, 0.012493f, 0.016277f, -0.017563f, 
  -0.010328f, -0.007989f, -0.023817f, -0.012425f, 0.020417f, -0.001058f, -0.024361f, -0.026291f, 
  -0.023480f, -0.017957f, -0.015678f, -0.025701f, -0.027128f, 0.000663f, -0.005023f, -0.038274f, 
  -0.002278f, 0.027487f, 0.034866f, 0.003613f, 0.021838f, 0.007489f, 0.037858f, 0.024679f, 
  0.013255f, 0.010365f, 0.006738f, -0.000960f, 0.001989f, 0.013994f, -0.013415f, -0.009648f, 
  -0.012167f, -0.006871f, -0.021582f, -0.012719f, 0.010504f, 0.013657f, -0.028326f, -0.032563f, 
  -0.003022f, -0.030645f, -0.033527f, -0.034496f, -0.026281f, 0.021342f, 0.000808f, -0.015985f, 
  0.036535f, -0.001536f, 0.004178f, 0.025829f, -0.012986f, 0.005456f, -0.001874f, 0.026283f, 
  0.007574f, -0.008506f, 0.008033f, 0.010025f, 0.007258f, 0.005456f, -0.003666f, -0.025281f, 
  -0.011829f, -0.028488f, 0.006017f, -0.027975f, -0.019727f, -0.012368f, -0.020257f, -0.037158f, 
  -0.024722f, -0.025543f, 0.020338f, 0.008041f, 0.014177f, 0.009821f, 0.036910f, 0.018427f, 
  0.019743f, 0.012020f, 0.005247f, -0.015748f, -0.007941f, -0.029887f, -0.019558f, -0.022150f, 
  0.001561f, 0.005225f, -0.014853f, -0.006333f, 0.007355f, -0.011652f, -0.007605f, 0.006558f, 
  -0.004117f, -0.027838f, -0.026376f, -0.000015f, -0.034710f, -0.051325f, -0.042667f, 0.041120f, 
  0.024593f, 0.040834f, 0.035683f, 0.014571f, 0.024536f, -0.009062f, -0.009338f, -0.009509f, 
  0.018170f, -0.009519f, 0.012342f, 0.008573f, 0.006597f, 0.019349f, -0.004661f, -0.008887f, 
  -0.000584f, -0.012575f, -0.010890f, 0.009519f, -0.002213f, -0.038197f, -0.005973f, -0.008023f, 
  -0.009676f, -0.023640f, -0.004053f, -0.030473f, 0.019058f, 0.030108f, 0.016374f, 0.017061f, 
  -0.012221f, 0.007942f, -0.000975f, -0.002687f, -0.021264f, 0.026137f, -0.036978f, -0.022058f, 
  -0.024421f, -0.005992f, 0.020322f, 0.030664f, -0.010939f, -0.023369f, -0.011349f, 0.012745f, 
  -0.008409f, -0.018685f, -0.021497f, -0.004086f, -0.032434f, -0.013993f, -0.004422f, -0.025667f, 
  -0.045417f, 0.012444f, 0.010103f, -0.010580f, 0.008824f, -0.007957f, 0.018822f, 0.014283f, 
  -0.006730f, -0.014544f, 0.006681f, -0.022201f, -0.002905f, -0.001619f, 0.002536f, 0.004321f, 
  -0.000968f, 0.025201f, 0.000937f, -0.029662f, -0.013542f, 0.008935f, -0.021997f, -0.009504f, 
  -0.040719f, 0.006127f, -0.029734f, -0.028498f, -0.027236f, -0.040664f, 0.019367f, 0.024938f, 
  0.017728f, 0.025853f, -0.003473f, 0.001769f, -0.008730f, -0.017535f, -0.023115f, -0.032673f, 
  -0.010085f, -0.012499f, -0.004171f, -0.030850f, 0.013735f, 0.008035f, 0.002538f, -0.027347f, 
  0.037115f, 0.012251f, 0.011955f, -0.018810f, -0.024356f, -0.016798f, 0.003818f, -0.005190f, 
  -0.039741f, -0.037480f, -0.007560f, 0.024608f, 0.015096f, 0.003669f, 0.015843f, -0.013203f, 
  -0.022845f, -0.013184f, -0.009815f, -0.013917f, -0.024565f, 0.002908f, -0.028883f, -0.004230f, 
  -0.010349f, -0.034337f, 0.017426f, -0.019212f, -0.008867f, 0.020493f, 0.002265f, 0.029403f, 
  0.006015f, -0.027810f, -0.021259f, 0.007083f, -0.009303f, -0.005611f, -0.037044f, -0.037857f, 
  0.013110f, -0.000419f, 0.028110f, 0.021109f, 0.009723f, -0.000180f, -0.015295f, -0.012461f, 
  0.023864f, 0.005432f, -0.021603f, -0.033794f, -0.004650f, -0.003383f, -0.038417f, 0.003402f, 
  -0.002385f, 0.008005f, -0.032344f, -0.017804f, -0.012568f, 0.006961f, -0.014344f, -0.025841f, 
  0.008306f, -0.012642f, -0.011319f, 0.007412f, 0.000480f, 0.009363f, 0.015445f, 0.014851f, 
  0.005716f, -0.016653f, -0.002923f, -0.012440f, 0.016023f, -0.014345f, -0.013597f, -0.021852f, 
  -0.027735f, 0.004710f, -0.035142f, -0.013681f, -0.006591f, -0.008423f, -0.015334f, -0.009919f, 
  -0.004955f, 0.000430f, 0.012369f, -0.024940f, 0.005022f, -0.010708f, -0.017267f, -0.000633f, 
  0.018933f, -0.017330f, 0.016624f, -0.009084f, 0.001231f, 0.025847f, 0.001234f, -0.036974f, 
  -0.028360f, -0.009852f, -0.025797f, 0.002897f, -0.007459f, 0.007835f, -0.026588f, -0.012436f, 
  -0.000549f, 0.013621f, 0.015666f, -0.015161f, -0.013747f, 0.020099f, 0.015111f, 0.002631f, 
  -0.034044f, -0.005670f, 0.002670f, -0.020557f, -0.027047f, -0.036427f, -0.001524f, 0.055253f, 
  0.020090f, -0.001758f, 0.034542f, 0.010453f, 0.031377f, 0.018530f, 0.016473f, 0.001627f, 
  0.030392f, 0.023227f, 0.037368f, -0.003666f, -0.000936f, -0.004650f, -0.029076f, -0.007635f, 
  -0.005385f, 0.008925f, -0.028390f, -0.009973f, -0.004234f, -0.011806f, -0.039085f, -0.027638f, 
  0.000278f, -0.015007f, -0.002931f, -0.020291f, 0.028815f, 0.048465f, 0.009155f, 0.037726f, 
  -0.006776f, 0.019123f, 0.022225f, 0.046949f, 0.038737f, -0.006420f, 0.026367f, 0.000832f, 
  0.024950f, -0.007314f, -0.011589f, 0.025345f, 0.011882f, 0.016263f, -0.003467f, -0.003836f, 
  -0.005606f, -0.012126f, -0.026859f, -0.005386f, -0.012315f, -0.018425f, -0.006335f, -0.036810f, 
  0.018526f, 0.020685f, 0.013981f, 0.018339f, 0.008934f, 0.006697f, 0.007178f, 0.012022f, 
  -0.014182f, 0.030414f, 0.006110f, 0.026755f, 0.009227f, -0.017753f, 0.007202f, 0.022586f, 
  0.011396f, -0.008916f, 0.014705f, -0.029206f, -0.002550f, -0.019650f, 0.000473f, -0.002633f, 
  0.002933f, -0.020264f, -0.025046f, 0.016950f, 0.008927f, -0.004441f, 0.005260f, 0.023290f, 
  0.023685f, 0.003254f, 0.039939f, 0.018978f, 0.006888f, 0.003851f, 0.008541f, -0.022183f, 
  0.022741f, 0.008175f, 0.010507f, 0.034946f, 0.016168f, 0.009604f, 0.008244f, 0.010331f, 
  0.010659f, 0.000540f, 0.003399f, -0.004144f, 0.004363f, 0.006552f, 0.029920f, 0.008082f, 
  0.004771f, -0.018263f, -0.017067f, 0.025337f, 0.002002f, 0.031767f, 0.011709f, 0.011199f, 
  0.009502f, -0.001573f, -0.012051f, 0.012589f, -0.005165f, -0.010604f, -0.008259f, 0.010477f, 
  0.002566f, -0.000111f, -0.009130f, 0.004464f, 0.018093f, 0.006093f, 0.026766f, -0.008804f, 
  0.008673f, 0.020734f, 0.022595f, -0.007852f, 0.024149f, 0.009478f, 0.003948f, 0.009624f, 
  0.035364f, 0.006779f, 0.050005f, 0.019109f, 0.015312f, 0.003313f, 0.018980f, 0.010033f, 
  0.000816f, 0.025771f, 0.024225f, 0.020574f, -0.011849f, 0.012384f, 0.001893f, 0.002583f, 
  -0.023587f, -0.020611f, -0.014607f, -0.017367f, 0.039701f, 0.031192f, 0.000061f, 0.020091f, 
  0.017166f, 0.016295f, -0.011682f, -0.004269f, -0.009765f, 0.014181f, 0.026575f, 0.025790f, 
  0.025180f, 0.048590f, 0.014774f, 0.000007f, 0.001093f, 0.007024f, 0.030194f, -0.009527f, 
  0.018293f, 0.016524f, -0.002356f, -0.002613f, 0.014271f, 0.018027f, 0.022002f, -0.013673f, 
  0.034708f, 0.031533f, 0.018058f, 0.021460f, 0.020162f, 0.016292f, -0.002769f, -0.010132f, 
  -0.021197f, -0.041744f, 0.027198f, -0.002402f, -0.000743f, 0.009058f, 0.009551f, 0.018389f, 
  -0.010489f, 0.040106f, 0.019297f, 0.008806f, 0.004957f, -0.002532f, -0.007784f, 0.020312f, 
  -0.025510f, 0.000020f, -0.008121f, 0.037221f, 0.008816f, 0.011645f, 0.034454f, 0.032682f, 
  0.007859f, 0.013416f, -0.005950f, 0.007590f, 0.019483f, -0.003691f, -0.016677f, 0.018724f, 
  0.012966f, 0.010123f, 0.007447f, 0.043088f, 0.019416f, 0.034184f, 0.004814f, -0.014751f, 
  -0.026367f, 0.015435f, -0.014852f, 0.029461f, 0.006212f, -0.017946f, 0.017842f, 0.032044f, 
  0.007791f, 0.001018f, -0.005005f, 0.019922f, -0.009568f, -0.002094f, -0.023775f, 0.006339f, 
  -0.017226f, 0.000081f, -0.042156f, -0.015293f, 0.001643f, 0.015826f, 0.001021f, 0.032610f, 
  0.025283f, 0.005214f, 0.013944f, -0.008197f, -0.009976f, 0.001219f, 0.025092f, 0.014240f, 
  0.028680f, 0.010054f, 0.016281f, 0.035738f, 0.019016f, 0.023018f, -0.002741f, 0.010480f, 
  0.019244f, -0.018101f, 0.007818f, -0.003360f, -0.018681f, -0.012863f, 0.005890f, 0.001006f, 
  -0.006165f, 0.024476f, 0.000118f, 0.011505f, 0.011257f, -0.007919f, -0.020577f, -0.002886f, 
  0.012824f, -0.008513f, 0.029285f, 0.004154f, -0.000142f, 0.019672f, 0.004411f, 0.005245f, 
  0.029007f, 0.004145f, 0.010788f, -0.011157f, -0.013024f, -0.000786f, -0.005523f, 0.014254f, 
  -0.015186f, -0.016239f, -0.032921f, -0.008145f, -0.019096f, -0.024324f, -0.001616f, 0.000347f, 
  0.013760f, 0.030706f, 0.011494f, 0.022911f, -0.001789f, 0.020213f, 0.012271f, 0.021679f, 
  0.025743f, 0.003413f, 0.023042f, 0.006031f, 0.016249f, 0.005420f, 0.005581f, -0.020584f, 
  -0.003556f, -0.013281f, -0.012544f, -0.008258f, -0.013476f, -0.008628f, -0.008372f, 0.006452f, 
  -0.002205f, -0.027675f, -0.025169f, -0.010242f, 0.005368f, 0.018036f, 0.026265f, -0.016864f, 
  0.012074f, 0.001364f, 0.000161f, 0.022561f, 0.003112f, 0.013654f, 0.026753f, 0.036998f, 
  0.030986f, 0.015004f, -0.003614f, 0.003242f, 0.002464f, -0.033689f, 0.007966f, 0.014887f, 
  -0.007095f, -0.011969f, 0.011249f, -0.018649f, 0.007219f, -0.035803f, -0.003675f, -0.022427f, 
  -0.000852f, 0.004418f, 0.022437f, 0.003084f, 0.017501f, 0.014906f, 0.023821f, 0.018248f, 
  0.040425f, -0.001374f, 0.040555f, 0.006630f, 0.021036f, 0.053333f, 0.024436f, -0.023476f, 
  0.023995f, 0.004581f, 0.021494f, -0.011165f, -0.000605f, 0.003749f, -0.012566f, -0.008298f, 
  0.000201f, -0.008099f, -0.028498f, -0.029965f, 0.007778f, 0.018187f, -0.001441f, 0.021748f, 
  0.022608f, 0.005117f, 0.013746f, 0.023064f, 0.005258f, 0.029489f, 0.023911f, 0.024332f, 
  0.013692f, 0.036006f, -0.006040f, 0.003216f, 0.016573f, -0.009816f, -0.023898f, -0.019876f, 
  -0.004355f, -0.000667f, -0.008377f, 0.003427f, -0.021921f, -0.021322f, -0.002007f, -0.005613f, 
  0.001155f, -0.032651f, -0.018292f, 0.011657f, -0.012228f, 0.021782f, -0.014908f, 0.010884f, 
  0.002034f, 0.005901f, 0.038544f, -0.021264f, 0.050680f, 0.032777f, -0.009596f, 0.020128f, 
  0.004776f, -0.007149f, -0.023806f, 0.019847f, -0.005562f, 0.009355f, -0.031063f, 0.008149f, 
  0.001743f, 0.022666f, 0.009089f, -0.030674f, -0.010104f, -0.035938f, -0.015352f, 0.016507f, 
  0.019616f, -0.000496f, 0.028857f, 0.020150f, 0.004257f, 0.011648f, 0.033443f, 0.031296f, 
  0.011384f, 0.040991f, -0.005263f, 0.035876f, 0.022958f, 0.021506f, 0.003575f, -0.000562f, 
  0.008233f, -0.015264f, 0.003789f, 0.000740f, -0.001470f, 0.001043f, -0.013037f, -0.003984f, 
  -0.035717f, -0.021791f, -0.033316f, 0.013920f, 0.040183f, 0.025059f, 0.024318f, 0.010823f, 
  0.041174f, 0.002413f, 0.037737f, 0.048859f, 0.023291f, 0.030058f, -0.003664f, 0.029795f, 
  -0.005875f, 0.001510f, -0.006521f, -0.015121f, 0.015171f, 0.031182f, 0.006253f, -0.009084f, 
  -0.005014f, 0.002365f, -0.023671f, -0.010770f, -0.008196f, -0.008526f, -0.017843f, -0.030104f, 
  -0.033685f, 0.028918f, 0.029569f, 0.021773f, 0.003612f, -0.006432f, 0.029965f, 0.001199f, 
  0.029967f, 0.009621f, 0.021678f, 0.020897f, 0.008680f, 0.007600f, 0.032866f, 0.015450f, 
  -0.000566f, -0.020877f, 0.002505f, 0.017772f, 0.001144f, -0.000024f, -0.028261f, -0.024191f, 
  -0.012926f, -0.014721f, -0.024222f, -0.019886f, -0.032320f, -0.041213f, 0.019516f, 0.021600f, 
  0.027183f, 0.030682f, 0.032299f, 0.002774f, 0.051065f, 0.030512f, 0.021498f, -0.004431f, 
  -0.011974f, 0.024200f, -0.000309f, -0.004470f, -0.011138f, 0.005363f, 0.012083f, 0.030449f, 
  0.008119f, -0.014241f, -0.008106f, -0.002836f, -0.017980f, 0.010540f, -0.042285f, -0.027756f, 
  -0.030211f, -0.032670f, -0.023847f, 0.033228f, 0.032493f, 0.034714f, -0.008111f, 0.000148f, 
  0.030833f, 0.046025f, 0.021857f, 0.016992f, 0.005133f, 0.011392f, -0.007514f, -0.010221f, 
  -0.010708f, 0.013076f, -0.001983f, 0.011047f, 0.012953f, -0.020513f, 0.002394f, -0.019474f, 
  0.006945f, -0.006556f, -0.023351f, -0.026492f, -0.001593f, -0.017449f, -0.056449f, -0.013068f, 
  0.007223f, -0.000594f, 0.002670f, 0.009808f, 0.030594f, 0.037563f, 0.016162f, 0.030551f, 
  -0.012256f, -0.001288f, 0.036234f, 0.003044f, 0.008819f, 0.012948f, -0.000608f, -0.006276f, 
  -0.019490f, -0.012989f, 0.002587f, -0.013569f, 0.001520f, -0.022056f, -0.016179f, 0.004244f, 
  -0.007610f, -0.019243f, -0.040211f, -0.047896f, -0.016932f, 0.037277f, 0.040858f, 0.033830f, 
  0.007670f, 0.053920f, 0.003085f, 0.008313f, -0.000577f, -0.011382f, 0.006109f, 0.019421f, 
  0.012987f, -0.001761f, -0.007714f, -0.015387f, -0.007012f, 0.012114f, -0.011639f, 0.006840f, 
  0.002056f, 0.017139f, 0.001723f, -0.032363f, 0.010670f, -0.021184f, -0.015743f, -0.018743f, 
  -0.042976f, -0.069362f, -0.006988f, 0.048841f, 0.001839f, 0.045757f, 0.033425f, 0.003569f, 
  0.015148f, -0.019628f, -0.006696f, 0.017399f, -0.004382f, 0.015105f, 0.005066f, -0.015770f, 
  0.018747f, 0.025009f, 0.005540f, -0.011924f, 0.016586f, 0.003937f, -0.005206f, -0.005653f, 
  0.003099f, -0.023366f, 0.013176f, 0.008464f, -0.022584f, -0.038330f, -0.040017f, 0.030535f, 
  0.034419f, 0.004935f, 0.005368f, 0.020768f, 0.033142f, 0.020938f, 0.023949f, 0.003044f, 
  -0.013737f, -0.020857f, 0.003862f, -0.014666f, -0.000417f, 0.005927f, 0.005000f, -0.008333f, 
  0.007227f, 0.002278f, 0.035806f, 0.022173f, 0.005716f, -0.022915f, -0.023011f, -0.011466f, 
  -0.032378f, -0.009525f, -0.029993f, -0.033056f, 0.059158f, 0.029449f, 0.043658f, 0.000441f, 
  -0.001760f, 0.012025f, 0.010817f, 0.001852f, -0.013777f, -0.022527f, -0.008827f, -0.024177f, 
  -0.009942f, -0.010020f, -0.014137f, 0.009168f, 0.007049f, -0.008656f, 0.025993f, -0.012883f, 
  -0.011424f, -0.011480f, 0.018669f, 0.000029f, 0.006359f, 0.004940f, -0.009745f, -0.009210f, 
  -0.041962f, 0.018667f, 0.042212f, 0.045391f, 0.016824f, -0.016067f, -0.019192f, -0.005262f, 
  0.004159f, -0.031341f, -0.026468f, 0.022600f, -0.008865f, -0.003947f, 0.001641f, 0.020863f, 
  -0.017365f, -0.018628f, -0.003252f, -0.010485f, 0.019114f, -0.011075f, 0.005338f, -0.020926f, 
  0.002168f, -0.027407f, -0.009921f, -0.013616f, -0.024054f, -0.045973f, 0.020773f, 0.020070f, 
  0.034383f, 0.018042f, 0.021414f, 0.004046f, 0.003533f, 0.021473f, 0.008854f, 0.000515f, 
  -0.031314f, -0.011423f, -0.011285f, 0.005315f, -0.004036f, -0.002421f, -0.010106f, -0.028854f, 
  -0.007884f, 0.016618f, -0.019104f, -0.004737f, -0.023918f, -0.008518f, -0.012325f, 0.010549f, 
  -0.002080f, -0.007820f, -0.035667f, 0.001417f, -0.004036f, 0.025339f, 0.024990f, 0.027914f, 
  0.002810f, 0.016380f, -0.023514f, -0.021902f, -0.029190f, 0.001519f, 0.003266f, -0.034228f, 
  0.015299f, 0.011459f, -0.002269f, 0.022320f, -0.023853f, 0.002129f, -0.004965f, -0.017592f, 
  0.011692f, -0.003154f, -0.001841f, -0.020121f, 0.016529f, -0.017899f, 0.015203f, -0.016350f, 
  -0.039975f, -0.020440f, -0.042072f, -0.051328f, -0.021073f, -0.018506f, -0.012129f, 0.003570f, 
  -0.045039f, -0.033469f, -0.031769f, -0.020070f, -0.024798f, -0.016661f, -0.050941f, -0.007401f, 
  -0.033983f, -0.007435f, -0.023527f, -0.026084f, -0.001587f, -0.016715f, -0.017838f, -0.007625f, 
  -0.023396f, -0.022287f, -0.048739f, -0.029543f, -0.016906f, -0.038840f, -0.030595f, -0.005975f, 
  -0.008744f, -0.038597f, -0.029619f, -0.017635f, -0.041061f, -0.012703f, -0.005001f, 0.018914f, 
  -0.032118f, -0.044092f, -0.032519f, -0.015166f, -0.005001f, -0.015551f, -0.055466f, -0.018960f, 
  -0.011209f, -0.014480f, 0.009307f, -0.009308f, -0.007648f, -0.019200f, -0.013516f, -0.016899f, 
  -0.016406f, 0.006421f, -0.004375f, -0.025410f, -0.034744f, -0.012785f, -0.009775f, -0.022489f, 
  0.000393f, -0.028380f, 0.015750f, 0.006159f, 0.014981f, -0.007944f, -0.020924f, -0.014983f, 
  0.021787f, -0.021484f, 0.017630f, 0.012733f, -0.017316f, -0.021835f, -0.018135f, -0.046998f, 
  -0.025479f, -0.018626f, -0.034450f, -0.012705f, -0.023384f, -0.014120f, -0.008791f, -0.012464f, 
  -0.026887f, -0.030071f, -0.009493f, -0.030918f, 0.013855f, 0.027795f, -0.016346f, 0.017409f, 
  0.011169f, 0.038833f, 0.007306f, 0.023547f, 0.004720f, 0.030702f, 0.026351f, 0.032741f, 
  0.027001f, 0.029049f, 0.006410f, 0.025267f, -0.025187f, -0.005434f, -0.023753f, -0.026719f, 
  -0.010506f, -0.031599f, 0.009853f, 0.009925f, -0.022982f, -0.012244f, 0.000712f, -0.025791f, 
  0.001585f, -0.003653f, -0.006471f, 0.024029f, 0.013898f, 0.027368f, 0.021665f, 0.015435f, 
  0.006118f, 0.042291f, 0.025940f, 0.040176f, 0.023116f, 0.023223f, 0.009754f, 0.020370f, 
  0.005564f, 0.030487f, 0.005880f, 0.018272f, -0.018000f, -0.015445f, 0.005812f, -0.018506f, 
  -0.025653f, -0.045904f, -0.022659f, 0.029940f, 0.043268f, 0.015631f, 0.043770f, 0.042645f, 
  0.028929f, 0.033535f, 0.044511f, 0.002228f, 0.017242f, 0.001568f, 0.030338f, 0.003096f, 
  0.000483f, 0.041420f, 0.048457f, 0.004703f, 0.037043f, 0.008777f, 0.034321f, -0.006485f, 
  0.017574f, 0.008020f, 0.027869f, 0.019453f, -0.008411f, 0.004392f, 0.026893f, 0.022889f, 
  0.010053f, 0.023924f, 0.019470f, 0.009449f, 0.041208f, 0.034773f, 0.015125f, 0.045946f, 
  0.030419f, 0.001088f, 0.050835f, 0.029606f, 0.034918f, 0.003762f, 0.016144f, 0.044753f, 
  0.060106f, 0.046861f, 0.005659f, 0.047814f, 0.038764f, 0.010656f, 0.013942f, 0.021247f, 
  0.003989f, 0.036855f, 0.008776f, 0.040329f, 0.030336f, 0.031425f, 0.029637f, 0.041964f, 
  0.011495f, 0.046959f, 0.012749f, 0.025393f, 0.015365f, 0.044341f, 0.025948f, 0.022355f, 
  0.034065f, 0.015510f, 0.042270f, 0.040704f, 0.035650f, 0.028885f, 0.040772f, 0.010565f, 
  0.050079f, 0.006226f, 0.040104f, 0.022292f, 0.005559f, 0.027256f, 0.007132f, 0.020415f, 
  0.042313f, 0.048513f, -0.002910f, 0.022510f, 0.008284f, 0.022821f, 0.038116f, 0.010844f, 
  0.042946f, 0.010782f, 0.048845f, 0.054163f, 0.058490f, 0.006786f, 0.008536f, 0.014531f, 
  0.014299f, 0.034100f, 0.010654f, 0.059230f, 0.018261f, 0.052283f, 0.054071f, 0.022055f, 
  0.033174f, 0.041660f, 0.029462f, 0.015784f, 0.036644f, 0.041329f, 0.035616f, 0.016589f, 
  0.016076f, 0.020711f, 0.011626f, 0.053999f, 0.041088f, 0.017546f, 0.035046f, 0.020235f, 
  0.013571f, 0.019319f, 0.038334f, 0.045778f, 0.040310f, 0.052117f, 0.045022f, 0.029629f, 
  0.010325f, 0.023013f, 0.017126f, 0.048006f, 0.011012f, 0.036246f, 0.011978f, 0.028560f, 
  0.000134f, 0.038037f, 0.034926f, 0.019287f, -0.001555f, 0.004687f, 0.018441f, 0.022610f, 
  0.046163f, 0.045253f, 0.039686f, 0.055157f, 0.044940f, 0.059331f, 0.060549f, 0.023345f, 
  0.038500f, 0.033489f, 0.029136f, 0.023038f, 0.029249f, 0.039875f, 0.021250f, 0.024837f, 
  -0.008273f, -0.009833f, 0.037748f, 0.019109f, 0.004281f, 0.041533f, 0.031912f, 0.011280f, 
  0.011481f, 0.016592f, 0.011825f, 0.029894f, 0.039194f, 0.020031f, 0.008806f, 0.023610f, 
  0.043378f, 0.007658f, 0.014069f, 0.039983f, 0.062449f, 0.014446f, 0.032866f, 0.034042f, 
  0.037968f, 0.020815f, 0.032155f, 0.040081f, 0.035426f, 0.025363f, 0.028015f, 0.035635f, 
  0.011641f, 0.057373f, 0.046042f, 0.033982f, 0.014846f, 0.025957f, 0.031844f, 0.030482f, 
  0.063556f, 0.031958f, 0.026881f, 0.042336f, 0.056553f, 0.015974f, 0.022999f, 0.043759f, 
  0.036469f, 0.030214f, 0.002699f, 0.038135f, 0.052799f, 0.041419f, 0.022592f, 0.045453f, 
  0.031670f, 0.013964f, 0.053900f, 0.014933f, 0.039532f, 0.042854f, 0.020440f, 0.009258f, 
  0.015830f, 0.059465f, 0.052520f, 0.019293f, -0.002951f, 0.056009f, 0.052115f, 0.030232f, 
  0.014491f, 0.038351f, 0.024874f, 0.036194f, 0.046349f, 0.044608f, 0.041984f, 0.062741f, 
  0.047943f, 0.014279f, 0.038092f, 0.013756f, 0.035622f, 0.003087f, 0.028551f, 0.015140f, 
  0.024294f, 0.024669f, 0.029925f, 0.041072f, 0.039911f, 0.010904f, 0.019660f, 0.023385f, 
  0.036106f, 0.017865f, 0.033750f, 0.000195f, 0.012711f, 0.029547f, 0.048754f, 0.012302f, 
  0.040648f, 0.048392f, 0.052712f, 0.028258f, 0.013618f, 0.035709f, 0.027375f, 0.037391f, 
  0.011130f, 0.026033f, 0.015584f, 0.051288f, 0.002554f, 0.048429f, 0.021309f, 0.002883f, 
  0.043890f, -0.011570f, 0.015304f, 0.018562f, 0.009335f, -0.003345f, 0.017437f, 0.013943f, 
  0.018122f, 0.010151f, -0.007384f, 0.036656f, 0.027687f, 0.026763f, 0.056911f, 0.049481f, 
  0.016808f, 0.021804f, 0.015610f, 0.021944f, 0.024819f, 0.032259f, 0.024180f, 0.028104f, 
  0.016780f, 0.058099f, 0.021315f, 0.033674f, 0.049499f, 0.015178f, 0.006606f, 0.024453f, 
  0.031609f, 0.008499f, -0.003046f, 0.001345f, 0.037827f, 0.003621f, 0.050236f, 0.005260f, 
  0.026712f, 0.044010f, 0.052544f, 0.025076f, 0.013241f, 0.034977f, 0.047217f, 0.047585f, 
  0.027293f, 0.017918f, 0.012613f, 0.029455f, 0.043701f, 0.040503f, 0.026606f, 0.047141f, 
  0.020062f, 0.009651f, 0.011012f, 0.043053f, 0.032518f, -0.000617f, -0.017702f, 0.015002f, 
  0.036385f, -0.006363f, 0.025891f, 0.050231f, 0.014177f, 0.014131f, 0.008066f, 0.037409f, 
  0.034361f, 0.026925f, 0.025471f, 0.025885f, 0.034020f, 0.034346f, 0.062285f, 0.047562f, 
  0.063135f, 0.040788f, 0.033706f, -0.011261f, 0.027356f, 0.023753f, 0.004006f, 0.018536f, 
  0.004329f, 0.032090f, -0.040008f, -0.004321f, 0.034388f, -0.005500f, 0.023399f, 0.004916f, 
  0.046151f, 0.050056f, 0.002216f, 0.027169f, 0.030117f, 0.046850f, 0.025013f, 0.047608f, 
  0.051010f, 0.034360f, 0.026633f, 0.024335f, 0.044915f, 0.024188f, 0.011223f, 0.039927f, 
  0.028007f, 0.031481f, 0.032659f, -0.012401f, 0.009215f, 0.019616f, 0.009763f, -0.001383f, 
  -0.008655f, 0.010598f, 0.010537f, -0.005925f, 0.012682f, 0.006321f, 0.002028f, 0.000704f, 
  0.023817f, 0.032664f, 0.026004f, 0.021482f, 0.026720f, 0.066152f, 0.028973f, 0.025405f, 
  0.063387f, 0.012746f, 0.014490f, 0.031679f, 0.023663f, -0.009177f, -0.010403f, 0.006126f, 
  0.004469f, 0.021108f, -0.012147f, 0.002046f, 0.004682f, -0.012309f, 0.039096f, -0.012188f, 
  0.030197f, -0.011049f, 0.026287f, 0.029196f, 0.025799f, 0.021465f, 0.054473f, 0.016538f, 
  0.027015f, 0.024518f, 0.024698f, 0.007049f, 0.019148f, 0.005713f, 0.036981f, -0.008062f, 
  0.050878f, 0.030680f, 0.022787f, 0.049628f, 0.017465f, 0.018352f, 0.023940f, 0.036993f, 
  0.023496f, -0.030338f, 0.000736f, -0.012668f, -0.013125f, -0.002586f, -0.008598f, 0.015152f, 
  0.016328f, 0.029638f, 0.060228f, 0.024638f, 0.059220f, 0.046343f, 0.036221f, 0.019949f, 
  0.024346f, 0.010074f, 0.039500f, 0.040553f, 0.034638f, 0.031950f, 0.000921f, 0.005518f, 
  0.049343f, 0.000332f, 0.024640f, -0.004796f, 0.000851f, 0.005900f, 0.010624f, 0.002451f, 
  -0.006606f, -0.005200f, 0.015305f, -0.000266f, 0.034943f, 0.044623f, 0.001441f, 0.064036f, 
  0.041341f, 0.009673f, 0.012545f, 0.024018f, 0.022497f, -0.003123f, 0.039238f, 0.032952f, 
  0.000422f, 0.019802f, 0.046575f, 0.027514f, 0.024715f, 0.012576f, 0.025855f, 0.012796f, 
  0.007713f, 0.015103f, 0.005916f, -0.016301f, -0.012553f, -0.016773f, -0.011763f, -0.013829f, 
  -0.015048f, 0.003192f, 0.005743f, 0.026288f, 0.026071f, 0.044551f, 0.024447f, 0.055655f, 
  0.011215f, 0.005636f, 0.010764f, 0.025215f, 0.046837f, -0.003805f, -0.006263f, 0.024815f, 
  0.046215f, 0.022207f, 0.037375f, 0.002366f, 0.007969f, 0.032752f, 0.029546f, 0.008567f, 
  -0.001232f, 0.001116f, -0.025934f, -0.011766f, 0.020070f, 0.009729f, -0.005948f, 0.008240f, 
  0.004944f, 0.044035f, 0.034884f, 0.051779f, 0.034033f, 0.045187f, 0.049933f, 0.028765f, 
  0.033854f, 0.009838f, 0.034567f, 0.017725f, 0.051568f, 0.048366f, 0.044487f, 0.035214f, 
  0.000242f, 0.008287f, 0.005831f, -0.016402f, -0.004838f, -0.013494f, -0.035329f, -0.005896f, 
  -0.008289f, 0.010951f, 0.009256f, 0.033455f, 0.026335f, 0.050627f, 0.019081f, 0.019173f, 
  0.038016f, 0.034234f, 0.018416f, 0.056951f, -0.001200f, 0.022952f, 0.034091f, 0.024693f, 
  0.025243f, 0.037328f, 0.004456f, 0.014874f, 0.005084f, 0.005321f, 0.035782f, -0.001131f, 
  -0.005369f, 0.005229f, 0.011136f, -0.016237f, -0.018269f, 0.012373f, -0.018398f, -0.041340f, 
  -0.002047f, -0.022121f, 0.036154f, 0.018808f, 0.020629f, -0.008561f, 0.030005f, 0.025539f, 
  0.018749f, 0.028793f, 0.013386f, 0.012704f, 0.020264f, 0.023273f, 0.028507f, 0.019120f, 
  0.016782f, 0.003180f, 0.007966f, 0.011586f, 0.003835f, 0.040190f, 0.031601f, 0.007605f, 
  0.019242f, -0.010417f, -0.002842f, 0.003738f, -0.003806f, -0.007509f, 0.014675f, 0.027500f, 
  0.010088f, 0.013211f, 0.018855f, 0.006272f, 0.028634f, 0.021612f, 0.019786f, 0.016331f, 
  0.015081f, -0.011549f, 0.026502f, 0.017958f, 0.012242f, 0.024151f, 0.016214f, -0.013947f, 
  0.018013f, 0.023160f, 0.021162f, 0.004745f, -0.017877f, 0.027781f, -0.019217f, 0.034387f, 
  -0.055283f, -0.048436f, 0.002734f, 0.027403f, -0.027780f, 0.008405f, 0.024010f, 0.038493f, 
  0.027447f, 0.014996f, 0.033331f, 0.010757f, 0.030173f, -0.000882f, 0.029351f, -0.014171f, 
  0.015739f, -0.013670f, 0.022285f, 0.002364f, -0.012028f, -0.014587f, 0.007239f, -0.013257f, 
  -0.001254f, -0.043502f, -0.020529f, -0.006328f, -0.014518f, -0.023232f, -0.029772f, -0.035794f, 
  -0.015924f, -0.009358f, 0.028323f, -0.012268f, 0.000371f, 0.006377f, 0.007171f, 0.039828f, 
  0.018529f, -0.018913f, 0.024401f, 0.017953f, 0.021162f, -0.011034f, 0.035297f, -0.015721f, 
  0.009187f, 0.005865f, 0.034057f, 0.040165f, -0.002135f, -0.009032f, 0.004744f, -0.012737f, 
  -0.029362f, -0.003700f, -0.000438f, 0.001015f, 0.009648f, -0.008825f, -0.014707f, -0.014596f, 
  -0.016167f, -0.006306f, 0.002888f, 0.011432f, -0.002342f, 0.017313f, -0.004283f, -0.020922f, 
  0.011874f, 0.017489f, -0.003263f, -0.024692f, 0.028556f, -0.012232f, 0.019666f, 0.013566f, 
  -0.021613f, -0.000201f, -0.008913f, -0.012593f, 0.007646f, -0.007371f, 0.008830f, -0.009452f, 
  -0.019980f, -0.012322f, -0.025117f, -0.040655f, -0.047854f, -0.034919f, -0.038763f, 0.007681f, 
  -0.022648f, -0.038939f, 0.011224f, -0.058885f, -0.015423f, -0.006399f, -0.000134f, -0.002477f, 
  0.003922f, 0.005920f, 0.005230f, -0.006198f, 0.000245f, -0.041346f, -0.030986f, -0.037145f, 
  0.012590f, -0.000805f, -0.023288f, -0.016297f, -0.004936f, 0.001695f, -0.004393f, -0.017349f, 
  -0.048383f, -0.041617f, -0.032026f, -0.008708f, -0.020034f, -0.042006f, -0.016721f, -0.027382f, 
  -0.013514f, -0.016862f, -0.019687f, -0.011045f, -0.051339f, 0.009683f, 0.007751f, 0.020451f, 
  -0.014786f, -0.008803f, -0.024989f, -0.040003f, -0.027810f, 0.020220f, -0.026835f, 0.022082f, 
  -0.001788f, -0.029362f, -0.021498f, 0.001557f, -0.023107f, -0.010652f, -0.005882f, -0.026496f, 
  -0.032821f, -0.040062f, -0.028214f, -0.041652f, -0.062184f, -0.043257f, -0.061190f, -0.031646f, 
  -0.045315f, -0.038967f, -0.007735f, -0.003918f, -0.016395f, -0.020269f, -0.008516f, 0.012345f, 
  -0.026511f, -0.020879f, 0.025885f, 0.015282f, -0.003029f, 0.000910f, -0.034729f, -0.058997f, 
  -0.003738f, -0.028485f, -0.001113f, -0.007163f, -0.035232f, -0.030406f, -0.012171f, 0.005571f, 
  -0.016757f, -0.067002f, -0.063864f, -0.067869f, -0.052055f, -0.060705f, -0.046859f, -0.003116f, 
  -0.029134f, -0.010762f, -0.023188f, -0.065684f, -0.031854f, -0.027037f, -0.019916f, -0.025615f, 
  -0.006443f, -0.030519f, -0.022765f, -0.026458f, -0.037266f, -0.024244f, -0.009663f, -0.031153f, 
  0.009632f, -0.003777f, -0.033165f, -0.057653f, -0.046330f, -0.009752f, -0.085231f, -0.076317f, 
  -0.082259f, -0.070864f, -0.043101f, -0.034167f, -0.030085f, -0.022914f, -0.039351f, -0.053963f, 
  -0.027753f, -0.019393f, -0.045110f, -0.022733f, 0.019782f, -0.024914f, -0.017423f, -0.046031f, 
  -0.038469f, -0.025730f, 0.011841f, -0.006761f, 0.000446f, -0.001329f, -0.043248f, 0.000867f, 
  -0.036759f, -0.043763f, -0.023840f, -0.070270f, -0.033948f, -0.053230f, -0.068334f, -0.033660f, 
  -0.013206f, -0.065798f, -0.023266f, -0.012102f, -0.038746f, -0.042243f, -0.029549f, -0.034167f, 
  -0.005711f, 0.012992f, -0.024759f, -0.031096f, -0.002483f, -0.003126f, -0.065286f, -0.019665f, 
  0.007833f, -0.001926f, -0.025460f, -0.035350f, -0.077668f, -0.058627f, 0.006263f, -0.012758f, 
  -0.060219f, -0.024407f, -0.024392f, -0.062862f, -0.037272f, -0.032378f, -0.035403f, -0.030906f, 
  -0.026500f, -0.058853f, -0.043173f, 0.004406f, -0.011135f, -0.079754f, -0.007895f, -0.019483f, 
  0.001321f, -0.033724f, -0.036998f, -0.021799f, -0.003692f, -0.042194f, -0.023334f, -0.062043f, 
  -0.028434f, -0.032609f, -0.045400f, -0.020930f, -0.039689f, -0.019860f, -0.024608f, -0.047769f, 
  -0.037322f, -0.040062f, -0.035877f, -0.042471f, -0.020766f, 0.007790f, -0.020325f, -0.034985f, 
  -0.012885f, -0.037456f, -0.042631f, -0.005575f, -0.021779f, -0.007875f, -0.014289f, -0.019409f, 
  -0.037518f, -0.015992f, -0.006080f, -0.032739f, -0.018753f, -0.022004f, -0.048211f, -0.036002f, 
  -0.050433f, -0.049462f, -0.057184f, -0.020960f, -0.035728f, -0.014244f, -0.053587f, -0.039739f, 
  -0.012791f, -0.017864f, 0.008423f, -0.055018f, -0.029544f, -0.014825f, -0.009204f, -0.064384f, 
  0.010275f, -0.024416f, -0.019304f, -0.001572f, -0.024319f, 0.007334f, -0.031397f, -0.009248f, 
  -0.003181f, 0.005751f, -0.057428f, -0.054511f, -0.037793f, -0.049269f, -0.044792f, -0.033501f, 
  -0.054871f, -0.050828f, -0.027966f, -0.005306f, 0.020047f, -0.026870f, -0.027653f, -0.011660f, 
  -0.041738f, -0.047917f, -0.013390f, -0.038038f, -0.017032f, -0.008364f, -0.027667f, -0.033799f, 
  0.019830f, -0.002494f, 0.021846f, 0.013343f, -0.025207f, -0.047673f, -0.061638f, -0.059984f, 
