#ifndef MY_WEIGHTS_H
#define MY_WEIGHTS_H
// ======================================================
// Auto-generated by torchjs browser trainer (v66 format)
// Copy this file to your sketch folder, then:
//   1. Update numClasses and classLabels in the sketch to match training:
//      numClasses = 3
//      classLabels: "0Blank", "1Cup", "2Pen"
//      inputSize=64  conv1Filters=4  conv2Filters=8  channels=3
//   2. Uncomment:  #define USE_BAKED_WEIGHTS  at the top of the sketch
//   3. Recompile and flash
//      version=50
// ======================================================
const float myModel_conv1_w[] = {
  0.155639f, -0.132090f, -0.151093f, -0.177708f, -0.076837f, 0.018661f, 0.040511f, 0.017618f, 
  -0.090907f, -0.180167f, 0.125037f, -0.011928f, -0.042913f, -0.189917f, -0.022107f, -0.134651f, 
  -0.027808f, -0.033759f, -0.198126f, -0.075242f, -0.299706f, -0.048229f, -0.321777f, 0.002438f, 
  -0.192736f, -0.055978f, -0.078222f, -0.127329f, 0.028456f, 0.259505f, 0.237752f, -0.267057f, 
  0.232438f, 0.070947f, 0.357546f, 0.099767f, 0.150789f, 0.092163f, 0.260243f, -0.183895f, 
  -0.122506f, 0.112145f, 0.288057f, -0.025108f, 0.213872f, -0.288771f, 0.156514f, -0.032103f, 
  -0.029947f, 0.198911f, -0.014109f, -0.161586f, 0.162323f, 0.201075f, -0.246193f, 0.096213f, 
  -0.109853f, 0.115987f, -0.187122f, -0.046688f, 0.060461f, 0.023351f, -0.068277f, -0.033765f, 
  -0.024498f, 0.003714f, 0.134313f, -0.165553f, 0.194772f, -0.326824f, 0.208781f, -0.007719f, 
  0.160660f, -0.074979f, 0.080034f, 0.138083f, -0.080810f, -0.041682f, -0.103955f, 0.303381f, 
  -0.105030f, 0.163900f, 0.143993f, 0.136491f, 0.316635f, -0.077779f, -0.134381f, -0.084768f, 
  -0.046704f, -0.107651f, -0.067978f, -0.060055f, 0.244700f, -0.005632f, -0.226478f, 0.151207f, 
  -0.261092f, -0.251209f, 0.331447f, 0.055357f, 0.036390f, 0.073331f, -0.153968f, -0.217379f, 
  0.177168f, 0.142746f, -0.080288f, 0.055632f
};
const float myModel_conv1_b[] = {
  -0.015615f, -0.033441f, 0.046657f, -0.003372f
};
const float myModel_conv2_w[] = {
  0.050065f, -0.118178f, -0.232842f, -0.159028f, 0.089772f, -0.066939f, -0.059439f, 0.232734f, 
  -0.120525f, -0.145347f, -0.201398f, -0.147345f, -0.180805f, -0.068805f, -0.032968f, -0.080777f, 
  0.181648f, -0.144384f, 0.224200f, 0.111852f, 0.075939f, 0.219528f, 0.178704f, 0.068062f, 
  0.172530f, 0.096698f, 0.151695f, 0.113779f, -0.074269f, -0.083968f, 0.196712f, -0.118670f, 
  -0.070028f, -0.234479f, -0.173338f, -0.229785f, 0.165652f, -0.188366f, 0.083545f, -0.082809f, 
  -0.089093f, 0.113945f, -0.249749f, 0.109132f, -0.130773f, 0.010703f, 0.026126f, 0.157908f, 
  -0.197256f, 0.241942f, 0.044863f, 0.101425f, 0.121114f, -0.210882f, 0.105028f, 0.016277f, 
  0.052459f, -0.218077f, -0.123548f, 0.139142f, 0.037782f, -0.112586f, -0.069080f, -0.255753f, 
  -0.115092f, 0.004741f, -0.125249f, 0.070875f, -0.134992f, -0.036469f, -0.066245f, -0.021740f, 
  -0.142106f, -0.134149f, -0.028345f, 0.000615f, -0.179465f, 0.027847f, 0.085968f, 0.188577f, 
  0.054777f, 0.118274f, -0.107196f, 0.116024f, 0.013293f, 0.092105f, -0.087735f, -0.199258f, 
  0.008397f, 0.003295f, -0.045220f, 0.013957f, 0.055776f, -0.118673f, 0.010713f, 0.249469f, 
  0.063660f, 0.056103f, -0.003149f, 0.123382f, -0.135309f, 0.126049f, 0.067869f, 0.236852f, 
  0.289644f, -0.018643f, 0.146312f, 0.209422f, -0.036817f, 0.143445f, 0.087298f, -0.039792f, 
  0.066695f, 0.002363f, 0.188776f, -0.142153f, -0.089386f, 0.284770f, 0.203763f, 0.038243f, 
  0.020143f, -0.055755f, -0.205307f, -0.081503f, 0.068860f, 0.035364f, -0.115187f, 0.054927f, 
  -0.288990f, -0.206256f, -0.149935f, 0.033872f, -0.280010f, -0.236440f, -0.278558f, 0.095388f, 
  0.068203f, 0.135980f, 0.160140f, 0.142153f, 0.141757f, 0.041261f, 0.221994f, 0.270542f, 
  -0.122135f, -0.281095f, 0.120671f, -0.069723f, -0.286058f, -0.023390f, 0.176800f, 0.060307f, 
  -0.018730f, -0.119387f, 0.093838f, 0.226901f, -0.037422f, 0.014780f, 0.084313f, 0.060605f, 
  0.121557f, 0.176480f, 0.020416f, 0.101715f, 0.019900f, -0.104273f, -0.137283f, 0.032744f, 
  -0.093779f, -0.169923f, -0.246150f, -0.086125f, 0.065251f, -0.057164f, -0.248520f, -0.044946f, 
  -0.267827f, -0.168514f, -0.128033f, 0.001712f, -0.034318f, 0.148899f, 0.021622f, 0.044079f, 
  -0.177645f, -0.191412f, -0.012968f, -0.156646f, -0.062182f, 0.095752f, -0.201779f, 0.142342f, 
  -0.207367f, -0.030348f, -0.067278f, -0.087918f, -0.264055f, -0.044759f, 0.277013f, 0.213774f, 
  0.100269f, 0.279751f, 0.200225f, 0.167711f, 0.071034f, -0.133452f, 0.153079f, 0.171281f, 
  -0.047644f, -0.156252f, 0.041995f, 0.043402f, -0.034857f, -0.008005f, -0.068505f, 0.038776f, 
  0.009496f, 0.057998f, -0.130721f, -0.099101f, -0.055645f, -0.134007f, 0.133765f, 0.011186f, 
  -0.122270f, 0.130518f, 0.310480f, 0.198419f, -0.010713f, 0.081804f, 0.089424f, 0.110143f, 
  -0.034544f, 0.222769f, -0.034092f, -0.018934f, -0.163374f, -0.124239f, -0.182052f, -0.353993f, 
  -0.311636f, -0.140675f, -0.289226f, -0.176954f, -0.206771f, 0.212083f, -0.128680f, -0.200640f, 
  -0.086188f, -0.001991f, 0.039471f, 0.110310f, -0.261227f, 0.042861f, 0.083532f, 0.174526f, 
  0.052545f, -0.108601f, -0.173927f, 0.149638f, -0.042475f, 0.115177f, -0.193052f, 0.137406f, 
  0.084767f, -0.037889f, 0.022065f, -0.228940f, 0.031358f, 0.135855f, 0.081283f, -0.182273f, 
  -0.166653f, 0.041718f, -0.206857f, 0.050948f, -0.039491f, -0.013970f, -0.043892f, 0.085291f, 
  0.057146f, 0.147454f, 0.148343f, 0.089697f, -0.009346f, 0.285884f, 0.115339f, 0.131349f
};
const float myModel_conv2_b[] = {
  0.022495f, 0.005930f, 0.025852f, -0.017421f, -0.005685f, 0.031050f, -0.033031f, -0.015915f
};
const float myModel_output_w[] = {
  -0.021902f, 0.023288f, 0.013790f, -0.003408f, 0.023218f, 0.010728f, 0.001294f, -0.014365f, 
  -0.023477f, 0.018430f, 0.011625f, -0.027067f, -0.023717f, -0.002586f, 0.009493f, 0.001478f, 
  0.010903f, 0.006773f, 0.006089f, -0.005841f, -0.009184f, 0.036905f, -0.028760f, 0.013149f, 
  0.022850f, 0.011808f, 0.029045f, -0.019711f, -0.002723f, -0.011270f, 0.016713f, 0.001912f, 
  -0.004342f, -0.019690f, 0.007054f, -0.008691f, -0.002668f, -0.028030f, 0.010701f, 0.023341f, 
  0.025917f, -0.008129f, 0.027952f, 0.001912f, -0.011048f, 0.016211f, -0.009928f, 0.012923f, 
  -0.025273f, 0.024021f, -0.003416f, -0.022670f, 0.009757f, 0.030401f, 0.015222f, 0.012056f, 
  0.026517f, -0.003055f, -0.014948f, -0.008933f, 0.036096f, 0.027616f, 0.010170f, -0.002630f, 
  -0.017355f, 0.025147f, -0.001944f, -0.014561f, 0.026626f, -0.016145f, -0.025793f, -0.007035f, 
  0.000248f, 0.013606f, -0.000688f, -0.007565f, 0.022796f, 0.025537f, -0.010853f, 0.002196f, 
  0.016756f, 0.002722f, -0.007625f, 0.020473f, -0.003142f, 0.009280f, 0.001849f, 0.016781f, 
  -0.003476f, -0.010663f, -0.003552f, -0.011468f, 0.019731f, -0.007330f, -0.002063f, -0.011226f, 
  0.000512f, -0.024231f, 0.021746f, -0.003517f, 0.007609f, -0.019670f, -0.022590f, -0.000292f, 
  0.007158f, -0.012130f, -0.016151f, 0.012001f, 0.000778f, 0.009797f, -0.026891f, 0.009873f, 
  0.014672f, -0.006957f, 0.000199f, 0.006649f, -0.000617f, 0.028178f, -0.011387f, 0.005390f, 
  -0.003421f, 0.017407f, 0.032694f, -0.014417f, -0.003880f, 0.010315f, 0.009955f, -0.004679f, 
  -0.012292f, -0.005090f, 0.023308f, 0.005439f, -0.014187f, -0.007568f, 0.003296f, -0.028230f, 
  0.011925f, -0.007791f, 0.016470f, 0.000363f, 0.012450f, 0.002356f, 0.030180f, 0.016127f, 
  -0.007145f, 0.033347f, 0.007125f, 0.016971f, 0.011005f, 0.022359f, 0.015085f, -0.020117f, 
  -0.011785f, -0.039606f, -0.007510f, -0.023751f, -0.009750f, -0.015292f, 0.008842f, -0.016406f, 
  0.009770f, 0.006333f, -0.013162f, 0.014264f, -0.008989f, 0.013899f, 0.017781f, 0.019221f, 
  -0.007806f, 0.016786f, 0.020174f, 0.003307f, 0.001228f, 0.010672f, 0.014844f, -0.009205f, 
  -0.000921f, -0.010816f, 0.014939f, 0.035910f, -0.025621f, 0.004116f, -0.005447f, -0.003956f, 
  -0.019232f, 0.009239f, -0.030154f, -0.028203f, -0.008775f, -0.015619f, -0.004959f, -0.003447f, 
  -0.017235f, 0.020543f, -0.010212f, 0.007042f, -0.014735f, -0.004659f, 0.024416f, 0.023110f, 
  -0.003716f, -0.027112f, 0.014270f, 0.005147f, -0.002908f, -0.010726f, -0.002791f, -0.006132f, 
  0.019317f, 0.026462f, -0.000939f, -0.023624f, -0.008146f, -0.015297f, 0.020014f, 0.015467f, 
  0.005958f, 0.009787f, 0.012889f, 0.005297f, -0.019074f, -0.002624f, 0.021788f, -0.008539f, 
  0.000934f, -0.005249f, 0.005637f, -0.018383f, -0.005328f, 0.016304f, 0.002510f, 0.008165f, 
  0.025544f, 0.007358f, -0.037775f, -0.016167f, -0.004401f, -0.007626f, 0.026736f, -0.029194f, 
  -0.015905f, -0.017784f, -0.009424f, -0.003358f, -0.021825f, 0.005802f, 0.007995f, -0.025969f, 
  0.005865f, -0.022868f, 0.002620f, 0.024572f, -0.000998f, -0.002799f, 0.024768f, 0.004683f, 
  0.010096f, 0.000794f, 0.004575f, -0.017603f, 0.014721f, 0.041018f, 0.034249f, 0.029400f, 
  0.006700f, -0.019168f, -0.013558f, -0.039420f, -0.009228f, -0.026954f, 0.019420f, -0.002877f, 
  0.021523f, 0.003913f, -0.012354f, -0.018309f, 0.021142f, -0.014702f, -0.007482f, 0.005970f, 
  0.017482f, -0.006355f, -0.030803f, -0.018380f, 0.021650f, -0.010259f, -0.017829f, 0.021216f, 
  0.004669f, -0.012708f, -0.013303f, 0.004811f, 0.013510f, -0.021907f, 0.011612f, -0.001713f, 
  -0.010575f, -0.002241f, 0.008496f, -0.011992f, -0.020225f, -0.015593f, 0.019694f, 0.013696f, 
  -0.014604f, 0.008078f, 0.002392f, -0.025603f, -0.007469f, -0.016221f, 0.011007f, -0.022834f, 
  -0.002648f, 0.011953f, 0.015107f, 0.016211f, 0.014757f, -0.030758f, -0.022125f, -0.005628f, 
  0.016441f, 0.000569f, 0.000169f, -0.012429f, -0.013241f, 0.015428f, 0.023438f, -0.012579f, 
  -0.013536f, -0.029047f, -0.006348f, -0.013771f, 0.017545f, -0.033472f, 0.003078f, -0.007324f, 
  -0.038043f, -0.018021f, -0.019228f, 0.001594f, 0.010034f, -0.004040f, -0.042371f, -0.015742f, 
  -0.001725f, -0.018439f, -0.024975f, 0.001824f, 0.000940f, -0.004905f, 0.014000f, -0.025862f, 
  0.006828f, 0.007345f, 0.024642f, 0.006934f, -0.018450f, 0.015713f, 0.000606f, -0.002162f, 
  0.023351f, -0.003607f, -0.020043f, -0.000718f, 0.007406f, 0.011514f, -0.015866f, -0.017692f, 
  -0.015570f, -0.002201f, -0.027240f, -0.004003f, -0.002505f, -0.004749f, 0.021440f, -0.007220f, 
  -0.012874f, 0.004945f, 0.021341f, 0.001541f, 0.004615f, 0.029445f, 0.007856f, 0.017215f, 
  -0.012811f, -0.004057f, -0.005117f, -0.021715f, -0.023648f, -0.007670f, -0.018536f, -0.027844f, 
  -0.009174f, -0.012923f, -0.012750f, -0.019808f, -0.006529f, -0.009195f, -0.013532f, -0.017604f, 
  -0.012318f, 0.007784f, 0.008263f, -0.022361f, 0.009980f, -0.014953f, 0.012100f, -0.017504f, 
  0.029361f, 0.022576f, 0.018311f, 0.010845f, -0.029635f, -0.019703f, -0.017598f, -0.030818f, 
  -0.017164f, -0.015864f, -0.005918f, -0.012107f, -0.049786f, -0.019879f, -0.035207f, -0.001687f, 
  -0.040224f, -0.008562f, -0.003811f, -0.027646f, -0.003760f, -0.014985f, 0.009397f, -0.007060f, 
  -0.004571f, 0.026557f, -0.025425f, -0.016484f, 0.027126f, 0.001499f, -0.000678f, -0.000725f, 
  0.002355f, -0.017401f, -0.004009f, -0.050498f, -0.040165f, -0.014477f, -0.034714f, -0.036343f, 
  -0.048232f, -0.031205f, -0.029993f, -0.013803f, -0.010764f, -0.037232f, -0.016027f, -0.020504f, 
  -0.025721f, -0.036162f, -0.023682f, -0.011881f, -0.002522f, 0.019095f, -0.013935f, 0.002745f, 
  0.010407f, 0.012039f, -0.003976f, 0.010563f, -0.020021f, -0.033377f, -0.009363f, -0.022950f, 
  -0.013822f, -0.023808f, -0.029082f, -0.005597f, -0.041302f, -0.044860f, -0.040140f, -0.055293f, 
  -0.034533f, -0.025488f, -0.023356f, -0.019122f, 0.014739f, -0.019406f, -0.034891f, -0.020558f, 
  -0.000376f, -0.002817f, -0.001754f, 0.002295f, -0.028830f, -0.001908f, 0.023420f, -0.019998f, 
  -0.010097f, -0.012286f, 0.011391f, 0.020262f, -0.010110f, -0.024826f, -0.035713f, -0.035116f, 
  -0.006544f, -0.048794f, -0.006207f, -0.027245f, -0.019546f, -0.026945f, -0.030500f, -0.005241f, 
  0.004177f, -0.015954f, 0.008280f, -0.012498f, -0.005885f, -0.005998f, 0.023208f, 0.024681f, 
  -0.017879f, -0.007646f, -0.015728f, 0.002555f, -0.001624f, -0.022194f, 0.009619f, -0.018221f, 
  0.004498f, -0.002657f, -0.007406f, -0.040142f, -0.024623f, -0.036464f, -0.034710f, -0.023316f, 
  -0.041813f, -0.012559f, 0.015570f, -0.019416f, -0.004735f, 0.005487f, -0.017488f, -0.007185f, 
  -0.025593f, -0.000836f, 0.006625f, -0.011742f, -0.008493f, 0.004419f, -0.021185f, -0.005274f, 
  -0.024023f, 0.005588f, -0.010687f, -0.027451f, 0.026932f, -0.004863f, 0.001988f, -0.028354f, 
  -0.000376f, -0.020119f, -0.034007f, -0.024099f, -0.037120f, -0.014907f, -0.004322f, -0.043255f, 
  -0.021001f, -0.024434f, -0.004894f, 0.014032f, -0.001046f, -0.010938f, -0.007675f, 0.015111f, 
  -0.000080f, 0.002589f, 0.021556f, 0.000192f, 0.018349f, 0.013132f, 0.014001f, 0.018174f, 
  -0.020999f, -0.000139f, -0.012185f, 0.003616f, -0.005277f, -0.006189f, -0.038867f, -0.041577f, 
  -0.016968f, -0.012956f, -0.023468f, 0.000414f, -0.008135f, -0.010725f, -0.005192f, -0.016743f, 
  -0.034787f, -0.019409f, -0.015882f, 0.019230f, 0.024950f, -0.001674f, 0.025413f, 0.000314f, 
  0.012289f, 0.003712f, 0.007086f, 0.015233f, -0.003198f, -0.029326f, -0.009300f, -0.018511f, 
  -0.017339f, -0.016045f, 0.005999f, 0.019107f, -0.005132f, -0.011505f, -0.001155f, -0.027697f, 
  -0.007217f, -0.004241f, -0.021760f, 0.012424f, -0.007854f, -0.020271f, -0.012043f, -0.001703f, 
  -0.029130f, -0.000439f, 0.013396f, 0.014735f, -0.026830f, -0.020249f, 0.001664f, 0.001391f, 
  0.028229f, -0.003181f, -0.025973f, -0.004713f, 0.021541f, 0.005504f, 0.010208f, 0.011148f, 
  0.010404f, -0.009137f, -0.020025f, -0.000387f, 0.008922f, 0.007328f, -0.002847f, -0.017300f, 
  0.020241f, 0.000346f, 0.001702f, -0.020190f, -0.001294f, 0.019732f, 0.002178f, 0.004256f, 
  0.003853f, 0.000014f, -0.020118f, 0.010193f, 0.019226f, 0.001009f, -0.009617f, -0.000738f, 
  0.021559f, -0.004121f, 0.027786f, -0.021970f, -0.005712f, 0.001731f, -0.010185f, -0.034392f, 
  -0.030547f, -0.024141f, -0.010967f, -0.014223f, 0.011804f, -0.004024f, 0.009545f, -0.007621f, 
  -0.014475f, 0.014498f, 0.009744f, 0.018645f, -0.011853f, -0.000251f, 0.011533f, 0.033561f, 
  0.017739f, -0.020718f, 0.005114f, -0.000928f, 0.008106f, -0.000893f, 0.009412f, 0.009316f, 
  0.008327f, 0.001532f, 0.010544f, -0.030601f, 0.006528f, 0.017275f, -0.004660f, 0.001707f, 
  -0.022819f, -0.025993f, -0.017634f, -0.008447f, 0.003943f, 0.003974f, 0.034774f, 0.013208f, 
  -0.003984f, -0.002531f, 0.009983f, -0.034108f, 0.020133f, -0.002125f, -0.010530f, -0.014727f, 
  -0.005717f, 0.022093f, -0.003377f, -0.004431f, 0.010209f, -0.000678f, -0.011344f, 0.004414f, 
  0.008181f, -0.007390f, 0.000698f, -0.008397f, -0.024268f, 0.004179f, -0.028114f, -0.022644f, 
  0.008983f, -0.013238f, 0.011107f, -0.013358f, -0.010145f, 0.003317f, 0.014663f, 0.002478f, 
  0.021292f, 0.005679f, -0.002175f, -0.015811f, 0.013127f, -0.024193f, -0.010397f, 0.001674f, 
  -0.022372f, -0.002055f, 0.008606f, -0.003445f, 0.003437f, 0.022327f, -0.001088f, -0.020843f, 
  0.022801f, 0.003969f, 0.014356f, -0.004855f, 0.013863f, 0.018459f, -0.007557f, 0.013724f, 
  -0.025400f, -0.010843f, -0.000397f, 0.004695f, 0.027947f, -0.014918f, -0.001200f, 0.036318f, 
  -0.009453f, -0.000212f, -0.021030f, 0.003677f, 0.005112f, -0.014823f, 0.008213f, 0.001997f, 
  0.001217f, -0.014475f, -0.011170f, 0.016619f, -0.001739f, -0.010484f, -0.024363f, -0.009324f, 
  -0.032741f, -0.020559f, -0.000879f, 0.025716f, 0.012483f, -0.010315f, 0.001360f, -0.008560f, 
  -0.010602f, 0.005582f, 0.015199f, 0.014108f, 0.003515f, 0.006426f, -0.022179f, 0.005051f, 
  0.003779f, -0.007937f, -0.000064f, -0.016426f, -0.006169f, -0.009029f, 0.009201f, -0.017955f, 
  -0.005773f, 0.012936f, -0.030312f, 0.010345f, 0.003174f, 0.004315f, -0.024487f, -0.014766f, 
  -0.005412f, 0.007355f, 0.025138f, 0.014957f, -0.007673f, 0.004558f, -0.006378f, 0.014654f, 
  -0.006837f, -0.042794f, -0.040986f, -0.029560f, -0.016336f, -0.055955f, -0.015533f, -0.016075f, 
  -0.043154f, -0.025617f, 0.001920f, -0.021571f, -0.053969f, -0.038857f, -0.014384f, -0.037671f, 
  -0.039992f, -0.029442f, -0.046907f, -0.015485f, -0.008555f, -0.053229f, -0.022378f, -0.022408f, 
  -0.015535f, -0.022741f, -0.032735f, -0.050354f, -0.005375f, 0.002557f, -0.035029f, -0.011016f, 
  -0.037538f, 0.005149f, -0.025303f, -0.036057f, -0.046182f, -0.028162f, -0.028164f, -0.010221f, 
  -0.024372f, 0.000513f, -0.017324f, -0.021130f, -0.026563f, 0.001228f, -0.007908f, 0.003793f, 
  -0.037503f, 0.003554f, -0.017877f, -0.005392f, -0.030391f, -0.044721f, -0.028550f, -0.041587f, 
  -0.048760f, -0.011584f, -0.029121f, -0.043103f, -0.020789f, -0.004572f, -0.009539f, -0.021509f, 
  -0.035350f, -0.039691f, -0.028605f, -0.044881f, -0.044340f, -0.020654f, -0.037429f, -0.029146f, 
  -0.001578f, -0.026725f, -0.041186f, -0.054769f, -0.025084f, -0.010538f, -0.013855f, -0.021632f, 
  -0.049054f, 0.000412f, -0.019597f, -0.031449f, 0.001116f, -0.055934f, -0.010635f, -0.010595f, 
  -0.052459f, -0.027615f, -0.035595f, -0.032010f, -0.003684f, -0.007739f, -0.011562f, -0.021690f, 
  -0.021459f, 0.002330f, 0.006434f, -0.033789f, 0.012499f, -0.040569f, -0.014293f, -0.017540f, 
  -0.033468f, -0.052473f, -0.035395f, -0.021906f, -0.015669f, 0.000860f, 0.008281f, 0.001292f, 
  -0.011839f, -0.026118f, -0.045950f, -0.012028f, -0.020365f, -0.032246f, -0.039044f, -0.028926f, 
  -0.014862f, -0.025192f, -0.028285f, -0.032189f, -0.030330f, 0.005180f, 0.005998f, -0.024314f, 
  -0.011798f, -0.016505f, -0.017143f, -0.039230f, 0.007655f, -0.018343f, -0.014626f, 0.010685f, 
  -0.007491f, -0.034778f, -0.020114f, -0.016999f, -0.009497f, -0.043333f, -0.025792f, -0.022950f, 
  -0.035964f, -0.027043f, -0.037898f, -0.012599f, -0.036028f, -0.042618f, -0.034398f, -0.024121f, 
  -0.014855f, -0.008155f, 0.020899f, -0.021145f, 0.004150f, 0.001415f, 0.008610f, -0.003628f, 
  -0.003982f, -0.011121f, -0.025935f, -0.015646f, -0.006723f, -0.011684f, -0.010592f, -0.025708f, 
  -0.001650f, -0.019253f, -0.048719f, -0.030160f, 0.009240f, 0.008013f, -0.036049f, -0.010589f, 
  -0.036886f, -0.037987f, -0.006224f, -0.021457f, -0.049859f, 0.002137f, -0.018798f, -0.008215f, 
  0.019649f, -0.030320f, -0.008375f, -0.032991f, 0.006808f, -0.022855f, 0.025559f, -0.020784f, 
  -0.011367f, -0.025445f, -0.037980f, -0.018475f, -0.007263f, -0.036676f, -0.025220f, -0.042731f, 
  -0.002498f, -0.012932f, -0.025198f, 0.007002f, -0.036115f, -0.029311f, 0.005091f, -0.009742f, 
  -0.008209f, 0.019850f, -0.001366f, -0.031864f, -0.030287f, 0.003293f, -0.004402f, -0.023730f, 
  0.011483f, 0.009115f, -0.016334f, -0.017548f, -0.018941f, -0.013634f, 0.001242f, 0.005696f, 
  0.019643f, 0.009110f, -0.010679f, 0.015322f, 0.012809f, -0.013548f, -0.037839f, -0.020607f, 
  -0.031771f, -0.031880f, -0.000861f, -0.013432f, -0.016705f, -0.011088f, -0.028853f, -0.022620f, 
  -0.023816f, 0.008210f, 0.016652f, -0.010212f, 0.008031f, 0.026010f, 0.015119f, 0.014205f, 
  0.008771f, 0.000977f, -0.009601f, -0.029278f, 0.002112f, 0.030501f, -0.000692f, 0.005760f, 
  -0.018249f, -0.022182f, -0.011177f, -0.010355f, -0.004504f, 0.001255f, -0.019593f, -0.037961f, 
  -0.012834f, -0.022773f, -0.023921f, -0.002856f, -0.013216f, -0.003665f, -0.007955f, -0.039526f, 
  0.030043f, -0.002719f, -0.005116f, -0.005980f, -0.010707f, 0.017191f, 0.012266f, 0.003344f, 
  -0.010624f, 0.039801f, -0.009318f, 0.020206f, 0.011220f, 0.005339f, -0.022238f, -0.021323f, 
  0.012007f, -0.022567f, -0.000363f, -0.015886f, -0.025299f, -0.010623f, -0.017878f, -0.006213f, 
  -0.013570f, 0.002991f, 0.007083f, 0.006738f, 0.006558f, 0.023632f, 0.024039f, -0.002144f, 
  0.012628f, 0.022295f, 0.017387f, 0.019274f, 0.028723f, 0.038394f, -0.014240f, -0.008607f, 
  0.007674f, 0.000315f, -0.007984f, 0.011599f, -0.011514f, -0.008154f, 0.000854f, -0.002962f, 
  0.001342f, -0.022130f, -0.043408f, -0.040307f, -0.019627f, 0.005947f, -0.002271f, 0.018378f, 
  -0.004968f, 0.028917f, -0.000749f, 0.016139f, 0.004736f, 0.025587f, 0.031459f, 0.038800f, 
  -0.007879f, 0.009876f, 0.013788f, 0.000936f, 0.031804f, -0.020761f, 0.000893f, 0.015508f, 
  -0.017567f, 0.005785f, -0.023536f, -0.025734f, -0.039219f, -0.037668f, -0.016920f, -0.020159f, 
  0.001017f, 0.004386f, -0.003692f, 0.013497f, -0.022067f, -0.021277f, 0.006834f, 0.001926f, 
  0.031702f, 0.013343f, 0.035374f, -0.003984f, 0.030792f, -0.010615f, 0.003230f, 0.023269f, 
  0.041191f, 0.028229f, 0.018374f, 0.003147f, -0.012493f, -0.036443f, -0.028733f, -0.021801f, 
  -0.031275f, -0.023150f, -0.019036f, -0.043287f, -0.008419f, -0.012010f, -0.011401f, 0.019674f, 
  0.032034f, 0.041225f, 0.045601f, 0.051791f, 0.039007f, 0.009889f, 0.010354f, -0.003396f, 
  -0.007016f, -0.010487f, 0.019091f, 0.039872f, 0.023473f, 0.020111f, 0.000049f, 0.017141f, 
  -0.022521f, -0.030063f, -0.008681f, -0.035464f, -0.039762f, -0.031255f, -0.022531f, 0.000125f, 
  -0.022359f, -0.027686f, -0.005545f, -0.015673f, 0.027805f, 0.014781f, 0.017549f, 0.011552f, 
  0.056492f, 0.027386f, 0.024211f, 0.013430f, 0.020111f, 0.033538f, 0.022310f, 0.032175f, 
  0.012116f, 0.007087f, 0.005665f, 0.016337f, -0.006457f, 0.016449f, -0.016059f, -0.002549f, 
  -0.005263f, -0.032897f, -0.043843f, 0.004697f, -0.011397f, -0.019600f, -0.003656f, 0.003755f, 
  0.017965f, 0.039688f, 0.005074f, 0.055580f, 0.046022f, 0.037354f, 0.031318f, 0.015211f, 
  0.045498f, 0.011687f, 0.016863f, 0.027604f, 0.015571f, 0.008740f, 0.006360f, -0.003951f, 
  -0.023188f, 0.002096f, -0.030917f, -0.019646f, -0.046043f, -0.032631f, 0.008119f, -0.026116f, 
  -0.014860f, -0.003767f, -0.004361f, -0.005313f, 0.015045f, -0.003904f, 0.025417f, 0.002048f, 
  0.041312f, 0.052884f, 0.037841f, 0.023412f, 0.036862f, 0.005545f, 0.011708f, 0.020631f, 
  -0.005089f, -0.002652f, 0.011824f, 0.004965f, -0.021213f, -0.012706f, -0.007720f, -0.016574f, 
  -0.014697f, 0.013873f, -0.000310f, -0.022936f, -0.029147f, -0.008260f, -0.015875f, -0.012350f, 
  -0.024255f, 0.027140f, 0.027885f, 0.019648f, 0.003975f, 0.027463f, 0.020587f, 0.045721f, 
  0.015513f, -0.003958f, -0.004877f, 0.038128f, -0.014924f, -0.001857f, -0.007184f, -0.026105f, 
  0.006761f, -0.011730f, 0.004405f, -0.028075f, -0.006116f, -0.017637f, -0.029190f, -0.038737f, 
  -0.050948f, -0.002788f, -0.040079f, -0.014374f, 0.011158f, 0.017073f, -0.008853f, 0.024981f, 
  -0.001043f, -0.003757f, 0.019870f, 0.044996f, 0.005700f, 0.012396f, -0.008083f, -0.012438f, 
  -0.011960f, 0.011290f, -0.009176f, 0.006612f, -0.032687f, -0.026803f, -0.018047f, -0.021331f, 
  -0.034490f, -0.029474f, 0.008794f, 0.005040f, -0.019848f, -0.040686f, -0.032758f, -0.019992f, 
  -0.017721f, 0.017612f, 0.011869f, -0.013925f, -0.014717f, -0.027532f, -0.016730f, 0.011541f, 
  0.024954f, 0.005104f, -0.027392f, -0.006605f, -0.008984f, 0.025090f, 0.001109f, -0.003025f, 
  -0.002429f, -0.004843f, 0.002385f, -0.043102f, -0.018719f, -0.015844f, -0.013288f, -0.008270f, 
  -0.048398f, -0.024764f, -0.003218f, -0.039765f, -0.019712f, -0.010309f, -0.034212f, 0.009980f, 
  0.014901f, -0.011253f, -0.031998f, -0.020338f, 0.004288f, -0.018931f, -0.019866f, -0.016072f, 
  -0.018850f, 0.002271f, -0.009687f, 0.011192f, -0.029007f, -0.007397f, -0.005032f, 0.016463f, 
  -0.032969f, -0.041179f, 0.012299f, -0.011480f, -0.043450f, -0.020355f, -0.018471f, -0.034383f, 
  -0.006758f, -0.040222f, 0.006034f, -0.044868f, -0.004201f, -0.032986f, -0.007336f, 0.008567f, 
  -0.032640f, 0.003324f, 0.003888f, 0.006143f, 0.013143f, -0.033833f, -0.006870f, 0.006289f, 
  -0.024637f, -0.019117f, -0.013570f, -0.041849f, -0.032658f, -0.008261f, 0.015114f, -0.032372f, 
  -0.030399f, -0.001150f, -0.031677f, -0.001494f, -0.056802f, -0.036670f, -0.022065f, -0.007998f, 
  -0.017632f, 0.009917f, -0.024645f, -0.037529f, -0.017947f, -0.006547f, -0.033665f, -0.022631f, 
  -0.013288f, 0.003943f, -0.032064f, 0.002723f, -0.010002f, -0.011337f, 0.008170f, -0.017345f, 
  -0.001035f, -0.016604f, -0.031768f, -0.020968f, -0.016961f, -0.052420f, -0.037145f, -0.034273f, 
  -0.007377f, -0.022202f, -0.008914f, -0.024508f, 0.004706f, -0.031374f, -0.015203f, 0.013760f, 
  -0.032011f, 0.008081f, -0.013831f, 0.003228f, -0.014147f, 0.019753f, 0.011410f, -0.010164f, 
  0.002481f, 0.015110f, -0.004996f, -0.025166f, -0.020144f, 0.021163f, -0.027284f, -0.037684f, 
  -0.021169f, -0.025538f, -0.019107f, -0.006926f, -0.009079f, -0.012918f, -0.037091f, -0.036564f, 
  -0.033220f, -0.006812f, -0.031065f, -0.026769f, -0.001351f, -0.026972f, -0.011068f, -0.020601f, 
  -0.016244f, -0.002093f, -0.002477f, 0.001431f, -0.017662f, 0.008278f, 0.020882f, -0.007392f, 
  -0.006860f, -0.007090f, -0.011168f, -0.018944f, -0.027346f, -0.010029f, -0.044979f, -0.002645f, 
  -0.000539f, -0.035951f, -0.018556f, -0.035582f, -0.027021f, -0.010842f, -0.003570f, -0.000147f, 
  -0.006571f, -0.021891f, -0.019729f, 0.007742f, -0.005899f, -0.028199f, -0.002094f, 0.011189f, 
  -0.017488f, 0.014525f, -0.017184f, 0.019074f, 0.002032f, 0.022651f, -0.016478f, -0.019306f, 
  0.002933f, -0.020600f, -0.053049f, -0.027202f, -0.040491f, -0.018680f, -0.019730f, -0.050841f, 
  -0.033283f, -0.032776f, -0.019574f, -0.006496f, -0.002232f, -0.025241f, -0.028962f, -0.035960f, 
  -0.033302f, -0.050295f, -0.017036f, -0.024200f, -0.003792f, -0.017424f, -0.018409f, 0.002448f, 
  -0.015741f, -0.011144f, 0.012772f, -0.004602f, -0.011377f, -0.015880f, -0.007552f, -0.035096f, 
  -0.020858f, -0.023243f, -0.031411f, -0.056455f, 0.011024f, -0.039642f, -0.045815f, -0.014990f, 
  -0.039145f, -0.026274f, -0.049429f, -0.002256f, -0.002391f, -0.019324f, -0.029930f, -0.001681f, 
  -0.024242f, 0.002120f, -0.040967f, 0.000099f, -0.009805f, -0.000084f, -0.014899f, -0.020632f, 
  -0.020967f, -0.038194f, -0.033374f, -0.013277f, -0.037677f, -0.010394f, -0.031062f, -0.038582f, 
  -0.045947f, -0.021233f, -0.040451f, -0.030990f, 0.005658f, -0.032435f, 0.007516f, -0.036971f, 
  -0.025291f, -0.031038f, -0.036634f, -0.017880f, -0.008354f, -0.025934f, -0.022350f, -0.036822f, 
  -0.024603f, -0.045562f, -0.012346f, -0.026334f, -0.002518f, -0.038180f, -0.025173f, -0.039015f, 
  0.006079f, -0.003562f, -0.040254f, -0.044842f, -0.026756f, -0.041301f, -0.013330f, -0.008481f, 
  -0.041627f, -0.035798f, 0.084394f, 0.048374f, 0.074190f, 0.061281f, 0.072754f, 0.086111f, 
  0.068797f, 0.067793f, 0.066360f, 0.070123f, 0.005899f, 0.036578f, 0.039268f, 0.016822f, 
  0.059765f, 0.014564f, 0.030606f, 0.042027f, 0.029110f, 0.057043f, 0.069539f, 0.046505f, 
  0.065833f, 0.078151f, 0.072949f, 0.084972f, 0.063540f, 0.042379f, 0.057419f, 0.055469f, 
  0.071848f, 0.056819f, 0.066877f, 0.095499f, 0.079659f, 0.069932f, 0.069696f, 0.042272f, 
  0.009921f, 0.034586f, 0.027578f, 0.009795f, 0.022680f, 0.023867f, -0.005263f, -0.003545f, 
  -0.011026f, 0.019729f, 0.013116f, 0.064061f, 0.058333f, 0.061423f, 0.038721f, 0.064380f, 
  0.062395f, 0.041092f, 0.052314f, 0.067229f, 0.075075f, 0.035942f, 0.061696f, 0.060437f, 
  0.041635f, 0.049369f, 0.016512f, 0.029164f, 0.018271f, 0.003116f, 0.003204f, 0.002210f, 
  0.012107f, 0.019528f, 0.005427f, 0.047533f, 0.002904f, 0.033497f, -0.010662f, 0.014259f, 
  -0.010846f, 0.004180f, 0.035164f, 0.077629f, 0.044886f, 0.086208f, 0.034699f, 0.037823f, 
  0.033603f, 0.054062f, 0.074370f, 0.061963f, 0.069046f, 0.004086f, 0.021660f, 0.020627f, 
  0.005440f, 0.000696f, 0.012795f, 0.013028f, 0.003059f, 0.037067f, 0.014964f, 0.034212f, 
  -0.007303f, 0.005769f, 0.010091f, 0.010792f, -0.002714f, 0.034948f, 0.002929f, 0.038482f, 
  0.026138f, 0.055399f, 0.027096f, 0.037772f, 0.049548f, 0.009312f, 0.035889f, 0.050700f, 
  0.046338f, 0.032557f, 0.059742f, 0.038071f, 0.024149f, -0.011589f, 0.008412f, 0.016372f, 
  0.015162f, 0.018538f, 0.031085f, 0.020933f, -0.012341f, -0.002648f, -0.001639f, -0.021518f, 
  0.028721f, 0.022115f, 0.001775f, -0.002581f, 0.008170f, -0.012312f, 0.014801f, 0.004979f, 
  0.015524f, 0.007958f, -0.021444f, 0.071438f, 0.056841f, 0.023845f, 0.046688f, 0.008247f, 
  0.002485f, -0.014118f, 0.040932f, -0.004458f, 0.049639f, 0.033523f, 0.000559f, -0.020106f, 
  -0.003815f, -0.038273f, -0.014281f, 0.019445f, 0.015550f, 0.000737f, 0.036150f, 0.001745f, 
  -0.009458f, -0.020788f, -0.039747f, -0.013315f, -0.023967f, 0.011150f, -0.016623f, 0.011117f, 
  0.046855f, 0.051886f, 0.034083f, 0.037486f, -0.011969f, -0.012171f, 0.013584f, 0.030171f, 
  0.002187f, -0.007049f, 0.026677f, 0.009744f, -0.002538f, 0.027262f, 0.023737f, -0.000213f, 
  0.003268f, -0.015468f, -0.001324f, -0.011351f, -0.012246f, -0.012237f, -0.032499f, -0.030419f, 
  -0.010702f, 0.004758f, 0.006079f, 0.005470f, -0.008531f, 0.053797f, 0.053555f, 0.006869f, 
  0.026180f, -0.000065f, 0.000596f, 0.002890f, 0.015553f, -0.017585f, -0.001229f, -0.025242f, 
  -0.010424f, -0.027457f, 0.015240f, 0.002591f, 0.001052f, -0.004052f, -0.000547f, -0.040804f, 
  -0.044944f, -0.025071f, -0.065508f, -0.005809f, -0.039119f, 0.005673f, -0.022401f, -0.004911f, 
  -0.043679f, 0.014455f, 0.029337f, 0.003248f, 0.019643f, -0.006497f, 0.023375f, 0.030250f, 
  0.005873f, 0.046100f, -0.011234f, -0.012976f, -0.020715f, 0.009928f, 0.006646f, -0.022346f, 
  0.025633f, -0.044704f, -0.034042f, -0.035137f, -0.046197f, -0.040874f, -0.035911f, -0.028723f, 
  -0.052599f, -0.049847f, 0.010624f, -0.028207f, -0.015232f, -0.025370f, 0.001116f, 0.073948f, 
  0.043829f, 0.063020f, 0.032630f, 0.025060f, 0.020211f, -0.012895f, 0.006378f, 0.003562f, 
  0.020578f, -0.015367f, 0.004230f, -0.013102f, -0.005033f, -0.043392f, -0.048443f, -0.059146f, 
  -0.037697f, -0.040463f, -0.003940f, -0.048604f, -0.031218f, -0.043056f, -0.023251f, -0.066383f, 
  -0.004682f, -0.024713f, 0.014111f, 0.014342f, 0.026025f, 0.028928f, 0.055855f, 0.022936f, 
  0.025400f, -0.009813f, -0.002304f, 0.005625f, -0.002928f, 0.003734f, -0.021989f, -0.031343f, 
  -0.047484f, -0.059312f, -0.046396f, -0.007453f, -0.001268f, -0.036346f, -0.041023f, -0.016049f, 
  -0.024148f, -0.034199f, -0.055587f, -0.009980f, -0.039685f, 0.020828f, 0.007404f, 0.038637f, 
  0.033663f, 0.060651f, 0.057295f, 0.014229f, 0.004893f, 0.028813f, 0.013039f, -0.001731f, 
  -0.002431f, -0.026182f, -0.010096f, -0.027079f, -0.063166f, -0.042716f, -0.036126f, -0.027149f, 
  -0.023489f, -0.043636f, -0.028716f, -0.000804f, -0.040882f, -0.008274f, -0.030370f, -0.051678f, 
  0.031587f, -0.001000f, 0.032482f, 0.042361f, 0.050478f, 0.060798f, 0.023549f, 0.017237f, 
  -0.011663f, 0.015352f, -0.015724f, -0.002228f, -0.027599f, -0.033449f, -0.059489f, -0.061651f, 
  -0.059992f, -0.029944f, -0.050759f, -0.041701f, -0.016725f, -0.043296f, -0.019166f, -0.041772f, 
  -0.033292f, -0.021184f, -0.042747f, -0.005583f, 0.014630f, 0.036226f, 0.074703f, 0.050811f, 
  0.055551f, 0.046699f, 0.059452f, 0.042133f, -0.000983f, -0.038236f, -0.039053f, -0.028759f, 
  -0.045473f, -0.047834f, -0.027744f, -0.046343f, -0.033774f, -0.058613f, -0.044588f, -0.046645f, 
  -0.058069f, -0.051762f, -0.071999f, -0.041635f, -0.010073f, -0.020529f, -0.011274f, -0.004651f, 
  0.014784f, 0.024786f, 0.012720f, 0.057571f, 0.050172f, 0.047212f, 0.040625f, 0.021235f, 
  0.008918f, -0.006999f, -0.036668f, -0.034624f, -0.054758f, -0.039355f, -0.054381f, -0.023257f, 
  -0.030882f, -0.027640f, -0.024489f, -0.041534f, -0.046604f, -0.021305f, -0.055524f, -0.037115f, 
  -0.028359f, 0.007327f, 0.026252f, 0.013420f, 0.018824f, 0.038374f, 0.008649f, 0.018039f, 
  0.053380f, 0.037411f, 0.045051f, 0.046843f, 0.029916f, 0.003620f, -0.037573f, -0.059549f, 
  -0.018176f, -0.030319f, -0.062669f, -0.013182f, -0.002000f, -0.020232f, 0.005397f, -0.063737f, 
  -0.016348f, -0.023882f, 0.022089f, 0.021530f, 0.013552f, 0.029576f, 0.073409f, 0.037113f, 
  0.047106f, 0.061024f, 0.046697f, 0.064130f, 0.040433f, 0.075230f, 0.069414f, 0.059771f, 
  0.060535f, 0.065941f, -0.023210f, -0.024318f, -0.044807f, -0.061263f, -0.041294f, 0.000377f, 
  -0.035127f, -0.016628f, -0.013486f, -0.015074f, 0.035476f, 0.062736f, 0.052398f, 0.070343f, 
  0.055903f, 0.086777f, 0.057581f, 0.094500f, 0.066401f, 0.098955f, 0.059685f, 0.088775f, 
  0.074788f, 0.084785f, 0.085829f, 0.096174f, 0.063078f, 0.047499f, 0.065856f, -0.044979f, 
  -0.021808f, -0.003218f, 0.006259f, -0.015596f, -0.001040f, -0.015420f, 0.020241f, 0.033311f, 
  0.043702f, 0.050523f, 0.075446f, 0.092241f, 0.101177f, 0.060713f, 0.061766f, 0.057871f, 
  0.071948f, 0.062139f, 0.069478f, 0.060284f, 0.065652f, 0.078853f, 0.052704f, 0.064893f, 
  0.072434f, 0.071673f, 0.050601f, 0.078626f, -0.036877f, -0.023443f, 0.015288f, 0.002806f, 
  0.004162f, 0.020310f, 0.027564f, 0.034693f, 0.046456f, 0.069963f, 0.065549f, 0.065887f, 
  0.067258f, 0.082419f, 0.071114f, 0.068453f, 0.080107f, 0.050120f, 0.045080f, 0.043111f, 
  0.055684f, 0.042223f, 0.066561f, 0.061062f, 0.078783f, 0.071875f, 0.072206f, 0.062266f, 
  0.049883f, -0.004376f, -0.001501f, 0.003909f, 0.057364f, 0.041526f, 0.051864f, 0.032609f, 
  0.012105f, 0.053562f, 0.047500f, 0.062280f, 0.050258f, 0.084803f, 0.045534f, 0.063579f, 
  0.026554f, 0.064453f, 0.071528f, 0.042955f, 0.070543f, 0.084248f, 0.058456f, 0.075932f, 
  0.066015f, 0.087658f, 0.053495f, 0.058108f, 0.026863f, 0.065218f, 0.028784f, 0.031260f, 
  0.021014f, 0.068511f, 0.057611f, 0.074454f, 0.054977f, 0.032142f, 0.035647f, 0.014713f, 
  0.045288f, 0.051521f, 0.064655f, 0.067202f, 0.056223f, 0.067033f, 0.024199f, 0.047012f, 
  0.026266f, 0.077512f, 0.068750f, 0.071385f, 0.036489f, 0.061530f, 0.069286f, 0.068990f, 
  0.059743f, 0.046629f, 0.047261f, 0.013886f, 0.041635f, 0.021938f, 0.053669f, 0.047312f, 
  0.032552f, 0.039558f, 0.044015f, 0.034340f, 0.017035f, 0.064015f, 0.046958f, 0.061621f, 
  0.046271f, 0.045452f, 0.064336f, 0.050601f, 0.042253f, 0.034475f, 0.043148f, 0.070528f, 
  0.060555f, 0.055487f, 0.059892f, 0.081359f, 0.065712f, 0.046094f, 0.044779f, 0.085366f, 
  0.033221f, 0.001185f, 0.060845f, 0.056493f, 0.062935f, 0.054629f, 0.031922f, 0.068024f, 
  0.007293f, 0.004414f, 0.040903f, 0.037805f, 0.027107f, 0.051271f, 0.057691f, 0.051013f, 
  0.040122f, 0.048562f, 0.033434f, 0.070104f, 0.045604f, 0.073455f, 0.062210f, 0.069853f, 
  0.064017f, 0.054289f, 0.071189f, 0.063865f, 0.028589f, 0.048759f, 0.053632f, 0.064570f, 
  0.045241f, 0.088712f, 0.065357f, 0.082762f, 0.066902f, 0.052027f, 0.025804f, 0.073922f, 
  0.045910f, 0.065750f, 0.028043f, 0.058015f, 0.059852f, 0.057925f, 0.041590f, 0.046252f, 
  0.065981f, 0.054956f, 0.053410f, 0.081567f, 0.049298f, 0.053688f, 0.022464f, 0.062464f, 
  0.073720f, 0.065842f, 0.047117f, 0.069929f, 0.049903f, 0.053645f, 0.068854f, 0.046560f, 
  0.085102f, 0.078195f, 0.030826f, 0.040150f, 0.029950f, 0.054485f, 0.041726f, 0.026374f, 
  0.061555f, 0.035562f, 0.073741f, 0.046288f, 0.035773f, 0.048671f, 0.040024f, 0.047257f, 
  0.051507f, 0.062147f, 0.046084f, 0.087928f, 0.043071f, 0.054625f, 0.038996f, 0.038671f, 
  0.085519f, 0.031351f, 0.033754f, 0.056932f, 0.069222f, 0.059809f, 0.045767f, 0.045727f, 
  0.052947f, 0.011683f, 0.045816f, 0.051094f, 0.036649f, 0.042737f, 0.062166f, 0.069417f, 
  0.019469f, 0.031568f, 0.054772f, 0.075163f, 0.069394f, 0.045865f, 0.065873f, 0.025922f, 
  0.061531f, 0.036144f, 0.041555f, 0.095135f, 0.084824f, 0.039853f, 0.060815f, 0.062921f, 
  0.095404f, 0.057483f, 0.047922f, 0.040946f, 0.057567f, 0.072276f, 0.078471f, 0.012289f, 
  0.027098f, 0.094197f, 0.072467f, 0.045957f, 0.089733f, 0.066360f, 0.063868f, 0.055116f, 
  0.074608f, 0.078041f, 0.082583f, 0.051944f, 0.067992f, 0.049774f, 0.062935f, 0.070612f, 
  0.066696f, 0.076956f, 0.069764f, 0.080134f, 0.047017f, 0.066363f, 0.060740f, 0.045104f, 
  0.037078f, 0.040244f, 0.033657f, 0.043016f, 0.053420f, 0.066131f, 0.045562f, 0.061329f, 
  0.066464f, 0.055863f, 0.068187f, 0.050678f, 0.067714f, 0.041177f, 0.074105f, 0.031634f, 
  0.062598f, 0.051203f, 0.080058f, 0.039187f, 0.063739f, 0.036641f, 0.058610f, 0.068336f, 
  0.095409f, 0.047718f, 0.023978f, 0.076070f, 0.070129f, 0.031760f, 0.071885f, 0.048918f, 
  0.054513f, 0.023675f, 0.047841f, 0.028094f, 0.022937f, 0.041146f, 0.064882f, 0.046244f, 
  0.039883f, 0.065866f, 0.049896f, 0.056622f, 0.073901f, 0.059693f, 0.069124f, 0.075983f, 
  0.092637f, 0.047915f, 0.071185f, -0.003264f, 0.009188f, 0.015078f, -0.003218f, 0.004459f, 
  -0.025945f, -0.005317f, 0.004027f, 0.015589f, 0.012433f, 0.012564f, -0.022158f, 0.038970f, 
  0.003358f, 0.020774f, -0.003845f, -0.025780f, 0.020648f, 0.018434f, 0.011673f, 0.019985f, 
  0.009723f, 0.021616f, -0.002569f, 0.002208f, 0.021083f, 0.019109f, 0.016454f, 0.025891f, 
  0.008335f, -0.011037f, 0.013270f, -0.018014f, 0.012028f, 0.014772f, 0.013676f, -0.012379f, 
  -0.024693f, -0.002028f, 0.016686f, 0.022930f, 0.000090f, 0.025428f, 0.023082f, 0.026829f, 
  0.006251f, 0.018838f, 0.007499f, -0.003515f, -0.020985f, -0.005037f, 0.013541f, 0.016584f, 
  -0.025600f, -0.004976f, 0.016232f, -0.016337f, 0.007258f, -0.024202f, 0.030909f, -0.006198f, 
  0.013599f, -0.014145f, -0.005368f, 0.016264f, -0.029904f, -0.013861f, -0.016037f, 0.005724f, 
  0.016691f, -0.004186f, -0.024262f, -0.003483f, 0.000583f, 0.001579f, -0.018526f, -0.019496f, 
  -0.003387f, 0.009052f, -0.016436f, 0.008937f, -0.009105f, -0.012806f, -0.021007f, -0.011198f, 
  0.020471f, 0.012716f, 0.006090f, -0.004667f, 0.010876f, 0.007179f, -0.005863f, 0.001488f, 
  0.020461f, -0.002529f, -0.006889f, 0.021705f, -0.002790f, -0.025055f, 0.009071f, -0.012489f, 
  0.027641f, -0.012580f, 0.021419f, -0.026643f, 0.015055f, -0.015408f, -0.007531f, 0.015512f, 
  0.014604f, 0.000140f, 0.001670f, -0.004550f, 0.013849f, -0.004185f, -0.003227f, 0.009658f, 
  -0.013936f, -0.015991f, -0.004005f, 0.012679f, 0.023409f, 0.011070f, 0.002725f, 0.004359f, 
  0.030908f, 0.003208f, 0.024197f, 0.012727f, 0.007636f, -0.009598f, 0.011033f, 0.010777f, 
  0.018318f, 0.006683f, -0.007947f, -0.009921f, 0.005445f, 0.005117f, 0.021866f, -0.001111f, 
  -0.010945f, 0.002030f, -0.003903f, 0.015039f, -0.017273f, 0.013973f, 0.006488f, 0.010375f, 
  0.001251f, -0.016166f, 0.019526f, 0.024837f, 0.026588f, 0.015897f, 0.011027f, -0.004375f, 
  0.023219f, 0.009405f, -0.012391f, 0.031621f, 0.018694f, 0.010202f, -0.010647f, 0.010614f, 
  0.029380f, -0.007284f, 0.013518f, 0.006148f, -0.006423f, 0.014177f, 0.001467f, 0.003891f, 
  0.014888f, -0.002101f, -0.015961f, -0.034595f, 0.015151f, 0.017173f, -0.004429f, -0.014211f, 
  0.035794f, -0.019431f, 0.011776f, 0.017172f, 0.020143f, 0.002748f, 0.000833f, -0.007602f, 
  0.008785f, 0.021922f, -0.013595f, -0.011056f, -0.002109f, 0.020414f, -0.010465f, 0.003628f, 
  -0.017812f, 0.028048f, -0.020251f, -0.013165f, -0.010048f, -0.010434f, 0.015678f, 0.002941f, 
  0.016499f, -0.006036f, -0.021047f, 0.026608f, 0.014159f, 0.021042f, -0.002829f, -0.004524f, 
  -0.003110f, -0.009471f, -0.001787f, 0.002573f, 0.043661f, 0.035522f, -0.017113f, 0.029218f, 
  -0.002121f, 0.011902f, -0.007745f, 0.005931f, 0.011140f, -0.011220f, 0.003677f, -0.003184f, 
  -0.001912f, 0.028647f, 0.008429f, -0.005292f, -0.016286f, 0.006275f, -0.005419f, 0.007896f, 
  -0.000112f, -0.015010f, 0.023997f, -0.030011f, 0.011495f, -0.015267f, -0.032624f, 0.022665f, 
  0.031780f, 0.010087f, 0.015700f, 0.023688f, 0.018028f, 0.011500f, -0.028970f, 0.000523f, 
  0.004026f, 0.042293f, -0.008525f, 0.008425f, 0.031558f, -0.018236f, 0.032377f, 0.021491f, 
  0.000686f, 0.032202f, -0.030099f, 0.023865f, 0.037403f, -0.010642f, -0.022083f, 0.000195f, 
  0.004941f, 0.017074f, 0.017436f, 0.018900f, -0.004492f, -0.009174f, -0.003615f, -0.001847f, 
  0.011295f, 0.014549f, 0.018843f, 0.016854f, -0.001827f, 0.018698f, 0.009827f, 0.032337f, 
  -0.004866f, 0.000861f, -0.009987f, 0.005911f, 0.005703f, 0.020954f, -0.010284f, 0.023219f, 
  -0.008643f, 0.010749f, 0.019491f, 0.009403f, 0.005270f, 0.018923f, 0.036659f, 0.013242f, 
  0.010412f, 0.005391f, -0.006702f, 0.001675f, 0.023484f, -0.011947f, 0.009176f, -0.010876f, 
  0.025734f, 0.022101f, 0.048102f, 0.010820f, 0.013929f, 0.005567f, 0.007693f, 0.003720f, 
  0.006170f, 0.021245f, -0.023242f, 0.012866f, 0.008197f, 0.004523f, -0.002533f, 0.007825f, 
  -0.004791f, -0.000886f, 0.009022f, -0.018131f, -0.007330f, 0.018164f, 0.009797f, 0.030635f, 
  0.025511f, 0.040032f, 0.034507f, 0.004771f, -0.013281f, 0.039899f, -0.001205f, -0.010633f, 
  0.012530f, -0.005249f, 0.012983f, -0.003124f, 0.017332f, -0.013164f, 0.030167f, 0.012046f, 
  0.000968f, -0.014213f, -0.017521f, -0.004064f, 0.005661f, -0.019580f, -0.020232f, -0.017291f, 
  -0.010715f, 0.001227f, 0.004185f, 0.022491f, 0.011160f, 0.041809f, 0.018540f, 0.008816f, 
  -0.006855f, 0.029223f, 0.015000f, -0.016805f, 0.017529f, 0.038376f, 0.023603f, 0.013244f, 
  0.012619f, 0.026957f, 0.045568f, -0.000885f, 0.002947f, -0.028354f, 0.010616f, 0.009352f, 
  -0.006864f, -0.008837f, -0.007476f, 0.001076f, -0.031429f, -0.000382f, 0.002608f, 0.028678f, 
  -0.008118f, 0.021991f, 0.006594f, 0.012554f, 0.020594f, 0.006538f, 0.024861f, 0.034636f, 
  0.005532f, 0.038671f, 0.023247f, 0.008308f, -0.000544f, 0.009280f, -0.014638f, 0.030926f, 
  0.028953f, 0.021297f, 0.013758f, 0.003405f, -0.019838f, -0.036670f, -0.026900f, -0.010605f, 
  0.033118f, -0.004386f, 0.013674f, 0.045479f, 0.034297f, 0.053856f, 0.027258f, 0.009723f, 
  -0.000425f, 0.029382f, 0.026997f, 0.023642f, 0.028224f, 0.041171f, 0.022587f, 0.029359f, 
  0.029576f, -0.006839f, -0.015242f, 0.017590f, 0.046722f, -0.000391f, 0.010709f, 0.008042f, 
  0.002038f, -0.027913f, -0.009014f, -0.013492f, -0.016044f, 0.024731f, 0.026191f, 0.014078f, 
  0.040632f, -0.001258f, 0.032292f, 0.043826f, 0.055687f, 0.048906f, 0.024941f, 0.015747f, 
  0.020482f, 0.064214f, 0.034756f, 0.020296f, 0.017532f, 0.020009f, -0.011753f, 0.005916f, 
  0.026053f, -0.006139f, 0.016412f, -0.024034f, 0.030183f, 0.000091f, -0.013669f, 0.017385f, 
  0.014526f, -0.001737f, 0.012951f, 0.024049f, 0.026961f, 0.038883f, 0.029630f, 0.074414f, 
  0.052247f, 0.027787f, 0.041184f, 0.028655f, 0.037153f, 0.034364f, 0.042025f, 0.022329f, 
  0.035876f, 0.020326f, 0.025470f, 0.040038f, 0.011020f, 0.018402f, 0.005309f, 0.004068f, 
  -0.011349f, 0.007436f, -0.011817f, 0.000829f, 0.015227f, -0.003717f, 0.021618f, 0.028229f, 
  0.038893f, 0.015857f, 0.060084f, 0.047150f, 0.049004f, 0.049859f, 0.035967f, 0.026237f, 
  0.003475f, 0.025204f, 0.019820f, 0.015091f, 0.038342f, 0.035817f, 0.013909f, 0.025713f, 
  0.013626f, 0.001989f, 0.027850f, -0.012216f, 0.020776f, 0.007169f, 0.007667f, 0.011898f, 
  0.026830f, 0.023289f, 0.002311f, 0.008102f, 0.021702f, 0.039313f, 0.045033f, 0.014420f, 
  0.039651f, 0.057915f, 0.029913f, 0.042323f, 0.036862f, 0.038134f, 0.017719f, 0.019229f, 
  0.051435f, 0.000176f, 0.041647f, 0.027543f, -0.018592f, 0.000381f, 0.008404f, 0.020263f, 
  -0.002102f, -0.010398f, -0.001140f, 0.010447f, -0.009456f, 0.003172f, 0.007398f, 0.032908f, 
  0.017608f, 0.043033f, -0.003213f, 0.035211f, 0.006159f, 0.051572f, 0.010192f, 0.029019f, 
  0.030151f, 0.028786f, 0.015398f, 0.000977f, 0.018577f, 0.040341f, 0.019257f, 0.042208f, 
  0.014422f, 0.007261f, 0.002802f, -0.015705f, -0.027007f, 0.027625f, 0.004685f, 0.013419f, 
  0.000574f, 0.016330f, -0.002148f, 0.006701f, 0.013969f, 0.010556f, 0.018130f, 0.042140f, 
  0.017962f, -0.019228f, 0.007179f, 0.026265f, 0.043548f, 0.003383f, 0.060382f, 0.003542f, 
  0.024651f, -0.001207f, 0.011856f, 0.045219f, 0.000530f, 0.032873f, 0.003252f, 0.025186f, 
  -0.015487f, 0.005655f, 0.018876f, 0.006181f, 0.002278f, 0.007881f, 0.035656f, 0.023424f, 
  0.017566f, -0.012458f, 0.004541f, 0.008163f, 0.012953f, -0.001958f, 0.002641f, 0.033069f, 
  0.020224f, 0.023895f, 0.035130f, 0.049170f, 0.026654f, 0.030005f, 0.020118f, 0.014242f, 
  0.030834f, 0.010974f, 0.017411f, -0.006845f, 0.031733f, 0.000340f, -0.004556f, 0.008129f, 
  -0.009485f, -0.025090f, 0.027029f, 0.025519f, 0.008868f, -0.019873f, 0.005474f, 0.026642f, 
  -0.018506f, 0.016011f, -0.009988f, -0.000451f, 0.024815f, 0.020764f, 0.043394f, 0.030107f, 
  0.044420f, 0.021470f, 0.013445f, 0.022665f, 0.007147f, 0.018208f, 0.003717f, 0.036430f, 
  0.021801f, 0.001939f, 0.012086f, 0.023393f, -0.003031f, -0.000653f, -0.000678f, 0.020607f, 
  -0.003514f, 0.012718f, 0.002849f, -0.005584f, 0.015989f, 0.013447f, -0.014113f, 0.006617f, 
  -0.001987f, 0.013760f, 0.001309f, 0.051205f, 0.029624f, 0.016228f, -0.014432f, 0.004986f, 
  0.035309f, 0.004470f, 0.019955f, 0.020378f, 0.004233f, 0.022747f, -0.010953f, 0.039130f, 
  0.037180f, 0.016190f, 0.021188f, 0.005516f, 0.018815f, -0.001514f, -0.002380f, -0.011278f, 
  0.020786f, 0.027615f, 0.006458f, 0.030410f, 0.008821f, 0.012470f, 0.007425f, 0.007487f, 
  -0.015676f, 0.011522f, 0.019295f, -0.004423f, 0.019909f, 0.020348f, 0.043962f, 0.003717f, 
  -0.000668f, 0.040663f, 0.020230f, -0.015052f, 0.031166f, 0.013034f, 0.013049f, -0.005446f, 
  0.009772f, 0.033039f, -0.002488f, 0.013939f, 0.007067f, 0.028912f, 0.003096f, 0.016003f, 
  0.023106f, 0.014436f, 0.002633f, -0.006763f, 0.014626f, 0.017284f, 0.006094f, -0.008880f, 
  0.019343f, 0.012454f, 0.006498f, 0.010970f, -0.005561f, 0.011650f, 0.013810f, 0.022734f, 
  0.008819f, 0.014828f, 0.011484f, -0.004532f, -0.001053f, -0.001144f, 0.011285f, 0.019375f, 
  0.001837f, 0.009542f, -0.020707f, 0.001193f, -0.000806f, -0.021167f, -0.002999f, 0.015075f, 
  -0.005417f, 0.032656f, 0.004858f, 0.021766f, -0.001178f, 0.027373f, 0.007557f, 0.017338f, 
  0.001512f, -0.017789f, 0.020105f, 0.003303f, -0.017818f, 0.019957f, 0.013598f, -0.004331f, 
  -0.008523f, 0.007905f, 0.013368f, -0.017069f, 0.030521f, -0.022593f, 0.010430f, 0.031691f, 
  0.008065f, -0.021755f, 0.011965f, 0.038591f, -0.006041f, 0.021208f, -0.004372f, 0.028304f, 
  -0.011313f, 0.018538f, -0.000998f, 0.026395f, 0.003602f, -0.001830f, 0.013852f, 0.019680f, 
  -0.004458f, -0.008375f, -0.010617f, 0.017626f, -0.019486f, -0.022419f, 0.002943f, -0.015149f, 
  0.044871f, -0.001018f, 0.012601f, 0.002919f, 0.016255f, 0.006889f, 0.001331f, -0.000706f, 
  0.012303f, 0.021303f, 0.014501f, -0.000258f, 0.014400f, 0.035341f, 0.005831f, 0.012061f, 
  0.029511f, 0.044128f, -0.013997f, 0.009732f, 0.015522f, 0.020475f, 0.001541f, 0.010689f, 
  0.026929f, 0.026249f, -0.011310f, -0.005359f, -0.010522f, -0.023146f, -0.020335f, -0.017219f, 
  -0.014916f, -0.013055f, -0.028298f, -0.026443f, 0.004911f, -0.009367f, 0.006117f, -0.012707f, 
  0.002299f, -0.015787f, -0.016553f, -0.013412f, -0.012862f, -0.018494f, -0.011984f, -0.025288f, 
  0.005115f, -0.004388f, 0.003812f, -0.005040f, 0.013335f, 0.006208f, -0.010738f, -0.025923f, 
  -0.027842f, -0.019259f, -0.010468f, -0.043455f, -0.036985f, -0.045498f, -0.046091f, -0.003613f, 
  -0.029940f, -0.015157f, -0.049317f, 0.012027f, 0.011329f, -0.035203f, -0.000250f, 0.003391f, 
  0.015463f, -0.016924f, 0.019414f, -0.020960f, -0.010419f, -0.024796f, -0.028393f, -0.016411f, 
  -0.005410f, -0.004728f, 0.005483f, -0.042556f, -0.037781f, 0.004042f, -0.032669f, -0.012368f, 
  -0.021098f, -0.004054f, 0.000066f, -0.026172f, -0.012625f, -0.001288f, -0.000683f, -0.019477f, 
  0.000108f, 0.000395f, -0.010450f, -0.023414f, 0.007435f, -0.024481f, -0.009196f, 0.007573f, 
  0.015202f, -0.013336f, -0.006892f, -0.010938f, -0.019999f, -0.014342f, -0.017438f, -0.023850f, 
  -0.021319f, -0.012363f, 0.009322f, 0.007997f, -0.030083f, -0.031974f, -0.043074f, -0.033596f, 
  -0.040205f, -0.037032f, -0.020956f, 0.006490f, -0.026078f, -0.028245f, 0.028239f, -0.007965f, 
  -0.003797f, -0.024374f, -0.013094f, 0.004445f, 0.003803f, -0.026178f, -0.042138f, -0.023057f, 
  -0.025016f, -0.025078f, -0.042268f, -0.045782f, -0.025518f, -0.026401f, -0.042918f, 0.003572f, 
  -0.020564f, -0.027578f, -0.029484f, -0.035199f, -0.000520f, -0.001513f, 0.021033f, -0.024317f, 
  0.007434f, -0.025896f, 0.002170f, -0.005132f, 0.008160f, -0.014932f, -0.020615f, 0.003814f, 
  -0.000164f, -0.012734f, -0.009721f, -0.002564f, -0.024254f, -0.029647f, -0.033105f, -0.022505f, 
  -0.022428f, -0.020231f, -0.000298f, -0.007636f, -0.001801f, -0.008577f, -0.012952f, 0.001543f, 
  -0.002757f, -0.014462f, -0.017212f, 0.009040f, 0.001051f, -0.027248f, 0.001893f, -0.004232f, 
  -0.001657f, 0.005746f, -0.005285f, 0.009548f, 0.007622f, 0.004496f, -0.020808f, -0.020198f, 
  -0.004073f, 0.002500f, -0.029173f, 0.007647f, -0.000060f, -0.046867f, -0.010636f, -0.016247f, 
  -0.002314f, 0.006587f, -0.011818f, -0.021772f, -0.017849f, -0.043169f, 0.032951f, 0.002236f, 
  0.001698f, 0.015269f, 0.005202f, -0.022184f, 0.027620f, 0.017050f, -0.017573f, -0.033742f, 
  0.019892f, -0.005076f, -0.002904f, -0.008128f, -0.008820f, -0.012009f, 0.001449f, 0.010959f, 
  0.009819f, -0.013683f, -0.003944f, 0.005050f, 0.001064f, 0.022147f, 0.007352f, -0.006692f, 
  -0.021696f, -0.004000f, 0.021962f, -0.006515f, -0.009149f, 0.017620f, 0.018192f, -0.018654f, 
  -0.001161f, -0.006399f, 0.005788f, 0.030085f, -0.001859f, -0.008726f, 0.002898f, -0.017800f, 
  -0.008413f, 0.004689f, -0.009318f, -0.011358f, -0.001178f, -0.014764f, 0.020010f, -0.009454f, 
  -0.021472f, 0.000240f, -0.014474f, -0.003355f, -0.001818f, -0.022298f, -0.013996f, -0.003693f, 
  0.009984f, -0.031077f, 0.000777f, -0.005239f, -0.009331f, -0.013060f, 0.014787f, 0.007167f, 
  -0.005224f, 0.023172f, 0.015542f, -0.019669f, 0.013003f, -0.008867f, 0.005492f, 0.007903f, 
  0.016016f, 0.008523f, 0.010214f, -0.007676f, -0.024394f, -0.003578f, -0.002413f, 0.020691f, 
  -0.000084f, -0.020594f, 0.004146f, -0.043836f, -0.014179f, -0.011027f, -0.016029f, -0.018950f, 
  0.022824f, -0.022873f, -0.014365f, -0.017191f, -0.014264f, 0.015911f, -0.010847f, 0.010983f, 
  -0.002293f, -0.010011f, 0.001255f, -0.017819f, 0.009656f, 0.027658f, 0.034458f, -0.029508f, 
  -0.000811f, 0.023021f, -0.004855f, -0.013712f, -0.009400f, -0.016706f, -0.005932f, -0.033416f, 
  -0.007062f, -0.003599f, -0.028542f, 0.013685f, 0.024968f, 0.011364f, -0.006938f, -0.010774f, 
  -0.003997f, -0.006295f, 0.006622f, 0.000670f, 0.021431f, 0.019675f, 0.023595f, 0.043181f, 
  0.002567f, 0.024647f, 0.002717f, 0.004544f, -0.006442f, -0.001846f, 0.019488f, 0.027926f, 
  0.007090f, 0.003236f, -0.006956f, -0.027091f, -0.044999f, -0.031478f, -0.010575f, 0.012932f, 
  0.010856f, 0.011237f, 0.011774f, -0.023991f, 0.016186f, 0.017553f, 0.052677f, 0.023343f, 
  0.030866f, 0.006149f, -0.009359f, 0.014333f, 0.005103f, 0.013646f, 0.006733f, 0.014664f, 
  0.014907f, 0.011789f, 0.014368f, 0.006514f, 0.009250f, 0.004748f, -0.013366f, -0.026754f, 
  -0.012296f, 0.003201f, -0.013201f, 0.005730f, 0.009407f, -0.015884f, 0.024222f, -0.010047f, 
  0.025173f, 0.043820f, 0.010727f, 0.035242f, 0.015212f, 0.010555f, 0.037659f, 0.015789f, 
  0.017033f, 0.029552f, 0.038642f, -0.003125f, 0.037889f, -0.002553f, -0.010214f, -0.000212f, 
  -0.008787f, -0.035157f, -0.008399f, -0.014440f, -0.014714f, -0.028327f, -0.017807f, 0.022549f, 
  -0.016222f, 0.013390f, 0.024516f, 0.035181f, 0.028703f, 0.024321f, 0.039951f, 0.019418f, 
  0.047532f, 0.035048f, 0.004649f, 0.037081f, 0.010174f, 0.035752f, 0.020676f, 0.028093f, 
  -0.005168f, 0.026051f, -0.018913f, -0.015625f, -0.018255f, -0.020083f, -0.035493f, 0.015624f, 
  -0.018319f, -0.007595f, -0.021036f, 0.024146f, 0.011079f, 0.024118f, 0.009982f, 0.012114f, 
  0.026689f, 0.042745f, 0.015407f, -0.001701f, 0.032189f, 0.016529f, 0.028845f, 0.019588f, 
  0.033023f, 0.032219f, 0.048793f, 0.043503f, 0.024612f, 0.008603f, -0.000352f, -0.000431f, 
  -0.004138f, -0.024730f, -0.009033f, 0.010468f, -0.014955f, -0.023746f, -0.010952f, -0.027195f, 
  -0.000552f, -0.004881f, 0.012846f, 0.039539f, 0.026422f, 0.049334f, 0.028405f, 0.015359f, 
  0.036762f, 0.014743f, 0.036300f, 0.052769f, 0.015408f, 0.051922f, 0.020787f, 0.001285f, 
  0.024542f, -0.003140f, 0.003390f, 0.001437f, -0.004568f, -0.024033f, -0.020176f, -0.000379f, 
  -0.013714f, -0.036316f, 0.003548f, -0.044291f, 0.008689f, -0.012226f, 0.017782f, 0.012687f, 
  0.027010f, 0.025549f, -0.008034f, 0.021715f, 0.030603f, 0.031558f, 0.019952f, 0.004845f, 
  0.034129f, 0.013294f, 0.025933f, 0.029720f, 0.020005f, -0.002050f, -0.014305f, -0.024674f, 
  -0.006157f, -0.025870f, -0.021236f, -0.040120f, 0.002660f, -0.026642f, -0.015976f, 0.010328f, 
  -0.032714f, -0.002358f, 0.028241f, 0.019710f, 0.008567f, 0.015846f, -0.018405f, 0.012876f, 
  -0.000019f, -0.001970f, 0.056676f, 0.025165f, 0.024383f, 0.001928f, 0.028575f, 0.012991f, 
  0.001068f, 0.010513f, -0.003464f, 0.005907f, -0.016349f, -0.015759f, -0.050856f, -0.013287f, 
  -0.026129f, -0.040121f, 0.001718f, -0.021575f, -0.025234f, 0.001374f, 0.000465f, -0.006346f, 
  0.007229f, -0.002558f, -0.001880f, 0.025046f, 0.009117f, -0.004109f, 0.029426f, 0.003225f, 
  0.013084f, 0.026480f, -0.009058f, 0.021838f, -0.008342f, 0.020948f, -0.003861f, 0.001020f, 
  -0.014826f, -0.028565f, -0.006816f, -0.018898f, -0.040704f, -0.002013f, -0.018730f, -0.026182f, 
  -0.018652f, -0.024110f, -0.020365f, -0.017110f, -0.004999f, 0.009704f, -0.018749f, -0.005931f, 
  -0.000658f, -0.000940f, -0.005846f, -0.001527f, 0.032297f, -0.008694f, 0.006505f, 0.005251f, 
  0.009251f, 0.032789f, -0.025860f, 0.004605f, -0.022070f, 0.007362f, 0.003521f, 0.009405f, 
  -0.010305f, -0.018050f, -0.043589f, 0.001458f, -0.003434f, -0.029920f, -0.041091f, -0.046708f, 
  -0.011332f, -0.003120f, -0.017916f, 0.004566f, -0.027051f, -0.001152f, 0.019131f, -0.002839f, 
  0.002449f, -0.030111f, -0.012932f, 0.002694f, 0.034523f, 0.004807f, 0.010259f, 0.006192f, 
  0.001490f, -0.005324f, 0.003780f, 0.005149f, -0.024427f, -0.023135f, -0.000872f, -0.035717f, 
  -0.035205f, -0.032115f, -0.013875f, -0.026782f, -0.017383f, 0.011034f, 0.003691f, -0.021362f, 
  0.023833f, 0.022766f, -0.025794f, 0.005273f, -0.002141f, 0.014186f, 0.015415f, -0.001421f, 
  0.001776f, 0.017874f, 0.020677f, 0.018886f, 0.023237f, -0.002018f, -0.006637f, 0.027496f, 
  -0.012268f, -0.009934f, -0.023908f, 0.011660f, 0.001817f, -0.030927f, -0.016885f, 0.004724f, 
  -0.014889f, -0.023703f, -0.036392f, -0.021990f, -0.022187f, -0.004878f, -0.013654f, -0.009170f, 
  -0.017818f, 0.009631f, 0.006710f, 0.005502f, 0.018518f, 0.011666f, 0.037689f, -0.006370f, 
  0.019419f, 0.035327f, -0.019206f, 0.024255f, -0.023462f, -0.015892f, -0.006158f, -0.032032f, 
  0.009786f, -0.029264f, -0.033135f, -0.012069f, 0.013183f, -0.021710f, -0.001314f, -0.025482f, 
  -0.022182f, -0.009047f, 0.003442f, -0.006796f, -0.014804f, -0.019291f, -0.022210f, 0.008393f, 
  -0.003640f, 0.020243f, 0.007064f, -0.023386f, 0.004349f, 0.018456f, 0.013771f, -0.026656f, 
  0.010157f, -0.006431f, -0.019253f, -0.028058f, -0.039578f, -0.020227f, -0.012574f, -0.032012f, 
  -0.002282f, -0.025148f, -0.015487f, -0.021286f, -0.022702f, 0.001777f, -0.013942f, -0.031285f, 
  0.001490f, -0.030224f, -0.020075f, -0.013188f, 0.006788f, -0.026111f, -0.001713f, -0.007456f, 
  0.016588f, 0.005324f, -0.006702f, -0.014907f, -0.016193f, 0.021417f, 0.010598f, -0.001407f, 
  -0.022301f, -0.029546f, 0.004926f, -0.009922f, -0.017699f, -0.029391f, -0.045937f, -0.015812f, 
  -0.031630f, -0.022764f, 0.003098f, -0.026416f, 0.000467f, 0.005764f, -0.020993f, -0.008297f, 
  -0.031930f, -0.004973f, -0.002268f, -0.018128f, -0.009716f, 0.025488f, 0.016857f, 0.007898f, 
  0.008586f, -0.027782f, -0.022970f, -0.006247f, -0.039528f, -0.028019f, -0.016710f, -0.002646f, 
  -0.042711f, -0.008978f, 0.002632f, 0.005032f, -0.001585f, -0.002902f, -0.006872f, -0.005281f, 
  -0.025963f, -0.034748f, -0.006022f, -0.011707f, -0.029996f, -0.014407f, 0.002926f, -0.009693f, 
  -0.034744f, -0.028004f, -0.010179f, -0.008756f, 0.021523f, -0.005364f, -0.025890f, -0.014487f, 
  -0.028996f, -0.001838f, -0.045491f, -0.012736f, 0.007710f, -0.017564f, 0.000446f, -0.005410f, 
  -0.037481f, -0.008828f, -0.007633f, -0.010266f, -0.045388f, 0.014291f, -0.038721f, -0.039860f, 
  -0.030748f, -0.013129f, 0.000808f, -0.035095f, -0.014995f, -0.015790f, -0.010170f, -0.003497f, 
  -0.025131f, -0.009670f, -0.006743f, -0.008752f, -0.030150f, -0.024991f, -0.027424f, -0.020977f, 
  0.000342f, -0.020541f, -0.033321f, -0.005411f, -0.039782f, -0.022498f, -0.020216f, -0.037901f, 
  -0.006201f, -0.021492f, -0.030404f, 0.007905f, -0.026969f, -0.015951f, -0.031263f, -0.040241f, 
  -0.002149f, -0.015753f, 0.006457f, -0.001569f, -0.001306f, -0.005032f, -0.039551f, -0.007484f, 
  0.020983f, -0.003065f, -0.032725f, -0.019407f, -0.025593f, -0.014452f, -0.012299f, -0.012518f, 
  0.010071f, -0.007288f, -0.032935f, -0.011260f, -0.017659f, 0.005155f, -0.009688f, 0.013272f, 
  0.006949f, -0.009152f, 0.008713f, 0.029665f, -0.007619f, 0.012694f, 0.000208f, 0.006663f, 
  0.037585f, 0.032802f, 0.032482f, 0.020731f, 0.019715f, -0.010243f, 0.003953f, 0.010286f, 
  0.005741f, 0.013530f, 0.005391f, 0.013282f, 0.004448f, 0.015137f, 0.033065f, 0.017248f, 
  0.026084f, 0.017009f, 0.021464f, 0.023312f, -0.015874f, 0.030664f, 0.009947f, 0.040071f, 
  0.000936f, 0.007918f, -0.028861f, 0.046493f, 0.015368f, 0.016719f, 0.007371f, -0.008221f, 
  -0.013906f, 0.026875f, 0.019300f, 0.002059f, 0.027060f, -0.012574f, 0.015142f, 0.030935f, 
  0.013173f, -0.006114f, 0.002379f, -0.009826f, 0.037355f, 0.021264f, -0.013694f, 0.021764f, 
  0.027361f, -0.000271f, 0.020018f, 0.007110f, -0.013909f, -0.014465f, -0.000337f, 0.003673f, 
  -0.007259f, 0.007311f, 0.000801f, -0.001949f, 0.010447f, 0.019890f, -0.014237f, -0.013601f, 
  0.012717f, -0.012645f, 0.019609f, 0.018004f, 0.006313f, 0.027777f, -0.002127f, 0.019399f, 
  0.003937f, -0.012191f, 0.025877f, 0.029506f, 0.005176f, 0.027312f, -0.003752f, 0.011831f, 
  0.031535f, 0.011327f, -0.005153f, 0.007149f, -0.022887f, -0.028794f, -0.000269f, 0.015638f, 
  0.024354f, 0.001620f, -0.033083f, -0.006331f, 0.010832f, 0.013566f, -0.010430f, 0.010346f, 
  -0.004064f, -0.005658f, 0.029764f, 0.022185f, 0.012181f, -0.000386f, 0.008168f, 0.031036f, 
  0.013846f, 0.016455f, -0.027154f, 0.032320f, 0.000858f, 0.030992f, 0.026586f, -0.008462f, 
  0.000541f, -0.022013f, -0.005517f, -0.030109f, -0.007586f, -0.015737f, 0.025670f, -0.011424f, 
  0.004818f, 0.000654f, -0.010041f, -0.014991f, -0.003078f, 0.007385f, 0.024892f, 0.013807f, 
  -0.002703f, 0.021774f, -0.000557f, 0.036990f, -0.001952f, 0.008596f, 0.013523f, 0.017754f, 
  -0.010752f, 0.015111f, 0.017566f, -0.020528f, -0.022885f, -0.001893f, -0.022461f, -0.010658f, 
  -0.023765f, -0.013450f, 0.018393f, -0.005256f, -0.005140f, -0.007888f, -0.032297f, -0.013376f, 
  -0.033226f, -0.005552f, -0.018626f, 0.005216f, 0.015366f, -0.005420f, -0.016581f, 0.031417f, 
  -0.009347f, 0.002914f, 0.002995f, 0.001861f, 0.017999f, 0.000957f, 0.022276f, -0.006959f, 
  0.024541f, -0.008805f, 0.019385f, -0.006293f, -0.028781f, -0.010804f, -0.003628f, -0.024534f, 
  -0.008822f, 0.000796f, 0.005912f, -0.002067f, -0.010487f, -0.026368f, -0.022535f, -0.011138f, 
  -0.032912f, -0.013089f, 0.003243f, -0.002653f, -0.002768f, 0.011603f, 0.003275f, 0.013031f, 
  -0.019682f, 0.012523f, 0.002823f, -0.003793f, 0.007885f, 0.008684f, 0.024422f, 0.026079f, 
  -0.018534f, -0.014126f, -0.001882f, 0.028944f, 0.003601f, 0.002137f, 0.006466f, -0.003382f, 
  -0.003400f, 0.009850f, -0.016395f, -0.006730f, -0.016628f, -0.008556f, -0.000724f, 0.004160f, 
  0.006044f, 0.011026f, -0.004141f, -0.002282f, 0.013954f, 0.036475f, -0.016360f, 0.000739f, 
  -0.004641f, 0.002251f, -0.008480f, 0.008825f, -0.027752f, -0.000173f, -0.007583f, 0.005087f, 
  0.016482f, -0.015573f, 0.010853f, -0.004930f, -0.027500f, -0.043790f, -0.005015f, -0.007766f, 
  -0.016210f, -0.010370f, -0.013189f, 0.007434f, -0.022644f, -0.007082f, 0.002738f, 0.022690f, 
  0.024664f, -0.025507f, -0.018789f, 0.022517f, 0.014766f, -0.006878f, -0.014207f, -0.010946f, 
  -0.010820f, -0.016424f, 0.011730f, -0.002081f, -0.016034f, -0.003876f, -0.029829f, -0.011931f, 
  0.020873f, -0.023632f, -0.021486f, -0.020665f, 0.005196f, -0.006644f, -0.025876f, 0.000399f, 
  0.020667f, 0.028383f, 0.009760f, -0.016186f, -0.012640f, 0.001723f, -0.005204f, 0.020412f, 
  0.038199f, 0.004082f, 0.011931f, -0.004551f, 0.011516f, -0.031389f, 0.005593f, -0.004211f, 
  -0.037273f, -0.017185f, 0.004729f, 0.006384f, -0.006519f, -0.029849f, 0.003533f, -0.017737f, 
  -0.033855f, 0.005783f, -0.046058f, -0.021735f, -0.028896f, 0.010630f, 0.009524f, -0.000802f, 
  -0.005959f, 0.020671f, 0.015488f, 0.002909f, -0.014762f, 0.024895f, -0.003848f, 0.038895f, 
  0.006618f, 0.002550f, -0.026685f, 0.013227f, 0.007837f, 0.000230f, 0.009511f, -0.002837f, 
  0.002881f, -0.022850f, -0.019191f, -0.019426f, -0.025849f, -0.055410f, -0.030511f, -0.029883f, 
  -0.034104f, -0.007299f, 0.016652f, -0.006956f, -0.015297f, -0.026786f, -0.000929f, -0.012451f, 
  -0.002489f, 0.012725f, -0.023600f, -0.005178f, 0.017439f, 0.002037f, -0.018510f, -0.031780f, 
  -0.015748f, 0.012980f, -0.018265f, -0.003351f, -0.024129f, -0.016425f, -0.038812f, -0.024763f, 
  -0.034874f, -0.030977f, -0.022256f, -0.018024f, 0.010105f, -0.015520f, -0.006550f, -0.035771f, 
  -0.001130f, -0.014184f, -0.039430f, -0.006518f, -0.005073f, 0.020980f, -0.023119f, 0.015066f, 
  0.015279f, -0.009163f, -0.002164f, -0.025798f, 0.003739f, -0.014369f, 0.004964f, -0.034008f, 
  -0.051344f, -0.019293f, -0.007646f, -0.035397f, -0.014587f, -0.024156f, -0.029335f, -0.033149f, 
  -0.047911f, -0.033458f, -0.060864f, -0.019065f, 0.010902f, -0.020770f, -0.003208f, -0.014744f, 
  -0.012065f, -0.003278f, -0.031438f, 0.000295f, 0.014837f, -0.015109f, 0.026677f, -0.013740f, 
  0.008038f, -0.007678f, -0.025988f, -0.013429f, -0.046441f, -0.019387f, -0.036317f, -0.043709f, 
  -0.041181f, -0.035344f, -0.022725f, -0.054752f, -0.052660f, -0.025851f, -0.002262f, -0.045290f, 
  -0.027952f, -0.016614f, -0.039414f, -0.023915f, 0.026131f, -0.020741f, -0.007862f, -0.014953f, 
  -0.021032f, -0.015204f, -0.008391f, 0.021091f, -0.021552f, -0.022881f, -0.000249f, -0.029328f, 
  -0.015718f, -0.029674f, -0.008474f, -0.018329f, -0.015392f, -0.033700f, -0.044992f, -0.041360f, 
  -0.055209f, -0.037495f, -0.043433f, -0.011550f, -0.006237f, -0.032033f, -0.013902f, -0.016002f, 
  -0.013163f, -0.021858f, 0.020961f, -0.022707f, -0.013276f, 0.018101f, -0.023804f, 0.000671f, 
  -0.012331f, -0.006914f, 0.025456f, 0.012827f, -0.033783f, -0.027264f, -0.006622f, -0.015124f, 
  -0.029905f, -0.045591f, -0.046764f, -0.023655f, -0.066391f, -0.034018f, -0.058264f, -0.027199f, 
  -0.033992f, -0.033549f, -0.000855f, 0.005106f, -0.008825f, -0.019729f, -0.004890f, 0.012219f, 
  0.008561f, -0.003743f, -0.028636f, 0.000259f, -0.000275f, 0.029186f, -0.003322f, 0.006977f, 
  -0.037044f, -0.015954f, -0.013887f, -0.003602f, -0.020993f, -0.032313f, -0.029181f, -0.029263f, 
  -0.021077f, 0.016455f, -0.011420f, -0.045542f, -0.034875f, -0.030818f, -0.041538f, -0.010905f, 
  -0.005409f, 0.005602f, -0.035351f, 0.012258f, 0.018891f, 0.025959f, -0.004672f, 0.029028f, 
  -0.013604f, -0.044781f, 0.019047f, 0.001937f, -0.015442f, -0.002052f, -0.002511f, -0.026750f, 
  0.004814f, -0.001097f, -0.028977f, -0.013877f, -0.019570f, -0.000093f, -0.027418f, 0.012157f, 
  -0.015556f, 0.011013f, 0.012044f, -0.005611f, -0.013145f, -0.006020f, 0.021495f, -0.003394f, 
  0.001372f, -0.019780f, 0.027284f, 0.007931f, -0.000126f, 0.006101f, 0.021558f, 0.018620f, 
  -0.014763f, 0.022381f, -0.015499f, 0.016133f, 0.007501f, -0.009424f, -0.010931f, -0.000520f, 
  -0.011170f, -0.003136f, -0.021625f, -0.033856f, -0.004546f, -0.006385f, 0.015743f, -0.014695f, 
  0.002657f, 0.007738f, -0.014860f, -0.033153f, -0.002087f, -0.009837f, 0.014330f, 0.027681f, 
  0.021824f, 0.020557f, 0.002503f, -0.023778f, 0.006782f, -0.017020f, 0.026016f, 0.003383f, 
  0.020890f, -0.004192f, -0.010351f, -0.006932f, 0.017971f, 0.002423f, -0.000810f, -0.036211f, 
  -0.031457f, 0.013161f, -0.041966f, -0.023515f, 0.007467f, -0.022716f, 0.008141f, -0.002311f, 
  0.009211f, -0.017575f, -0.003577f, -0.018293f, 0.019250f, 0.010550f, 0.003149f, -0.010980f, 
  0.018092f, -0.018226f, -0.006744f, -0.013732f, -0.008301f, -0.021658f, 0.026281f, -0.010238f, 
  -0.007253f, 0.003144f, -0.025925f, -0.004879f, -0.006578f, -0.029733f, -0.003083f, -0.025566f, 
  0.003334f, 0.008464f, -0.014849f, 0.009438f, 0.009438f, -0.016162f, 0.027061f, 0.008464f, 
  0.028213f, 0.032650f, 0.018108f, -0.005054f, 0.021069f, 0.036586f, 0.009441f, 0.007254f, 
  0.012129f, -0.018090f, -0.003170f, 0.015260f, -0.004220f, 0.000792f, -0.014191f, -0.014556f, 
  -0.018883f, -0.000016f, 0.004949f, -0.029014f, -0.005268f, 0.005054f, -0.014955f, -0.003952f, 
  0.018920f, 0.022007f, -0.002496f, -0.020946f, 0.012832f, 0.001703f, -0.022955f, 0.016093f, 
  -0.015794f, -0.003130f, -0.014066f, -0.018778f, -0.014936f, -0.013150f, 0.015723f, 0.007113f, 
  0.018460f, 0.003742f, -0.010602f, 0.023761f, -0.009665f, -0.023777f, 0.014247f, -0.001298f, 
  -0.001803f, 0.026156f, 0.005165f, -0.012052f, -0.000670f, 0.022521f, -0.003548f, -0.003022f, 
  0.015778f, 0.028851f, -0.016001f, -0.012715f, 0.006780f, -0.007866f, -0.002132f, -0.010266f, 
  0.005340f, -0.014728f, -0.001773f, -0.029366f, 0.022646f, 0.015889f, 0.015881f, -0.004806f, 
  -0.004453f, 0.001191f, -0.019576f, 0.007869f, -0.014625f, 0.017703f, 0.006580f, -0.012613f, 
  -0.025650f, -0.004239f, -0.027498f, -0.021332f, 0.032588f, -0.008252f, -0.017565f, 0.013583f, 
  -0.009306f, -0.009414f, 0.011733f, -0.017765f, -0.001955f, 0.000901f, 0.014278f, 0.000073f, 
  -0.030076f, -0.010985f, 0.037128f, 0.009480f, 0.025262f, -0.001057f, -0.027950f, -0.006989f, 
  0.036453f, -0.002896f, -0.012684f, 0.006178f, -0.005010f, -0.004715f, -0.002406f, -0.003927f, 
  -0.027506f, 0.002131f, -0.001712f, 0.023142f, -0.019763f, -0.012676f, 0.035829f, 0.012222f, 
  -0.004033f, -0.010167f, -0.000454f, 0.011555f, -0.007430f, -0.013352f, -0.001112f, 0.008158f, 
  -0.003920f, -0.019007f, -0.022217f, 0.012447f, -0.000669f, -0.007267f, -0.001258f, 0.000649f, 
  0.012398f, 0.015502f, -0.020274f, 0.005209f, 0.021917f, 0.023170f, 0.022441f, -0.011232f, 
  0.015643f, 0.015607f, 0.023494f, 0.006130f, -0.025452f, 0.022460f, 0.026385f, 0.013315f, 
  0.013432f, 0.040088f, -0.004035f, -0.008384f, 0.002002f, 0.009068f, -0.007674f, -0.004547f, 
  0.007017f, -0.016169f, 0.005687f, -0.006796f, 0.008219f, -0.010431f, -0.013240f, -0.008696f, 
  -0.023890f, -0.000386f, -0.031899f, 0.031581f, 0.024780f, 0.031054f, -0.001972f, -0.011118f, 
  -0.024231f, 0.000487f, -0.007686f, -0.008739f, -0.011980f, -0.010080f, 0.005539f, 0.019665f, 
  0.013339f, 0.008819f, -0.007461f, 0.011127f, -0.002303f, 0.011797f, 0.011820f, 0.012172f, 
  -0.024836f, 0.019565f, 0.001002f, -0.020336f, 0.002318f, 0.011814f, -0.007883f, -0.007379f, 
  0.014442f, -0.012254f, 0.014497f, 0.015859f, -0.017907f, 0.002706f, -0.019474f, 0.006395f, 
  -0.036241f, -0.000697f, -0.004993f, 0.000826f, -0.006041f, 0.000003f, -0.002540f, -0.000621f, 
  -0.007659f, -0.036703f, -0.013554f, 0.005509f, -0.004715f, 0.018229f, -0.027101f, 0.007501f, 
  -0.005180f, -0.034592f, -0.031878f, -0.012638f, 0.014712f, -0.021061f, 0.003936f, -0.008733f, 
  -0.011857f, -0.010340f, -0.014508f, -0.037953f, -0.015053f, 0.013477f, 0.006795f, -0.015430f, 
  -0.013020f, -0.004485f, -0.020254f, -0.013627f, -0.021309f, -0.002662f, -0.006886f, -0.010467f, 
  -0.017442f, -0.012987f, -0.004380f, -0.000475f, -0.017634f, -0.006995f, -0.007650f, -0.011659f, 
  -0.014064f, 0.000579f, 0.010340f, -0.011155f, -0.002361f, -0.002849f, -0.016994f, -0.019760f, 
  0.007130f, -0.030463f, 0.000926f, -0.003915f, 0.014608f, -0.010540f, -0.029081f, 0.005227f, 
  -0.020320f, 0.012549f, -0.004944f, 0.002384f, -0.017312f, -0.021422f, -0.018103f, 0.005078f, 
  -0.030167f, -0.010567f, 0.015258f, -0.013998f, -0.012977f, 0.012295f, -0.016234f, 0.003900f, 
  0.005789f, -0.039392f, -0.027548f, 0.009853f, -0.019820f, -0.018214f, -0.006446f, -0.001064f, 
  0.009661f, -0.013827f, -0.003621f, -0.004999f, -0.022195f, -0.007336f, 0.014622f, 0.000292f, 
  -0.036072f, -0.015354f, 0.003686f, -0.001020f, 0.011082f, 0.004020f, 0.001252f, 0.014189f, 
  -0.018121f, -0.015824f, -0.011708f, -0.009468f, -0.019502f, -0.014499f, -0.006367f, 0.006784f, 
  -0.003848f, -0.007042f, -0.015437f, -0.028190f, -0.027164f, -0.021466f, 0.006827f, -0.002924f, 
  -0.017489f, 0.015041f, -0.004782f, -0.021707f, -0.016890f, 0.009689f, -0.018280f, -0.023218f, 
  -0.026272f, -0.013275f, 0.008137f, 0.005584f, 0.010742f, 0.000690f, -0.033131f, -0.033068f, 
  0.002495f, -0.028709f, 0.013314f, 0.008974f, -0.005658f, -0.028358f, 0.010940f, -0.014372f, 
  -0.014625f, 0.003882f, -0.010451f, 0.016237f, -0.000643f, -0.000048f, 0.004521f, -0.006735f, 
  -0.000501f, -0.005822f, 0.001001f, 0.022358f, -0.000056f, 0.000416f, 0.015693f, 0.007315f, 
  0.008144f, 0.013903f, 0.013387f, -0.016159f, -0.014920f, 0.004931f, -0.035957f, -0.028934f, 
  -0.027274f, 0.010461f, -0.009015f, -0.027547f, -0.002646f, 0.015524f, -0.005838f, -0.037745f, 
  -0.018290f, 0.014576f, 0.031334f, -0.019156f, -0.001099f, -0.003109f, 0.021174f, -0.022033f, 
  0.009811f, -0.038240f, -0.002209f, -0.011485f, 0.017145f, -0.009061f, -0.006453f, -0.004238f, 
  -0.005312f, -0.023073f, -0.011094f, -0.039684f, -0.008376f, -0.007632f, -0.029501f, -0.001919f, 
  0.015779f, -0.001553f, 0.004419f, -0.040105f, -0.007926f, -0.008479f, 0.002616f, -0.001051f, 
  0.010360f, -0.004066f, -0.019275f, -0.018868f, 0.003645f, -0.001647f, -0.004919f, 0.013923f, 
  -0.002249f, -0.018136f, -0.005350f, -0.025482f, 0.022163f, -0.012820f, 0.018319f, -0.009402f, 
  -0.010881f, 0.000327f, -0.003857f, -0.006818f, -0.032738f, 0.022377f, -0.001699f, -0.009714f, 
  0.028128f, -0.011844f, -0.011716f, 0.015331f, 0.004914f, -0.023225f, -0.002416f, -0.020022f, 
  -0.022760f, 0.007486f, -0.002662f, -0.015170f, -0.003729f, -0.032014f, 0.021387f, -0.005069f, 
  -0.009519f, 0.028089f, 0.024945f, -0.000412f, 0.025921f, -0.026868f, 0.022608f, -0.020647f, 
  -0.012008f, -0.011749f, -0.000940f, -0.014635f, -0.014884f, -0.010181f, -0.024326f, 0.015248f, 
  0.012087f, -0.001283f, 0.004058f, -0.003382f, 0.011842f, -0.013342f, -0.007146f, 0.001866f, 
  0.018566f, 0.004246f, 0.009566f, 0.004816f, 0.000324f, 0.040603f, 0.006176f, 0.023497f, 
  -0.011744f, 0.000755f, 0.009120f, 0.000054f, -0.015535f, 0.018639f, -0.012397f, -0.000714f, 
  0.006418f, -0.017830f, -0.014447f, 0.006230f, -0.000436f, 0.000490f, 0.004170f, -0.001654f, 
  -0.007803f, 0.029711f, -0.013957f, -0.008751f, 0.006680f, -0.011701f, 0.001403f, 0.006425f, 
  0.013448f, 0.012906f, 0.044562f, 0.028083f, 0.005947f, 0.003664f, -0.011554f, -0.000296f, 
  -0.006035f, 0.009465f, 0.014689f, -0.025691f, 0.006593f, -0.015460f, 0.013680f, -0.015356f, 
  -0.003070f, -0.000195f, 0.009772f, 0.002059f, 0.000931f, 0.019380f, 0.032600f, 0.007627f, 
  0.013246f, 0.031530f, 0.009939f, 0.026108f, 0.000448f, 0.032906f, 0.033053f, 0.022612f, 
  0.022879f, 0.040612f, 0.003582f, 0.013643f, 0.013789f, 0.003126f, 0.021684f, -0.002810f, 
  -0.005889f, 0.016721f, 0.011954f, -0.000934f, -0.003840f, -0.018875f, -0.001925f, -0.021391f, 
  0.025016f, -0.000432f, 0.032803f, 0.021669f, 0.002001f, 0.012322f, 0.017680f, 0.038965f, 
  0.033601f, 0.010732f, 0.028966f, 0.031248f, 0.024265f, 0.018821f, 0.013410f, 0.030952f, 
  0.007369f, 0.011161f, 0.008665f, -0.014918f, -0.032612f, -0.034275f, 0.022112f, -0.003388f, 
  -0.016902f, 0.022126f, 0.010615f, -0.019220f, -0.003479f, 0.006414f, 0.002560f, 0.024683f, 
  0.048244f, 0.056125f, 0.006186f, 0.011812f, 0.046788f, 0.003505f, 0.012583f, 0.013084f, 
  0.036989f, 0.021621f, 0.019617f, 0.029665f, -0.000901f, 0.000624f, 0.019140f, -0.005141f, 
  0.023432f, -0.020767f, -0.010626f, -0.036384f, 0.001418f, -0.021438f, 0.016194f, 0.027123f, 
  0.009703f, 0.030408f, -0.007203f, 0.047448f, 0.041826f, 0.004918f, 0.030536f, 0.018145f, 
  0.026867f, 0.046206f, 0.043564f, 0.023400f, 0.025849f, 0.047589f, 0.027072f, 0.016675f, 
  0.011689f, 0.039341f, 0.001856f, 0.006996f, -0.005820f, 0.008345f, 0.001510f, -0.001964f, 
  -0.003034f, 0.020603f, 0.024096f, -0.003297f, 0.022331f, -0.016116f, 0.019585f, 0.022005f, 
  0.027609f, 0.048141f, 0.029264f, 0.030061f, 0.056027f, 0.021173f, 0.033903f, 0.020057f, 
  0.022292f, 0.029092f, 0.042234f, 0.030510f, 0.016688f, -0.022750f, -0.010399f, 0.000382f, 
  0.009815f, 0.014264f, 0.013601f, 0.007164f, -0.012182f, -0.009854f, -0.035808f, 0.010643f, 
  -0.006321f, -0.000688f, -0.001619f, 0.005945f, 0.034901f, 0.036666f, 0.019846f, 0.032999f, 
  0.033501f, 0.073965f, 0.034820f, 0.023277f, 0.045718f, 0.023144f, 0.017835f, -0.011762f, 
  0.011107f, 0.001513f, 0.014873f, 0.008934f, -0.002383f, -0.011179f, -0.008959f, -0.004842f, 
  -0.035693f, 0.024551f, -0.026468f, 0.002756f, -0.016824f, 0.004964f, -0.011427f, 0.018723f, 
  -0.006546f, 0.022970f, 0.009279f, 0.030765f, 0.053144f, 0.019655f, 0.052736f, 0.040299f, 
  0.042186f, 0.000076f, -0.001826f, 0.022261f, 0.002342f, 0.021122f, -0.003855f, 0.027129f, 
  -0.003825f, -0.000180f, 0.006014f, 0.003500f, -0.012613f, -0.003136f, 0.003504f, -0.009210f, 
  -0.034348f, -0.010289f, 0.002146f, 0.005533f, 0.022967f, 0.018815f, -0.008285f, 0.011823f, 
  -0.001671f, 0.026236f, 0.002458f, 0.009424f, -0.010004f, 0.034181f, 0.015300f, 0.006404f, 
  -0.000805f, -0.020288f, 0.044813f, 0.013082f, 0.026912f, 0.001315f, -0.010610f, 0.006472f, 
  -0.023089f, -0.004077f, 0.003514f, 0.000531f, -0.022756f, 0.017778f, -0.006491f, -0.007581f, 
  -0.024005f, 0.036966f, 0.011934f, 0.000660f, 0.011518f, -0.017500f, -0.013752f, 0.007553f, 
  0.015574f, 0.033211f, -0.004088f, 0.021066f, -0.008458f, 0.008954f, 0.016830f, -0.005124f, 
  0.028335f, 0.018140f, -0.015171f, -0.009485f, -0.031928f, 0.017046f, -0.025635f, -0.020325f, 
  -0.041594f, -0.001408f, 0.005735f, -0.022479f, 0.015536f, 0.017910f, 0.011393f, 0.003223f, 
  0.004258f, -0.020388f, -0.002379f, 0.025498f, -0.004551f, -0.023109f, 0.019215f, -0.015781f, 
  -0.015562f, 0.022922f, -0.013867f, -0.012286f, 0.034126f, 0.012755f, -0.005951f, -0.002752f, 
  -0.020399f, -0.012676f, -0.023097f, -0.051486f, -0.012894f, -0.020391f, -0.000026f, -0.001978f, 
  -0.022407f, -0.019719f, -0.018836f, 0.007733f, 0.016379f, 0.002792f, -0.011001f, 0.018379f, 
  -0.000158f, 0.012022f, 0.022052f, 0.004205f, 0.017270f, 0.030555f, 0.006504f, -0.008540f, 
  0.034829f, -0.017434f, 0.015462f, 0.007640f, 0.002991f, 0.006659f, -0.014752f, -0.005449f, 
  0.007507f, 0.003585f, -0.004042f, -0.039143f, -0.000959f, -0.021406f, -0.017438f, -0.031173f, 
  -0.003539f, -0.025501f, 0.004478f, -0.024773f, 0.010601f, 0.028718f, 0.022621f, 0.012021f, 
  0.002885f, 0.011226f, -0.002538f, 0.008339f, 0.031180f, 0.020801f, -0.003869f, 0.005215f, 
  -0.011558f, 0.002386f, -0.039804f, -0.026088f, -0.020660f, -0.003679f, -0.000490f, 0.003853f, 
  0.004741f, -0.001383f, -0.003322f, 0.016070f, -0.000829f, -0.010045f, 0.005810f, -0.033569f, 
  0.018674f, -0.012708f, 0.020499f, 0.023289f, 0.008619f, -0.007524f, -0.005679f, -0.014534f, 
  0.000913f, 0.006694f, 0.003193f, -0.001406f, 0.007655f, -0.023072f, -0.005452f, -0.003684f, 
  -0.042212f, -0.022905f, -0.018967f, -0.011074f, -0.030963f, -0.008372f, -0.016089f, 0.013474f, 
  -0.005196f, -0.024453f, -0.000247f, 0.007184f, -0.000009f, -0.011848f, -0.012173f, 0.001711f, 
  0.002977f, -0.004011f, 0.006301f, 0.037754f, -0.014364f, -0.010445f, -0.011647f, -0.010836f, 
  0.022870f, -0.014898f, -0.032238f, 0.000036f, -0.005377f, 0.006779f, -0.004928f, -0.019576f, 
  0.003248f, -0.019777f, -0.035695f, 0.006534f, -0.024155f, -0.008765f, 0.003823f, -0.008444f, 
  0.007187f, -0.006502f, 0.022091f, -0.029629f, 0.014344f, 0.004058f, 0.022327f, -0.004521f, 
  -0.003243f, -0.018078f, 0.014757f, 0.006287f, -0.010137f, 0.020415f, 0.018731f, 0.005365f, 
  0.000193f, 0.006937f, -0.022410f, 0.009381f, -0.031597f, -0.012964f, 0.001486f, -0.039871f, 
  0.007628f, 0.011923f, -0.007554f, -0.007822f, -0.018401f, -0.001426f, 0.001319f, -0.018318f, 
  -0.003645f, -0.007733f, -0.008480f, 0.002089f, -0.017703f, -0.004101f, 0.006738f, 0.003533f, 
  -0.024858f, -0.001203f, -0.005534f, 0.010396f, 0.011038f, -0.011005f, 0.016050f, -0.031039f, 
  -0.018518f, -0.013425f, -0.023599f, -0.008365f, 0.004457f, 0.011554f, 0.020799f, -0.023608f, 
  -0.016411f, -0.004698f, -0.031630f, -0.021850f, -0.006002f, -0.021711f, 0.002228f, 0.012969f, 
  0.005749f, -0.022440f, -0.013844f, -0.013736f, -0.001715f, -0.004501f, -0.013927f, 0.000759f, 
  -0.013564f, 0.020523f, -0.030703f, -0.009148f, 0.016013f, -0.000832f, -0.019053f, -0.032881f, 
  -0.000548f, -0.017561f, -0.015270f, 0.007329f, -0.027475f, -0.005406f, -0.017343f, -0.006355f, 
  0.001979f, -0.000348f, -0.003140f, 0.019274f, 0.020251f, -0.020157f, -0.029862f, -0.012373f, 
  -0.014239f, 0.001320f, -0.019982f, -0.019127f, -0.002217f, -0.006799f, -0.004984f, -0.000117f, 
  -0.022053f, -0.016854f, -0.006534f, -0.021330f, -0.025441f, -0.025111f, 0.002420f, -0.008707f, 
  0.007487f, 0.014162f, 0.041915f, 0.023495f, 0.023288f, 0.021502f, -0.000611f, -0.003952f, 
  0.009077f, 0.002502f, 0.038537f, 0.003080f, 0.040809f, 0.008509f, 0.019041f, 0.002567f, 
  0.017046f, 0.027510f, 0.033978f, 0.006509f, 0.004184f, -0.020580f, -0.009328f, 0.013787f, 
  0.011846f, 0.013550f, 0.008896f, 0.029228f, 0.018921f, 0.024717f, 0.015979f, 0.031050f, 
  -0.015405f, 0.033065f, 0.049666f, 0.026493f, 0.021110f, -0.006070f, 0.004169f, 0.031633f, 
  0.009778f, 0.013057f, 0.019184f, -0.004730f, 0.009182f, 0.012893f, -0.006810f, 0.020569f, 
  0.000449f, -0.023957f, 0.029891f, 0.018744f, 0.015700f, 0.023884f, 0.017495f, 0.009601f, 
  -0.010764f, 0.001884f, 0.023599f, 0.024374f, 0.008015f, 0.001840f, 0.004037f, -0.002590f, 
  0.000898f, 0.014791f, 0.005520f, 0.003877f, 0.017140f, 0.002038f, 0.004918f, 0.011292f, 
  0.038676f, -0.006192f, 0.032098f, 0.013797f, 0.012443f, 0.020104f, 0.011998f, 0.022460f, 
  0.048513f, 0.002115f, 0.032996f, 0.011056f, 0.021285f, -0.027325f, 0.034948f, 0.017635f, 
  -0.005178f, 0.008185f, 0.048796f, 0.008911f, 0.046916f, 0.015775f, 0.007048f, 0.019016f, 
  -0.006901f, -0.004599f, 0.028562f, -0.001273f, -0.006449f, 0.020977f, -0.002037f, 0.004538f, 
  -0.022025f, -0.001480f, -0.008763f, 0.007240f, -0.007202f, -0.013630f, 0.029455f, -0.015830f, 
  -0.016288f, -0.022496f, 0.002194f, 0.001995f, -0.021541f, 0.009206f, 0.010532f, 0.006452f, 
  0.041822f, 0.042894f, 0.010778f, -0.008939f, 0.017910f, 0.014689f, 0.006011f, 0.012194f, 
  -0.024625f, 0.017631f, 0.020385f, 0.035458f, 0.005666f, -0.024625f, 0.028784f, 0.025406f, 
  0.009059f, 0.007235f, 0.013508f, -0.014210f, 0.000678f, -0.000807f, 0.005965f, 0.023562f, 
  0.003662f, 0.012010f, -0.014481f, -0.022375f, 0.002963f, -0.011966f, -0.006844f, -0.013846f, 
  0.017414f, 0.014222f, 0.036723f, 0.009234f, -0.021567f, -0.014297f, -0.001953f, 0.006975f, 
  0.031843f, -0.001196f, 0.008039f, 0.021113f, -0.002812f, 0.012044f, -0.000058f, -0.014181f, 
  -0.009537f, -0.003590f, 0.033633f, 0.022558f, -0.009182f, 0.026371f, 0.017650f, 0.014712f, 
  0.014643f, -0.003341f, 0.022520f, -0.009263f, -0.011838f, 0.003306f, 0.013793f, -0.002849f, 
  0.012885f, 0.021746f, -0.008784f, -0.001786f, 0.000129f, 0.029073f, -0.014525f, 0.012236f, 
  0.029254f, 0.015636f, -0.022267f, 0.015539f, 0.025724f, 0.012724f, 0.007383f, -0.022584f, 
  0.005121f, 0.030827f, 0.027591f, -0.012616f, 0.022242f, 0.019373f, 0.030734f, 0.015084f, 
  0.007914f, -0.009477f, -0.001501f, 0.020463f, 0.001386f, 0.002160f, -0.010785f, 0.022671f, 
  0.002539f, -0.002510f, -0.015009f, 0.014775f, -0.003805f, -0.000223f, -0.007867f, 0.003214f, 
  0.000066f, 0.002061f, -0.001152f, -0.019417f, -0.005413f, 0.026940f, 0.015461f, -0.001173f, 
  0.004859f, 0.031585f, 0.021706f, -0.001619f, 0.036091f, -0.012839f, -0.022220f, 0.010326f, 
  0.012783f, 0.029703f, 0.011103f, -0.014565f, -0.000389f, -0.002084f, 0.028381f, -0.019693f, 
  -0.005311f, -0.000001f, -0.018075f, 0.006928f, 0.001367f, 0.029178f, -0.007732f, -0.007709f, 
  -0.015742f, 0.022351f, 0.018279f, 0.024696f, 0.009565f, 0.022845f, 0.021822f, -0.012988f, 
  -0.005269f, 0.014512f, 0.015984f, -0.003654f, -0.002006f, 0.016446f, 0.017662f, 0.001091f, 
  0.004728f, 0.021397f, -0.008368f, -0.021224f, -0.000100f, -0.020232f, 0.034323f, -0.002650f, 
  -0.019587f, 0.014092f, 0.004072f, -0.002112f, -0.009412f, -0.006758f, -0.010732f, -0.004762f, 
  -0.011508f, 0.015106f, -0.001380f, -0.003232f, 0.001901f, 0.006923f, -0.000582f, -0.006452f, 
  -0.016796f, 0.005345f, -0.001469f, -0.001792f, -0.002809f, -0.014501f, -0.025143f, -0.017150f, 
  -0.005888f, 0.002263f, -0.001279f, -0.003497f, -0.016893f, 0.018092f, 0.020928f, 0.013396f, 
  0.024948f, 0.030644f, 0.006775f, -0.000288f, 0.015959f, 0.005230f, -0.016574f, 0.010619f, 
  -0.014140f, 0.000529f, 0.041820f, 0.036271f, 0.019901f, -0.003928f, 0.017851f, -0.006493f, 
  0.014154f, -0.011176f, 0.004389f, -0.001370f, -0.025035f, -0.015092f, 0.023553f, 0.013018f, 
  0.034880f, -0.003920f, 0.013913f, -0.003167f, 0.007565f, 0.005165f, 0.035482f, 0.000009f, 
  0.035788f, 0.003433f, 0.017976f, -0.004347f, 0.025331f, -0.013609f, 0.004955f, -0.008183f, 
  0.018212f, 0.000145f, 0.034181f, -0.016618f, -0.008325f, -0.015963f, -0.005087f, 0.009651f, 
  -0.007197f, 0.013891f, 0.007440f, -0.004552f, -0.002559f, 0.028587f, 0.031232f, 0.000744f, 
  -0.020129f, 0.039046f, 0.011587f, 0.039377f, 0.034038f, 0.007417f, 0.033153f, 0.038910f, 
  0.015834f, 0.000567f, 0.027301f, 0.031564f, -0.007743f, 0.007762f, 0.039373f, -0.006543f, 
  -0.030719f, -0.016506f, -0.002013f, 0.009954f, 0.021193f, 0.001425f, 0.007851f, 0.005743f, 
  0.011835f, 0.015667f, -0.004524f, 0.028072f, 0.033147f, 0.042209f, 0.051289f, 0.016625f, 
  0.022566f, -0.006208f, 0.002853f, 0.001753f, 0.017715f, 0.037106f, -0.000502f, 0.015337f, 
  -0.001014f, -0.005262f, 0.012971f, 0.009815f, 0.004814f, 0.019964f, 0.020888f, -0.004019f, 
  0.018462f, 0.023073f, 0.023576f, -0.007409f, 0.021969f, 0.033486f, 0.016801f, 0.025801f, 
  0.028621f, -0.000476f, 0.027482f, 0.027284f, 0.036272f, -0.000964f, 0.047353f, 0.008381f, 
  0.019430f, 0.037343f, 0.015150f, 0.002935f, -0.000328f, 0.018464f, 0.023736f, 0.027807f, 
  0.017726f, -0.011244f, 0.017873f, 0.010529f, 0.018040f, 0.013481f, 0.027428f, 0.019329f, 
  0.020026f, 0.017663f, 0.031533f, 0.005677f, 0.060214f, 0.019211f, 0.050730f, 0.041400f, 
  0.039578f, 0.036155f, 0.016554f, 0.017385f, 0.023535f, 0.022076f, 0.014644f, -0.008055f, 
  0.006268f, 0.009431f, -0.037092f, -0.027320f, 0.021817f, 0.000903f, 0.030330f, 0.005891f, 
  0.030815f, 0.018558f, 0.016691f, 0.041501f, 0.021911f, 0.044979f, 0.023657f, 0.016535f, 
  0.056586f, 0.054477f, 0.029192f, 0.054350f, 0.032252f, 0.047770f, 0.020953f, 0.044022f, 
  0.023492f, 0.024581f, 0.017813f, 0.021352f, 0.020820f, -0.015811f, -0.003023f, 0.023540f, 
  -0.000127f, 0.029309f, 0.023013f, 0.028583f, 0.023316f, 0.037351f, 0.046951f, 0.041772f, 
  0.010858f, 0.043358f, 0.032515f, 0.052919f, 0.052324f, 0.028737f, 0.045905f, 0.023827f, 
  0.039155f, 0.025547f, 0.027251f, 0.022857f, 0.009739f, 0.045706f, 0.033216f, 0.027986f, 
  -0.006227f, 0.009370f, 0.002135f, 0.009285f, 0.026744f, -0.005692f, 0.023069f, 0.024839f, 
  0.030863f, 0.020492f, 0.028369f, 0.023386f, 0.012093f, 0.031465f, 0.035878f, 0.034235f, 
  0.029992f, 0.036705f, 0.036209f, 0.022169f, 0.030065f, 0.036607f, 0.027522f, 0.021482f, 
  0.006640f, 0.029732f, 0.005472f, 0.030058f, 0.006780f, 0.024483f, 0.000594f, 0.015886f, 
  0.037863f, 0.022334f, 0.012244f, 0.001671f, 0.006742f, -0.012355f, -0.013215f, 0.029016f, 
  0.044412f, 0.040331f, 0.004135f, 0.003020f, 0.042468f, 0.039176f, 0.014087f, 0.033651f, 
  0.016081f, 0.041368f, 0.028547f, 0.035494f, -0.006695f, 0.030502f, 0.028058f, 0.027469f, 
  0.038859f, -0.016018f, 0.004848f, 0.000325f, -0.002763f, 0.032071f, 0.008593f, 0.017901f, 
  0.034771f, 0.038882f, 0.008190f, 0.049319f, 0.048092f, 0.023550f, 0.027738f, 0.026193f, 
  0.014801f, 0.015780f, 0.026740f, 0.027603f, 0.040861f, 0.026970f, 0.034853f, 0.026901f, 
  0.026548f, 0.048292f, 0.030585f, 0.021736f, 0.013588f, 0.030322f, -0.005508f, 0.000283f, 
  0.021748f, 0.006418f, 0.009030f, 0.030670f, 0.016660f, 0.021110f, 0.004243f, 0.015268f, 
  0.016996f, 0.033495f, -0.008973f, 0.013866f, 0.019043f, 0.031331f, 0.046175f, 0.012302f, 
  0.024851f, 0.042837f, 0.049469f, 0.016870f, 0.046176f, 0.024353f, -0.000072f, 0.003362f, 
  0.022835f, 0.007643f, 0.014381f, -0.008359f, -0.015371f, 0.003855f, 0.008338f, -0.015437f, 
  0.014418f, 0.030093f, 0.039241f, 0.011934f, -0.007465f, 0.016027f, 0.022694f, 0.036534f, 
  0.024307f, 0.014169f, 0.017189f, 0.007173f, 0.003972f, 0.023269f, -0.001117f, 0.032396f, 
  0.006198f, 0.030672f, 0.026321f, 0.000903f, 0.029371f, 0.022941f, 0.007561f, 0.006182f, 
  0.014133f, 0.031509f, 0.005142f, 0.021494f, 0.016794f, 0.033371f, 0.008864f, 0.006503f, 
  0.009014f, 0.027236f, -0.008059f, 0.024691f, 0.000385f, 0.014693f, 0.014400f, 0.017942f, 
  0.046038f, 0.008764f, 0.015913f, -0.014045f, 0.014051f, 0.000419f, 0.017890f, 0.046473f, 
  0.051615f, 0.022199f, 0.013662f, 0.003119f, -0.011168f, 0.022188f, 0.018653f, 0.008051f, 
  0.009350f, 0.008122f, 0.039614f, 0.034983f, 0.017497f, 0.004344f, -0.008317f, 0.030202f, 
  -0.005190f, 0.013000f, 0.020566f, 0.000925f, -0.000850f, 0.023313f, 0.024084f, 0.004595f, 
  0.015095f, 0.030846f, -0.002248f, 0.014175f, 0.009407f, 0.004074f, 0.006055f, 0.010413f, 
  0.036261f, 0.016391f, -0.004255f, 0.010745f, 0.006815f, 0.020044f, 0.007051f, 0.007460f, 
  0.014009f, 0.011726f, 0.042659f, 0.030832f, 0.013404f, 0.015671f, 0.008853f, -0.010687f, 
  0.027234f, 0.038417f, 0.019631f, 0.002832f, 0.004360f, 0.029019f, 0.005154f, 0.004844f, 
  0.013828f, 0.001393f, 0.011330f, 0.011050f, 0.021328f, -0.012226f, 0.003531f, 0.011584f, 
  0.014882f, 0.031221f, 0.044653f, 0.014507f, 0.036134f, 0.016069f, 0.022278f, -0.006319f, 
  0.036391f, 0.017507f, 0.026650f, 0.021675f, 0.036004f, 0.022041f, 0.012531f, -0.012864f, 
  0.014522f, 0.028095f, 0.002715f, 0.046688f, 0.000043f, 0.030331f, 0.028059f, 0.015429f, 
  0.009595f, 0.012897f, -0.008940f, 0.010153f, 0.034407f, 0.009915f, 0.020048f, 0.014594f, 
  -0.005952f, 0.028541f, 0.019098f, 0.004264f, 0.023350f, 0.017367f, 0.025289f, 0.016630f, 
  0.016480f, -0.003585f, 0.022780f, 0.017544f, 0.043516f, 0.010873f, 0.018016f, 0.009311f, 
  0.017065f, 0.008255f, 0.000682f, 0.038890f, 0.029181f, 0.031643f, 0.023126f, 0.041899f, 
  0.022869f, 0.009542f, -0.015474f, 0.011788f, 0.004526f, 0.011259f, 0.024664f, -0.004895f, 
  0.012428f, 0.022196f, 0.017121f, -0.013258f, 0.019254f, 0.003227f, 0.002902f, 0.021354f, 
  0.031326f, 0.016594f, 0.040426f, 0.028759f, 0.028325f, 0.040069f, 0.020720f, 0.006712f, 
  -0.006593f, -0.011164f, 0.030948f, 0.020630f, 0.008167f, 0.042126f, 0.013618f, -0.002100f, 
  -0.012093f, -0.024090f, -0.018958f, -0.012641f, -0.006619f, -0.007015f, -0.019453f, -0.035784f, 
  -0.013756f, -0.020346f, -0.041696f, -0.036633f, -0.016303f, -0.031783f, -0.003918f, -0.018515f, 
  -0.023169f, 0.019173f, -0.013988f, -0.008861f, -0.033788f, -0.004422f, -0.007816f, -0.001588f, 
  -0.029559f, 0.006294f, -0.005102f, -0.013888f, -0.020650f, -0.020085f, 0.002732f, 0.000115f, 
  -0.025953f, -0.018734f, -0.002622f, -0.026644f, -0.019913f, -0.030577f, -0.030415f, 0.004084f, 
  0.011773f, 0.004961f, -0.009921f, 0.011431f, -0.029239f, -0.016589f, -0.008937f, 0.002614f, 
  -0.017989f, -0.035899f, -0.039721f, 0.008077f, 0.005431f, 0.010803f, -0.020934f, -0.016845f, 
  -0.032128f, 0.011511f, -0.002585f, -0.013737f, 0.006341f, -0.029352f, -0.005512f, -0.035536f, 
  -0.027941f, -0.030250f, 0.008308f, -0.029458f, -0.013750f, -0.011018f, -0.020524f, -0.023744f, 
  0.018942f, 0.016905f, -0.006753f, -0.022189f, 0.002256f, -0.011478f, -0.042565f, -0.009598f, 
  -0.020026f, -0.023755f, -0.016852f, -0.016793f, -0.017221f, 0.007274f, -0.034625f, -0.013124f, 
  -0.022940f, -0.005204f, -0.016516f, -0.047899f, -0.010916f, 0.004835f, 0.008753f, 0.008357f, 
  -0.005384f, -0.005887f, -0.013698f, -0.010587f, -0.009273f, 0.034447f, 0.028789f, 0.020322f, 
  -0.012755f, 0.000997f, -0.001903f, -0.016921f, -0.044687f, -0.016011f, -0.006709f, -0.031110f, 
  -0.002042f, -0.015640f, -0.035346f, 0.001999f, 0.003811f, -0.010242f, -0.017432f, -0.022401f, 
  -0.007644f, -0.011222f, 0.003299f, 0.007817f, -0.007122f, 0.025134f, 0.016981f, 0.000351f, 
  0.005436f, 0.012586f, -0.021296f, 0.001097f, 0.021910f, 0.000169f, -0.023338f, 0.000854f, 
  0.008237f, -0.009738f, -0.009208f, -0.032418f, -0.028099f, -0.031056f, -0.004532f, -0.014029f, 
  0.009431f, -0.029357f, -0.000356f, -0.050286f, -0.003587f, -0.013813f, -0.007014f, -0.032051f, 
  -0.012942f, 0.029922f, 0.011912f, 0.014232f, 0.026443f, -0.009514f, 0.000036f, -0.017875f, 
  -0.027035f, -0.013933f, 0.004510f, 0.013590f, 0.024848f, 0.016344f, 0.020786f, -0.026868f, 
  -0.014963f, -0.018999f, -0.009898f, -0.017039f, -0.008970f, -0.001142f, 0.004960f, 0.009337f, 
  -0.009449f, 0.009042f, -0.024330f, -0.005595f, -0.029069f, 0.005867f, 0.013895f, 0.005338f, 
  0.004056f, 0.008671f, -0.011104f, 0.004287f, 0.010730f, -0.012523f, 0.019544f, 0.023876f, 
  0.011237f, 0.032768f, 0.014615f, -0.022015f, -0.017481f, -0.005365f, -0.018880f, -0.034004f, 
  -0.013486f, -0.028611f, -0.000518f, -0.030878f, -0.016634f, -0.020336f, -0.010959f, -0.006269f, 
  0.022782f, 0.015782f, -0.005553f, 0.018379f, -0.009343f, 0.013746f, -0.008382f, 0.021864f, 
  0.013024f, 0.034421f, 0.022867f, -0.016737f, 0.037616f, 0.018803f, 0.038732f, -0.017344f, 
  -0.012675f, 0.018250f, 0.019925f, -0.041892f, -0.035920f, -0.015324f, -0.013166f, 0.013772f, 
  0.010553f, -0.002659f, -0.009842f, -0.042599f, -0.030900f, 0.001645f, 0.006977f, -0.001624f, 
  -0.023113f, -0.007265f, -0.002237f, 0.001722f, 0.019571f, 0.018940f, -0.007337f, 0.040287f, 
  0.028613f, -0.006208f, -0.011089f, -0.000096f, 0.013648f, 0.017596f, 0.008596f, 0.008578f, 
  -0.006574f, -0.020892f, -0.021405f, -0.014302f, -0.011749f, 0.012275f, -0.002721f, -0.004929f, 
  0.008214f, -0.002093f, 0.007050f, -0.002984f, -0.011918f, 0.028748f, -0.008842f, -0.013083f, 
  0.013226f, 0.013418f, 0.029942f, -0.004762f, 0.035336f, -0.002463f, 0.004451f, 0.043499f, 
  0.011806f, -0.024103f, -0.001901f, 0.005715f, -0.041222f, 0.001954f, 0.002283f, 0.009460f, 
  -0.031471f, -0.035640f, -0.016633f, 0.012293f, -0.021411f, -0.004810f, 0.011820f, -0.002605f, 
  0.022358f, -0.021797f, -0.008236f, 0.032607f, 0.025048f, 0.001985f, 0.012349f, 0.005577f, 
  0.006542f, 0.010512f, -0.003563f, 0.015888f, 0.019520f, -0.008927f, -0.017507f, -0.022193f, 
  -0.029952f, -0.005087f, -0.018248f, -0.025023f, -0.009701f, -0.013524f, 0.009914f, -0.033447f, 
  -0.030802f, -0.005290f, -0.003293f, -0.020825f, 0.020110f, 0.024890f, 0.006117f, 0.005744f, 
  0.021225f, 0.015933f, -0.005970f, 0.011820f, 0.003642f, 0.010554f, 0.017636f, -0.012285f, 
  0.013097f, 0.020947f, -0.008605f, -0.003504f, 0.011077f, -0.007820f, -0.006126f, -0.031939f, 
  -0.027233f, -0.027985f, -0.020388f, -0.023108f, -0.000101f, -0.012277f, 0.010216f, -0.012922f, 
  -0.013586f, -0.016723f, 0.005646f, 0.018018f, -0.001180f, 0.013813f, 0.013600f, 0.044068f, 
  0.042886f, -0.007619f, 0.024982f, -0.013403f, 0.025536f, 0.006614f, -0.020015f, 0.012258f, 
  0.026581f, -0.000518f, 0.012440f, -0.025298f, -0.037305f, -0.022110f, 0.005456f, 0.016789f, 
  -0.004056f, 0.002002f, -0.013504f, -0.010213f, 0.005833f, 0.013258f, 0.013444f, 0.014912f, 
  0.015929f, 0.013553f, 0.023051f, 0.026548f, 0.034627f, 0.019719f, 0.013025f, 0.000696f, 
  -0.005570f, -0.006776f, -0.001620f, 0.006383f, 0.000005f, -0.021398f, -0.000868f, -0.015831f, 
  -0.008057f, -0.027674f, -0.010958f, -0.013800f, -0.000801f, -0.035704f, -0.013829f, -0.008610f, 
  -0.012815f, 0.003154f, -0.022892f, -0.012758f, 0.003218f, -0.002873f, -0.007681f, -0.009452f, 
  0.051500f, 0.033047f, 0.019717f, 0.029190f, 0.029673f, 0.026612f, 0.001908f, 0.001277f, 
  0.011662f, -0.000024f, 0.010603f, -0.009537f, -0.020117f, 0.004272f, -0.009917f, -0.012588f, 
  -0.041740f, -0.016636f, -0.011519f, -0.016554f, -0.008306f, -0.006286f, -0.002893f, -0.015479f, 
  -0.033260f, -0.016869f, -0.014505f, -0.009093f, 0.018553f, 0.018099f, 0.015901f, 0.025150f, 
  0.005921f, 0.014707f, 0.021231f, 0.012564f, 0.036942f, 0.014050f, 0.009665f, 0.004511f, 
  0.003873f, 0.007181f, 0.002669f, -0.003871f, -0.008728f, -0.012088f, -0.026168f, 0.004227f, 
  0.018093f, 0.014598f, -0.021073f, -0.034897f, -0.001167f, 0.007172f, -0.016855f, 0.007467f, 
  0.020977f, 0.035898f, 0.031593f, 0.016514f, 0.013281f, 0.012031f, 0.038463f, -0.006471f, 
  0.037930f, 0.043752f, 0.013121f, 0.037883f, 0.001477f, 0.026787f, 0.014877f, 0.008481f, 
  -0.002846f, 0.001386f, -0.020936f, 0.005627f, -0.002196f, -0.042479f, 0.015245f, -0.011961f, 
  -0.003768f, 0.007187f, -0.024295f, 0.004281f, -0.010897f, 0.030515f, 0.040614f, 0.015572f, 
  0.003222f, 0.032492f, 0.023749f, 0.026643f, 0.051021f, 0.029996f, 0.013963f, 0.007296f, 
  0.050531f, 0.021173f, 0.007621f, -0.014583f, 0.006683f, -0.029017f, -0.003700f, -0.014318f, 
  -0.002943f, -0.017385f, -0.006215f, 0.016686f, -0.017492f, -0.021360f, -0.030221f, -0.029765f, 
  -0.001059f, -0.016753f, 0.001641f, 0.005123f, 0.017879f, 0.028338f, 0.064400f, 0.064591f, 
  0.060334f, 0.047538f, 0.039733f, 0.024487f, 0.012013f, 0.019533f, 0.002256f, 0.004934f, 
  0.010982f, -0.002907f, -0.010457f, -0.036529f, -0.015236f, -0.027446f, -0.010633f, -0.010273f, 
  0.009773f, -0.001479f, -0.021470f, -0.005668f, -0.002974f, -0.023142f, -0.026056f, 0.015005f, 
  0.027085f, 0.039236f, 0.031094f, 0.032861f, 0.054892f, 0.029378f, 0.023847f, 0.023162f, 
  0.049123f, 0.061048f, 0.012799f, 0.046353f, 0.040114f, 0.030707f, -0.023057f, -0.008590f, 
  -0.003745f, -0.011930f, -0.011841f, -0.001172f, -0.032696f, 0.010225f, 0.008350f, 0.001879f, 
  0.023630f, 0.015157f, 0.014416f, -0.003719f, 0.018836f, 0.002992f, 0.031595f, 0.044362f, 
  0.038511f, 0.051385f, 0.048502f, 0.043381f, 0.049696f, 0.035776f, 0.048122f, 0.025683f, 
  0.024696f, 0.007810f, -0.013664f, -0.027139f, 0.017149f, -0.010430f, 0.014158f, -0.022224f, 
  -0.020599f, -0.007257f, 0.003284f, -0.018633f, -0.008427f, -0.035060f, -0.030730f, 0.004227f, 
  -0.001218f, 0.000778f, 0.008772f, 0.039536f, 0.050413f, 0.026749f, 0.036108f, 0.038483f, 
  0.053752f, 0.043920f, 0.013465f, 0.022425f, 0.003474f, 0.003345f, 0.039854f, 0.003471f, 
  -0.002023f, -0.034264f, 0.017355f, -0.003051f, -0.017591f, -0.005729f, -0.014280f, -0.014683f, 
  -0.014514f, -0.025841f, -0.021196f, -0.022573f, 0.010179f, 0.002354f, -0.006838f, 0.034874f, 
  0.007340f, 0.022750f, 0.059551f, 0.053805f, 0.054440f, 0.010127f, 0.048256f, 0.006818f, 
  0.017671f, -0.009099f, 0.033208f, 0.028067f, -0.013199f, -0.008200f, -0.025358f, 0.022392f, 
  -0.020552f, 0.007407f, -0.012775f, -0.011892f, -0.004220f, -0.001476f, -0.021891f, -0.017080f, 
  0.020713f, 0.013050f, -0.013534f, -0.009717f, 0.015441f, 0.016485f, 0.003435f, -0.001692f, 
  0.028019f, 0.036590f, 0.054281f, 0.034988f, 0.027566f, 0.026118f, 0.009582f, -0.008952f, 
  -0.013144f, 0.004749f, -0.011259f, 0.009996f, -0.018304f, 0.015136f, -0.000541f, -0.015259f, 
  -0.000970f, 0.013424f, -0.040503f, -0.016126f, -0.028315f, 0.018856f, 0.003799f, 0.016816f, 
  -0.015015f, -0.011492f, -0.010337f, 0.036271f, 0.022589f, 0.029450f, 0.020665f, 0.038847f, 
  0.005358f, 0.007216f, 0.024774f, -0.005989f, 0.005268f, 0.019232f, 0.000368f, 0.004359f, 
  -0.000411f, -0.031937f, -0.004550f, -0.001975f, -0.014379f, -0.013151f, -0.033548f, -0.014627f, 
  0.004091f, 0.008992f, -0.010906f, 0.015027f, 0.015444f, 0.019569f, 0.029488f, -0.007220f, 
  0.035601f, 0.006617f, 0.018070f, -0.012135f, 0.014861f, 0.015538f, 0.026426f, -0.005133f, 
  0.009193f, -0.007279f, 0.017187f, -0.002304f, 0.005217f, -0.016491f, 0.000813f, 0.005745f, 
  0.014526f, 0.012172f, -0.015627f, -0.008333f, -0.017977f, -0.025757f, -0.000201f, 0.015904f, 
  -0.020927f, -0.004583f, 0.015748f, -0.008549f, 0.012470f, 0.004213f, 0.014363f, 0.023538f, 
  0.016939f, 0.014335f, 0.008719f, -0.006788f, -0.010113f, -0.007953f, 0.015630f, 0.020414f, 
  -0.023430f, -0.002157f, -0.008343f, 0.006228f, -0.032448f, -0.008045f, -0.016394f, -0.005671f, 
  -0.008999f, 0.024668f, -0.024237f, -0.012086f, -0.017125f, -0.028422f, -0.004587f, 0.010431f, 
  0.006167f, -0.007459f, -0.005629f, 0.006970f, -0.017866f, 0.017512f, -0.000923f, -0.011494f, 
  -0.025677f, 0.010309f, -0.006519f, 0.002349f, -0.014173f, 0.005740f, -0.013714f, -0.032183f, 
  -0.029700f, 0.000305f, -0.002103f, -0.010390f, -0.031703f, 0.002894f, 0.017583f, -0.011660f, 
  0.001531f, -0.000039f, 0.007145f, -0.016218f, -0.005707f, -0.014024f, 0.016415f, 0.001181f, 
  -0.012574f, 0.009064f, 0.026160f, 0.000742f, -0.000761f, 0.009287f, 0.025045f, 0.011328f, 
  0.015303f, -0.008095f, -0.015206f, -0.037306f, -0.017357f, -0.013098f, -0.032943f, -0.045711f, 
  -0.005006f, -0.014251f, 0.018673f, 0.022859f, -0.001136f, 0.013133f, 0.035694f, 0.045738f, 
  0.027146f, -0.004532f, 0.003352f, -0.002824f, -0.008058f, 0.005104f, 0.002306f, 0.001613f, 
  -0.006121f, 0.026318f, 0.016912f, 0.029880f, 0.015421f, 0.000073f, 0.016535f, 0.042857f, 
  -0.009148f, 0.016137f, 0.012320f, -0.001016f, 0.001053f, -0.005853f, 0.038817f, -0.006851f, 
  0.029135f, 0.009607f, 0.022726f, 0.023245f, 0.011841f, 0.006604f, 0.009754f, 0.005102f, 
  0.013924f, 0.038930f, 0.040776f, 0.014256f, 0.019643f, -0.005888f, -0.006161f, -0.019557f, 
  -0.003159f, 0.035589f, 0.003535f, 0.005448f, 0.014528f, 0.007098f, 0.011870f, 0.006570f, 
  0.032151f, 0.037000f, 0.030027f, 0.019118f, 0.013679f, 0.010491f, 0.008111f, 0.023568f, 
  0.039409f, 0.023937f, 0.026777f, 0.000577f, 0.021063f, 0.005773f, -0.001351f, -0.009489f, 
  -0.022529f, -0.011288f, -0.001347f, 0.021603f, 0.037612f, 0.031383f, 0.019544f, -0.015576f, 
  0.020105f, 0.028751f, 0.005425f, 0.033738f, 0.044058f, 0.005453f, 0.005438f, 0.019415f, 
  0.042780f, -0.004707f, 0.004739f, -0.004086f, 0.021200f, 0.011977f, 0.017530f, -0.012160f, 
  0.017486f, -0.031998f, -0.018690f, -0.029796f, -0.010645f, -0.022157f, -0.036891f, 0.011011f, 
  -0.004323f, -0.004402f, -0.007216f, 0.012463f, -0.007730f, 0.031006f, 0.042598f, 0.005068f, 
  0.003298f, 0.027065f, 0.023364f, 0.027263f, 0.023954f, 0.017719f, 0.021926f, 0.027242f, 
  0.023049f, 0.032777f, 0.023977f, -0.006717f, 0.004374f, 0.000887f, -0.044931f, -0.031830f, 
  -0.012644f, -0.006777f, -0.038755f, -0.005395f, 0.010565f, -0.041850f, 0.005066f, -0.018592f, 
  0.011688f, 0.012955f, 0.014734f, -0.003386f, -0.006336f, 0.009964f, 0.022223f, 0.012257f, 
  -0.001979f, -0.004385f, -0.012147f, 0.039019f, 0.016416f, -0.008190f, -0.004108f, -0.014621f, 
  0.000731f, -0.021598f, -0.039263f, -0.018808f, -0.015238f, -0.037303f, -0.011979f, -0.047335f, 
  -0.033540f, -0.045845f, -0.014345f, -0.005111f, -0.018079f, -0.008777f, -0.005212f, -0.013175f, 
  -0.019248f, 0.014237f, -0.002721f, 0.006674f, 0.042042f, 0.039808f, -0.001428f, 0.043517f, 
  -0.000760f, 0.026996f, -0.003523f, 0.002371f, -0.004964f, -0.030060f, -0.033961f, -0.021596f, 
  -0.022149f, -0.042503f, -0.018489f, -0.032335f, -0.012941f, -0.026225f, -0.018397f, -0.032465f, 
  -0.044887f, -0.050776f, -0.046175f, -0.023925f, 0.014489f, 0.014587f, 0.039141f, 0.012469f, 
  0.019169f, 0.025004f, -0.008207f, 0.036168f, -0.006848f, 0.028104f, 0.013272f, 0.029416f, 
  0.013586f, 0.001560f, -0.030595f, -0.052252f, -0.040884f, 0.001802f, -0.037286f, -0.023301f, 
  -0.059215f, -0.018014f, -0.022488f, -0.011101f, -0.047201f, -0.043087f, -0.021988f, -0.037291f, 
  -0.007262f, -0.014411f, 0.034596f, 0.012146f, 0.039184f, 0.028188f, -0.006309f, 0.031916f, 
  0.017813f, -0.006901f, 0.019342f, 0.011831f, 0.004918f, 0.029889f, 0.003537f, 0.007675f, 
  -0.025312f, -0.029264f, -0.029272f, -0.021668f, -0.030026f, -0.015724f, -0.036193f, -0.065743f, 
  -0.033805f, -0.046158f, -0.031649f, -0.010662f, 0.006853f, -0.035656f, -0.032854f, 0.017424f, 
  0.022740f, 0.019128f, 0.026317f, 0.012250f, 0.030979f, 0.004495f, 0.035354f, 0.036689f, 
  0.018453f, 0.012341f, -0.004064f, -0.021000f, -0.014466f, -0.023738f, -0.022176f, -0.017120f, 
  -0.014809f, -0.041437f, -0.022410f, -0.009633f, -0.033195f, -0.011412f, -0.031019f, -0.029291f, 
  -0.030563f, -0.038777f, -0.024944f, -0.026932f, 0.018475f, 0.024998f, 0.026656f, 0.010784f, 
  0.027128f, 0.009752f, 0.007651f, 0.035406f, 0.014322f, -0.010350f, -0.005482f, -0.022780f, 
  -0.026401f, -0.017664f, -0.013718f, -0.023802f, -0.044200f, -0.066767f, -0.026387f, -0.000865f, 
  -0.051593f, -0.044556f, -0.029113f, -0.035937f, -0.030112f, -0.014364f, -0.031980f, 0.006786f, 
  -0.020621f, 0.020564f, 0.013088f, 0.016729f, 0.039532f, 0.035542f, 0.024241f, 0.032378f, 
  0.043096f, -0.005199f, -0.012353f, 0.005133f, 0.002985f, 0.011826f, -0.020964f, -0.035296f, 
  -0.028105f, -0.048175f, -0.028122f, -0.026105f, -0.049653f, -0.015728f, -0.042780f, -0.038344f, 
  -0.030450f, -0.025315f, 0.005527f, -0.033622f, -0.036319f, -0.010113f, 0.010238f, -0.010996f, 
  0.001853f, -0.021585f, 0.024993f, 0.023018f, 0.031631f, 0.039624f, 0.003518f, 0.036677f, 
  0.010137f, 0.033825f, 0.002793f, -0.031376f, -0.017062f, -0.017710f, -0.054845f, -0.013605f, 
  -0.020776f, -0.016186f, -0.040889f, -0.017533f, 0.004336f, -0.022240f, -0.024499f, -0.001880f, 
  -0.012647f, -0.027562f, -0.008005f, -0.003587f, 0.021465f, 0.007365f, 0.011773f, 0.000772f, 
  0.028888f, 0.048642f, 0.012308f, 0.047194f, 0.016823f, 0.014584f, 0.014107f, 0.018540f, 
  -0.035070f, -0.007791f, -0.019230f, -0.016008f, -0.021671f, -0.029149f, -0.001074f, -0.013017f, 
