#ifndef MY_WEIGHTS_H
#define MY_WEIGHTS_H
// ======================================================
// Auto-generated by torchjs browser trainer (v66 format)
// Copy this file to your sketch folder, then:
//   1. Update numClasses and classLabels in the sketch to match training:
//      numClasses = 3
//      classLabels: "0Blank", "1Cup", "2Pen"
//      inputSize=64  conv1Filters=4  conv2Filters=8  channels=3
//   2. Uncomment:  #define USE_BAKED_WEIGHTS  at the top of the sketch
//   3. Recompile and flash
//      version=50
// ======================================================
const float myModel_conv1_w[] = {
  -0.195599f, -0.144299f, 0.150555f, 0.142348f, -0.011680f, -0.144010f, 0.199247f, -0.092166f, 
  -0.285341f, 0.068843f, -0.364628f, 0.113766f, -0.263403f, -0.096546f, 0.150823f, -0.224737f, 
  -0.200946f, 0.044125f, -0.112219f, 0.073631f, -0.089896f, 0.054166f, -0.216125f, 0.018002f, 
  -0.064885f, 0.002673f, -0.084578f, -0.204322f, 0.067630f, -0.046011f, -0.076552f, 0.171033f, 
  -0.101088f, -0.028921f, -0.140557f, -0.200988f, -0.101525f, 0.049943f, -0.417680f, -0.258734f, 
  -0.101435f, -0.129490f, -0.336414f, 0.026962f, 0.013561f, -0.080719f, 0.154990f, -0.129002f, 
  -0.340083f, -0.092679f, -0.394325f, -0.257240f, 0.275127f, 0.015067f, 0.146196f, 0.155912f, 
  -0.222856f, 0.320382f, 0.059467f, -0.034568f, 0.285759f, 0.267089f, 0.268068f, 0.216027f, 
  0.019687f, -0.327639f, 0.226111f, 0.092897f, 0.141304f, 0.228809f, 0.196585f, 0.126080f, 
  0.012237f, 0.023985f, -0.000402f, -0.003991f, -0.050821f, -0.086615f, 0.083036f, -0.041775f, 
  -0.103192f, 0.021701f, 0.205547f, -0.287233f, -0.066314f, -0.166837f, 0.133171f, 0.148372f, 
  -0.303276f, -0.092154f, -0.278986f, -0.114630f, -0.128928f, -0.326362f, -0.169547f, -0.180007f, 
  -0.174810f, 0.244181f, -0.139792f, 0.058371f, 0.124866f, -0.110428f, 0.034110f, -0.110062f, 
  -0.109815f, -0.108396f, 0.158524f, -0.176519f
};
const float myModel_conv1_b[] = {
  -0.028646f, 0.022936f, -0.115111f, -0.072818f
};
const float myModel_conv2_w[] = {
  -0.013840f, 0.014264f, 0.190564f, 0.185624f, -0.019173f, -0.198700f, -0.012034f, -0.044899f, 
  0.020949f, 0.051572f, -0.091010f, 0.024847f, 0.230470f, -0.209505f, -0.195459f, 0.023179f, 
  -0.244230f, -0.273182f, -0.008581f, -0.272837f, 0.178427f, 0.122390f, -0.142786f, -0.108597f, 
  -0.223404f, 0.191612f, 0.254859f, -0.017360f, 0.073682f, 0.163230f, -0.164338f, 0.109766f, 
  -0.292781f, -0.149006f, -0.007283f, -0.032286f, -0.021324f, -0.131069f, 0.000613f, 0.019877f, 
  0.051549f, -0.067450f, -0.107111f, 0.079977f, -0.009027f, 0.136186f, -0.001199f, 0.008760f, 
  0.006183f, 0.207768f, 0.224015f, 0.255514f, 0.280298f, 0.030436f, -0.043810f, 0.149682f, 
  -0.147782f, -0.141395f, 0.008172f, -0.296517f, 0.168402f, -0.126880f, -0.058626f, -0.228320f, 
  -0.039578f, 0.061725f, 0.243501f, 0.020770f, -0.080751f, 0.002567f, -0.065930f, 0.118248f, 
  0.108164f, 0.131205f, -0.173988f, -0.043534f, -0.130011f, -0.007516f, -0.105248f, 0.086330f, 
  0.231995f, -0.141715f, 0.194177f, 0.124570f, 0.080471f, 0.264670f, 0.188556f, 0.148012f, 
  -0.086559f, -0.069579f, -0.321218f, -0.315132f, 0.147756f, 0.123314f, -0.285900f, -0.090862f, 
  -0.047806f, -0.071232f, -0.046331f, 0.113727f, 0.175629f, 0.200027f, 0.135447f, 0.008450f, 
  -0.124914f, -0.071604f, -0.038086f, 0.244385f, 0.222721f, -0.048960f, 0.121392f, 0.045400f, 
  -0.041371f, -0.048369f, -0.207906f, -0.131214f, 0.007988f, -0.167305f, 0.014964f, 0.063101f, 
  0.008934f, -0.034632f, 0.278152f, -0.070604f, 0.048249f, -0.003908f, 0.033313f, 0.174710f, 
  0.054868f, 0.025389f, 0.124742f, -0.015526f, 0.000798f, 0.018223f, 0.310134f, 0.120696f, 
  0.045947f, -0.107214f, -0.008573f, 0.133260f, -0.041240f, -0.024589f, -0.138590f, 0.158083f, 
  0.035906f, 0.007068f, 0.146237f, -0.050414f, 0.223413f, -0.019145f, -0.140037f, 0.235860f, 
  -0.088595f, -0.050866f, -0.087497f, 0.075162f, -0.020162f, 0.098517f, 0.277956f, 0.014247f, 
  -0.002200f, 0.008839f, 0.169451f, 0.008325f, 0.228474f, 0.067024f, 0.166552f, 0.006846f, 
  -0.243318f, 0.090478f, 0.074385f, -0.092805f, 0.117752f, 0.009804f, 0.204517f, -0.133724f, 
  -0.038600f, -0.059198f, 0.024034f, 0.280164f, 0.088520f, 0.221421f, -0.231593f, -0.187754f, 
  0.048045f, 0.099738f, -0.093206f, 0.229150f, -0.061111f, -0.017684f, -0.264015f, 0.079715f, 
  0.080375f, 0.050242f, 0.030631f, -0.018865f, -0.029338f, -0.122773f, 0.250716f, 0.074926f, 
  0.205086f, 0.003605f, 0.145740f, 0.155007f, 0.025275f, 0.072808f, -0.011860f, 0.039039f, 
  0.178582f, 0.087210f, 0.050805f, 0.015354f, -0.030182f, -0.045868f, -0.060398f, 0.042635f, 
  0.088516f, 0.075270f, -0.016252f, 0.100383f, 0.051027f, 0.124113f, 0.216160f, 0.040968f, 
  -0.022867f, -0.108159f, 0.284766f, -0.002504f, 0.063920f, 0.092090f, -0.087883f, 0.223200f, 
  0.001370f, 0.061554f, -0.190239f, -0.088104f, 0.019612f, -0.185606f, 0.155765f, -0.291006f, 
  -0.082245f, 0.041162f, -0.242025f, -0.131994f, 0.211390f, 0.222916f, -0.211828f, -0.064657f, 
  0.138009f, -0.080372f, 0.143298f, 0.019438f, -0.163642f, -0.039331f, -0.148709f, -0.002274f, 
  -0.227133f, 0.111355f, 0.065399f, -0.187704f, -0.116189f, -0.129430f, 0.031062f, 0.028999f, 
  0.222460f, 0.138175f, 0.163636f, -0.185191f, 0.188320f, 0.157150f, -0.000611f, 0.199653f, 
  0.158146f, 0.090394f, -0.052158f, -0.109805f, 0.145900f, -0.134541f, -0.230455f, 0.153818f, 
  -0.133830f, 0.059874f, -0.056959f, 0.116694f, 0.002308f, -0.195774f, 0.065724f, -0.014311f
};
const float myModel_conv2_b[] = {
  0.023964f, 0.033801f, 0.038102f, -0.075451f, -0.066794f, -0.065673f, 0.037537f, 0.020673f
};
const float myModel_output_w[] = {
  0.026335f, 0.028497f, 0.013676f, -0.007774f, 0.012680f, -0.014914f, 0.005226f, 0.004583f, 
  0.004071f, -0.026394f, 0.000174f, 0.005013f, -0.000778f, 0.026492f, 0.019469f, -0.011797f, 
  -0.006480f, -0.021253f, 0.002256f, 0.040211f, 0.018644f, 0.025142f, 0.020898f, 0.011534f, 
  -0.018637f, -0.012676f, -0.008096f, 0.012503f, 0.009783f, 0.032318f, 0.013664f, -0.031659f, 
  -0.021560f, -0.011187f, -0.001078f, -0.006120f, 0.021506f, 0.012631f, -0.018201f, 0.017188f, 
  0.031850f, -0.038680f, -0.018912f, 0.039565f, 0.030862f, 0.016107f, -0.011487f, -0.000687f, 
  0.025625f, -0.012052f, -0.013967f, -0.020641f, -0.006014f, -0.004243f, 0.023001f, -0.030059f, 
  -0.032668f, -0.024423f, -0.018626f, 0.019743f, 0.030005f, 0.018962f, -0.004390f, -0.000271f, 
  -0.007792f, -0.007605f, 0.029599f, 0.045241f, 0.019384f, -0.044713f, 0.014170f, -0.007076f, 
  0.028774f, 0.034974f, -0.001735f, 0.030153f, 0.031694f, 0.024481f, 0.029980f, 0.020486f, 
  -0.013545f, -0.011240f, -0.026413f, 0.012304f, 0.025399f, -0.000562f, -0.029030f, 0.044475f, 
  -0.009808f, 0.015044f, -0.013884f, 0.019155f, 0.016025f, 0.012094f, -0.027250f, -0.005083f, 
  -0.045721f, 0.008955f, -0.010930f, 0.002810f, -0.004685f, -0.022133f, 0.056261f, 0.045404f, 
  -0.008620f, 0.057011f, 0.047274f, 0.019128f, -0.007710f, 0.024808f, -0.035045f, 0.024611f, 
  -0.010531f, -0.037032f, 0.001990f, -0.017247f, 0.004596f, 0.003575f, 0.001828f, 0.017678f, 
  0.005840f, -0.030380f, 0.002081f, -0.005048f, -0.032823f, -0.034350f, -0.030082f, -0.042569f, 
  0.007629f, 0.009169f, -0.005013f, -0.023847f, 0.009100f, 0.035962f, 0.046336f, 0.026080f, 
  0.056257f, 0.011577f, -0.012234f, 0.010422f, 0.031954f, 0.013275f, -0.048916f, -0.000323f, 
  -0.015524f, -0.034940f, 0.022359f, 0.013830f, -0.003548f, 0.026058f, -0.022198f, -0.025446f, 
  -0.032046f, -0.033392f, -0.030390f, -0.039648f, -0.005459f, -0.033680f, -0.007794f, 0.021346f, 
  0.013304f, 0.034968f, 0.053592f, 0.034772f, 0.010061f, 0.008863f, 0.006542f, -0.004571f, 
  -0.010616f, -0.009084f, 0.005299f, -0.014282f, -0.023149f, -0.038779f, 0.035054f, -0.002921f, 
  -0.003790f, 0.014847f, 0.017831f, 0.033742f, -0.025988f, -0.032265f, -0.036905f, -0.003591f, 
  -0.028677f, 0.003357f, 0.007850f, 0.017943f, 0.029066f, 0.033029f, 0.056325f, 0.023251f, 
  0.013505f, 0.010331f, -0.001436f, -0.025827f, -0.002430f, -0.028061f, -0.001814f, -0.048019f, 
  0.011667f, 0.015502f, 0.017532f, -0.020704f, 0.030655f, 0.040099f, -0.007792f, -0.044991f, 
  -0.030783f, 0.003764f, 0.015370f, -0.041800f, -0.015209f, 0.007512f, -0.020985f, 0.008245f, 
  0.040448f, -0.002149f, 0.012582f, 0.040620f, 0.038206f, -0.006538f, -0.000118f, -0.007772f, 
  -0.060661f, -0.035653f, -0.023909f, -0.004742f, -0.018763f, 0.001646f, 0.030851f, 0.003343f, 
  -0.028688f, -0.019808f, -0.019682f, 0.013385f, -0.004910f, -0.040273f, -0.016323f, 0.007306f, 
  0.003369f, -0.038210f, -0.013685f, 0.049763f, -0.025087f, 0.019122f, -0.001906f, 0.046314f, 
  -0.006724f, -0.015543f, -0.009547f, 0.033666f, -0.014502f, -0.057617f, -0.054737f, -0.039742f, 
  -0.027076f, 0.022747f, 0.003755f, -0.002710f, -0.026330f, -0.024119f, 0.001871f, -0.015791f, 
  -0.037438f, -0.039220f, -0.023985f, -0.003256f, 0.000717f, -0.058420f, 0.001074f, -0.035847f, 
  -0.011669f, 0.025540f, -0.019969f, 0.029818f, 0.012240f, 0.043322f, -0.011330f, 0.029891f, 
  0.015720f, -0.034762f, 0.016921f, -0.048239f, -0.007047f, -0.046353f, 0.002791f, 0.023038f, 
  -0.045540f, -0.046339f, 0.011142f, -0.026664f, -0.043465f, -0.036020f, -0.047088f, -0.003332f, 
  0.057985f, 0.036164f, -0.012565f, 0.014474f, -0.002316f, -0.024602f, 0.026473f, 0.035364f, 
  0.032973f, 0.050970f, 0.012461f, 0.037175f, 0.028979f, 0.046216f, 0.009801f, 0.034189f, 
  -0.035330f, -0.028083f, -0.004564f, -0.018603f, -0.010253f, -0.003396f, -0.009595f, 0.025322f, 
  0.032890f, -0.033716f, 0.003100f, -0.027907f, 0.017631f, -0.005029f, 0.000118f, 0.042204f, 
  0.025942f, -0.000143f, 0.016187f, 0.054067f, 0.018124f, 0.015877f, 0.004814f, 0.007679f, 
  0.045862f, 0.004695f, 0.012232f, -0.002240f, 0.005656f, -0.008660f, -0.007509f, 0.003409f, 
  0.018746f, 0.011738f, -0.030181f, -0.023061f, 0.005217f, -0.049053f, 0.019161f, 0.009672f, 
  0.012572f, -0.004037f, 0.023528f, -0.019759f, -0.031924f, 0.006364f, 0.030881f, 0.025684f, 
  0.039205f, 0.022729f, 0.045722f, -0.002191f, -0.024305f, -0.013826f, 0.067563f, 0.017280f, 
  -0.008851f, -0.021013f, 0.037738f, -0.001118f, 0.009624f, -0.011051f, 0.042545f, 0.040270f, 
  0.003306f, -0.036275f, 0.006038f, 0.020458f, -0.004726f, -0.012644f, 0.046706f, 0.036979f, 
  0.033372f, 0.004939f, 0.015169f, -0.000914f, 0.004445f, 0.078379f, 0.038638f, 0.030383f, 
  0.059864f, 0.013957f, 0.041180f, 0.060287f, 0.035700f, 0.007858f, 0.031440f, 0.020655f, 
  0.046833f, 0.005346f, 0.004332f, -0.056969f, -0.072426f, 0.024813f, 0.011079f, 0.039184f, 
  0.009764f, 0.006970f, -0.001949f, 0.023576f, -0.040568f, -0.000294f, 0.022902f, 0.011015f, 
  0.063280f, 0.021913f, 0.010633f, 0.014629f, 0.064329f, 0.067112f, 0.065443f, 0.045854f, 
  0.032835f, -0.005848f, -0.001422f, 0.056840f, 0.011466f, -0.004386f, -0.039620f, 0.030977f, 
  0.018734f, -0.041275f, -0.020350f, 0.018909f, 0.027736f, -0.001100f, 0.036537f, 0.046047f, 
  0.004231f, 0.011105f, 0.066880f, 0.014381f, 0.072016f, 0.016108f, 0.010632f, 0.050637f, 
  0.080169f, 0.090503f, 0.009784f, 0.037093f, 0.066117f, 0.068930f, 0.038544f, -0.014765f, 
  0.043724f, -0.006403f, -0.018909f, -0.014781f, -0.051321f, -0.013422f, -0.034167f, -0.057842f, 
  -0.026703f, 0.010727f, 0.030284f, 0.014395f, 0.000379f, 0.023709f, 0.010898f, 0.022793f, 
  0.091473f, 0.039811f, 0.024731f, -0.024658f, -0.003569f, 0.077542f, 0.065456f, 0.053538f, 
  0.049274f, 0.031994f, 0.039737f, 0.058322f, 0.045707f, 0.024081f, -0.011965f, -0.040242f, 
  -0.067661f, 0.000202f, -0.034887f, -0.000657f, -0.004276f, 0.032955f, -0.017617f, 0.001298f, 
  0.010032f, 0.011020f, -0.036073f, 0.012439f, 0.023415f, 0.016359f, 0.059085f, 0.035613f, 
  0.018968f, 0.006765f, 0.023571f, 0.028264f, 0.020813f, 0.044619f, 0.025271f, 0.011107f, 
  -0.020832f, 0.004052f, -0.025488f, 0.020477f, -0.020193f, 0.001951f, -0.037103f, -0.047527f, 
  -0.032394f, 0.004359f, 0.027205f, 0.023583f, -0.007415f, -0.030846f, 0.031447f, -0.002462f, 
  -0.001486f, 0.007749f, 0.010408f, -0.006014f, 0.052209f, 0.070265f, 0.044380f, 0.067554f, 
  0.045840f, 0.046750f, 0.033637f, -0.012404f, -0.001171f, 0.014313f, -0.057256f, -0.043199f, 
  -0.053248f, -0.052197f, 0.035043f, 0.019435f, -0.025358f, -0.032536f, -0.041490f, -0.017324f, 
  -0.000534f, 0.031934f, -0.030241f, 0.009919f, 0.008250f, -0.006969f, 0.024803f, 0.042400f, 
  0.023086f, 0.016022f, 0.015103f, 0.062228f, -0.005148f, 0.000246f, 0.012955f, 0.047342f, 
  0.010595f, -0.104221f, -0.052953f, -0.059609f, -0.050426f, -0.044573f, -0.038024f, -0.063467f, 
  -0.037367f, -0.014161f, 0.018456f, -0.027131f, 0.026864f, 0.023022f, 0.037060f, 0.038600f, 
  -0.022629f, -0.027220f, -0.039265f, 0.000255f, -0.015743f, -0.014335f, 0.003078f, -0.010265f, 
  -0.001081f, 0.013842f, 0.051884f, -0.061658f, -0.060467f, -0.020169f, -0.006671f, -0.053691f, 
  -0.088975f, -0.017911f, -0.001268f, 0.028225f, 0.011621f, -0.038963f, -0.009559f, 0.038337f, 
  0.012432f, -0.037381f, 0.010093f, -0.020897f, 0.031364f, 0.022328f, 0.001295f, 0.007485f, 
  -0.016448f, 0.027867f, 0.017326f, 0.013841f, -0.046548f, 0.007809f, -0.046981f, 0.018025f, 
  -0.005499f, 0.006929f, -0.037439f, -0.017124f, 0.005918f, -0.013595f, -0.024443f, -0.041120f, 
  -0.017967f, -0.000282f, -0.045508f, 0.025403f, 0.000802f, -0.013434f, 0.004916f, -0.008000f, 
  -0.001851f, 0.015373f, -0.038064f, -0.007494f, 0.007134f, 0.002569f, 0.042673f, 0.050866f, 
  0.026147f, 0.011648f, -0.032023f, -0.001453f, -0.037359f, -0.043645f, -0.063323f, -0.031774f, 
  -0.059810f, -0.027489f, 0.005114f, -0.005528f, -0.039091f, 0.000767f, -0.027607f, 0.004859f, 
  -0.012271f, -0.033593f, -0.032701f, 0.027467f, 0.016226f, -0.014336f, -0.032591f, -0.013132f, 
  -0.004249f, -0.031391f, -0.001217f, 0.064397f, 0.006600f, 0.012304f, 0.000212f, 0.002373f, 
  0.028352f, -0.008278f, -0.006898f, -0.012684f, -0.051748f, -0.032857f, -0.056997f, -0.077090f, 
  -0.014939f, 0.017058f, 0.042294f, 0.002579f, 0.014959f, 0.083527f, -0.025418f, -0.039583f, 
  0.046150f, -0.005503f, -0.007979f, 0.014512f, -0.054217f, 0.028945f, -0.013161f, -0.033614f, 
  0.000001f, -0.003482f, -0.006129f, -0.018945f, -0.003487f, -0.023862f, 0.009635f, -0.007482f, 
  -0.001995f, -0.006565f, -0.024406f, -0.015189f, -0.010311f, -0.048321f, -0.025453f, -0.010067f, 
  -0.017863f, -0.004860f, 0.020955f, 0.017093f, 0.005732f, 0.017511f, 0.007525f, 0.000727f, 
  0.005310f, -0.024608f, 0.011341f, -0.010686f, 0.017203f, -0.012987f, -0.029970f, -0.036112f, 
  -0.033365f, 0.021424f, -0.018333f, -0.013599f, -0.008561f, -0.031262f, -0.015167f, -0.015921f, 
  -0.012936f, 0.009585f, 0.001606f, -0.047147f, -0.014369f, 0.017130f, 0.032935f, -0.035224f, 
  -0.045978f, 0.043040f, -0.016684f, -0.032277f, 0.006327f, -0.015106f, -0.007767f, 0.033429f, 
  -0.031185f, -0.016709f, -0.001719f, 0.024555f, -0.036541f, 0.017391f, 0.028837f, 0.005995f, 
  -0.002313f, 0.019680f, -0.033394f, -0.038136f, 0.008421f, -0.013213f, -0.030260f, 0.022418f, 
  0.015193f, 0.003932f, 0.033422f, 0.003087f, 0.031823f, -0.037854f, -0.000684f, 0.040055f, 
  -0.011887f, 0.026704f, -0.016596f, -0.026814f, 0.014557f, -0.027280f, -0.012537f, -0.018027f, 
  -0.027068f, 0.032776f, -0.003482f, -0.032041f, -0.046240f, 0.002426f, -0.059513f, 0.017483f, 
  -0.015242f, 0.012426f, 0.011835f, -0.018466f, -0.046951f, 0.033581f, 0.058820f, 0.040015f, 
  0.017739f, -0.048519f, 0.018269f, -0.012237f, 0.025247f, -0.007604f, -0.056511f, -0.019458f, 
  -0.000525f, 0.022204f, -0.020022f, -0.009602f, -0.001807f, -0.042549f, -0.001945f, -0.074851f, 
  -0.017766f, -0.049342f, -0.016522f, -0.048353f, 0.005292f, 0.050195f, -0.008109f, -0.013337f, 
  0.001884f, -0.010591f, -0.025594f, 0.013908f, -0.001726f, -0.028413f, -0.010695f, -0.005167f, 
  0.046510f, -0.010900f, 0.012607f, -0.011415f, -0.000700f, -0.008301f, -0.025943f, -0.021869f, 
  0.009957f, -0.013243f, 0.015672f, 0.027501f, -0.019311f, -0.008629f, -0.031551f, -0.021756f, 
  -0.016573f, -0.036808f, -0.020091f, -0.016600f, -0.040967f, -0.026108f, -0.005439f, -0.038342f, 
  -0.025349f, 0.001202f, -0.008132f, 0.010725f, -0.015740f, 0.010757f, -0.025446f, -0.026858f, 
  -0.039857f, -0.006880f, 0.020453f, -0.009553f, 0.000518f, -0.009915f, -0.001925f, 0.011388f, 
  -0.015287f, -0.007110f, 0.001644f, 0.004855f, -0.016253f, -0.014239f, -0.031770f, -0.028361f, 
  -0.021392f, -0.039514f, -0.023394f, -0.016474f, -0.008094f, -0.015216f, -0.018005f, -0.022762f, 
  -0.010917f, -0.010588f, 0.005531f, 0.014454f, -0.012839f, -0.015316f, -0.027107f, -0.008409f, 
  -0.014816f, -0.030021f, -0.035652f, -0.017981f, -0.008089f, 0.007753f, -0.031929f, -0.014000f, 
  -0.024704f, -0.017747f, -0.014958f, -0.020009f, -0.046047f, -0.017980f, -0.026259f, -0.015090f, 
  -0.045308f, -0.032529f, -0.017041f, 0.006440f, -0.025743f, -0.009766f, -0.009097f, -0.022272f, 
  -0.048811f, 0.016581f, -0.031544f, -0.002954f, -0.007490f, 0.016092f, -0.013691f, -0.005332f, 
  0.016051f, -0.000736f, 0.007008f, 0.000162f, -0.025404f, 0.000017f, -0.013046f, -0.041405f, 
  -0.036293f, 0.003025f, -0.032879f, -0.013788f, -0.028008f, -0.032692f, -0.013145f, 0.006229f, 
  -0.009453f, -0.011665f, -0.025211f, 0.006750f, -0.003924f, -0.017669f, 0.003122f, -0.022825f, 
  -0.012925f, -0.036694f, -0.018237f, -0.010029f, -0.014244f, -0.009676f, -0.027012f, -0.024983f, 
  -0.029380f, 0.020405f, -0.000572f, 0.018320f, -0.017343f, -0.023596f, -0.008406f, -0.019177f, 
  -0.035824f, -0.028356f, 0.010064f, 0.003546f, 0.011401f, 0.030284f, -0.004643f, 0.010060f, 
  -0.022353f, -0.001740f, -0.008368f, -0.013100f, -0.008054f, 0.006057f, -0.021956f, -0.003019f, 
  -0.000048f, -0.022878f, 0.015023f, -0.003830f, -0.002334f, 0.019629f, 0.004391f, -0.004749f, 
  0.008225f, 0.000449f, 0.021518f, -0.033616f, -0.016405f, -0.009867f, -0.012964f, -0.029406f, 
  -0.022036f, 0.010956f, -0.022175f, -0.003286f, -0.009533f, 0.000260f, 0.011561f, 0.029786f, 
  -0.001500f, 0.000929f, 0.011705f, -0.022638f, 0.004899f, -0.022573f, 0.014265f, 0.004248f, 
  0.011121f, -0.004099f, 0.000319f, 0.046990f, -0.015649f, 0.032012f, 0.027897f, -0.004899f, 
  -0.009597f, -0.004581f, -0.036511f, -0.061481f, -0.037070f, -0.003463f, 0.018035f, -0.025128f, 
  0.021057f, 0.007652f, 0.022758f, 0.010024f, -0.009127f, 0.005585f, -0.025172f, -0.016291f, 
  0.028025f, 0.008201f, 0.005514f, -0.039847f, 0.002107f, 0.014884f, -0.002073f, -0.019288f, 
  -0.023461f, -0.000068f, 0.001347f, -0.008736f, -0.004136f, -0.030216f, 0.001351f, -0.015767f, 
  0.007820f, -0.010307f, -0.022947f, -0.006247f, 0.026575f, 0.027244f, -0.023731f, -0.025575f, 
  -0.003422f, -0.001776f, -0.021999f, -0.019762f, -0.004992f, 0.011931f, 0.006057f, 0.039694f, 
  -0.003214f, 0.001474f, -0.009557f, 0.007297f, -0.007677f, 0.018134f, 0.002432f, 0.006508f, 
  0.003550f, -0.033874f, -0.026106f, 0.015091f, -0.008432f, 0.002451f, 0.042512f, -0.004230f, 
  -0.034684f, 0.020809f, -0.010053f, 0.006695f, -0.015676f, 0.003472f, 0.021692f, 0.030365f, 
  0.006629f, 0.024488f, 0.013383f, 0.027314f, -0.024845f, -0.012430f, 0.009500f, 0.013982f, 
  -0.002559f, 0.021265f, 0.015171f, 0.026937f, 0.007009f, -0.006406f, -0.018959f, 0.010226f, 
  -0.017719f, -0.000144f, 0.004484f, 0.006752f, 0.004819f, 0.010419f, 0.002539f, 0.003927f, 
  0.012552f, 0.024493f, 0.001203f, 0.004933f, -0.016315f, 0.000096f, 0.020016f, 0.037584f, 
  -0.006101f, 0.006909f, 0.016857f, -0.012554f, -0.011498f, 0.025150f, 0.018031f, 0.032791f, 
  -0.002103f, 0.035530f, 0.008727f, 0.011807f, -0.015911f, -0.009033f, -0.005675f, 0.013229f, 
  0.010746f, 0.033776f, -0.007510f, -0.008938f, 0.005903f, 0.020537f, 0.017733f, 0.026048f, 
  -0.014258f, 0.018950f, 0.039579f, 0.032261f, -0.005277f, 0.036979f, 0.009350f, -0.013290f, 
  0.009354f, 0.004538f, 0.005636f, 0.009486f, -0.005864f, -0.011853f, -0.024599f, -0.012467f, 
  -0.008822f, -0.030334f, -0.017873f, -0.025648f, -0.004540f, -0.000250f, -0.007175f, 0.011054f, 
  0.003148f, -0.004790f, -0.009083f, 0.003323f, 0.021742f, 0.019509f, 0.040469f, 0.017980f, 
  0.046703f, 0.001639f, 0.016966f, 0.004992f, -0.028715f, 0.015853f, 0.001008f, -0.002346f, 
  0.002641f, 0.013506f, 0.010130f, -0.000205f, -0.000136f, 0.016803f, 0.006905f, -0.011400f, 
  0.013567f, -0.039123f, 0.017722f, 0.030721f, 0.000784f, 0.033531f, -0.010923f, -0.010564f, 
  0.003006f, 0.015853f, 0.013426f, 0.006295f, -0.008745f, 0.020356f, 0.028046f, 0.013012f, 
  0.016918f, 0.020522f, -0.016082f, -0.009294f, -0.016274f, -0.014567f, -0.028202f, 0.021321f, 
  0.018330f, -0.020050f, 0.018665f, 0.015824f, -0.012660f, -0.014073f, 0.019969f, 0.017683f, 
  0.002694f, -0.023746f, -0.001540f, 0.004624f, -0.004504f, 0.017772f, -0.012055f, -0.009593f, 
  -0.001222f, 0.023240f, -0.027418f, 0.011657f, 0.023561f, 0.012809f, 0.032128f, -0.010518f, 
  0.021314f, -0.003020f, -0.018833f, 0.006567f, 0.015664f, -0.025408f, 0.019136f, -0.001271f, 
  -0.017812f, -0.009350f, -0.005337f, -0.021259f, -0.022691f, -0.005523f, 0.008637f, 0.032919f, 
  -0.013889f, -0.003088f, 0.002096f, 0.027115f, 0.009925f, -0.024428f, 0.000932f, 0.004837f, 
  -0.004285f, -0.034675f, -0.001844f, -0.016157f, 0.029709f, -0.011419f, -0.022354f, -0.002992f, 
  0.001615f, 0.001413f, 0.023115f, 0.005254f, -0.047778f, -0.048891f, -0.023609f, -0.021245f, 
  0.013394f, -0.000367f, 0.017179f, -0.002853f, 0.009037f, -0.014967f, -0.005554f, 0.006439f, 
  -0.006858f, 0.005411f, -0.012488f, 0.005254f, 0.001408f, -0.006051f, -0.000634f, 0.009349f, 
  -0.008758f, 0.013985f, -0.014571f, -0.046111f, 0.020771f, -0.002661f, -0.059891f, -0.049415f, 
  -0.021923f, -0.018365f, -0.041296f, -0.028675f, -0.006658f, -0.013415f, -0.019222f, 0.011967f, 
  -0.023811f, -0.010568f, 0.014211f, 0.000261f, 0.022677f, 0.000153f, -0.039083f, -0.018194f, 
  0.006846f, 0.012652f, -0.007155f, 0.025139f, -0.003215f, -0.005193f, -0.024275f, -0.052953f, 
  -0.014966f, -0.018638f, -0.023334f, -0.043875f, -0.053872f, -0.057918f, -0.061145f, -0.050293f, 
  -0.048248f, -0.014918f, -0.031829f, -0.042602f, 0.014435f, 0.006071f, -0.034188f, 0.008615f, 
  0.014502f, 0.035274f, 0.027284f, 0.018806f, 0.001009f, -0.006593f, -0.007506f, -0.001090f, 
  0.014310f, -0.015084f, -0.009258f, -0.019715f, -0.017461f, -0.035692f, 0.017407f, -0.005003f, 
  -0.045406f, -0.036964f, -0.016715f, -0.032532f, -0.041795f, -0.018348f, -0.058414f, -0.011337f, 
  0.010279f, 0.001251f, -0.006522f, -0.004775f, 0.020571f, 0.023797f, -0.010657f, 0.027217f, 
  0.002918f, 0.002180f, 0.030724f, 0.023256f, -0.010937f, -0.028285f, 0.011700f, 0.010696f, 
  0.001532f, -0.036867f, -0.015724f, 0.001203f, -0.031761f, -0.040865f, -0.021698f, -0.028721f, 
  -0.052851f, -0.022251f, -0.015673f, 0.016400f, 0.016983f, 0.013547f, -0.003249f, -0.014822f, 
  -0.002621f, -0.031565f, 0.003191f, -0.020247f, 0.011727f, -0.010950f, 0.011091f, -0.020610f, 
  0.034946f, 0.004739f, 0.021119f, -0.018574f, -0.002012f, -0.010144f, -0.033512f, -0.027843f, 
  -0.037027f, 0.003264f, -0.000362f, -0.003452f, -0.011408f, -0.007125f, 0.023868f, -0.006858f, 
  0.010978f, 0.030165f, 0.008038f, 0.039061f, 0.001488f, 0.014430f, 0.011052f, 0.012724f, 
  0.030316f, 0.005923f, -0.013227f, -0.030099f, -0.013870f, -0.015458f, -0.017774f, -0.004592f, 
  0.017354f, -0.004959f, 0.004914f, -0.018511f, -0.010311f, 0.013170f, -0.060873f, 0.012472f, 
  -0.031555f, -0.019564f, -0.005626f, 0.016754f, 0.005944f, 0.008054f, 0.044419f, 0.041473f, 
  0.035722f, 0.013002f, 0.009072f, 0.022269f, 0.019006f, 0.003742f, 0.023043f, -0.033237f, 
  -0.005037f, 0.013938f, -0.008582f, -0.018229f, 0.020723f, -0.021304f, -0.004361f, -0.030614f, 
  -0.026004f, 0.001550f, -0.011259f, -0.020123f, 0.001113f, 0.000564f, -0.013616f, -0.016784f, 
  -0.004394f, 0.002266f, 0.017665f, 0.032420f, 0.024843f, 0.006818f, 0.019802f, 0.019530f, 
  0.024617f, 0.006300f, -0.004526f, 0.022483f, 0.014989f, 0.000894f, -0.005401f, 0.017947f, 
  0.022180f, 0.030329f, 0.001636f, 0.000483f, 0.000735f, -0.009644f, -0.037951f, -0.032827f, 
  -0.019113f, -0.038229f, -0.000421f, 0.005290f, 0.009126f, 0.033588f, 0.037430f, 0.039807f, 
  0.033908f, -0.010351f, 0.000688f, 0.030684f, -0.006947f, 0.018380f, 0.018234f, -0.002748f, 
  0.029183f, -0.011840f, 0.017859f, 0.030782f, -0.006267f, -0.009672f, 0.016135f, 0.007031f, 
  0.016712f, -0.001269f, -0.027232f, -0.028186f, -0.029725f, -0.016385f, -0.002635f, 0.006076f, 
  -0.022554f, 0.017640f, 0.003613f, 0.020975f, 0.022868f, 0.030588f, 0.054496f, 0.018096f, 
  0.021531f, 0.035764f, -0.015602f, 0.029128f, 0.017756f, 0.028575f, -0.010425f, 0.013075f, 
  0.016963f, -0.026114f, -0.010327f, 0.010220f, -0.008235f, -0.025234f, -0.017909f, -0.012131f, 
  -0.017965f, -0.004132f, -0.017757f, -0.008871f, 0.007723f, -0.011254f, -0.028689f, 0.003216f, 
  -0.004138f, 0.011579f, 0.036450f, 0.018544f, 0.014000f, 0.023488f, 0.055638f, 0.019678f, 
  0.026653f, 0.031917f, 0.029998f, 0.015008f, 0.007478f, -0.019071f, -0.004446f, 0.015363f, 
  -0.003626f, 0.007014f, 0.020365f, -0.004448f, -0.003306f, 0.003134f, -0.017118f, 0.001266f, 
  0.008891f, -0.016331f, 0.000561f, -0.007804f, 0.006509f, 0.002760f, 0.027001f, 0.021559f, 
  0.008796f, -0.002521f, 0.042343f, 0.023805f, -0.000658f, -0.008765f, 0.022320f, 0.014005f, 
  0.010282f, -0.004814f, 0.010439f, 0.018298f, 0.035928f, -0.003016f, 0.009710f, -0.000669f, 
  -0.008250f, -0.015329f, 0.010802f, -0.000224f, 0.023718f, 0.022243f, -0.022410f, 0.040035f, 
  -0.014282f, -0.013506f, 0.025365f, 0.004374f, 0.041705f, 0.010172f, 0.024487f, 0.028831f, 
  0.033852f, 0.007530f, -0.032470f, 0.010262f, 0.001772f, 0.007300f, -0.028434f, 0.013300f, 
  0.004075f, 0.009768f, -0.035915f, -0.001216f, -0.015617f, 0.021720f, -0.000526f, 0.027741f, 
  -0.018435f, -0.007342f, -0.007096f, 0.012972f, 0.020498f, -0.006144f, -0.019060f, -0.011576f, 
  0.015122f, 0.009683f, 0.018835f, 0.029027f, -0.010937f, 0.029987f, 0.022680f, 0.004908f, 
  0.006343f, 0.026436f, 0.013311f, -0.009621f, -0.018169f, -0.027520f, -0.007756f, -0.023605f, 
  -0.032546f, -0.029171f, -0.022078f, -0.034750f, -0.035150f, -0.003050f, -0.023454f, 0.006230f, 
  -0.009273f, -0.005069f, -0.005178f, -0.032169f, -0.002326f, 0.006011f, -0.011136f, 0.003935f, 
  -0.004346f, -0.025748f, -0.011852f, -0.001476f, 0.003310f, -0.023206f, -0.042408f, 0.014804f, 
  0.002369f, -0.007933f, -0.021548f, 0.020800f, -0.039348f, -0.016363f, 0.010793f, 0.003639f, 
  -0.031491f, -0.028005f, -0.019883f, -0.028933f, -0.014654f, -0.014968f, -0.016309f, -0.013345f, 
  -0.030360f, 0.014527f, -0.002505f, -0.017570f, -0.016105f, -0.000046f, 0.009154f, -0.042104f, 
  -0.004952f, -0.017057f, -0.020766f, -0.005722f, -0.014884f, -0.008652f, -0.000865f, -0.015969f, 
  -0.002364f, -0.023917f, -0.010175f, -0.012545f, -0.011750f, 0.004035f, 0.012626f, -0.004103f, 
  -0.005136f, 0.006043f, -0.009484f, -0.015862f, -0.001554f, -0.011455f, -0.041102f, -0.018669f, 
  -0.017971f, -0.027709f, 0.012354f, 0.010279f, 0.007102f, 0.008389f, -0.014903f, -0.000534f, 
  -0.005871f, 0.006517f, 0.003278f, 0.019375f, -0.033786f, 0.023911f, -0.006074f, 0.008822f, 
  -0.015917f, 0.005924f, 0.007578f, -0.025576f, -0.009006f, -0.017867f, -0.004334f, 0.006082f, 
  -0.001886f, -0.013085f, 0.000827f, -0.013539f, -0.018300f, -0.002821f, -0.030249f, -0.002944f, 
  -0.030668f, -0.007375f, -0.032381f, -0.002275f, -0.013398f, 0.020637f, -0.019951f, -0.012702f, 
  0.014331f, -0.032058f, 0.001067f, -0.033303f, 0.007489f, -0.005524f, -0.020713f, -0.038142f, 
  0.027603f, 0.002433f, 0.002752f, -0.015227f, 0.020690f, -0.015649f, -0.007586f, 0.022337f, 
  0.007319f, 0.003862f, 0.006964f, 0.010670f, -0.040641f, -0.011645f, -0.024337f, -0.008189f, 
  0.008019f, 0.007667f, -0.032240f, 0.019883f, -0.017807f, 0.003032f, -0.020661f, -0.003287f, 
  0.000273f, 0.008212f, 0.001392f, 0.007638f, 0.012965f, -0.005658f, 0.005392f, -0.010669f, 
  -0.008902f, 0.000431f, 0.014652f, 0.000278f, 0.004174f, -0.013471f, -0.019201f, -0.027478f, 
  -0.010693f, -0.014536f, -0.036569f, -0.011927f, 0.010289f, -0.023092f, -0.000102f, 0.007561f, 
  -0.012410f, 0.007283f, 0.000384f, -0.030072f, -0.027077f, -0.021894f, -0.002295f, -0.022185f, 
  -0.004699f, 0.007259f, -0.011776f, -0.008005f, 0.016231f, -0.016338f, 0.033142f, 0.001686f, 
  -0.012886f, -0.012374f, -0.021897f, -0.023573f, -0.008469f, -0.032175f, -0.030205f, -0.010574f, 
  -0.015385f, -0.018478f, -0.009711f, 0.012587f, -0.012289f, 0.014708f, -0.000894f, -0.006497f, 
  0.015791f, -0.000974f, 0.018661f, 0.003398f, -0.008388f, 0.026420f, -0.000228f, 0.008434f, 
  -0.000149f, 0.025477f, 0.033335f, 0.038716f, 0.015836f, -0.024775f, 0.004060f, -0.036137f, 
  -0.046928f, -0.003804f, -0.039628f, -0.006482f, 0.005970f, -0.024256f, 0.012838f, 0.022023f, 
  0.015475f, -0.024817f, 0.024412f, 0.023423f, 0.009329f, 0.011733f, -0.007132f, -0.021152f, 
  0.000480f, -0.008635f, 0.012785f, 0.000897f, 0.005487f, 0.024356f, 0.014165f, 0.009677f, 
  0.024660f, 0.036547f, 0.011079f, -0.013552f, 0.012045f, -0.006874f, 0.023041f, -0.017043f, 
  -0.025727f, -0.009921f, 0.008352f, -0.010275f, 0.000207f, 0.000524f, -0.015391f, 0.006068f, 
  0.009990f, 0.014576f, 0.026132f, -0.021031f, -0.013240f, 0.013751f, -0.001955f, -0.001879f, 
  0.008022f, 0.030379f, -0.008878f, 0.024488f, 0.002136f, 0.021225f, 0.005902f, -0.017243f, 
  -0.005301f, -0.007307f, -0.033299f, 0.011344f, -0.005489f, -0.016841f, 0.004511f, 0.015240f, 
  0.003238f, -0.001784f, -0.012928f, 0.024934f, -0.019950f, 0.006887f, -0.012586f, -0.015286f, 
  -0.002233f, -0.007579f, -0.005672f, 0.005529f, 0.013562f, 0.017234f, 0.030196f, 0.026263f, 
  0.026558f, 0.035691f, 0.005884f, 0.033802f, 0.003645f, 0.016389f, 0.002388f, 0.037298f, 
  -0.006454f, -0.006878f, 0.006388f, 0.006371f, 0.009910f, -0.000872f, 0.030619f, -0.002407f, 
  -0.017870f, 0.010730f, -0.005153f, 0.025338f, 0.021314f, 0.026910f, 0.014953f, -0.004694f, 
  -0.002988f, 0.017956f, 0.015993f, 0.030227f, 0.001281f, 0.034996f, 0.007168f, 0.028332f, 
  0.026219f, 0.002147f, 0.001775f, 0.015334f, -0.001792f, 0.033530f, 0.010767f, 0.003886f, 
  -0.000757f, 0.007738f, 0.022459f, 0.009654f, 0.006082f, 0.004530f, -0.027054f, -0.000903f, 
  -0.000536f, 0.019206f, 0.045427f, 0.028084f, 0.031605f, -0.030025f, 0.007984f, 0.031191f, 
  0.006272f, 0.021850f, 0.018614f, 0.021512f, 0.023131f, 0.011515f, -0.011550f, 0.021380f, 
  -0.006438f, 0.013070f, 0.017503f, 0.026614f, -0.017002f, -0.003613f, 0.035711f, -0.022200f, 
  0.029189f, 0.026254f, 0.009590f, 0.000916f, -0.022828f, -0.017185f, 0.002604f, -0.002389f, 
  0.010539f, 0.019223f, -0.010941f, -0.014858f, 0.012576f, 0.014122f, -0.008800f, 0.009018f, 
  -0.000730f, 0.012573f, 0.017421f, -0.005727f, -0.004844f, -0.007347f, 0.004202f, -0.006099f, 
  0.005319f, -0.021806f, 0.005930f, 0.003187f, 0.014822f, 0.008409f, 0.002852f, 0.002752f, 
  -0.002692f, 0.029923f, 0.022404f, 0.033112f, 0.004477f, 0.046191f, 0.009594f, 0.003502f, 
  0.009214f, 0.014550f, 0.020295f, -0.022277f, -0.015860f, 0.028020f, 0.014735f, 0.021237f, 
  0.027593f, 0.004279f, -0.005971f, -0.006222f, -0.008441f, 0.007947f, 0.007541f, -0.024325f, 
  0.009209f, 0.012154f, -0.020838f, 0.017002f, 0.020512f, -0.018071f, 0.005653f, 0.027608f, 
  -0.015828f, -0.037805f, 0.019293f, 0.012151f, -0.009161f, 0.003296f, -0.002429f, -0.015852f, 
  0.008719f, 0.034172f, 0.010258f, 0.005772f, -0.016273f, -0.017291f, 0.001800f, 0.015052f, 
  -0.008131f, -0.009944f, 0.013391f, 0.029159f, -0.017214f, -0.004232f, 0.011282f, 0.009681f, 
  0.003296f, -0.004654f, -0.014950f, -0.003114f, -0.001145f, -0.020106f, -0.004839f, 0.022564f, 
  0.007237f, -0.004885f, 0.014389f, 0.015440f, -0.006905f, 0.001467f, -0.033705f, -0.010555f, 
  -0.016751f, -0.018377f, 0.003045f, 0.019821f, 0.006663f, -0.009637f, -0.004471f, -0.007342f, 
  0.006227f, -0.010995f, -0.011364f, 0.014770f, -0.000770f, 0.030237f, 0.015886f, 0.009698f, 
  -0.007881f, 0.020517f, 0.012824f, -0.008156f, -0.029036f, 0.004020f, -0.012627f, -0.005975f, 
  -0.012906f, -0.009881f, -0.015197f, 0.004019f, -0.026363f, -0.009482f, -0.022039f, -0.002004f, 
  -0.012155f, -0.050156f, -0.011777f, -0.014247f, -0.023596f, 0.018623f, 0.005112f, -0.007919f, 
  -0.004802f, 0.012661f, 0.014068f, 0.011581f, 0.001239f, -0.026301f, 0.007563f, -0.015396f, 
  -0.025886f, -0.013057f, 0.002901f, -0.017401f, 0.005951f, -0.042712f, 0.009511f, 0.007601f, 
  -0.011078f, 0.010265f, 0.005081f, -0.030777f, -0.020001f, -0.039226f, -0.013251f, -0.032487f, 
  0.005434f, -0.012804f, 0.009484f, 0.018912f, -0.035441f, 0.010149f, 0.015306f, 0.009593f, 
  -0.015067f, -0.021380f, 0.006932f, -0.022016f, -0.012822f, -0.024911f, -0.031476f, 0.024445f, 
  0.007452f, -0.033631f, 0.000518f, -0.020596f, -0.037602f, -0.013647f, -0.003783f, 0.000594f, 
  -0.013336f, -0.055733f, -0.025533f, -0.027951f, -0.002658f, 0.003131f, 0.007364f, 0.001514f, 
  -0.013375f, -0.006119f, 0.024731f, 0.006046f, 0.000133f, 0.025228f, 0.014678f, 0.017117f, 
  -0.002636f, -0.001712f, 0.004981f, -0.021773f, 0.005123f, 0.017540f, -0.030209f, 0.011368f, 
  -0.035644f, -0.049887f, -0.018146f, -0.032000f, -0.022450f, -0.036786f, -0.044560f, -0.049497f, 
  0.009501f, -0.021956f, -0.002137f, -0.027150f, -0.001792f, 0.027174f, -0.010469f, -0.001366f, 
  0.009748f, -0.011217f, 0.005734f, 0.013404f, -0.014803f, -0.025162f, -0.019361f, -0.001054f, 
  -0.001479f, -0.036143f, -0.009758f, 0.014067f, 0.001319f, 0.001198f, -0.021616f, -0.016730f, 
  0.007595f, -0.029772f, -0.008622f, -0.004235f, -0.004917f, -0.022019f, -0.006135f, -0.007059f, 
  -0.009080f, 0.009196f, 0.007087f, 0.018159f, 0.018507f, 0.021750f, -0.004943f, -0.023327f, 
  0.005930f, 0.013126f, -0.032182f, -0.010202f, -0.016850f, -0.006371f, 0.013444f, -0.022933f, 
  -0.040312f, 0.003749f, -0.034537f, 0.017447f, 0.002380f, -0.031340f, -0.012362f, -0.017089f, 
  -0.004282f, -0.013722f, 0.031219f, 0.006454f, 0.011907f, 0.025250f, 0.006410f, 0.020203f, 
  0.011460f, 0.020342f, 0.024347f, -0.005014f, -0.005960f, -0.002210f, -0.005601f, -0.009137f, 
  0.002597f, -0.006804f, -0.025153f, 0.007041f, -0.023487f, -0.009494f, -0.038948f, 0.023785f, 
  0.017584f, -0.020461f, -0.002301f, -0.015440f, 0.012655f, -0.015259f, 0.002168f, -0.004205f, 
  0.020177f, 0.026610f, -0.007277f, 0.017030f, 0.033139f, 0.014853f, 0.019770f, 0.005001f, 
  -0.022029f, 0.008836f, 0.009258f, 0.000372f, -0.005176f, 0.022716f, 0.012374f, -0.017321f, 
  0.014576f, -0.000096f, 0.003834f, -0.008573f, -0.025387f, -0.020803f, -0.038488f, 0.018332f, 
  0.022637f, 0.005024f, 0.013175f, -0.000923f, 0.041481f, 0.051999f, 0.037079f, 0.032322f, 
  -0.000630f, 0.039104f, 0.038112f, 0.013431f, 0.033522f, -0.026503f, 0.041131f, 0.011537f, 
  0.023019f, -0.003607f, 0.018839f, -0.003728f, -0.022101f, 0.008660f, -0.020896f, -0.023631f, 
  0.004988f, -0.025674f, -0.008541f, -0.023343f, 0.008273f, 0.028912f, -0.006490f, 0.018083f, 
  -0.003616f, -0.001290f, -0.014481f, 0.023247f, 0.021916f, 0.014434f, 0.017510f, 0.033883f, 
  -0.002063f, -0.015702f, -0.003223f, 0.001272f, -0.008876f, 0.009721f, -0.008899f, -0.035630f, 
  -0.024561f, 0.027243f, 0.030618f, 0.024806f, -0.004316f, -0.013493f, 0.000008f, -0.005714f, 
  -0.027005f, -0.023559f, 0.018713f, 0.021484f, 0.025290f, -0.012261f, 0.016657f, 0.012185f, 
  -0.023020f, 0.001903f, 0.040196f, 0.037712f, -0.006843f, 0.047054f, 0.033570f, 0.021903f, 
  0.013766f, -0.014745f, -0.017662f, -0.012939f, -0.002559f, -0.014155f, -0.009062f, -0.028592f, 
  0.000304f, -0.005093f, -0.012176f, -0.029530f, 0.003014f, 0.020022f, 0.022358f, 0.020091f, 
  -0.010924f, -0.015363f, 0.021743f, -0.020180f, -0.017024f, -0.012360f, -0.010661f, 0.035569f, 
  0.011441f, 0.019361f, -0.014649f, 0.007297f, 0.032707f, -0.001171f, -0.004282f, 0.015889f, 
  -0.019168f, -0.007858f, -0.029197f, -0.014615f, -0.020657f, 0.010171f, 0.007796f, 0.002621f, 
  0.009221f, 0.003935f, -0.002423f, 0.004697f, 0.022848f, 0.006366f, -0.004896f, 0.008875f, 
  -0.034903f, 0.001356f, 0.040105f, 0.003978f, 0.004491f, -0.016330f, 0.007059f, 0.017258f, 
  0.011367f, 0.019502f, 0.020072f, 0.000570f, 0.010903f, 0.021529f, 0.012483f, -0.000935f, 
  -0.024506f, 0.006646f, 0.006783f, -0.019460f, 0.030178f, -0.007602f, -0.028012f, 0.018614f, 
  0.001884f, -0.002919f, 0.036164f, 0.054578f, 0.030959f, 0.031154f, 0.016042f, 0.023582f, 
  -0.001716f, -0.017653f, -0.025050f, 0.019432f, -0.016573f, 0.013089f, -0.017205f, 0.018776f, 
  0.010555f, 0.019785f, 0.015345f, 0.028421f, 0.003818f, 0.007241f, 0.012269f, 0.012110f, 
  -0.002249f, 0.027042f, -0.004378f, 0.022408f, 0.005242f, -0.007396f, 0.006623f, 0.022057f, 
  0.027580f, 0.014162f, 0.018221f, 0.014008f, 0.035403f, 0.019707f, 0.044156f, 0.016927f, 
  0.014937f, 0.036257f, 0.021287f, 0.000180f, 0.018004f, -0.017519f, 0.002421f, 0.013215f, 
  -0.006201f, 0.016692f, -0.022679f, 0.019636f, 0.013734f, 0.011847f, 0.019980f, -0.008312f, 
  -0.031244f, 0.003581f, 0.007721f, 0.006215f, 0.003206f, 0.015085f, 0.025035f, 0.015823f, 
  -0.003344f, 0.031556f, 0.009756f, 0.033821f, 0.027040f, 0.020680f, -0.024495f, 0.012093f, 
  0.006941f, 0.000427f, 0.032119f, -0.003509f, 0.012752f, 0.011395f, -0.015143f, 0.007970f, 
  -0.006943f, -0.013108f, 0.004620f, 0.008282f, 0.001804f, -0.004211f, -0.011986f, -0.003693f, 
  -0.031822f, -0.014648f, 0.003529f, 0.035882f, 0.040218f, 0.023564f, 0.009247f, 0.020159f, 
  0.045041f, 0.009048f, -0.012770f, -0.012044f, -0.000350f, 0.014065f, 0.004717f, 0.012779f, 
  0.041305f, 0.017887f, 0.016750f, 0.025560f, -0.017542f, 0.015012f, 0.018455f, 0.029581f, 
  -0.004537f, 0.012123f, 0.006690f, -0.025134f, -0.014663f, -0.004669f, 0.013183f, -0.015332f, 
  0.025251f, 0.012152f, 0.014670f, 0.013893f, 0.017806f, 0.026729f, -0.013098f, 0.018982f, 
  0.012271f, 0.017638f, -0.001015f, 0.000181f, 0.002620f, 0.027434f, -0.023742f, -0.004977f, 
  -0.008339f, 0.011064f, -0.000624f, -0.019548f, -0.030550f, 0.003950f, -0.003115f, 0.008855f, 
  -0.015046f, -0.018404f, -0.006511f, 0.020399f, 0.032933f, 0.033920f, 0.007791f, 0.002589f, 
  0.010919f, -0.008233f, 0.005663f, -0.023184f, 0.017842f, 0.017051f, -0.018013f, -0.004406f, 
  0.009084f, 0.020073f, 0.016437f, 0.011209f, 0.020892f, 0.017246f, 0.027691f, 0.008639f, 
  -0.001380f, -0.034359f, -0.014988f, -0.006149f, -0.040658f, -0.021614f, -0.000561f, -0.017284f, 
  -0.006954f, -0.003987f, -0.004129f, -0.006711f, 0.046448f, 0.043386f, 0.028036f, 0.013622f, 
  -0.000151f, -0.027311f, 0.027561f, -0.013945f, 0.016966f, -0.006602f, -0.031276f, -0.017866f, 
  -0.007741f, -0.012845f, -0.021744f, 0.001466f, -0.002126f, 0.003580f, 0.015572f, -0.019883f, 
  -0.012280f, 0.001551f, -0.040202f, -0.005056f, -0.024193f, -0.038977f, -0.025551f, 0.018838f, 
  0.027862f, 0.020326f, 0.008509f, 0.026862f, 0.009049f, -0.007308f, 0.017661f, 0.000545f, 
  -0.014529f, -0.004436f, 0.018617f, 0.000730f, 0.002438f, -0.010420f, 0.032087f, -0.001332f, 
  -0.010514f, -0.002421f, -0.009477f, -0.021842f, -0.033113f, 0.006003f, -0.017486f, -0.023834f, 
  -0.007661f, -0.022360f, -0.014346f, 0.006466f, -0.009581f, 0.000114f, 0.007233f, -0.011249f, 
  0.022621f, -0.005301f, -0.011283f, -0.029335f, -0.022891f, 0.022899f, 0.022043f, 0.000936f, 
  0.004876f, -0.007814f, 0.004584f, -0.011785f, -0.007740f, -0.040612f, 0.013137f, -0.018594f, 
  -0.021176f, -0.034065f, -0.025296f, 0.005291f, -0.005768f, -0.020006f, -0.013238f, -0.009859f, 
  -0.006374f, -0.001557f, 0.011609f, 0.010120f, -0.025040f, -0.009270f, -0.017905f, -0.009226f, 
  -0.030333f, -0.022877f, 0.003596f, -0.012792f, -0.022841f, -0.014341f, -0.004576f, -0.010473f, 
  0.013329f, -0.028504f, -0.012077f, -0.000868f, -0.039714f, -0.038848f, -0.030790f, 0.000850f, 
  -0.006201f, -0.013549f, -0.005400f, -0.013358f, -0.000727f, -0.000387f, 0.007424f, -0.011717f, 
  0.005460f, -0.013889f, -0.024193f, -0.021309f, -0.015377f, -0.010680f, -0.032863f, -0.012149f, 
  0.009279f, -0.005151f, 0.023634f, -0.005889f, -0.009906f, -0.004834f, -0.023324f, -0.012164f, 
  -0.004172f, 0.000635f, -0.022201f, -0.007119f, -0.015942f, 0.005732f, -0.016507f, 0.013328f, 
  -0.033413f, -0.033197f, -0.002949f, 0.011612f, -0.003986f, 0.012992f, 0.001171f, 0.005195f, 
  -0.001115f, -0.016234f, -0.031485f, 0.014852f, -0.003858f, 0.004087f, -0.003870f, -0.020210f, 
  -0.006639f, -0.018370f, -0.041409f, -0.012173f, -0.036091f, -0.004831f, 0.012134f, -0.002661f, 
  -0.036616f, -0.015841f, -0.035407f, -0.027202f, -0.017890f, 0.003013f, -0.018356f, -0.005591f, 
  -0.005646f, 0.031653f, -0.020516f, -0.000864f, 0.018719f, 0.015434f, -0.010957f, 0.017740f, 
  0.003923f, 0.000561f, -0.012157f, -0.001228f, -0.001245f, 0.010312f, 0.013047f, -0.008109f, 
  -0.011234f, 0.011954f, -0.029786f, -0.022292f, -0.015525f, -0.016361f, -0.015785f, 0.007015f, 
  -0.025788f, 0.005456f, -0.024141f, 0.002393f, 0.006648f, -0.033459f, -0.000154f, -0.007846f, 
  -0.002257f, -0.029835f, -0.009543f, 0.001480f, -0.030997f, -0.029160f, -0.003174f, 0.011161f, 
  -0.011762f, -0.006954f, -0.014035f, -0.000183f, 0.024499f, 0.005839f, -0.035125f, -0.042677f, 
  -0.016629f, -0.028129f, 0.004953f, -0.015571f, 0.020101f, -0.020797f, -0.025836f, 0.005101f, 
  0.003402f, 0.015114f, -0.041834f, 0.014092f, -0.014972f, 0.001094f, 0.020683f, -0.021614f, 
  -0.010773f, 0.014549f, -0.008148f, 0.022717f, -0.014494f, -0.028758f, -0.008122f, -0.001718f, 
  0.001275f, 0.011405f, -0.002259f, 0.001554f, 0.005272f, -0.010606f, -0.032715f, -0.003067f, 
  0.015654f, -0.013656f, -0.022689f, -0.024691f, -0.018804f, 0.006102f, 0.017083f, 0.011905f, 
  0.031066f, 0.010397f, -0.004703f, 0.009506f, 0.011222f, -0.005143f, 0.006719f, 0.013911f, 
  -0.015789f, -0.006334f, -0.029204f, 0.012335f, -0.003327f, -0.022337f, 0.003986f, -0.008075f, 
  -0.004414f, 0.002263f, -0.014440f, -0.005837f, 0.001746f, -0.008896f, -0.014559f, -0.029114f, 
  -0.019337f, 0.016797f, 0.021147f, -0.015064f, 0.014989f, 0.037948f, 0.014834f, 0.004484f, 
  0.019834f, -0.004989f, -0.021306f, 0.017848f, 0.012181f, 0.002860f, -0.001888f, -0.016933f, 
  -0.035042f, 0.030962f, 0.043020f, -0.034415f, 0.009316f, -0.028167f, 0.031063f, -0.011788f, 
  0.023076f, -0.008682f, 0.008473f, 0.006590f, 0.010160f, 0.017773f, 0.034835f, 0.018091f, 
  -0.001455f, 0.044647f, -0.005386f, -0.015182f, 0.006967f, 0.022806f, 0.023537f, 0.006549f, 
  0.009177f, -0.010516f, -0.020245f, -0.026370f, 0.017094f, 0.010701f, 0.021692f, -0.003596f, 
  0.006097f, -0.037746f, -0.008952f, 0.021684f, -0.034311f, -0.008788f, 0.003400f, 0.025135f, 
  0.026806f, -0.005155f, 0.002088f, 0.004719f, -0.000661f, 0.018244f, 0.020637f, 0.037792f, 
  0.034663f, 0.012512f, -0.013395f, -0.005913f, 0.014793f, -0.010134f, 0.008838f, 0.001380f, 
  -0.034530f, -0.020294f, -0.016863f, 0.008999f, -0.022983f, -0.011864f, 0.015104f, 0.032598f, 
  -0.021816f, 0.004659f, 0.019476f, 0.026286f, -0.001315f, -0.016418f, -0.011386f, 0.043330f, 
  0.038334f, -0.004893f, -0.007347f, 0.023884f, 0.015392f, 0.012742f, 0.021939f, -0.002014f, 
  0.008863f, 0.017301f, 0.021786f, 0.001884f, -0.022346f, -0.009157f, 0.000468f, 0.008879f, 
  0.031985f, 0.000883f, 0.011822f, -0.002261f, -0.002068f, -0.037740f, 0.008082f, 0.025793f, 
  0.021312f, -0.004406f, 0.013102f, 0.018397f, -0.003917f, 0.012825f, -0.005514f, -0.005520f, 
  0.002044f, -0.002786f, 0.001293f, -0.033127f, -0.030042f, -0.002935f, 0.008426f, 0.005967f, 
  -0.011342f, -0.021618f, -0.006288f, -0.000918f, 0.008377f, -0.018309f, 0.001027f, -0.016779f, 
  0.012330f, 0.007832f, 0.018370f, 0.008974f, 0.015496f, -0.000464f, -0.015235f, 0.013647f, 
  -0.018521f, -0.012993f, 0.039326f, 0.001579f, 0.011043f, 0.001919f, -0.017831f, -0.051743f, 
  -0.020551f, -0.015787f, -0.016077f, -0.019843f, 0.023087f, -0.028254f, -0.007730f, 0.001737f, 
  -0.020082f, 0.004160f, -0.001462f, -0.024836f, 0.009718f, 0.014243f, 0.004974f, -0.037244f, 
  0.002159f, 0.009675f, 0.005899f, 0.026405f, -0.009496f, 0.029467f, 0.001708f, -0.024925f, 
  0.012460f, 0.026645f, 0.008872f, -0.011451f, -0.022750f, 0.000666f, -0.027794f, -0.027312f, 
  0.001491f, -0.006751f, -0.027092f, -0.031977f, -0.006817f, -0.040768f, 0.000613f, 0.023818f, 
  -0.007402f, -0.020270f, 0.002836f, 0.028735f, -0.031826f, 0.010527f, 0.016179f, 0.031443f, 
  -0.003029f, 0.002514f, -0.000698f, 0.024692f, 0.004045f, -0.003351f, 0.021273f, -0.023055f, 
  -0.004168f, -0.046806f, -0.039753f, -0.031903f, 0.017247f, -0.037246f, 0.001503f, -0.014158f, 
  0.017535f, 0.016836f, -0.000837f, 0.024512f, -0.003275f, -0.014517f, -0.003116f, 0.012723f, 
  -0.023319f, -0.002787f, -0.017941f, -0.002809f, -0.000288f, 0.021982f, 0.010597f, 0.019094f, 
  0.033205f, -0.011633f, -0.000260f, -0.013790f, -0.000949f, -0.022795f, -0.002542f, -0.033595f, 
  -0.012288f, -0.025074f, -0.043371f, -0.005974f, 0.009642f, -0.011619f, -0.032818f, -0.016253f, 
  -0.000363f, 0.014292f, 0.005284f, -0.008945f, -0.001012f, 0.013846f, -0.018300f, -0.005040f, 
  0.014496f, -0.009474f, -0.019733f, -0.010825f, 0.012427f, -0.006667f, 0.019855f, -0.012571f, 
  -0.001964f, -0.036573f, 0.002963f, -0.015212f, -0.020925f, -0.020089f, -0.017957f, -0.007332f, 
  -0.012327f, 0.000445f, -0.015327f, 0.013705f, 0.002838f, 0.008021f, -0.012571f, -0.020637f, 
  -0.006968f, 0.013308f, -0.005236f, 0.016774f, 0.005216f, -0.025113f, 0.032699f, 0.017023f, 
  0.028246f, -0.001927f, -0.015105f, -0.026456f, 0.008782f, -0.009749f, 0.022930f, -0.005601f, 
  0.006126f, -0.014794f, -0.001802f, -0.003758f, -0.001831f, -0.002437f, -0.019877f, 0.017794f, 
  0.021669f, -0.006383f, 0.019494f, 0.009179f, 0.014829f, -0.012103f, 0.017030f, 0.001536f, 
  0.011693f, 0.014229f, -0.000448f, -0.004773f, -0.023622f, -0.021851f, 0.002693f, 0.005298f, 
  0.006205f, -0.021468f, -0.012959f, -0.003738f, -0.008896f, -0.001553f, -0.024973f, -0.010168f, 
  0.001423f, -0.010844f, -0.003192f, 0.010252f, 0.011794f, -0.025590f, -0.030029f, 0.031299f, 
  0.014076f, -0.000747f, -0.000936f, 0.006912f, -0.010665f, -0.023153f, 0.004227f, -0.000847f, 
  -0.005640f, 0.023807f, -0.000332f, 0.024306f, 0.004770f, -0.005266f, -0.005689f, 0.008405f, 
  0.003281f, -0.005498f, -0.016498f, -0.012838f, -0.016898f, 0.003187f, -0.025128f, 0.012959f, 
  0.016899f, -0.029900f, -0.003272f, -0.014562f, -0.018217f, -0.020495f, -0.025338f, -0.004225f, 
  0.032133f, 0.016303f, 0.025398f, -0.024413f, 0.013855f, 0.016149f, 0.007859f, -0.005477f, 
  0.022204f, -0.009791f, 0.025989f, 0.001401f, 0.051934f, 0.018574f, 0.016264f, 0.023517f, 
  0.008835f, 0.014022f, 0.027770f, -0.014411f, -0.001326f, 0.005347f, 0.012886f, 0.023635f, 
  -0.002041f, 0.026699f, 0.010341f, -0.023813f, 0.011831f, -0.003211f, 0.024652f, 0.026845f, 
  0.018629f, 0.013699f, 0.003388f, 0.022367f, 0.008559f, -0.006747f, 0.037636f, 0.007133f, 
  0.032816f, 0.024391f, 0.018750f, 0.024385f, 0.018995f, 0.002931f, 0.034176f, -0.001217f, 
  -0.004845f, 0.024839f, -0.007561f, 0.001439f, -0.019096f, 0.003936f, 0.037035f, 0.041526f, 
  0.004624f, 0.025076f, 0.024559f, 0.014690f, 0.017796f, -0.000553f, 0.012214f, -0.001490f, 
  -0.000392f, -0.009684f, 0.013540f, 0.022735f, 0.018836f, -0.003200f, 0.028754f, 0.030151f, 
  0.007731f, 0.058547f, 0.010139f, 0.019053f, 0.040767f, 0.014627f, 0.005015f, -0.011637f, 
  -0.001430f, 0.021615f, -0.001808f, -0.004454f, 0.010026f, 0.023175f, 0.007739f, 0.000476f, 
  -0.017486f, -0.024149f, -0.006151f, -0.001331f, 0.004698f, 0.016403f, -0.001272f, 0.028884f, 
  0.019007f, 0.006370f, 0.030896f, 0.020759f, 0.021242f, 0.007051f, 0.011702f, 0.022389f, 
  0.021875f, 0.018342f, -0.025256f, 0.035203f, -0.006214f, 0.020012f, 0.001598f, 0.049179f, 
  0.018429f, 0.036709f, 0.019401f, -0.010962f, 0.030520f, -0.018814f, 0.026080f, 0.001547f, 
  0.007772f, 0.005698f, 0.029706f, 0.013689f, -0.019913f, 0.007135f, 0.035958f, 0.033471f, 
  0.032110f, 0.004556f, 0.041967f, 0.023346f, 0.041985f, 0.030784f, 0.027411f, 0.013472f, 
  0.007417f, 0.014669f, -0.013381f, 0.004561f, -0.010603f, 0.015781f, 0.008244f, -0.000432f, 
  0.001496f, 0.020393f, 0.012452f, -0.011998f, 0.038470f, -0.006836f, 0.002918f, -0.012774f, 
  -0.005025f, 0.004705f, -0.002035f, -0.011616f, 0.005720f, -0.012578f, 0.001811f, 0.036398f, 
  0.026005f, 0.021593f, 0.013774f, 0.023812f, 0.008800f, -0.020535f, 0.022830f, -0.015824f, 
  -0.020195f, -0.019845f, 0.039364f, 0.008511f, 0.009281f, 0.042985f, 0.017185f, 0.015686f, 
  -0.029569f, -0.021860f, -0.028705f, -0.006726f, -0.005246f, -0.020800f, 0.022683f, -0.001983f, 
  -0.026024f, -0.029578f, 0.026909f, 0.020512f, -0.011784f, 0.022510f, -0.005483f, 0.017913f, 
  0.027744f, -0.007390f, -0.013126f, -0.017283f, -0.008844f, 0.013552f, 0.009181f, 0.006801f, 
  0.020232f, 0.013947f, 0.050657f, 0.002381f, 0.013550f, 0.028821f, -0.010026f, -0.009712f, 
  0.008003f, -0.041871f, -0.048982f, -0.030937f, -0.014758f, -0.008601f, -0.005330f, -0.006296f, 
  0.027397f, 0.030919f, 0.034706f, 0.020579f, 0.013342f, -0.012277f, 0.038852f, -0.005221f, 
  0.032192f, -0.010000f, 0.006202f, 0.010398f, 0.007102f, 0.018108f, 0.009582f, 0.001078f, 
  -0.000289f, 0.006983f, 0.019421f, -0.013067f, -0.016299f, -0.040490f, -0.020916f, -0.029707f, 
  -0.024051f, -0.002966f, -0.001333f, -0.026522f, -0.013516f, 0.007211f, -0.003260f, 0.025539f, 
  0.037273f, -0.010151f, 0.029424f, -0.021132f, 0.011346f, 0.020002f, 0.000513f, -0.008792f, 
  -0.011651f, -0.021554f, 0.009109f, 0.034706f, 0.021839f, -0.001344f, -0.025029f, -0.010001f, 
  -0.033683f, -0.010742f, -0.027538f, -0.034229f, -0.007017f, -0.034970f, -0.025943f, 0.011747f, 
  -0.021613f, -0.012992f, 0.000384f, 0.017500f, -0.012656f, 0.009429f, 0.018275f, -0.009306f, 
  0.022962f, 0.019383f, 0.034021f, 0.007596f, -0.017657f, -0.005284f, 0.027477f, -0.005198f, 
  -0.001310f, -0.031517f, -0.011544f, 0.011617f, -0.035700f, -0.018079f, -0.038150f, -0.037638f, 
  -0.025144f, -0.010975f, -0.019721f, -0.018005f, -0.009844f, -0.024091f, -0.002690f, -0.020890f, 
  0.002527f, -0.004380f, -0.020902f, -0.014892f, -0.022720f, -0.022235f, 0.018778f, 0.008148f, 
  0.000588f, 0.005880f, 0.000722f, -0.032829f, 0.003971f, -0.010580f, -0.000798f, 0.014037f, 
  -0.018195f, -0.003480f, -0.002207f, -0.039384f, -0.002299f, -0.036608f, -0.040300f, -0.016576f, 
  -0.010134f, -0.025948f, -0.009169f, -0.029048f, -0.037167f, -0.023279f, 0.012918f, 0.001945f, 
  -0.011045f, -0.018972f, -0.030076f, 0.005221f, -0.011282f, 0.017306f, 0.004985f, 0.008375f, 
  0.008486f, -0.025960f, -0.014166f, -0.040627f, -0.000593f, -0.051936f, -0.022425f, -0.021794f, 
  0.005057f, -0.027985f, -0.001299f, -0.010572f, -0.006485f, -0.010307f, -0.014691f, -0.021710f, 
  -0.041462f, -0.019914f, 0.019118f, 0.002350f, -0.016910f, -0.012131f, -0.018369f, -0.009177f, 
  -0.025795f, -0.006001f, 0.003018f, -0.009361f, 0.002079f, 0.014799f, -0.000504f, -0.003410f, 
  -0.034271f, -0.008019f, -0.063593f, -0.017845f, -0.033481f, -0.010959f, 0.013139f, -0.005982f, 
  -0.004949f, -0.018178f, -0.016882f, -0.042696f, -0.043253f, -0.013321f, -0.034753f, -0.044802f, 
  -0.009433f, -0.044812f, -0.007069f, -0.015415f, -0.023230f, -0.001663f, -0.033054f, 0.002128f, 
  0.002300f, 0.005352f, 0.000830f, -0.039048f, -0.036865f, 0.006915f, -0.026287f, -0.054439f, 
  -0.012073f, -0.024100f, -0.022288f, -0.045225f, -0.016234f, -0.026831f, 0.004141f, -0.005040f, 
  -0.017592f, -0.021567f, -0.024856f, -0.025619f, -0.037932f, -0.022335f, -0.030941f, 0.000836f, 
  -0.005953f, -0.036070f, -0.001650f, -0.020502f, -0.038000f, 0.007770f, 0.033441f, -0.005742f, 
  0.015207f, -0.006761f, -0.039437f, -0.035295f, -0.002008f, -0.044302f, -0.039764f, -0.012483f, 
  -0.033552f, -0.011957f, -0.004374f, 0.002705f, -0.039006f, -0.008788f, -0.036431f, -0.046445f, 
  -0.002475f, -0.006708f, -0.023983f, 0.002493f, -0.000687f, 0.005097f, 0.006957f, 0.014100f, 
  -0.024585f, 0.022484f, -0.047223f, -0.003593f, -0.029947f, 0.003236f, 0.015377f, 0.018311f, 
  -0.010933f, -0.017486f, -0.041011f, -0.021322f, -0.013289f, -0.006756f, -0.031306f, -0.046763f, 
  -0.045657f, -0.023501f, -0.047339f, -0.053914f, -0.019054f, -0.022152f, -0.009370f, -0.027437f, 
  -0.034183f, -0.037094f, 0.000014f, 0.001454f, -0.022975f, 0.005461f, 0.002945f, -0.005860f, 
  0.000660f, 0.015220f, -0.005257f, -0.011548f, 0.014552f, 0.000300f, -0.006413f, 0.015698f, 
  0.002007f, -0.018418f, 0.005502f, -0.004355f, -0.037377f, -0.016608f, -0.008524f, 0.004862f, 
  -0.002973f, -0.016020f, -0.017222f, 0.010884f, 0.011720f, 0.025248f, -0.005333f, -0.006964f, 
  -0.006491f, -0.000645f, 0.011540f, -0.013086f, -0.017380f, 0.011924f, 0.000740f, 0.014661f, 
  -0.001363f, -0.026612f, -0.008710f, 0.007470f, -0.004629f, -0.021843f, 0.018119f, -0.012181f, 
  0.008251f, -0.011677f, 0.012507f, 0.016207f, -0.018839f, -0.001901f, 0.007383f, -0.016765f, 
  -0.003408f, 0.028894f, 0.010743f, 0.024498f, -0.008786f, 0.003457f, -0.015013f, -0.013334f, 
  -0.039749f, -0.014312f, -0.021290f, -0.010393f, -0.017275f, 0.010553f, 0.002222f, 0.004850f, 
  0.008344f, 0.026776f, -0.020143f, 0.000513f, 0.014884f, -0.006770f, -0.005882f, -0.013301f, 
  -0.001338f, 0.025328f, 0.009079f, -0.003437f, 0.010405f, -0.045200f, 0.019328f, 0.009402f, 
  0.014150f, -0.024581f, -0.013578f, 0.011053f, 0.025403f, -0.027518f, -0.024070f, -0.018431f, 
  0.028278f, -0.008708f, -0.014477f, -0.012794f, -0.002962f, -0.006298f, 0.004633f, -0.016032f, 
  0.026705f, 0.000196f, -0.004047f, 0.002867f, 0.004167f, 0.008563f, 0.007889f, -0.008883f, 
  0.016500f, 0.010298f, 0.002683f, 0.017669f, 0.007371f, 0.031415f, 0.006281f, 0.030765f, 
  0.008060f, -0.001622f, 0.009658f, -0.015129f, -0.004737f, -0.009235f, 0.036920f, 0.019433f, 
  0.017127f, 0.015463f, -0.007734f, 0.033289f, 0.007773f, 0.026456f, 0.011897f, 0.032428f, 
  -0.003332f, -0.027426f, 0.027882f, 0.059423f, 0.035074f, 0.035027f, 0.026117f, 0.003874f, 
  -0.022846f, 0.005177f, -0.029805f, -0.003367f, -0.008669f, -0.008014f, -0.017470f, 0.017246f, 
  0.011239f, 0.007552f, 0.012604f, 0.025670f, 0.008297f, -0.002207f, -0.001981f, -0.023402f, 
  0.007392f, 0.000928f, -0.008894f, 0.008096f, -0.013925f, 0.006217f, 0.025608f, 0.019247f, 
  0.022830f, 0.037467f, 0.007574f, -0.022573f, 0.021342f, -0.016436f, -0.042311f, -0.039033f, 
  0.002860f, -0.001888f, 0.003484f, 0.020821f, 0.005183f, 0.002819f, 0.010440f, -0.004018f, 
  0.038146f, -0.015751f, -0.018553f, 0.002360f, 0.003101f, -0.013632f, 0.004286f, -0.009365f, 
  0.025666f, 0.010680f, 0.002856f, -0.010409f, -0.017030f, -0.004979f, -0.006997f, 0.007120f, 
  -0.021566f, 0.007318f, -0.029777f, -0.004734f, -0.019915f, -0.017262f, -0.008832f, 0.006795f, 
  -0.032634f, 0.021324f, -0.019570f, -0.027583f, -0.016967f, -0.012955f, -0.007713f, -0.017925f, 
  0.002521f, 0.018406f, -0.005222f, -0.005480f, 0.022274f, 0.024528f, 0.034134f, 0.009124f, 
  0.021059f, 0.000274f, 0.007112f, 0.010115f, -0.010015f, -0.029191f, -0.012410f, -0.050535f, 
  0.001320f, -0.032662f, -0.035155f, -0.016513f, -0.038403f, -0.004858f, 0.030800f, -0.001618f, 
  -0.005168f, -0.005312f, -0.014605f, -0.015203f, -0.002854f, -0.026757f, -0.010679f, 0.017997f, 
  0.009420f, 0.031643f, 0.029911f, 0.000994f, 0.004708f, 0.030271f, -0.005481f, 0.003313f, 
  -0.021603f, 0.011038f, -0.019720f, -0.021564f, -0.017569f, -0.027925f, -0.012120f, -0.037968f, 
  -0.025381f, -0.028156f, 0.030539f, -0.013785f, -0.007684f, 0.005679f, 0.020631f, 0.020036f, 
  -0.008757f, -0.011456f, 0.025531f, 0.019457f, 0.008788f, 0.011628f, 0.042168f, 0.032695f, 
  0.020576f, 0.006697f, 0.020691f, 0.014629f, -0.027161f, -0.030185f, -0.023072f, -0.010012f, 
  0.002600f, -0.013665f, -0.006599f, 0.005776f, -0.025864f, -0.046623f, -0.051784f, 0.007880f, 
  -0.010403f, -0.017115f, -0.017873f, -0.005383f, 0.019097f, 0.021167f, 0.003398f, 0.003138f, 
  0.010917f, -0.009027f, 0.023317f, -0.000498f, -0.000083f, -0.012173f, -0.008967f, -0.007936f, 
  0.035892f, 0.001191f, -0.010569f, -0.028025f, -0.025070f, 0.008308f, -0.006405f, -0.038365f, 
  -0.042349f, -0.022773f, -0.005533f, -0.062261f, -0.033549f, -0.026795f, -0.007075f, -0.016641f, 
  0.008502f, -0.014297f, -0.004493f, 0.034111f, 0.018044f, 0.000716f, -0.008679f, 0.010118f, 
  -0.001702f, -0.029184f, -0.000245f, -0.015580f, 0.041187f, 0.012902f, -0.018141f, -0.002003f, 
  -0.000812f, -0.006575f, -0.045895f, -0.020969f, -0.032518f, -0.022305f, -0.033525f, -0.014197f, 
  0.008626f, -0.000584f, -0.002276f, 0.004254f, -0.030949f, 0.004499f, -0.026158f, 0.021192f, 
  0.038091f, 0.027281f, 0.018812f, 0.023375f, 0.019910f, 0.024818f, 0.026974f, -0.010133f, 
  -0.001394f, -0.001510f, -0.015179f, 0.036724f, 0.035312f, 0.012763f, 0.014272f, 0.018452f, 
  0.052754f, 0.014437f, 0.031990f, -0.001743f, 0.018070f, -0.007955f, 0.013805f, 0.003105f, 
  0.013838f, 0.021170f, -0.018695f, 0.012381f, 0.013545f, 0.010222f, 0.012333f, -0.003192f, 
  0.040210f, 0.003407f, 0.026629f, 0.010191f, -0.012570f, -0.001116f, -0.007032f, 0.009706f, 
  -0.003790f, 0.009357f, -0.019087f, 0.040026f, 0.004721f, 0.020267f, 0.003193f, 0.021995f, 
  0.048587f, -0.022156f, 0.018020f, 0.008962f, 0.018674f, 0.023517f, -0.009898f, 0.013332f, 
  -0.000249f, -0.019330f, -0.035715f, 0.003487f, 0.024951f, 0.023548f, 0.017921f, 0.015201f, 
  -0.026054f, 0.013464f, 0.005878f, 0.009192f, 0.002111f, 0.020749f, 0.028117f, 0.023483f, 
  -0.011503f, 0.022097f, -0.001379f, 0.012987f, -0.002345f, 0.010993f, -0.005096f, 0.036376f, 
  0.013562f, 0.021108f, 0.028102f, -0.005328f, 0.037600f, 0.023306f, 0.018534f, -0.007474f, 
  0.014471f, 0.019966f, 0.007261f, 0.010933f, -0.001803f, 0.030343f, 0.014847f, -0.003178f, 
  0.017182f, 0.004969f, 0.003206f, -0.011282f, -0.010506f, 0.035218f, -0.019458f, 0.016795f, 
  0.044829f, 0.018456f, 0.032126f, 0.031989f, 0.047660f, 0.018356f, -0.012967f, 0.011100f, 
  0.017349f, -0.024292f, 0.004692f, 0.007919f, 0.006654f, 0.031550f, -0.017907f, 0.029640f, 
  0.010144f, 0.006403f, 0.043081f, 0.027212f, 0.002398f, 0.022318f, 0.010273f, 0.001022f, 
  0.019470f, 0.025099f, 0.008691f, 0.009333f, -0.008618f, -0.005732f, 0.001557f, -0.021774f, 
  -0.015097f, 0.005609f, 0.037124f, -0.002309f, 0.021883f, -0.002832f, 0.020518f, 0.003046f, 
  0.010721f, 0.002859f, 0.026662f, 0.000699f, 0.007605f, -0.018634f, 0.002587f, -0.003865f, 
  0.015940f, -0.019993f, -0.018870f, -0.015312f, 0.018045f, 0.023637f, 0.006395f, 0.005490f, 
  0.039269f, 0.020157f, 0.013106f, -0.003900f, 0.029734f, 0.038639f, 0.014454f, -0.014880f, 
  0.017085f, 0.008627f, -0.019164f, 0.008440f, 0.033792f, -0.015669f, 0.033406f, 0.006036f, 
  -0.000166f, -0.011981f, -0.008223f, -0.017069f, -0.013182f, 0.005432f, 0.020954f, 0.003736f, 
  0.009497f, 0.009598f, 0.037018f, 0.016064f, 0.006430f, -0.003345f, 0.047433f, 0.029832f, 
  0.019254f, 0.006280f, 0.009767f, -0.000336f, 0.012585f, 0.030705f, 0.003107f, 0.009966f, 
  0.012429f, 0.007259f, 0.014178f, 0.022902f, 0.026672f, 0.011475f, 0.016658f, -0.017889f, 
  0.004781f, -0.001873f, -0.005557f, -0.003740f, -0.033558f, 0.010446f, -0.015463f, -0.041183f, 
  -0.034457f, -0.000575f, 0.014668f, 0.028081f, 0.021503f, 0.023320f, 0.020304f, 0.019127f, 
  0.017973f, 0.010287f, 0.015049f, 0.005065f, 0.002507f, 0.000498f, 0.022922f, 0.005171f, 
  0.017797f, 0.020124f, 0.012345f, -0.017651f, -0.003833f, -0.017850f, -0.027041f, 0.000379f, 
  -0.014826f, -0.003881f, -0.046951f, -0.010068f, 0.012979f, -0.027084f, 0.016905f, 0.009984f, 
  0.008273f, 0.005424f, 0.016313f, 0.004575f, -0.012358f, -0.009919f, -0.005634f, -0.017101f, 
  0.005031f, 0.012870f, 0.022177f, 0.003110f, 0.000653f, 0.014402f, -0.025355f, -0.018903f, 
  -0.000035f, -0.021066f, -0.010110f, -0.009991f, -0.014511f, -0.034739f, -0.027870f, -0.011256f, 
  -0.018481f, -0.000237f, 0.003386f, 0.013622f, -0.012088f, -0.000555f, -0.007504f, -0.000057f, 
  -0.014993f, -0.014492f, -0.012259f, -0.020977f, 0.003516f, -0.018104f, -0.008910f, -0.001718f, 
  -0.033649f, 0.006904f, 0.004922f, -0.011749f, -0.018135f, -0.011020f, -0.013659f, -0.026785f, 
  -0.022813f, -0.001232f, -0.014996f, -0.010377f, -0.008846f, -0.037377f, -0.019692f, 0.000781f, 
  -0.001618f, -0.024842f, 0.017841f, 0.016826f, -0.009045f, 0.010654f, -0.007478f, -0.016515f, 
  0.017616f, -0.003491f, 0.023822f, -0.002366f, -0.000717f, 0.010673f, 0.001929f, -0.008709f, 
  -0.019475f, -0.004970f, -0.022155f, -0.003424f, -0.027288f, -0.026034f, -0.040509f, -0.011953f, 
  -0.044721f, -0.018028f, -0.017094f, -0.007839f, -0.033510f, 0.012844f, -0.024450f, -0.018341f, 
  0.029177f, -0.013466f, 0.022021f, -0.023990f, 0.001906f, -0.007060f, -0.015596f, -0.003758f, 
  0.021599f, -0.035545f, 0.012903f, -0.031713f, -0.021831f, 0.005714f, -0.009464f, -0.033835f, 
  -0.000691f, -0.026777f, -0.007990f, -0.043786f, -0.014726f, -0.009223f, -0.019383f, -0.025782f, 
  -0.025835f, -0.015822f, -0.017117f, -0.001850f, -0.038355f, -0.009535f, -0.013253f, -0.007269f, 
  -0.008828f, 0.007281f, -0.026099f, 0.015352f, -0.022455f, -0.018042f, -0.006314f, -0.006290f, 
  -0.005978f, 0.014468f, -0.020640f, -0.012403f, -0.023982f, 0.013256f, -0.032836f, 0.002334f, 
  0.001742f, 0.002669f, -0.020157f, -0.027858f, -0.021554f, -0.022355f, -0.045105f, -0.022599f, 
  -0.027364f, 0.026854f, -0.014397f, 0.022392f, -0.006535f, -0.001587f, 0.018155f, -0.018305f, 
  -0.019651f, -0.000920f, -0.002427f, -0.002579f, 0.002858f, -0.005071f, -0.018085f, -0.008567f, 
  0.004618f, -0.021795f, -0.027955f, -0.013547f, -0.008735f, -0.027680f, -0.031874f, 0.004210f, 
  -0.025776f, -0.029582f, -0.021955f, -0.023735f, 0.008101f, -0.009272f, -0.023521f, 0.007888f, 
  0.007048f, -0.009728f, 0.003716f, 0.011180f, -0.004268f, 0.008598f, 0.000205f, 0.019507f, 
  0.000688f, -0.015052f, 0.010232f, -0.024124f, -0.034725f, 0.000447f, -0.023030f, -0.027237f, 
  0.000168f, -0.006455f, -0.039340f, 0.007194f, -0.006130f, -0.014444f, 0.013244f, 0.006674f, 
  0.006496f, 0.013554f, 0.011157f, -0.007758f, -0.000554f, 0.021412f, 0.024636f, 0.006497f, 
  0.017920f, 0.003706f, 0.012236f, 0.008751f, -0.031009f, 0.013813f, -0.000876f, 0.007117f, 
  -0.022042f, -0.015601f, 0.025744f, -0.013853f, 0.012629f, -0.019076f, 0.031403f, 0.013970f, 
  -0.025843f, -0.013943f, -0.029085f, 0.010299f, 0.020709f, 0.002627f, 0.021333f, 0.004215f, 
  0.024291f, -0.014071f, -0.022807f, 0.017291f, -0.010731f, -0.005334f, 0.000523f, 0.021873f, 
  -0.035597f, -0.011953f, 0.020715f, 0.001026f, -0.010660f, 0.019187f, -0.011908f, 0.006007f, 
  0.024400f, -0.003445f, 0.010590f, -0.009933f, -0.000937f, 0.005104f, -0.001621f, 0.013475f, 
  0.008377f, 0.000958f, 0.013750f, 0.032044f, 0.037046f, -0.006195f, 0.008774f, 0.029073f, 
  0.026899f, -0.002834f, -0.002454f, 0.001511f, -0.011580f, -0.036992f, 0.012450f, -0.023538f, 
  0.002350f, 0.029083f, -0.007597f, 0.011618f, 0.028301f, 0.010822f, -0.011841f, 0.009772f, 
  -0.006808f, 0.034152f, 0.004734f, -0.009613f, 0.018652f, 0.012739f, -0.002053f, 0.014020f, 
  0.004811f, 0.004320f, 0.005505f, -0.007930f, 0.018546f, -0.012156f, 0.012134f, 0.017839f, 
  0.016958f, -0.039200f, 0.003348f, -0.007585f, -0.006862f, 0.016082f, 0.013932f, 0.009139f, 
  -0.000376f, 0.023117f, 0.006076f, -0.011621f, 0.014668f, 0.000265f, 0.014816f, -0.008755f, 
  -0.010920f, -0.012947f, 0.018078f, 0.012138f, 0.033479f, 0.011905f, 0.034265f, 0.026488f, 
  -0.024120f, -0.002102f, -0.007300f, 0.034076f, 0.015885f, -0.026131f, -0.016166f, -0.028780f, 
  -0.019189f, 0.006407f, 0.029553f, 0.026173f, 0.009838f, 0.018928f, -0.006795f, -0.035104f, 
  -0.003419f, -0.002255f, -0.004052f, 0.022897f, 0.011210f, 0.033646f, -0.006658f, 0.032493f, 
  0.004329f, 0.011884f, 0.041972f, 0.023646f, 0.010955f, -0.003131f, -0.039994f, -0.037392f, 
  -0.006835f, -0.004604f, 0.015040f, -0.011854f, 0.005660f, 0.026876f, 0.005433f, 0.002017f, 
  -0.031691f, 0.013052f, -0.006656f, 0.033323f, -0.013772f, 0.036767f, -0.011370f, 0.003490f, 
  0.023943f, -0.001529f, 0.016867f, 0.027505f, 0.018350f, -0.002282f, 0.030010f, 0.020568f, 
  0.009246f, 0.001341f, 0.000301f, -0.010755f, -0.007951f, -0.005529f, -0.005495f, -0.013417f, 
  0.010467f, -0.010616f, -0.002643f, 0.016380f, 0.002984f, 0.009084f, -0.013756f, -0.007380f, 
  -0.010916f, 0.001470f, -0.018570f, 0.021514f, 0.027390f, -0.004624f, 0.002290f, 0.029903f, 
  -0.005590f, 0.018134f, 0.007413f, 0.021750f, -0.000662f, 0.006126f, -0.011838f, -0.034358f, 
  -0.037438f, -0.015297f, -0.015319f, -0.037385f, -0.020053f, -0.021535f, -0.023174f, 0.016508f, 
  0.016537f, -0.013623f, -0.008113f, -0.001774f, 0.002137f, 0.002114f, 0.005972f, -0.011599f, 
  0.007406f, 0.007652f, 0.033736f, -0.010434f, -0.004952f, 0.002402f, 0.008447f, -0.009750f, 
  0.028953f, 0.020155f, -0.017614f, -0.016038f, -0.021765f, 0.024600f, 0.007349f, -0.042153f, 
  -0.028299f, -0.013466f, -0.030315f, -0.004332f, -0.016025f, 0.006051f, -0.000619f, 0.008662f, 
  0.016634f, -0.004492f, -0.014791f, -0.002934f, 0.012370f, 0.023957f, 0.002469f, -0.003865f, 
  -0.023107f, 0.010165f, -0.005636f, -0.006545f, -0.007932f, 0.011976f, -0.019509f, -0.032124f, 
  -0.022801f, -0.034417f, -0.008346f, 0.006151f, -0.006539f, -0.016824f, -0.034864f, -0.011805f, 
  0.002770f, -0.003755f, 0.013498f, 0.008531f, 0.001486f, -0.018624f, -0.015681f, -0.004940f, 
  -0.017762f, 0.022829f, -0.023177f, 0.010274f, 0.031399f, 0.008761f, -0.006665f, 0.003966f, 
  0.032336f, 0.002920f, 0.008639f, -0.018529f, -0.006258f, -0.023778f, -0.010724f, -0.016608f, 
  0.001413f, -0.050625f, -0.007571f, -0.009367f, -0.001514f, 0.007951f, -0.017437f, 0.016276f, 
  -0.000797f, -0.005506f, -0.007608f, 0.021728f, -0.022669f, 0.012824f, 0.011094f, -0.032029f, 
  -0.012165f, 0.000365f, 0.002171f, 0.018955f, 0.016171f, -0.002104f, 0.003947f, -0.020371f, 
  -0.020037f, 0.005284f, -0.040076f, -0.011980f, -0.026072f, -0.000911f, -0.031639f, 0.005752f, 
  -0.018566f, -0.020421f, -0.002588f, -0.018305f, -0.006263f, -0.010280f, 0.017745f, 0.017763f, 
  0.019809f, 0.003254f, 0.002695f, -0.003083f, 0.005050f, -0.012241f, -0.000802f, 0.029313f, 
  0.033258f, 0.021877f, -0.000753f, -0.010240f, -0.036496f, -0.008232f, -0.000532f, 0.011320f, 
  -0.006468f, 0.002965f, -0.033308f, -0.017194f, -0.029182f, -0.017096f, -0.042954f, -0.014264f, 
  -0.016246f, 0.001815f, 0.018510f, 0.018993f, 0.008713f, 0.005584f, 0.030812f, -0.017139f, 
  0.003632f, -0.008407f, 0.017797f, -0.007632f, 0.030459f, -0.015947f, 0.016058f, 0.020471f, 
  -0.006454f, -0.007172f, -0.033429f, -0.040478f, -0.019829f, -0.017906f, 0.010739f, -0.015044f, 
  0.000574f, 0.006927f, -0.024122f, 0.012992f, -0.031634f, -0.016947f, -0.023031f, -0.032584f, 
  -0.001683f, 0.006396f, -0.011726f, -0.013926f, 0.002515f, -0.008750f, 0.011155f, -0.020397f, 
  -0.005876f, 0.012609f, 0.000225f, 0.001829f, -0.032920f, -0.010276f, -0.030936f, -0.002604f, 
  -0.034496f, -0.011918f, 0.001903f, 0.003529f, -0.020192f, 0.008978f, -0.014688f, 0.005341f, 
  0.015249f, -0.013404f, -0.037431f, -0.003433f, -0.039980f, -0.022393f, -0.022789f, -0.020936f, 
  -0.024024f, -0.008297f, -0.007264f, -0.032242f, -0.000861f, -0.030520f, 0.010049f, 0.003050f, 
  -0.000799f, -0.021183f, -0.026426f, 0.002995f, -0.016007f, -0.029378f, -0.014018f, -0.039295f, 
  -0.008320f, -0.022527f, 0.004744f, -0.016008f, -0.035465f, -0.017919f, -0.021341f, 0.007289f, 
  -0.009671f, 0.003892f, 0.002012f, -0.015285f, -0.020912f, -0.025242f, -0.011502f, -0.042714f, 
  0.013091f, -0.013958f, -0.024524f, 0.001760f, 0.014595f, -0.016364f, -0.011760f, -0.022384f, 
  -0.006104f, -0.046155f, 0.009710f, -0.039974f, -0.022212f, -0.014942f, -0.009297f, -0.025044f, 
  -0.015632f, 0.005196f, 0.021534f, 0.003200f, -0.018844f, 0.005860f, -0.009583f, 0.002629f, 
  -0.011023f, -0.011175f, -0.004707f, -0.007874f, 0.008103f, -0.034071f, -0.019543f, 0.011607f, 
  0.008924f, -0.010079f, 0.006053f, -0.030815f, 0.018862f, 0.005454f, -0.012121f, -0.010555f, 
  -0.008164f, -0.014567f, -0.031934f, -0.007198f, -0.034033f, 0.012149f, -0.026812f, -0.022068f, 
  0.014622f, 0.015733f, -0.037598f, 0.002797f, 0.018803f, -0.003621f, 0.000059f, -0.006073f, 
  -0.006265f, -0.005443f, -0.028196f, 0.012983f, 0.000241f, -0.024984f, 0.016445f, 0.006397f, 
  -0.034433f, -0.004505f, -0.012637f, -0.022123f, -0.004273f, -0.015551f, -0.021853f, -0.019266f, 
  0.009620f, -0.010258f, -0.018168f, 0.002770f, -0.002241f, -0.022062f, 0.019745f, -0.006265f, 
  -0.009186f, -0.001953f, -0.019278f, -0.036825f, 0.012418f, -0.021192f, 0.014436f, 0.025924f, 
  0.028936f, 0.029585f, 0.002188f, -0.012625f, 0.003185f, -0.030536f, -0.018555f, 0.001542f, 
  -0.005939f, -0.023054f, -0.025317f, -0.014497f, -0.001582f, -0.020858f, 0.007966f, -0.027545f, 
  0.003499f, -0.017865f, 0.011129f, -0.004131f, -0.005934f, 0.007634f, -0.013927f, -0.021776f, 
  -0.005805f, -0.000406f, -0.011220f, -0.028580f, -0.009826f, -0.015392f, 0.028615f, -0.010114f, 
  0.012823f, 0.001933f, -0.008087f, -0.011999f, -0.003586f, 0.010987f, 0.006969f, -0.019200f, 
  -0.024133f, -0.021816f, -0.006569f, -0.037485f, -0.017513f, 0.008789f, 0.018616f, -0.008894f, 
  0.000024f, -0.028524f, 0.013582f, 0.013871f, -0.001167f, -0.020896f, -0.008809f, -0.015680f, 
  -0.005066f, 0.016365f, 0.017199f, 0.011704f, 0.001483f, -0.005061f, 0.025241f, 0.018898f, 
  0.009519f, 0.030644f, -0.002790f, -0.046933f, 0.011426f, 0.008383f, -0.026857f, -0.023486f, 
  -0.011021f, 0.002648f, 0.000029f, -0.021888f, 0.004746f, -0.018633f, -0.007369f, 0.000321f, 
  0.010390f, 0.026944f, 0.012702f, -0.001331f, -0.004207f, 0.021705f, 0.031756f, 0.034724f, 
  -0.003514f, 0.027124f, 0.023376f, 0.027932f, 0.022302f, 0.017422f, -0.006006f, -0.005666f, 
  -0.010247f, -0.010816f, 0.002639f, 0.027990f, 0.013385f, 0.008333f, 0.001915f, -0.021011f, 
  -0.009221f, -0.021558f, -0.018781f, -0.020623f, 0.012114f, -0.013240f, 0.007902f, -0.013833f, 
  -0.010030f, -0.018066f, -0.011301f, -0.007129f, 0.005213f, 0.034069f, 0.011434f, 0.034137f, 
  0.021380f, -0.011773f, 0.028980f, 0.033091f, 0.029003f, 0.016027f, -0.026235f, 0.003616f, 
  -0.021569f, 0.003692f, -0.016130f, -0.027861f, 0.013329f, 0.005023f, 0.014619f, 0.022752f, 
  0.012991f, -0.021717f, -0.001900f, 0.016684f, 0.012869f, -0.023720f, -0.007350f, -0.015578f, 
  -0.002640f, 0.014993f, 0.012896f, 0.013116f, 0.030711f, -0.001157f, -0.011133f, 0.032748f, 
  -0.018659f, 0.001942f, -0.020914f, 0.001613f, -0.024460f, 0.005823f, -0.008161f, 0.020890f, 
  0.009066f, 0.030637f, -0.012824f, 0.008738f, 0.009572f, 0.022837f, 0.040284f, -0.005725f, 
  0.004316f, 0.022058f, 0.037701f, 0.015405f, -0.008139f, -0.020693f, -0.001943f, -0.020285f, 
  0.041588f, 0.025030f, 0.031769f, 0.024900f, 0.012690f, -0.002747f, 0.025749f, 0.008607f, 
  0.003063f, 0.007711f, 0.016526f, -0.024772f, 0.005804f, -0.021747f, -0.007507f, -0.002384f, 
  0.001373f, 0.024805f, 0.030272f, 0.023671f, -0.006327f, 0.023625f, 0.008547f, -0.001625f, 
  -0.006951f, 0.007407f, -0.005984f, -0.022479f, 0.010313f, 0.024560f, 0.013117f, 0.030859f, 
  0.021872f, 0.029152f, 0.019336f, 0.001087f, -0.002069f, -0.017989f, -0.004523f, -0.004218f, 
  -0.030811f, 0.013265f, -0.014415f, -0.018627f, 0.003139f, -0.008755f, 0.003025f, 0.027131f, 
  0.015379f, 0.009007f, -0.012325f, -0.003977f, 0.011061f, 0.011089f, 0.008295f, -0.006668f, 
  0.005243f, 0.027788f, 0.040508f, -0.010278f, 0.023617f, 0.012628f, 0.028897f, -0.026033f, 
  0.012665f, -0.010376f, -0.022392f, 0.000923f, -0.004670f, 0.011864f, -0.011073f, -0.002946f, 
  -0.003806f, 0.046821f, -0.020035f, -0.007079f, 0.011780f, -0.004992f, 0.006295f, -0.018709f, 
  -0.007918f, 0.004255f, 0.003611f, 0.003650f, -0.007255f, 0.008676f, -0.009053f, 0.013225f, 
  -0.013314f, 0.006098f, -0.021320f, -0.002920f, 0.008016f, 0.014972f, 0.030352f, 0.024040f, 
  0.017327f, -0.000016f, -0.019827f, 0.004646f, 0.015343f, -0.011952f, 0.013545f, -0.018686f, 
  0.000359f, -0.001109f, -0.011601f, -0.011729f, -0.019803f, -0.004097f, -0.003442f, -0.004669f, 
  0.008452f, 0.017611f, 0.011864f, 0.027195f, -0.038823f, 0.011619f, 0.000615f, -0.005433f, 
  -0.025494f, -0.036969f, -0.023890f, -0.016294f, -0.035903f, 0.020191f, -0.012035f, -0.005326f, 
  -0.020265f, 0.006869f, 0.024040f, 0.036762f, 0.006455f, -0.013884f, 0.028662f, -0.000439f, 
  -0.026265f, -0.004707f, 0.020700f, -0.004629f, 0.022838f, -0.007447f, -0.009216f, -0.002876f, 
  0.007448f, -0.019120f, -0.006805f, 0.006275f, 0.003244f, -0.000138f, 0.000812f, -0.030633f, 
  -0.015457f, 0.007378f, -0.010271f, -0.010502f, -0.007203f, -0.001435f, 0.022317f, 0.003974f, 
  -0.011274f, 0.000706f, 0.015633f, 0.019086f, -0.000718f, 0.015864f, 0.004825f, -0.006997f, 
  -0.011419f, -0.028096f, -0.008099f, -0.000393f, -0.003344f, -0.035844f, -0.018919f, 0.002116f, 
  -0.001936f, -0.042465f, -0.024687f, -0.016859f, -0.017934f, -0.007350f, -0.017762f, 0.006305f, 
  -0.001831f, -0.024795f, -0.016578f, 0.010872f, -0.021477f, 0.038921f, -0.000592f, 0.038753f, 
  0.005123f, -0.013319f, -0.017949f, -0.016107f, 0.013208f, -0.011048f, -0.008017f, -0.017862f, 
  0.012825f, -0.006726f, -0.000121f, -0.001923f, -0.004487f, 0.009390f, -0.024586f, 0.008857f, 
  -0.031420f, -0.015190f, -0.017248f, -0.027314f, -0.043109f, -0.021213f, 0.011609f, 0.002932f, 
  -0.026363f, -0.016715f, 0.026466f, -0.002654f, 0.032919f, 0.001947f, -0.011885f, 0.005897f, 
  0.033718f, 0.005190f, -0.018345f, -0.011849f, -0.004188f, -0.006636f, -0.014511f, -0.027478f, 
  -0.036159f, -0.022493f, -0.019908f, -0.034833f, -0.048559f, -0.018348f, -0.030309f, -0.019521f, 
  -0.000887f, 0.005795f, 0.004362f, 0.000315f, 0.023750f, -0.012872f, 0.012567f, 0.022419f, 
  0.008424f, 0.012548f, -0.005731f, -0.019920f, 0.012159f, -0.011886f, 0.016172f, -0.006727f, 
  -0.001535f, 0.029079f, 0.026941f, -0.025690f, 0.004338f, -0.020950f, 0.007174f, -0.015237f, 
  -0.023599f, -0.029441f, 0.004608f, -0.020354f, 0.001459f, 0.024550f, 0.016993f, 0.004659f, 
  -0.021835f, 0.011381f, 0.005604f, 0.022078f, -0.029242f, 0.001782f, -0.016041f, -0.013066f, 
  -0.011850f, 0.005646f, 0.000356f, 0.010996f, -0.008123f, -0.007332f, -0.000263f, 0.014428f, 
  -0.007267f, -0.019850f, 0.025483f, -0.014433f, -0.007990f, 0.008123f, -0.030895f, -0.030022f, 
  0.014103f, -0.025535f, -0.017482f, -0.025624f, 0.034755f, 0.009332f, 0.045960f, 0.011520f, 
  0.030444f, 0.021832f, 0.001315f, 0.002187f, 0.012116f, 0.010293f, -0.002191f, -0.006018f, 
  -0.037102f, 0.017480f, -0.015046f, 0.036822f, -0.016368f, -0.011549f, -0.006807f, -0.019658f, 
  0.000166f, -0.026935f, -0.015709f, -0.044390f, -0.018328f, 0.019784f, -0.009112f, 0.007634f, 
  -0.003257f, 0.004446f, 0.038303f, 0.023585f, 0.017421f, 0.002432f, 0.026622f, 0.004604f, 
  0.031444f, -0.001543f, 0.011484f, 0.003772f, -0.028465f, -0.023605f, 0.036482f, -0.004085f, 
  0.027747f, -0.002572f, 0.002869f, -0.013094f, 0.007705f, -0.004955f, -0.003892f, 0.018150f, 
  -0.004257f, 0.010330f, -0.017952f, 0.011452f, 0.016665f, 0.017648f, 0.008232f, 0.008041f, 
  0.004892f, 0.022608f, -0.022872f, -0.001188f, 0.006607f, -0.011911f, 0.011926f, 0.016731f, 
  0.011671f, 0.000523f, 0.019455f, -0.012219f, 0.010424f, -0.006606f, 0.002585f, 0.002491f, 
  -0.031756f, -0.032835f, -0.022593f, -0.019671f, -0.013461f, 0.005913f, -0.028136f, 0.024711f, 
  0.016437f, 0.040164f, 0.015530f, 0.016942f, 0.018464f, 0.026979f, -0.015164f, 0.019300f, 
  0.019390f, 0.050418f, 0.032283f, -0.021923f, 0.019982f, -0.018067f, 0.011318f, 0.020841f, 
  0.001070f, -0.018118f, -0.005348f, -0.011883f, 0.026199f, -0.014810f, 0.008444f, 0.004992f, 
  -0.017748f, -0.001091f, 0.000013f, -0.006975f, 0.016084f, 0.026675f, -0.007074f, 0.003008f, 
  0.030986f, 0.024947f, 0.030363f, 0.019291f, 0.044112f, 0.043551f, 0.000494f, -0.004031f, 
  0.022682f, -0.025383f, -0.011099f, -0.006790f, -0.015830f, -0.020910f, -0.030233f, -0.009499f, 
  0.006476f, 0.008520f, -0.042705f, 0.003544f, -0.040872f, -0.023822f, 0.002726f, 0.039909f, 
  0.012086f, 0.008700f, 0.009538f, 0.013012f, 0.021216f, 0.017836f, 0.026764f, 0.032910f, 
  0.039230f, 0.018448f, 0.028795f, -0.007262f, -0.000447f, -0.006010f, -0.001764f, 0.000787f, 
  -0.002234f, -0.021419f, 0.004554f, -0.013760f, 0.010181f, 0.016140f, 0.021251f, 0.011663f, 
  -0.026135f, -0.015530f, -0.024634f, -0.008847f, -0.013089f, 0.004180f, 0.013333f, -0.015906f, 
  0.022504f, 0.035147f, 0.015429f, 0.035874f, 0.034389f, 0.021888f, 0.027646f, -0.011344f, 
  0.014392f, 0.043325f, -0.017279f, 0.021617f, -0.004472f, -0.023358f, -0.014185f, 0.028097f, 
  -0.008276f, -0.029629f, 0.010186f, 0.007509f, 0.001157f, 0.017940f, 0.032215f, 0.005059f, 
  0.035010f, 0.019491f, -0.011677f, 0.013469f, 0.011088f, 0.029388f, 0.024912f, 0.019943f, 
  0.019788f, -0.004900f, 0.031007f, 0.031066f, -0.003698f, -0.012477f, 0.030923f, -0.023128f, 
  -0.022078f, 0.022816f, 0.001736f, 0.019904f, 0.042390f, -0.000464f, -0.020424f, 0.013824f, 
  0.038075f, 0.016883f, -0.037547f, -0.065391f, -0.042106f, -0.044527f, -0.034187f, 0.020510f, 
  -0.004693f, -0.034401f, -0.040087f, -0.006350f, 0.033527f, 0.009794f, 0.010452f, 0.026149f, 
  0.014830f, 0.004753f, 0.014565f, -0.008716f, -0.065601f, -0.004611f, 0.034395f, 0.005585f, 
  0.029545f, 0.025484f, -0.026803f, -0.091578f, -0.018861f, 0.017728f, -0.002501f, 0.005861f, 
  0.017963f, -0.032909f, 0.003538f, -0.017303f, 0.005873f, 0.011409f, -0.054411f, -0.055867f, 
  0.032431f, 0.054301f, -0.008625f, 0.057163f, 0.029949f, -0.022560f, 0.040617f, 0.033848f, 
  0.015572f, -0.017468f, -0.030217f, -0.001820f, 0.010871f, 0.005712f, 0.009734f, 0.025543f, 
  -0.030856f, -0.041211f, -0.044197f, -0.069453f, -0.033157f, 0.007880f, -0.018279f, -0.018014f, 
  -0.020132f, -0.065688f, -0.046856f, -0.037135f, -0.004196f, -0.004535f, -0.049083f, 0.025834f, 
  0.038400f, 0.030790f, -0.015632f, 0.018986f, 0.063251f, 0.052651f, -0.007302f, -0.030698f, 
  -0.048093f, -0.012610f, -0.015416f, 0.017301f, 0.013722f, -0.001704f, 0.001041f, -0.012694f, 
  -0.005255f, -0.008269f, -0.039577f, 0.022117f, 0.016556f, -0.075394f, -0.030515f, 0.000822f, 
  -0.076219f, -0.065732f, -0.044537f, -0.041458f, 0.017622f, 0.080536f, 0.082605f, 0.051592f, 
  0.039554f, 0.015152f, -0.001707f, 0.000098f, -0.016234f, 0.007238f, -0.041721f, -0.040851f, 
  0.004127f, 0.006049f, -0.004278f, 0.018234f, -0.005398f, 0.036836f, -0.009469f, -0.045728f, 
  -0.005230f, 0.036350f, 0.007764f, -0.025746f, -0.039103f, -0.069367f, -0.088364f, -0.018498f, 
  0.022763f, 0.022616f, 0.034194f, 0.008639f, 0.025385f, 0.059608f, 0.036114f, 0.024486f, 
  0.002397f, -0.045953f, 0.022472f, -0.061068f, -0.079209f, -0.026551f, 0.010726f, -0.001417f, 
  0.013521f, 0.006770f, -0.002993f, 0.022647f, 0.005796f, -0.012676f, -0.057486f, -0.032610f, 
  -0.062509f, -0.068145f, -0.076013f, -0.049027f, -0.035456f, 0.050282f, 0.014945f, 0.035781f, 
  0.010118f, -0.013353f, 0.004944f, 0.052379f, 0.024828f, -0.091909f, -0.040803f, 0.038054f, 
  0.013328f, -0.049330f, -0.068167f, 0.006719f, 0.008893f, 0.010748f, 0.043126f, 0.061054f, 
  0.071199f, 0.052270f, 0.056817f, -0.018295f, -0.042387f, -0.105019f, -0.060137f, 0.017134f, 
  0.021457f, 0.004657f, 0.003151f, 0.018994f, -0.005486f, 0.039760f, 0.048385f, -0.032806f, 
  -0.053000f, 0.005734f, -0.063240f, -0.001420f, -0.016732f, -0.019793f, 0.032731f, -0.054184f, 
  -0.004718f, -0.033813f, 0.026564f, 0.001629f, -0.028234f, -0.010961f, -0.031396f, -0.004848f, 
  -0.010471f, -0.000858f, -0.015218f, -0.057920f, 0.060325f, 0.042226f, 0.025120f, 0.079028f, 
  0.053836f, 0.039570f, 0.029842f, -0.019310f, -0.032819f, -0.080904f, -0.012456f, 0.004221f, 
  -0.031831f, -0.049441f, -0.009452f, 0.013178f, 0.022157f, -0.052188f, -0.074579f, 0.024436f, 
  -0.013231f, -0.074588f, -0.058187f, -0.037762f, -0.058461f, -0.011595f, -0.057908f, -0.030991f, 
  -0.002186f, -0.028154f, 0.010313f, 0.065548f, 0.121544f, 0.103588f, 0.093563f, 0.050611f, 
  -0.001966f, 0.021024f, 0.016126f, -0.013500f, 0.020093f, 0.016241f, 0.017035f, -0.000936f, 
  -0.056950f, -0.030897f, -0.056292f, -0.024271f, -0.002240f, -0.031585f, 0.000607f, -0.055141f, 
  -0.044025f, -0.021504f, -0.030975f, -0.085535f, 0.009286f, 0.013750f, -0.045614f, -0.038277f, 
  0.015068f, 0.083944f, 0.066875f, 0.086043f, 0.072245f, 0.008057f, -0.037596f, 0.013918f, 
  -0.011590f, -0.091291f, 0.005284f, 0.078201f, 0.108764f, 0.003564f, -0.045349f, -0.070610f, 
  -0.034076f, -0.007807f, -0.023039f, 0.007519f, 0.004154f, -0.060199f, -0.010451f, -0.064749f, 
  -0.102891f, -0.007749f, 0.021856f, -0.053846f, -0.048333f, -0.045323f, 0.006136f, 0.053749f, 
  0.049304f, 0.064390f, 0.000773f, -0.017315f, 0.038421f, 0.028181f, -0.081219f, -0.031700f, 
  0.073820f, 0.055458f, 0.025180f, -0.011821f, -0.068054f, -0.042040f, -0.123500f, -0.079873f, 
  -0.085102f, -0.051120f, -0.029755f, -0.023750f, -0.058408f, -0.049298f, -0.040127f, -0.003479f, 
  -0.034625f, -0.034800f, -0.042349f, 0.037580f, 0.046661f, 0.004558f, 0.022056f, -0.013742f, 
  0.045514f, 0.075767f, 0.014976f, -0.034514f, 0.006658f, -0.080219f, -0.126893f, -0.030307f, 
  -0.003432f, -0.006054f, -0.034075f, -0.051084f, -0.033970f, -0.062547f, -0.081835f, -0.057594f, 
  -0.046401f, -0.023283f, -0.018586f, 0.029578f, 0.033998f, -0.057495f, -0.019660f, 0.045203f, 
  -0.001770f, -0.009517f, -0.016398f, 0.024472f, 0.005170f, -0.025795f, 0.011657f, 0.026814f, 
  0.000861f, -0.019966f, -0.065392f, -0.067536f, -0.015819f, -0.041542f, -0.091712f, -0.050377f, 
  -0.060871f, -0.030690f, -0.057572f, -0.076519f, -0.091595f, -0.040735f, -0.045371f, -0.034080f, 
  0.020272f, -0.039700f, -0.097388f, -0.056158f, 0.061815f, 0.031321f, -0.088375f, -0.107360f, 
  -0.029174f, 0.053131f, -0.001084f, 0.010271f, 0.011340f, -0.008866f, -0.099395f, -0.068548f, 
  -0.024259f, -0.022162f, -0.061913f, -0.042414f, -0.052764f, -0.054921f, -0.064237f, -0.051114f, 
  -0.048308f, -0.050577f, 0.041358f, -0.025554f, -0.069505f, -0.126038f, -0.119467f, -0.061793f, 
  -0.073282f, -0.028917f, 0.015163f, -0.047130f, -0.031612f, -0.016851f, -0.016710f, 0.015993f, 
  0.039657f, 0.031902f, -0.100636f, -0.043654f, -0.060072f, -0.067953f, -0.117297f, -0.068397f, 
  -0.027635f, -0.084475f, -0.092547f, -0.075924f, -0.091578f, -0.033127f, -0.013843f, -0.062443f, 
  -0.085921f, -0.101358f, -0.107005f, -0.099861f, -0.068952f, -0.055149f, -0.088268f, -0.068247f, 
  -0.025879f, 0.015910f, 0.036526f, 0.043832f, -0.010043f, 0.025127f, 0.033430f, 0.023929f, 
  -0.053413f, -0.069163f, -0.002767f, -0.026842f, -0.061075f, -0.054713f, -0.099493f, -0.059454f, 
  -0.063132f, -0.039377f, -0.046393f, -0.084856f, -0.129388f, -0.106052f, -0.091106f, -0.077889f, 
  -0.071799f, -0.159017f, -0.121269f, -0.080198f, 0.026189f, 0.026363f, 0.033319f, 0.087954f, 
  0.017611f, 0.032697f, 0.020250f, 0.032173f, -0.017787f, -0.032301f, -0.049189f, -0.051173f, 
  -0.025818f, 0.009595f, -0.029435f, -0.048374f, -0.090920f, -0.072801f, -0.082869f, -0.007428f, 
  -0.015617f, -0.053458f, -0.073802f, -0.063353f, -0.022143f, -0.062226f, -0.081839f, -0.025354f, 
  -0.010494f, 0.042371f, 0.006513f, 0.007979f, 0.004473f, 0.014245f, 0.019270f, 0.039219f, 
  -0.040143f, -0.045183f, 0.017239f, 0.034098f, -0.021916f, -0.055433f, -0.037007f, 0.010719f, 
  -0.052920f, 0.002451f, 0.017237f, -0.054606f, -0.067249f, -0.046629f, -0.027003f, -0.084449f, 
  -0.074466f, -0.047147f, -0.039685f, -0.022050f, 0.013658f, 0.044969f, 0.029949f, 0.025459f, 
  -0.005045f, -0.061660f, -0.059029f, 0.013611f, 0.005905f, -0.013327f, -0.044419f, 0.015022f, 
  -0.006348f, 0.042008f, -0.031497f, -0.031140f, -0.002230f, -0.041277f, -0.025255f, 0.013099f, 
  -0.066022f, -0.067106f, -0.079041f, -0.056148f, -0.078163f, -0.078427f, -0.025230f, 0.022742f, 
  0.095579f, 0.050614f, 0.034440f, 0.053887f, 0.086974f, 0.016798f, -0.028425f, -0.056815f, 
  -0.047902f, -0.048954f, 0.007813f, -0.025136f, -0.045713f, -0.048591f, -0.021779f, -0.005557f, 
  -0.012888f, -0.017445f, -0.009071f, -0.017586f, 0.000869f, 0.010609f, -0.010121f, -0.010152f, 
  -0.039835f, -0.047495f, 0.025064f, 0.059265f, 0.059986f, 0.130530f, 0.122363f, 0.099590f, 
  0.053268f, 0.040617f, 0.033944f, 0.031716f, 0.077209f, -0.012354f, -0.029836f, -0.021057f, 
  -0.019474f, -0.075607f, -0.011627f, -0.027721f, -0.020252f, 0.041308f, -0.008008f, -0.006901f, 
  -0.005104f, 0.024822f, 0.015589f, 0.019812f, 0.002513f, 0.015875f, -0.011614f, 0.051465f, 
  0.070819f, 0.062224f, 0.049567f, 0.055747f, 0.034878f, 0.022700f, 0.011918f, -0.006442f, 
  0.000308f, 0.064681f, -0.011999f, -0.052355f, -0.017619f, 0.053024f, 0.062150f, 0.001539f, 
  -0.018399f, 0.044980f, 0.036541f, -0.018677f, 0.004165f, -0.008428f, -0.063774f, -0.051883f, 
  -0.006183f, 0.041448f, 0.067150f, 0.030147f, 0.031011f, 0.040311f, 0.083579f, 0.052769f, 
  -0.012253f, -0.050770f, -0.029965f, -0.006189f, 0.031107f, -0.003987f, -0.003708f, -0.020711f, 
  -0.019324f, -0.021343f, -0.021712f, 0.002069f, 0.008712f, 0.042452f, 0.001622f, 0.064949f, 
  -0.007219f, -0.026163f, -0.058154f, -0.121966f, -0.066380f, 0.039408f, 0.051536f, 0.024975f, 
  0.028527f, 0.016178f, 0.033008f, 0.066856f, 0.054106f, 0.060057f, 0.006368f, -0.045169f, 
  -0.054313f, -0.007761f, -0.005577f, -0.040717f, -0.073764f, 0.004894f, 0.030335f, -0.023180f, 
  -0.022457f, 0.047926f, 0.043041f, -0.007820f, -0.013675f, -0.003411f, -0.005275f, 0.029869f, 
  -0.011126f, -0.006934f, 0.019108f, 0.036031f, 0.006215f, 0.005477f, 0.044278f, 0.022328f, 
  0.035878f, 0.026417f, 0.012589f, 0.027104f, 0.000050f, -0.023785f, -0.041638f, -0.019801f, 
  -0.070040f, -0.045861f, 0.050686f, 0.019538f, -0.068699f, -0.007297f, 0.000909f, -0.035284f, 
  0.058566f, -0.011466f, -0.033002f, 0.011596f, 0.052259f, 0.059475f, 0.032608f, 0.014731f, 
  -0.007822f, -0.009085f, 0.038599f, 0.055784f, 0.026367f, 0.005621f, -0.016149f, -0.009354f, 
  -0.029432f, -0.005548f, 0.028705f, 0.036195f, 0.017021f, -0.020215f, 0.060151f, 0.052491f, 
  0.007014f, 0.002537f, -0.029291f, -0.025437f, -0.019823f, -0.034008f, 0.010274f, 0.007896f, 
  -0.003262f, 0.008988f, 0.022806f, 0.049150f, 0.018760f, -0.036983f, 0.012542f, 0.033665f, 
  0.003339f, 0.013558f, 0.007362f, -0.011081f, 0.007857f, -0.046057f, -0.054417f, -0.005764f, 
  0.024722f, -0.009279f, -0.007765f, -0.004003f, 0.027092f, 0.012418f, -0.006125f, 0.049796f, 
  0.025176f, 0.081228f, 0.005946f, 0.038328f, 0.031496f, 0.013622f, -0.004630f, 0.016322f, 
  -0.040211f, 0.020822f, -0.002396f, -0.032555f, 0.032524f, 0.033992f, 0.005462f, -0.011901f, 
  -0.049121f, 0.000128f, -0.003233f, -0.001962f, -0.041123f, -0.044907f, -0.063536f, -0.078692f, 
  -0.053546f, -0.012712f, 0.019984f, -0.035687f, -0.018041f, 0.039400f, 0.018464f, 0.008805f, 
  -0.001707f, 0.027641f, -0.031547f, -0.009990f, -0.006342f, -0.027871f, 0.109450f, 0.059611f, 
  0.052229f, 0.053401f, 0.085858f, -0.011270f, -0.018132f, -0.014172f, -0.022991f, -0.045184f, 
  0.025179f, -0.015074f, -0.059287f, -0.048099f, -0.010150f, 0.011955f, -0.045883f, -0.027335f, 
  0.018509f, 0.007232f, -0.006189f, -0.000677f, 0.005611f, -0.000103f, -0.000980f, 0.009922f, 
  0.004567f, 0.019093f, 0.034725f, -0.016460f, -0.005005f, -0.004508f, -0.011190f, 0.010913f, 
  0.038954f, -0.031388f, 0.021447f, -0.002398f, 0.016007f, -0.005897f, -0.004243f, -0.019981f, 
  -0.026580f, 0.006437f, 0.023071f, 0.034797f, -0.008917f, 0.023127f, 0.011372f, -0.004346f, 
  0.025176f, 0.026274f, 0.007132f, -0.026014f, 0.006654f, -0.016830f, -0.001070f, 0.002067f, 
  -0.017025f, -0.012342f, -0.012413f, -0.010901f, 0.007807f, -0.015845f, 0.018117f, -0.027686f, 
  -0.003301f, 0.016829f, 0.017918f, -0.041108f, 0.008380f, 0.017160f, -0.014092f, 0.029114f, 
  -0.000020f, 0.032321f, -0.024324f, -0.000206f, -0.014196f, -0.007195f, -0.005995f, 0.020540f, 
  0.029999f, 0.005572f, -0.011442f, -0.013210f, 0.029256f, 0.014897f, 0.007565f, 0.005138f, 
  0.011761f, 0.025131f, -0.014427f, 0.024330f, 0.021080f, -0.000956f, -0.030587f, -0.005883f, 
  -0.007545f, -0.019808f, 0.021890f, 0.013657f, 0.022255f, 0.005568f, 0.012771f, -0.037065f, 
  -0.017922f, 0.009925f, -0.020111f, 0.015812f, -0.014832f, 0.005104f, 0.027845f, 0.021579f, 
  0.052269f, 0.017157f, 0.028065f, 0.048281f, 0.052154f, 0.007075f, -0.019013f, 0.021866f, 
  -0.025248f, -0.009722f, 0.011128f, 0.004260f, -0.006982f, -0.007325f, 0.012382f, -0.015665f, 
  0.031359f, 0.026628f, 0.007320f, 0.005064f, -0.005944f, -0.024528f, -0.004083f, -0.006462f, 
  -0.020797f, 0.013160f, -0.031052f, 0.035491f, 0.049679f, 0.034240f, 0.057214f, 0.018383f, 
  0.028529f, 0.029217f, 0.017202f, 0.034936f, -0.027660f, -0.032448f, -0.039328f, -0.021052f, 
  -0.036236f, -0.006268f, 0.018148f, 0.014508f, 0.002924f, 0.011367f, 0.001355f, 0.007235f, 
  0.014274f, 0.008795f, -0.010208f, 0.006585f, 0.024090f, -0.001921f, 0.007487f, 0.030046f, 
  0.017379f, 0.076785f, 0.042791f, 0.036125f, 0.017095f, 0.048541f, -0.028707f, -0.052718f, 
  -0.007364f, -0.013049f, -0.031864f, -0.051803f, 0.000259f, -0.036732f, -0.000684f, 0.001040f, 
  0.006487f, 0.018933f, 0.010536f, -0.011061f, 0.013416f, -0.032885f, -0.010059f, 0.009440f, 
  0.033309f, -0.007557f, -0.018947f, 0.027888f, 0.054519f, 0.062874f, 0.012950f, 0.028968f, 
  0.019747f, -0.029249f, -0.015760f, -0.016692f, -0.014179f, -0.045822f, -0.043768f, -0.089072f, 
  0.011835f, -0.021238f, -0.007812f, -0.028206f, -0.014844f, 0.011729f, 0.000565f, 0.026911f, 
  0.001145f, 0.028351f, 0.029942f, -0.004692f, -0.016332f, 0.022465f, -0.029269f, 0.036781f, 
  0.063382f, 0.068087f, 0.066914f, 0.013144f, -0.030852f, 0.003834f, -0.010016f, -0.063233f, 
  -0.027691f, -0.013644f, 0.004907f, -0.033008f, -0.037913f, -0.036822f, -0.061122f, -0.021779f, 
  0.012069f, -0.009499f, -0.032767f, -0.021506f, -0.008173f, 0.000686f, 0.016361f, 0.000003f, 
  0.024667f, 0.018198f, 0.003387f, 0.010882f, 0.015931f, 0.028725f, 0.022776f, 0.007088f, 
  0.025713f, -0.035717f, 0.025166f, 0.014775f, 0.001597f, 0.017178f, -0.055504f, -0.025939f, 
  -0.043512f, -0.020559f, -0.008148f, -0.016416f, -0.031342f, -0.006613f, -0.004511f, 0.007912f, 
  -0.004259f, -0.001219f, 0.042570f, -0.008001f, 0.048559f, 0.021135f, 0.000252f, -0.015006f, 
  0.017751f, 0.076323f, 0.040225f, 0.017650f, -0.015726f, -0.002896f, 0.025033f, 0.020571f, 
  0.004389f, -0.011835f, -0.016181f, -0.000737f, -0.059512f, -0.010472f, 0.011008f, -0.017872f, 
  -0.006694f, -0.023072f, -0.023210f, 0.021295f, -0.002177f, -0.012868f, 0.008737f, 0.002943f, 
  -0.009282f, 0.010693f, 0.034053f, -0.005661f, 0.035167f, 0.003848f, 0.049881f, 0.063268f, 
  0.008779f, -0.007216f, 0.012735f, 0.038455f, 0.056432f, -0.035456f, -0.025632f, -0.042173f, 
  -0.012262f, -0.023383f, -0.011470f, -0.064153f, -0.032490f, -0.041146f, -0.026334f, -0.054676f, 
  -0.016539f, -0.010117f, 0.004695f, 0.024213f, -0.013585f, -0.015546f, 0.022978f, 0.008763f, 
  -0.007685f, 0.020272f, 0.029950f, 0.041502f, 0.008697f, 0.005402f, 0.004414f, -0.006865f, 
  0.000128f, -0.031339f, -0.032358f, -0.042457f, -0.048013f, -0.029542f, -0.015022f, -0.027588f, 
  -0.038870f, -0.052235f, -0.044783f, -0.089421f, -0.037116f, -0.008530f, -0.023049f, 0.055400f, 
  0.014523f, -0.031568f, 0.037401f, 0.004796f, 0.010638f, 0.031987f, 0.018470f, 0.063603f, 
  0.011533f, 0.013796f, -0.010791f, -0.008122f, 0.039247f, 0.054487f, -0.030293f, -0.025743f, 
  -0.035231f, -0.019656f, -0.056184f, -0.031549f, 0.004207f, -0.023524f, -0.092867f, -0.079304f, 
  -0.050248f, 0.035457f, -0.020743f, -0.044575f, 0.023865f, -0.012109f, -0.013147f, 0.000390f, 
  0.023365f, 0.042943f, 0.002644f, 0.056478f, 0.021200f, 0.004896f, -0.027679f, -0.012214f, 
  0.020953f, 0.001232f, -0.007011f, -0.013788f, -0.061648f, -0.046954f, -0.031958f, -0.005064f, 
  -0.051609f, -0.054530f, -0.061553f, -0.073476f, -0.102203f, -0.028009f, -0.006308f, -0.024904f, 
  0.006346f, 0.020313f, -0.011627f, 0.001917f, 0.037162f, 0.008742f, 0.003833f, 0.034105f, 
  0.011576f, 0.016710f, 0.061236f, -0.016409f, -0.034745f, -0.019791f, 0.024765f, -0.011095f, 
  -0.056576f, -0.032997f, -0.036056f, -0.036437f, -0.106806f, -0.094130f, -0.081205f, -0.125587f, 
  -0.123228f, -0.070888f, -0.008568f, -0.012791f, -0.031737f, 0.021551f, -0.008619f, -0.001677f, 
  0.020644f, -0.022274f, -0.007278f, -0.013806f, 0.014101f, 0.021474f, 0.019410f, -0.017231f, 
  0.009278f, 0.000362f, -0.023888f, -0.027385f, -0.052546f, -0.101929f, -0.117833f, -0.109119f, 
  -0.047028f, -0.083743f, -0.110716f, -0.129772f, -0.133996f, -0.104093f, -0.026830f, 0.000102f, 
  -0.000366f, -0.023838f, -0.021401f, -0.035331f, -0.027806f, -0.006791f, 0.021605f, 0.003736f, 
  0.030525f, -0.031441f, -0.010305f, -0.002185f, 0.032894f, 0.016502f, -0.000257f, -0.002675f, 
  -0.067660f, -0.092429f, -0.048021f, -0.034769f, -0.111787f, -0.092978f, -0.097874f, -0.092395f, 
  -0.077016f, -0.103316f, -0.091233f, -0.025459f, -0.006331f, -0.009665f, -0.008179f, -0.012486f, 
  0.011631f, 0.019604f, 0.005268f, 0.007918f, -0.015201f, -0.022462f, 0.000086f, 0.024170f, 
  -0.018861f, -0.038032f, -0.010299f, 0.023047f, -0.015262f, -0.037079f, -0.091035f, -0.053617f, 
  -0.036554f, -0.047093f, -0.105551f, -0.079899f, -0.090019f, -0.082429f, -0.072164f, -0.037461f, 
  -0.039675f, 0.001801f, -0.006233f, 0.018099f, 0.007414f, 0.017336f, 0.013051f, -0.020963f, 
  0.015685f, -0.002520f, -0.007109f, -0.001853f, -0.019375f, 0.005962f, 0.033925f, -0.021855f, 
  -0.050854f, -0.023595f, -0.037121f, -0.023684f, -0.075922f, -0.067961f, -0.095749f, -0.086349f, 
  -0.088881f, -0.070658f, -0.095420f, -0.065784f, -0.062288f, 0.020463f, 0.020178f, 0.015514f, 
  0.037117f, -0.006054f, -0.015454f, 0.035577f, 0.024061f, -0.006891f, 0.006561f, 0.010834f, 
  0.002111f, 0.026074f, 0.009240f, -0.002188f, 0.024125f, -0.022938f, -0.026664f, -0.078051f, 
  -0.058243f, -0.067528f, -0.032854f, -0.096690f, -0.068745f, -0.089678f, -0.116040f, -0.063443f, 
  -0.063411f, -0.021530f, -0.008116f, 0.008069f, -0.017338f, 0.009152f, -0.002589f, 0.014254f, 
  0.010871f, 0.001793f, 0.017991f, 0.009173f, -0.010523f, 0.018301f, -0.033041f, 0.014517f, 
  0.024975f, 0.000836f, -0.016503f, -0.023137f, -0.020262f, -0.088787f, -0.065543f, -0.071750f, 
  -0.087719f, -0.037854f, -0.032264f, -0.064323f, -0.033467f, -0.003984f, 0.009867f, -0.005560f, 
  0.004225f, 0.063067f, 0.029893f, 0.010202f, -0.013792f, -0.009446f, -0.004460f, -0.002184f, 
  0.004308f, 0.009022f, 0.037830f, 0.014634f, 0.055448f, 0.024575f, 0.038053f, -0.009595f, 
  -0.013973f, -0.003545f, -0.029319f, -0.022598f, -0.023735f, -0.047701f, -0.077276f, -0.050376f, 
  -0.034649f, -0.024329f, -0.059788f, 0.013716f, 0.019776f, 0.055682f, 0.039090f, 0.044879f, 
  0.043576f, 0.049328f, 0.009775f, 0.031512f, 0.004546f, -0.002587f, 0.021359f, 0.009048f, 
  0.037228f, 0.017034f, -0.020590f, -0.026754f, 0.022305f, 0.023859f, -0.054642f, -0.004410f, 
  0.009836f, -0.037455f, -0.044408f, -0.049002f, -0.073528f, -0.068972f, -0.021803f, -0.007822f, 
  0.026258f, 0.028180f, 0.053262f, 0.017113f, 0.042188f, 0.001268f, 0.012434f, 0.025536f, 
  0.005786f, 0.042009f, 0.019021f, 0.003767f, 0.009046f, 0.020154f, 0.019268f, 0.016875f, 
  -0.013196f, -0.006991f, 0.018461f, -0.019479f, -0.045403f, -0.025909f, 0.017205f, -0.019235f, 
  -0.073251f, -0.045299f, 0.006381f, -0.023027f, 0.039857f, 0.030732f, 0.026944f, 0.034247f, 
  0.046654f, -0.026440f, 0.032849f, 0.022722f, 0.001744f, -0.000003f, 0.031532f, -0.022633f, 
  0.016065f, -0.020630f, 0.014140f, 0.004912f, 0.037378f, -0.010270f, 0.003118f, 0.018292f, 
  0.006576f, -0.008310f, -0.029695f, -0.014284f, 0.003776f, 0.018001f, -0.007373f, -0.000469f, 
  -0.000635f, 0.007768f, 0.006732f, -0.004575f, 0.045298f, 0.039240f, 0.013764f, 0.035294f, 
  -0.017469f, 0.014780f, 0.002323f, 0.025072f, 0.006429f, 0.012141f, 0.015592f, -0.041627f, 
  0.030006f, 0.033389f, -0.012004f, 0.004180f, 0.017904f, -0.006407f, -0.005181f, 0.016191f, 
  -0.029642f, -0.026013f, -0.029925f, 0.016814f, 0.017254f, 0.047477f, 0.019981f, 0.043484f, 
  0.008164f, -0.001094f, 0.007361f, 0.002921f, 0.002419f, 0.002401f, 0.035961f, 0.015701f, 
  0.024667f, -0.009421f, -0.021065f, 0.030507f, 0.003502f, 0.036652f, 0.033539f, -0.023782f, 
  -0.046083f, -0.009934f, 0.005335f, -0.015948f, 0.011030f, 0.000739f, 0.007210f, 0.000073f, 
  0.019076f, 0.021147f, 0.046783f, 0.009418f, 0.003150f, 0.006712f, 0.036789f, 0.011188f, 
  0.021639f, 0.007101f, 0.006140f, -0.019860f, 0.007904f, 0.024390f, -0.028149f, 0.007625f, 
  0.015716f, 0.019652f, 0.000304f, -0.024890f, 0.037370f, -0.023590f, 0.010611f, 0.014262f, 
  -0.001959f, -0.014763f, 0.001633f, -0.018353f, 0.050125f, 0.027322f, 0.016280f, -0.004182f, 
  0.008128f, 0.000899f, 0.000231f, 0.017999f, 0.015250f, -0.018248f, 0.000821f, -0.010676f, 
  0.008311f, -0.010628f, -0.003503f, 0.025367f, -0.037256f, -0.000365f, 0.015607f, -0.018988f, 
  -0.013569f, -0.003143f, -0.000466f, 0.025466f, -0.018755f, -0.004331f, 0.007656f, 0.011529f, 
  0.010046f, 0.049115f, 0.022523f, 0.012409f, 0.008363f, 0.025964f, 0.028560f, 0.008493f, 
  0.015731f, -0.014548f, 0.040585f, 0.009612f, 0.002567f, 0.012188f, 0.005199f, -0.011329f, 
  0.030002f, 0.027237f, -0.004086f, 0.008279f, -0.005640f, 0.034210f, -0.003215f, 0.018663f, 
  0.005652f, 0.017801f, -0.016243f, -0.016872f, -0.011069f, -0.002786f, 0.012440f, 0.029645f, 
  0.001350f, -0.005471f, -0.005952f, 0.014655f, 0.019996f, 0.019619f, 0.000895f, 0.012298f, 
  0.005876f, 0.006835f, 0.009093f, -0.002620f, 0.013503f, -0.001611f, -0.006361f, 0.026942f, 
  -0.004126f, 0.003797f, 0.011219f, -0.004613f, 0.023360f, -0.018125f, 0.007487f, -0.006214f, 
  0.014858f, -0.008120f, 0.004303f, 0.027274f, 0.026322f, 0.010686f, 0.033990f, -0.007993f, 
  -0.008096f, 0.007646f, 0.003410f, 0.008244f, 0.023675f, -0.010487f, 0.025852f, 0.003786f, 
  0.029037f, -0.015239f, 0.020854f, -0.004188f, 0.003029f, 0.002677f, 0.019544f, 0.029088f, 
  -0.005695f, 0.003893f, 0.014675f, 0.007101f, 0.043557f, -0.002071f, -0.011682f, 0.015614f, 
  0.006892f, 0.003610f, 0.013162f, 0.038163f, 0.025659f, -0.005689f, 0.004412f, -0.003610f, 
  -0.007398f, -0.013192f, 0.017978f, 0.014602f, 0.006914f, -0.002578f, 0.008766f, 0.026831f, 
  -0.010095f, -0.003705f, 0.005719f, 0.020904f, 0.022323f, 0.012530f, 0.011261f, -0.011691f, 
  -0.003349f, 0.014426f, -0.008383f, 0.005691f, -0.002862f, -0.022566f, 0.005099f, 0.027645f, 
  -0.001440f, 0.025432f, -0.001465f, 0.010830f, -0.009846f, 0.001888f, -0.005979f, 0.010939f, 
  0.014167f, 0.007759f, -0.009227f, -0.001672f, 0.023116f, -0.015133f, -0.011187f, 0.003349f, 
  -0.016896f, 0.007507f, 0.018158f, 0.022279f, 0.016324f, -0.006948f, 0.011383f, -0.008321f, 
  -0.025225f, -0.009568f, -0.014948f, -0.020046f, 0.020942f, 0.007845f, 0.019048f, 0.017544f, 
  0.032741f, 0.033164f, 0.040544f, 0.000247f, 0.012032f, 0.012590f, 0.018344f, 0.009026f, 
  0.028637f, 0.034629f, 0.018934f, -0.009832f, 0.008605f, -0.011676f, -0.022873f, 0.036003f, 
  -0.023573f, -0.023330f, 0.002012f, -0.018177f, -0.013130f, -0.020944f, -0.026963f, 0.012009f, 
  -0.006640f, -0.014512f, -0.001298f, -0.018013f, 0.031538f, 0.020563f, 0.016276f, -0.002766f, 
  0.009725f, 0.019523f, 0.000322f, -0.003879f, -0.007761f, -0.025387f, 0.017396f, 0.002505f, 
  0.020892f, -0.003793f, 0.033644f, 0.022358f, 0.008189f, -0.009532f, -0.039079f, -0.033496f, 
  -0.003887f, -0.038381f, -0.026164f, -0.027961f, 0.004341f, -0.035649f, 0.000692f, -0.017095f, 
  0.019963f, 0.010457f, 0.007268f, 0.035597f, 0.004763f, 0.007772f, 0.000701f, -0.013315f, 
  0.012126f, 0.006656f, -0.002721f, -0.014624f, 0.017090f, -0.008102f, -0.005920f, 0.028277f, 
  -0.002844f, -0.007460f, -0.027263f, -0.019268f, -0.023478f, -0.005149f, -0.004039f, -0.034642f, 
  0.001795f, -0.001798f, -0.009039f, -0.040020f, 0.015264f, 0.024791f, -0.010380f, -0.004690f, 
  0.020284f, -0.013322f, 0.034871f, 0.016264f, 0.007956f, -0.011015f, 0.007475f, 0.025219f, 
  -0.028840f, 0.009740f, 0.006531f, 0.017157f, -0.000689f, -0.008346f, -0.003191f, -0.004946f, 
  -0.016525f, -0.013286f, -0.014359f, -0.014218f, -0.015515f, 0.014949f, -0.028855f, 0.002637f, 
  -0.034605f, -0.021737f, -0.017710f, 0.007074f, -0.008337f, -0.000727f, 0.020233f, -0.007333f, 
  -0.007625f, 0.000493f, 0.006917f, 0.001679f, -0.007635f, -0.011337f, -0.008176f, -0.000957f, 
  0.034463f, -0.014445f, -0.032757f, -0.029706f, -0.006954f, -0.013186f, -0.037311f, -0.033675f, 
  -0.019189f, -0.039336f, -0.036273f, -0.029424f, -0.028814f, -0.030070f, -0.030708f, -0.033611f, 
  0.025623f, -0.000763f, -0.007255f, 0.018830f, 0.010863f, 0.016561f, -0.014509f, -0.014297f, 
  0.000970f, 0.021052f, -0.000478f, -0.001318f, -0.002275f, 0.035807f, -0.001256f, -0.008459f, 
  -0.030951f, -0.008465f, 0.016821f, -0.020246f, -0.033917f, -0.045834f, -0.035283f, -0.021134f, 
  -0.023050f, -0.002520f, 0.015491f, -0.012899f, -0.041533f, 0.020460f, -0.011668f, 0.010695f, 
  -0.020875f, 0.014123f, 0.023923f, -0.011651f, -0.001409f, 0.003241f, 0.005973f, -0.014175f, 
  -0.005967f, -0.017431f, -0.004035f, -0.026124f, 0.008842f, -0.036065f, -0.031849f, -0.023586f, 
  -0.037854f, -0.059221f, -0.051088f, -0.058032f, -0.041824f, -0.026938f, -0.040312f, -0.005724f, 
  0.013160f, -0.013746f, 0.016377f, -0.014842f, 0.024308f, 0.020098f, 0.002125f, -0.001228f, 
  0.007327f, 0.005190f, -0.016698f, 0.011437f, 0.004639f, 0.008917f, 0.009213f, -0.015463f, 
  -0.001349f, -0.028864f, -0.020620f, 0.001347f, -0.045615f, -0.017395f, -0.030788f, -0.017127f, 
